{"version": "0.5.2", "metadata": {"date": {"year": 2023, "month": 7, "day": 31, "hour": 23, "minute": 4, "second": 31}, "loudness": -15.155366897583008, "gain": 0.031379634436960006}, "architecture": "WaveNet", "config": {"layers": [{"input_size": 1, "condition_size": 1, "head_size": 8, "channels": 16, "kernel_size": 3, "dilations": [1, 2, 4, 8, 16, 32, 64, 128, 256, 512], "activation": "Tanh", "gated": false, "head_bias": false}, {"input_size": 16, "condition_size": 1, "head_size": 1, "channels": 8, "kernel_size": 3, "dilations": [1, 2, 4, 8, 16, 32, 64, 128, 256, 512], "activation": "Tanh", "gated": false, "head_bias": true}], "head": null, "head_scale": 0.02}, "weights": [0.008132887072861195, 0.5915054678916931, -0.8077282309532166, -0.6869188547134399, -0.35367316007614136, 0.18781743943691254, 0.007720077410340309, 0.7559839487075806, -0.11754080653190613, 0.266364723443985, -0.27872228622436523, -0.10905058681964874, -0.9744924902915955, -0.7233055233955383, -0.4079204797744751, 0.008757177740335464, -0.03185264393687248, 0.015222075395286083, -0.24322089552879333, -0.04842877760529518, 0.09516796469688416, 0.06062792241573334, -0.045263051986694336, 0.06613081693649292, 0.03397303819656372, -0.0002269041578983888, 0.08821972459554672, -0.07737678289413452, -0.10269849002361298, -0.07377928495407104, 0.003438003361225128, 0.13915346562862396, -0.052611980587244034, -0.1210743710398674, -0.06144292280077934, -0.09543779492378235, 0.01729097217321396, 0.13950467109680176, 0.10586455464363098, 0.013186848722398281, 0.011577790603041649, -0.0985141471028328, 0.10368655622005463, -0.1251620054244995, -0.06849783658981323, -0.1367209255695343, 0.08026351034641266, 0.046519603580236435, -0.003360759001225233, -0.01557190716266632, 0.05410424619913101, 0.19621193408966064, 0.04146900400519371, -0.02280714176595211, 0.15406998991966248, -0.09940601140260696, -0.01441286876797676, -0.05258944258093834, -0.11220084130764008, -0.11303729563951492, 0.12548820674419403, 0.02182912267744541, -0.1437901109457016, 0.00726501876488328, 0.11627323180437088, 0.08255817741155624, -0.035150472074747086, 0.11226222664117813, 0.245235875248909, 0.10754305124282837, -0.19452692568302155, -0.2124813199043274, 0.08079946786165237, 0.03931243717670441, -0.030931010842323303, 0.15498818457126617, -0.04838789254426956, -0.277964323759079, 0.04280342161655426, -0.0076023587025702, 0.024260662496089935, 0.10610684007406235, 0.0336650051176548, -0.2599714398384094, 0.052416443824768066, 0.0584435798227787, 0.13506115972995758, -0.09015928208827972, -0.004597533494234085, -0.22357378900051117, 0.1015491634607315, 0.1441865712404251, 0.2507641911506653, 0.019109973683953285, -0.21686404943466187, -0.24384267628192902, 0.10545477271080017, -0.023551801219582558, -0.2411898374557495, -0.03323175758123398, 0.05191803723573685, -0.0630122646689415, -0.03914499282836914, -0.11833183467388153, -0.2963469624519348, 0.02324783429503441, -0.1875430941581726, -0.2666028141975403, 0.019877688959240913, 0.07974456995725632, -0.03730794042348862, 0.18962401151657104, -0.1353912055492401, 0.10807574540376663, -0.043084703385829926, -0.1257776916027069, 0.020890885964035988, -0.10259391367435455, 0.022139422595500946, -0.022808071225881577, 0.1607535183429718, 0.01088107842952013, -0.12705586850643158, 0.1734817773103714, -0.13229218125343323, -0.1361691951751709, 0.07218948006629944, -0.07345473766326904, 0.00448203319683671, -0.2207491099834442, -0.021938981488347054, 0.01451727095991373, 0.0050468286499381065, -0.008635138161480427, 0.15974748134613037, -0.11857391893863678, 0.029622618108987808, -0.04783453792333603, 0.1600513607263565, 0.07990297675132751, 0.18240372836589813, -0.022382458671927452, 0.1465798169374466, -0.05977470800280571, -0.017398033291101456, -0.050489507615566254, 0.056517668068408966, 0.11200162023305893, -0.07111556828022003, -0.16837134957313538, -0.03106519766151905, -0.11919327080249786, -0.08552645891904831, 0.18571682274341583, 0.08303318917751312, -0.1921713650226593, 0.19758227467536926, -0.08644036203622818, -0.059155724942684174, -0.05373367294669151, 0.03743588551878929, -0.04069983586668968, 0.019311513751745224, -0.12053737789392471, -0.14779426157474518, 0.08691860735416412, -0.06581174582242966, 0.17855697870254517, -0.21104466915130615, -0.011344265192747116, 0.2510104179382324, -0.1408071219921112, 0.12423894554376602, 0.1686512678861618, -0.2165783941745758, 0.091797836124897, -0.1400790512561798, 0.01405386347323656, 0.08662746101617813, -0.07469834387302399, -0.0861658975481987, -0.029900234192609787, -0.020229950547218323, 0.12106156349182129, 0.04194406792521477, 0.15263867378234863, -0.14555120468139648, -0.01824408769607544, -0.230155810713768, 0.1708693504333496, 0.10481421649456024, 0.21467183530330658, -0.1925216019153595, -0.012598646804690361, 0.0052040694281458855, -0.1705608069896698, -0.08392546325922012, 0.17439021170139313, -0.16684573888778687, -0.005198325030505657, 0.12965263426303864, 0.009500940330326557, -0.11336425691843033, 0.020729687064886093, -0.1687077432870865, 0.0705091655254364, 0.00818436685949564, 0.12352734804153442, 0.06971748173236847, -0.08997546881437302, 0.02103167027235031, 0.06548809260129929, -0.1277107149362564, 0.002378856297582388, -0.08876009285449982, 0.15670859813690186, -0.14727091789245605, -0.16568580269813538, 0.25545382499694824, -0.15315204858779907, -0.10152395069599152, 0.2745921313762665, 0.013077087700366974, 0.084597148001194, -0.2635033428668976, 0.10284782201051712, -0.17510934174060822, 0.01976400427520275, -0.14152896404266357, 0.0661216452717781, -0.13539639115333557, 0.15352633595466614, -0.08516313135623932, 0.2573919892311096, 0.037442896515131, 0.00423781480640173, -0.06196126341819763, -0.05848856270313263, -0.15606702864170074, 0.17553773522377014, 0.003379280213266611, 0.007184780668467283, 0.07607156783342361, -0.049834754317998886, -0.01375920046120882, 2.679581484699156e-05, 0.07055427134037018, -0.20916488766670227, 0.14146099984645844, -0.05948078632354736, -0.16460613906383514, 0.15471848845481873, 0.0833444595336914, -0.050309646874666214, 0.04457629472017288, -0.0027592494152486324, -0.1711260825395584, 0.08416333049535751, -0.13708631694316864, -0.17910027503967285, -0.0492485947906971, -0.001394085818901658, 0.151606485247612, 0.08000706881284714, 0.1320921778678894, 0.02886061929166317, -0.0715564712882042, 0.12326638400554657, 0.1922122687101364, 0.008977076038718224, 0.010609827004373074, -0.1423601657152176, -0.10643403977155685, -0.04764504358172417, -0.027873866260051727, -0.1510283499956131, 0.20480124652385712, -0.16774047911167145, 0.014248942025005817, -0.03757534548640251, 0.09063806384801865, -0.12395118921995163, -0.025611059740185738, 0.04045504331588745, 0.05209483578801155, 0.03900213912129402, 0.03177567198872566, 0.01418460812419653, 0.05230807885527611, 0.07160787284374237, -0.12004894763231277, 0.12763072550296783, 0.12151316553354263, -0.03401634842157364, 0.04777371883392334, -0.01184253953397274, 0.06907591223716736, -0.02590801566839218, 0.13295501470565796, -0.07940814644098282, 0.009446616284549236, 0.018007216975092888, -0.1564481556415558, -0.030835291370749474, 0.04704171419143677, -0.13631129264831543, -0.0120050348341465, 0.035376936197280884, -0.023051179945468903, -0.08781009912490845, -0.09277674555778503, 0.05476212874054909, 0.11776116490364075, -0.026255054399371147, 0.1331961750984192, 0.16468259692192078, -0.050910837948322296, 0.07629504799842834, 0.1285039335489273, -0.018706485629081726, -0.06644667685031891, -0.053381264209747314, -0.19058454036712646, -0.03514613211154938, 0.11452962458133698, 0.10448577255010605, 0.008205138146877289, -0.048900704830884933, 0.09750287979841232, 0.013252238743007183, -0.0501052550971508, -0.15081360936164856, 0.0661923959851265, 0.0217828918248415, -0.07281327247619629, 0.13556069135665894, 0.17832574248313904, 0.1705169826745987, 0.2016638070344925, 0.18456335365772247, -0.007243344094604254, 0.027043402194976807, 0.18667490780353546, 0.10707513242959976, -0.00831278134137392, 0.19787277281284332, 0.0954490602016449, 0.1555146723985672, -0.022404106333851814, 0.03436266630887985, -0.08889736980199814, 0.07428199797868729, -0.14842355251312256, 0.04880622401833534, 0.08811139315366745, -0.15923120081424713, -0.054279591888189316, 0.13488952815532684, 0.11182308197021484, 0.03882335498929024, -0.16073077917099, 0.07176860421895981, -0.10922139883041382, 0.050822291523218155, 0.2854580879211426, 0.13801877200603485, 0.05134850740432739, -0.3345474600791931, -0.10141804814338684, 0.04210573807358742, 0.015591922216117382, 0.038395676761865616, -0.14450256526470184, -0.281851589679718, -0.1452067494392395, -0.019033515825867653, 0.3225378394126892, 0.1136927381157875, 0.02710570953786373, -0.09418988227844238, 0.12680087983608246, 0.02986494079232216, 0.27727991342544556, 0.136495441198349, -0.01268354058265686, 0.3502911627292633, 0.07248630374670029, 0.022571435198187828, 0.16308093070983887, 0.07520773261785507, -0.046774618327617645, 0.1794435828924179, -0.07597241550683975, -0.14562752842903137, 0.09735532104969025, 0.09970204532146454, 0.035990674048662186, -0.0562015101313591, -0.2077934592962265, -0.011530826799571514, 0.07156656682491302, -0.013345124199986458, -0.2002469152212143, 0.18084856867790222, 0.12508518993854523, -0.18575021624565125, 0.08844785392284393, 0.043351639062166214, 0.019001375883817673, 0.03209635615348816, -0.1479465514421463, 0.04986116290092468, 0.07785346359014511, -0.05455201491713524, -0.02669120952486992, -0.0038586065638810396, 0.021852808073163033, -0.10146255791187286, -0.018985560163855553, 0.09801577776670456, 0.0666036605834961, -0.039907898753881454, 0.0729551836848259, -0.002229111036285758, 0.04362717643380165, -0.17729465663433075, 0.07195001095533371, -0.06761609762907028, -0.005841660313308239, -0.029064426198601723, -0.1468541920185089, -0.007409470155835152, 0.19977669417858124, -0.02287307381629944, -0.14620748162269592, 0.030214954167604446, -0.0186288021504879, -0.1768874228000641, 0.14329200983047485, -0.17950627207756042, -0.20408941805362701, -0.06610069423913956, -0.07439757883548737, 0.035556141287088394, -0.06067187339067459, 0.15093056857585907, -0.06557196378707886, 0.05028528720140457, -0.0014312376733869314, 0.001349152415059507, 0.23126699030399323, -0.06091931089758873, 0.17296549677848816, 0.0992269366979599, 0.03535967320203781, 0.08961649239063263, -0.018555013462901115, 0.19967275857925415, -0.14612381160259247, -0.06672873347997665, -0.014098109677433968, -0.08871068805456161, 0.0022198278456926346, -0.23462265729904175, 0.07949019968509674, 0.10294650495052338, 0.18039970099925995, -0.05570506677031517, -0.09801620990037918, -0.17404228448867798, 0.09415268898010254, 0.16877786815166473, 0.20638878643512726, -0.06173008307814598, 0.011911580339074135, -0.26742932200431824, -0.08895286917686462, 0.09680339694023132, 0.04844299331307411, 0.03778620809316635, -0.1268201470375061, 0.053400736302137375, -0.14563150703907013, 0.05705401673913002, 0.11695662885904312, 0.08030056208372116, 0.06262566149234772, 0.21192742884159088, -0.02711644396185875, -0.07228299230337143, 0.0957723930478096, -0.014494829811155796, 0.04257037490606308, -0.08496187627315521, 0.0892045721411705, -0.035306014120578766, -0.16704285144805908, 0.10657565295696259, 0.1554868072271347, -0.03051682747900486, 0.07994379103183746, 0.09124407172203064, 0.22132495045661926, -0.12220533937215805, 0.12857146561145782, 0.07503599673509598, -0.16280105710029602, 0.06770429760217667, 0.11084553599357605, -0.1519654244184494, -0.029996033757925034, -0.051678165793418884, 0.17107640206813812, -0.05578973889350891, 0.23232685029506683, -0.04141121357679367, 0.021825050935149193, -0.13587504625320435, 0.2897989749908447, -0.020784614607691765, 0.21157926321029663, -0.2320900559425354, 0.0749383419752121, -0.2612757682800293, 0.11003778129816055, -0.0889386236667633, 0.29290661215782166, -0.23978817462921143, 0.018424788489937782, 0.10249242186546326, -0.04630317538976669, 0.1666088104248047, 0.0407651849091053, -0.3260957896709442, -0.103596530854702, 0.15109483897686005, -0.2452523112297058, -0.08714985847473145, 0.0984756126999855, -0.1769622266292572, -0.06710678339004517, 0.06384829431772232, -0.20514586567878723, -0.06492900848388672, 0.06096980348229408, 0.10133061558008194, 0.009899995289742947, 0.004924644250422716, -0.1731022745370865, 0.21539929509162903, -0.13131743669509888, -0.021249840036034584, 0.07347942888736725, -0.0870966911315918, 0.14499107003211975, -0.08223307132720947, -0.029180098325014114, 0.07839717715978622, 0.019418036565184593, -0.00010513335291761905, -0.2584696412086487, -0.021559834480285645, -0.08081276714801788, 0.10031221061944962, -0.1959061175584793, 0.1303696632385254, -0.1483447402715683, 0.042314957827329636, 0.09474729746580124, 0.17221768200397491, 0.027933932840824127, 0.08645988255739212, -0.15099254250526428, -0.01912393793463707, -0.013415231369435787, 0.23007513582706451, -0.12535561621189117, -0.14056052267551422, 0.16566002368927002, 0.0682050958275795, -0.03515322133898735, -0.001529964618384838, -0.19973832368850708, 0.04018198326230049, 0.10608641803264618, -0.1440756618976593, 0.03183402493596077, 0.1684698909521103, 0.04358496144413948, 0.1035916730761528, 0.05203113704919815, -0.12013311684131622, -0.11603134870529175, 0.146307572722435, 0.21898311376571655, 0.026094013825058937, -0.21625880897045135, 0.2431219220161438, 0.17254754900932312, 0.21730025112628937, -0.23027105629444122, -0.018658023327589035, -0.011065199971199036, 0.029061291366815567, -0.029563603922724724, 0.016360532492399216, -0.03374217450618744, -0.10474787652492523, -0.1612395942211151, 0.08640735596418381, -0.043531838804483414, -0.13260799646377563, -0.001992722973227501, -0.0995548665523529, -0.035229455679655075, 0.23294185101985931, 0.09076030552387238, 0.09367179870605469, -0.008465890772640705, -0.011155549436807632, -0.14792422950267792, 0.24837395548820496, 0.06701856851577759, -0.05477123335003853, -0.15051357448101044, -0.06481614708900452, 0.2116859257221222, -0.1160552129149437, -0.09528779983520508, 0.07857820391654968, -0.018086377531290054, 0.07266464829444885, 0.1326286643743515, -0.09775658696889877, 0.08682509511709213, 0.048679087311029434, -0.16802915930747986, -0.1714615374803543, -0.06850270181894302, 0.08088231831789017, -0.027803219854831696, 0.06026500090956688, 0.19570009410381317, 0.02757301740348339, -0.1333998292684555, 0.23945654928684235, -0.09783297777175903, 0.1586497277021408, -0.2118181735277176, -0.049545977264642715, 0.11816391348838806, -0.15682879090309143, 0.10335365682840347, -0.06450746208429337, -0.22127436101436615, -0.04684832692146301, -0.011948291212320328, 0.2311110496520996, -0.07473589479923248, 0.0801398754119873, -0.1066783145070076, -0.01726839505136013, 0.0667695477604866, -0.015163861215114594, -0.019941141828894615, 0.1564328372478485, -0.14085306227207184, 0.1348297894001007, -0.07466720789670944, 0.22173479199409485, -0.15878017246723175, 0.01417578849941492, -0.12790878117084503, 0.018194779753684998, 0.08320446312427521, 0.006102806888520718, -0.035230379551649094, 0.034771718084812164, 0.001836766256019473, -0.05465823784470558, 0.16551411151885986, -0.19562934339046478, -0.03335080295801163, 0.02798028476536274, -0.03629003465175629, 0.05498528108000755, -0.011018319986760616, -0.10774073004722595, 0.03505115583539009, 0.039629917591810226, -0.07323630154132843, -0.03401753678917885, 0.20308519899845123, 0.0879269391298294, -0.04501846060156822, -0.24579215049743652, 0.1461464911699295, -0.16346722841262817, -0.07704060524702072, 0.06682087481021881, -0.11877408623695374, -0.05328313261270523, -0.07877007871866226, 0.08549164980649948, 0.014123453758656979, -0.06258286535739899, -0.009283495135605335, 0.07170085608959198, -0.015087518841028214, 0.14946919679641724, 0.09179902076721191, -0.11341758072376251, -0.15745198726654053, -0.21919041872024536, 0.21430933475494385, 0.009605282917618752, 0.10581929236650467, -0.017125176265835762, 0.04842744022607803, 0.019970891997218132, 0.16963939368724823, -0.14270663261413574, -0.11257534474134445, -0.025151582434773445, -0.14052926003932953, -0.07748973369598389, 0.1800152212381363, -0.1717664748430252, -0.02284371107816696, -0.02785094641149044, -0.08056267350912094, 0.008778157643973827, 0.017000379040837288, 0.056659258902072906, -0.09895403683185577, 0.1522580087184906, 0.014294897206127644, -0.09599523991346359, 0.1666705310344696, -0.16423137485980988, -0.22099550068378448, 0.056902091950178146, 0.1772541105747223, 0.06561759114265442, 0.023032044991850853, 0.18592622876167297, 0.20182207226753235, -0.12145375460386276, 0.04089588671922684, 0.05381028354167938, -0.16645382344722748, -0.061185356229543686, 0.002937698969617486, 0.16488927602767944, 0.05299973115324974, 0.0820770114660263, -0.12648339569568634, 0.04649423435330391, -0.1658439338207245, -0.05552979186177254, 0.05870401859283447, 0.16871236264705658, -0.20368921756744385, 0.07985765486955643, -0.04201837629079819, -0.04487871378660202, 0.02267630398273468, 0.22341415286064148, -0.1642288714647293, 0.002689181361347437, 0.13725778460502625, -0.18206515908241272, 0.14263778924942017, 0.18235619366168976, 0.04500483348965645, -0.030509736388921738, 0.24933885037899017, -0.13247786462306976, 0.20232771337032318, -0.03662882372736931, -0.17757061123847961, 0.05830661207437515, 0.03309895843267441, -0.017251579090952873, -0.06998815387487411, -0.16400864720344543, -0.06505338847637177, -0.10601256042718887, 0.01907949149608612, 0.054160721600055695, 0.007483924739062786, 0.05766001716256142, 0.10263250768184662, 0.09150456637144089, -0.09304667264223099, -0.00532638980075717, -0.0795804038643837, -0.04528428986668587, -0.044710107147693634, -0.01059944462031126, 0.3906046152114868, -0.4462052583694458, 0.6977928280830383, -0.6260358095169067, 0.033298343420028687, 0.8191749453544617, 0.926649808883667, -0.5184545516967773, 0.11095815151929855, 0.14302848279476166, -0.4708380103111267, -0.2806571125984192, 0.37678956985473633, -0.6023345589637756, 0.1257355809211731, 0.47197481989860535, -0.08467264473438263, 0.17409613728523254, -0.01682533510029316, 0.13203591108322144, 0.3363554775714874, -0.09667134284973145, 0.17390312254428864, -0.055103227496147156, -0.054319459944963455, -0.05560699850320816, -0.11063855141401291, -0.025799350813031197, 0.08604709804058075, 0.03328636661171913, 0.18340237438678741, -0.06799210608005524, 0.010299316607415676, -0.14073772728443146, -0.21637874841690063, 0.07902863621711731, 0.015331133268773556, 0.02510353922843933, -0.006442096550017595, 0.04895118251442909, -0.03507464751601219, 0.24606715142726898, -0.0023110921029001474, 0.029957307502627373, 0.10266657918691635, -0.07624398916959763, 0.04264923185110092, 0.284981906414032, 0.04445160925388336, 0.07889825850725174, 0.02709394320845604, 0.1946205198764801, -0.16160643100738525, -0.09016180783510208, 0.10205663740634918, -0.23524489998817444, -0.01905083656311035, -0.12203756719827652, 0.23736535012722015, -0.26127952337265015, 0.2168540060520172, 0.2551770806312561, 0.04628255218267441, 0.04352022707462311, 0.26984256505966187, -0.25572460889816284, -0.005243320483714342, -0.1864820122718811, -0.04757247492671013, 0.21200762689113617, 0.049621306359767914, -0.08312858641147614, -0.16506527364253998, 0.229522705078125, -0.08615007251501083, -0.036243874579668045, 0.25322121381759644, 0.12901201844215393, -0.17410096526145935, 0.12772488594055176, -0.08612291514873505, -0.24798201024532318, -0.17696601152420044, 0.18002735078334808, 0.22475136816501617, 0.19797347486019135, 0.1324666440486908, -0.23443788290023804, 0.08211492002010345, 0.2912650406360626, -0.22807735204696655, 0.1591842919588089, 0.014570322819054127, 0.13360947370529175, -0.06506162881851196, 0.0866970494389534, -0.20927827060222626, -0.051742248237133026, 0.05432617664337158, 0.0799630880355835, 0.3115716576576233, 0.21296845376491547, 0.1687650978565216, 0.14812543988227844, 0.16236042976379395, -0.033408574759960175, -0.28523752093315125, -0.07403773069381714, -0.02973283641040325, -0.09462966024875641, 0.09684187918901443, 0.09447939693927765, 0.12143982201814651, 0.05169420316815376, 0.11886491626501083, 0.2762603163719177, 0.14860445261001587, -0.2654038667678833, -0.01994742453098297, 0.00435658311471343, -0.06436881422996521, -0.39212897419929504, -0.4617448151111603, 0.4236159324645996, 0.29478326439857483, -0.01021219789981842, 0.10567928105592728, -0.04103036969900131, 0.1616131216287613, 0.05212199687957764, 0.21326853334903717, -0.20336881279945374, -0.2714292109012604, 0.12051787227392197, 0.18110579252243042, 0.21956412494182587, 0.11409812420606613, -0.18752510845661163, 0.20598426461219788, -0.178960382938385, 0.09378349781036377, -0.11383582651615143, -0.16122040152549744, 0.08021009713411331, -0.05985744670033455, -0.029089506715536118, -0.22949911653995514, -0.2104664444923401, 0.0851561650633812, -0.08662248402833939, -0.16784162819385529, -0.13146303594112396, -0.2276812642812729, -0.19878846406936646, 0.20999088883399963, 0.12171442806720734, 0.07800432294607162, -0.12050207704305649, 0.07620660215616226, 0.09483616054058075, -0.15466080605983734, 0.07842512428760529, 0.279782772064209, -0.29381996393203735, -0.158357635140419, 0.03298686072230339, 0.22973333299160004, -0.19765445590019226, 0.09975715726613998, 0.15454138815402985, 0.029873965308070183, 0.03542392700910568, 0.22743071615695953, 0.1404152363538742, -0.07259399443864822, -0.09214277565479279, 0.16870974004268646, 0.22725586593151093, -0.230411559343338, 0.13233095407485962, -0.04958229884505272, -0.169358029961586, 0.1236330196261406, -0.1747313141822815, 0.035205624997615814, -0.16143429279327393, -0.229573056101799, -0.014968667179346085, -0.010850776918232441, 0.14885768294334412, 0.06435449421405792, 0.2316659688949585, 0.03397054597735405, -0.0718098133802414, 0.18768523633480072, -0.031000137329101562, 0.08979038149118423, -0.08853111416101456, 0.08876258879899979, -0.039289440959692, 0.030601603910326958, -0.21990306675434113, -0.0972869023680687, -0.17538802325725555, -0.09099078178405762, 0.10705387592315674, -0.07862202823162079, -0.29708191752433777, -0.04688123241066933, -0.07612711191177368, 0.009757591411471367, 0.08358827233314514, 0.1256212592124939, -0.17620855569839478, -0.041155923157930374, 0.1383025199174881, 0.1803080439567566, -0.07165710628032684, -0.1445326805114746, 0.07259568572044373, 0.15993286669254303, -0.13230350613594055, -0.18201248347759247, 0.1959390789270401, -0.044752463698387146, -0.284150093793869, -0.20918035507202148, 0.14376001060009003, -0.11173661798238754, 0.17948831617832184, 0.10995295643806458, 0.0905751883983612, -0.0562506765127182, -0.05926385521888733, 0.01741207204759121, 0.04542119428515434, -0.18762348592281342, -0.04591905698180199, -0.28815197944641113, 0.26961013674736023, -0.15021304786205292, 0.23836979269981384, -0.06869996339082718, -0.1326785385608673, 0.0822955071926117, 0.04748634994029999, 0.1114228293299675, 0.11214602738618851, -0.24345944821834564, 0.12925106287002563, 0.010764469392597675, -0.14679306745529175, 0.1370048224925995, 0.16432291269302368, -0.232792928814888, 0.015350140631198883, 0.20501413941383362, 0.04484284669160843, 0.21720583736896515, -0.1096501424908638, -0.08261875063180923, 0.1455354541540146, 0.021365003660321236, 0.1967145949602127, -0.06674566119909286, -0.127589613199234, -0.10679032653570175, -0.2277599275112152, 0.04501907154917717, 0.1516028642654419, 0.0461634024977684, -0.05901838093996048, 0.11326607316732407, -0.13086721301078796, 0.2093455046415329, -0.1332562267780304, -0.1473398357629776, -0.0628834068775177, 0.09284801036119461, -0.02203819341957569, 0.07478487491607666, -0.17007595300674438, 0.08780284970998764, 0.007268891669809818, 0.08946623653173447, 0.19373948872089386, 0.10206610709428787, -0.002197599271312356, 0.07263406366109848, -0.058474212884902954, -0.05157240107655525, 0.03584596514701843, -0.13297559320926666, 0.06823930889368057, -0.04303437098860741, 0.0382734015583992, 0.030411288142204285, -0.17484094202518463, -0.016988631337881088, -0.017497912049293518, -0.08489939570426941, -0.06708024442195892, 0.08912983536720276, 0.0923900231719017, -0.1482909768819809, 0.07830420136451721, -0.11624634265899658, -0.11152175068855286, -0.04578972980380058, 0.03635784983634949, -0.09641622006893158, -0.13487659394741058, -0.06585406512022018, 0.06406176835298538, -0.13996344804763794, -0.1332017481327057, 0.003879110561683774, -0.10404115170240402, -0.14756420254707336, -0.02597809210419655, -0.08697535842657089, 0.07073234766721725, -0.013830574229359627, -0.08070594072341919, -0.15697810053825378, 0.04486911743879318, -0.05600649490952492, -0.15981951355934143, 0.07308297604322433, -0.08451684564352036, -0.187054842710495, 0.08556561917066574, 0.014393704012036324, 0.17273421585559845, -0.04905878007411957, -0.07644865661859512, 0.01616298407316208, -0.02504786290228367, 0.01791897974908352, -0.11928458511829376, -0.03335901349782944, 0.10473878681659698, -0.11653921753168106, -0.0380745530128479, 0.20806027948856354, -0.14819735288619995, -5.9813544794451445e-05, -0.056462354958057404, 0.0497654527425766, -0.19219131767749786, 0.13249564170837402, -0.09529316425323486, -0.16193076968193054, -0.1228160560131073, 0.2047273963689804, -0.24281299114227295, -0.18857748806476593, 0.14778554439544678, 0.0211445614695549, -0.06601114571094513, -0.1406741589307785, -0.04625851660966873, 0.043530795723199844, 0.09974592179059982, 0.0965796411037445, -0.20616404712200165, 0.028050580993294716, -0.09250052273273468, 0.02128094621002674, 0.013322467915713787, -0.0693475678563118, -0.15612977743148804, -0.15186353027820587, -0.10852614045143127, 0.10822539776563644, -0.06380261480808258, 0.00043636528425849974, 0.10641472041606903, -0.06533581763505936, -0.0494370311498642, 0.17041558027267456, 0.01811089739203453, 0.2041868269443512, -0.19749633967876434, -0.25714898109436035, -0.17569857835769653, 0.012031962163746357, 0.13621540367603302, 0.21181631088256836, -0.11040547490119934, 0.05681850388646126, -0.00978012103587389, 0.0029736238066107035, 0.2183760553598404, 0.024191822856664658, -0.06807480752468109, 0.1960982084274292, -0.03272297605872154, 0.10925441980361938, -0.17670194804668427, 0.09834178537130356, 0.17701676487922668, -0.03870375081896782, -0.3245019316673279, 0.13305144011974335, -0.11683987826108932, -0.023373987525701523, 0.1506834626197815, 0.04404215142130852, -0.1448683887720108, -0.08488787710666656, -0.09096322953701019, 0.12319648265838623, -0.11849132180213928, -0.09000682830810547, -0.23170094192028046, 0.12584739923477173, 0.08102446794509888, -0.04011433571577072, 0.2720086872577667, 0.17010022699832916, -0.06143433600664139, -0.08481308817863464, 0.11096420884132385, -0.05922594293951988, 0.01763666421175003, 0.0191715806722641, 0.04981720447540283, 0.04476526007056236, -0.16856922209262848, 0.14260908961296082, 0.1494603157043457, -0.10090374946594238, -0.055790975689888, 0.08651857823133469, -0.13417531549930573, 0.058575864881277084, 0.027596790343523026, 0.15863482654094696, -0.08467178791761398, -0.16975119709968567, 0.118950255215168, 0.1146644800901413, -0.12484131008386612, -0.022281095385551453, -0.047672394663095474, -0.09201490134000778, -0.10779904574155807, 0.1041487529873848, 0.05495494604110718, 0.013143693096935749, 0.23347540199756622, 0.06180457025766373, -0.2037375122308731, -0.03336034715175629, 0.10543293505907059, 0.13674506545066833, -0.10426027327775955, 0.035731565207242966, 0.08351758122444153, -0.19847597181797028, 0.05449150875210762, 0.1696949005126953, 0.0450177900493145, -0.010395797900855541, 0.06784243136644363, 0.05315946042537689, 0.29436182975769043, 0.20625661313533783, 0.19693778455257416, -0.07220004498958588, 0.201791450381279, -0.061868470162153244, -0.10646521300077438, 0.027654243633151054, -0.029520994052290916, 0.030429063364863396, 0.006194841116666794, -0.012879687361419201, 0.10735224932432175, -0.15528233349323273, -0.057983264327049255, -0.011614997871220112, 0.11081688106060028, 0.13401998579502106, -0.002965786959975958, -0.10088926553726196, 0.03915458172559738, -0.05113986134529114, -0.09605086594820023, 0.06781119853258133, 0.10408256947994232, -0.036631688475608826, -0.07510340213775635, -0.09196903556585312, -0.11299488693475723, 0.05966784432530403, -0.10989966243505478, 0.127809077501297, -0.23753423988819122, 0.03714913874864578, 0.020698703825473785, 0.16893894970417023, 0.08570872992277145, 0.0815691128373146, 0.010314468294382095, -0.05144236236810684, -0.07998234033584595, -0.051541898399591446, 0.0022507570683956146, 0.1146896556019783, -0.1744498312473297, 0.05732310935854912, -0.22731594741344452, -0.05467722937464714, 0.01614336296916008, -0.17476865649223328, -0.19222070276737213, 0.10947117954492569, 0.011288096196949482, -0.08229435235261917, 0.012768903747200966, -0.0018638939363881946, -0.1164330393075943, -0.0782129168510437, 0.11259543895721436, 0.06175116077065468, -0.06567887961864471, -0.0014092960627749562, -0.05495975911617279, -0.009554433636367321, -0.1939675360918045, 0.09893012791872025, 0.01890270784497261, -0.027572399005293846, -0.007103356532752514, 0.03633540868759155, -0.07634381204843521, 0.06806503981351852, 0.011360014788806438, -0.12241863459348679, 0.08641999214887619, -0.03151522949337959, 0.09762939810752869, -0.013426422141492367, 0.03257587179541588, 0.06645159423351288, 0.0074733891524374485, -0.06947630643844604, 0.14091937243938446, -0.14056271314620972, 0.2089080959558487, 0.11236583441495895, 0.15508998930454254, -0.0756157860159874, 0.1553790122270584, -0.11053329706192017, 0.010469887405633926, 0.02520226500928402, 0.121528260409832, -0.05524617061018944, 0.23424731194972992, -0.11692314594984055, 0.13636265695095062, 0.05841656029224396, 0.145981103181839, 0.02376721426844597, -0.0613173209130764, -0.059299319982528687, 0.08247458934783936, -0.10284888744354248, 0.1071842610836029, -0.2194439023733139, -0.01751880906522274, -0.06085895001888275, 0.08356925845146179, 0.08563395589590073, 0.08661548048257828, 0.04303864389657974, -0.01309005357325077, 0.16623254120349884, -0.11608298122882843, 0.01035133097320795, -0.04971306025981903, 0.0955251082777977, 0.11233723163604736, 0.04569195583462715, -0.04788132756948471, -0.10838416963815689, 0.16682939231395721, -0.016340870410203934, 0.15919779241085052, 0.13682545721530914, 0.2152075320482254, 0.08066607266664505, -0.06371136754751205, 0.02315731719136238, -0.03525081276893616, 0.01973836123943329, 0.03723987191915512, -0.016539152711629868, -0.08763934671878815, -0.17667293548583984, 0.09105704724788666, -0.006808753591030836, 0.04659629613161087, 0.05679075047373772, -0.005825314205139875, -0.04555949196219444, 0.06316864490509033, -0.003870176849886775, 0.12453014403581619, 0.06637770682573318, 0.15148326754570007, 0.0776616632938385, -0.034706298261880875, 0.11076381057500839, -0.1826666295528412, -0.14041338860988617, 0.01328733004629612, -0.07533083111047745, -0.033326469361782074, -0.06448215991258621, 0.036568280309438705, -0.18469789624214172, -0.025486677885055542, -0.00796571932733059, 0.10335329174995422, -0.11514562368392944, -0.023532917723059654, -0.11895444244146347, 0.030211547389626503, 0.1136980801820755, -0.01652410440146923, -0.0873197540640831, 0.0034871185198426247, 0.011002600193023682, -0.18806058168411255, -0.06906428188085556, 0.08437598496675491, -0.1311492770910263, -0.035489846020936966, -4.779565642820671e-05, -0.16462694108486176, -0.0941954031586647, 0.015318082645535469, -0.04316271096467972, -0.05934400111436844, 0.015225335024297237, -0.16355812549591064, 0.12708964943885803, 0.09860017150640488, 0.15076293051242828, -0.06953649967908859, 0.14114509522914886, -0.15886734426021576, -0.020302515476942062, -0.00030340952798724174, 0.007080623414367437, -0.16534554958343506, -0.05606260150671005, -0.014735431410372257, 0.014982577413320541, -0.1515098661184311, -0.06399087607860565, -0.09018078446388245, 0.08634161949157715, 0.0834241732954979, 0.20609503984451294, -0.08242565393447876, 0.022888191044330597, -0.03268487751483917, 0.16281862556934357, 0.13806003332138062, -0.05824264883995056, -0.15332716703414917, -0.10186108201742172, -0.14121359586715698, 0.13754281401634216, 0.0821027010679245, 0.16867011785507202, 0.12154131382703781, 0.06622111797332764, -0.0837739035487175, 0.14925037324428558, 0.19846341013908386, 0.06455155462026596, -0.06432800740003586, 0.10017068684101105, -0.04071301966905594, 0.05544351041316986, 0.14419060945510864, 0.06018351390957832, -0.1296701580286026, -0.16659031808376312, 0.07337731868028641, -0.03407895565032959, -0.06544122844934464, 0.1430303305387497, -0.01701037585735321, 0.01716584898531437, -0.1316613256931305, 0.006889942102134228, 0.040693726390600204, -0.06218502297997475, 0.0023403202649205923, -0.07232881337404251, 0.23421649634838104, 0.0002315338351763785, 0.18940813839435577, 0.05658075958490372, 0.011314253322780132, 0.005130389705300331, -0.10227459669113159, -0.016381824389100075, -0.0684593990445137, -0.014328042976558208, 0.03235255554318428, -0.07011301815509796, -0.0698709711432457, 0.27241721749305725, 0.17799152433872223, 0.014146761037409306, -0.15718507766723633, 0.05381147563457489, 0.08773019164800644, -0.10570132732391357, 0.04344167560338974, 0.002428286476060748, -0.11949310451745987, 0.13586167991161346, -0.06022955849766731, 0.03782789036631584, 0.04020430147647858, -0.0647006630897522, -0.0166787076741457, 0.0003042657335754484, 0.08510816842317581, 0.0049497042782604694, 0.09922245889902115, -0.044775936752557755, -0.04931417480111122, -0.05110600218176842, 0.170179083943367, -0.03548499569296837, 0.18840175867080688, 0.001890291110612452, -0.12550678849220276, -0.20100164413452148, 0.05285006761550903, -0.10352007299661636, 0.2049681693315506, 0.03778930753469467, 0.22088651359081268, -0.04236707463860512, -0.06988636404275894, -0.13688445091247559, -0.03120430000126362, -0.12049493193626404, -0.17835848033428192, 0.10457237809896469, 0.03924044221639633, -0.14486247301101685, -0.11069994419813156, 0.05439700931310654, 0.06483891606330872, -0.056761808693408966, -0.056612528860569, -0.10420670360326767, 0.08973359316587448, -0.1376146376132965, -0.03665598854422569, 0.04508360102772713, -0.034218620508909225, -0.08241229504346848, -0.04039375111460686, 0.08002760261297226, -0.11147673428058624, -0.0747014582157135, 0.04012630134820938, -0.018729329109191895, -0.07783962786197662, -0.11709092557430267, 0.08892906457185745, 0.04373139142990112, -0.015428069978952408, -0.0630139634013176, 0.045019008219242096, 0.14914248883724213, -0.010722700506448746, 0.15968944132328033, 0.043448109179735184, -0.03501466289162636, -0.040791191160678864, 0.1790866106748581, -0.024332504719495773, -0.0450260192155838, -0.036700986325740814, 0.08874001353979111, -0.1279827058315277, -0.022939980030059814, 0.019839074462652206, 0.2141139954328537, -0.1886797845363617, 0.006749614141881466, -0.08079788088798523, 0.04798228666186333, 0.014383779838681221, -0.16469162702560425, 0.03623361885547638, -0.002363775158300996, -0.051617108285427094, -0.031219182536005974, -0.026349056512117386, -0.07611574977636337, -0.027371950447559357, 0.03198256716132164, 0.09064603596925735, -0.1634870171546936, 0.13901755213737488, -0.09918360412120819, -0.056425053626298904, -0.23019926249980927, 0.17524875700473785, 0.06926550716161728, 0.06499490886926651, -0.008030038326978683, -0.0053103649988770485, 0.07201188057661057, -0.0036166589707136154, -0.10083694010972977, 0.1273544728755951, 0.11786767095327377, 0.028292568400502205, -0.019406823441386223, 0.1655951738357544, 0.006919471547007561, 0.18930530548095703, 0.12236206978559494, 0.10380154103040695, 0.0802287608385086, -0.1224001944065094, -0.1105862408876419, -0.1530124694108963, 0.13061575591564178, 0.03660540655255318, -0.12910714745521545, 0.15701588988304138, -0.1705569326877594, -0.3455910086631775, 0.39870694279670715, -0.22066910564899445, -0.1453421264886856, -0.08187755942344666, 0.03348517417907715, 0.08482436090707779, -0.04181862249970436, -0.09170544147491455, -0.03475420922040939, -0.07268712669610977, -0.19822944700717926, -0.20404213666915894, -0.0533662773668766, -0.018525617197155952, -0.11889947950839996, 0.021301621571183205, -0.09696241468191147, 0.14336511492729187, 0.14589303731918335, 0.02681799791753292, 0.09392010420560837, 0.04519744962453842, -0.08955319970846176, 0.06030334532260895, 0.09167485684156418, -0.017403341829776764, 0.19214127957820892, 0.018894225358963013, -0.0986148938536644, -0.07536598294973373, -0.08992138504981995, 0.16880059242248535, -0.13649611175060272, -0.06594503670930862, 0.05346455052495003, -0.12281803786754608, -0.11640484631061554, 0.08183962106704712, -0.09939117729663849, 0.07454273104667664, 0.09268629550933838, -0.04110145568847656, 0.02447676844894886, -0.08494842797517776, 0.10289185494184494, 0.20563741028308868, 0.07510919868946075, -0.00879014190286398, -0.26998370885849, 0.07344380766153336, 0.08262238651514053, -0.09145981073379517, 0.06576459854841232, 0.019854066893458366, 0.0039602345786988735, -0.10111471265554428, 0.12992176413536072, -0.07619660347700119, -0.04655270650982857, 0.09603724628686905, 0.0847763642668724, 0.05151819810271263, -0.05100527033209801, -0.04243679717183113, 0.11260151863098145, -0.014623782597482204, 0.08567146956920624, 0.02993074432015419, 0.16838131844997406, -0.0782768726348877, 0.09358079731464386, -0.03876497969031334, -0.017298171296715736, -0.003222045488655567, -0.004035408608615398, 0.05368183180689812, 0.12366070598363876, -0.10727456212043762, 0.033144526183605194, -0.07609467953443527, -0.01994718611240387, 0.1299188882112503, 0.07287387549877167, 0.09190784394741058, 0.045028168708086014, 0.03075256012380123, 0.05524897202849388, -0.040619395673274994, 0.09483005851507187, 0.04542452469468117, -0.13231170177459717, 0.15399177372455597, 0.01948469504714012, 0.05009196698665619, -0.07633887231349945, 0.036984119564294815, 0.12781116366386414, 0.07899365574121475, -0.085537850856781, -0.04484531655907631, -0.07650252431631088, 0.15527969598770142, 0.1354604810476303, -0.11217593401670456, 0.013891369104385376, -0.05775393545627594, -0.17071597278118134, -0.05480749160051346, -0.09504248946905136, 0.07944830507040024, 0.0424104779958725, -0.06957317143678665, -0.08292655646800995, -0.12108142673969269, 0.2192929983139038, -0.0904834046959877, -0.04293939098715782, 0.16294074058532715, -0.015376698225736618, -0.10362295806407928, 0.05295751616358757, -0.03265731781721115, -0.09194466471672058, 0.23644676804542542, -0.012232338078320026, 0.1826915442943573, -0.14022409915924072, 0.005279106553643942, 0.058029964566230774, 0.13668192923069, 0.17551831901073456, 0.06017206236720085, -0.17745918035507202, -0.04680841043591499, -0.012754019349813461, -0.015870029106736183, -0.1268654316663742, -0.04648834466934204, -0.25988462567329407, 0.15084969997406006, -0.04911225289106369, 0.2729938328266144, 0.028884729370474815, 0.31443724036216736, -0.1541396677494049, -0.03731589764356613, -0.017082666978240013, 0.18253202736377716, 0.01020827703177929, -0.1260128915309906, 0.13915252685546875, -0.03335515037178993, -0.246254101395607, 0.08364129066467285, -0.17546199262142181, 0.29655709862709045, -0.1415555328130722, 0.1290215253829956, -0.011807373724877834, 0.15498585999011993, -0.048245519399642944, 0.0034742914140224457, 0.06808066368103027, 0.06357523053884506, 0.06827686727046967, 0.09531576186418533, 0.06517469137907028, 0.018370015546679497, 0.08281244337558746, -0.149470716714859, -0.05468034744262695, 0.06376637518405914, -0.027084821835160255, -0.044248905032873154, -0.08484984189271927, 0.045576900243759155, 0.010958252474665642, 0.1725938469171524, -0.19357752799987793, 0.07966113835573196, -0.18330007791519165, -0.04274984449148178, -0.10082461684942245, -0.0034051425755023956, -0.020280616357922554, -0.10116357356309891, 0.06597859412431717, 0.19265007972717285, -0.012405874207615852, 0.18016313016414642, -0.19970476627349854, 0.0677923932671547, -0.005933362524956465, 0.13429181277751923, -0.10809743404388428, -0.08292485773563385, -0.027000000700354576, 0.035653773695230484, 0.180816188454628, -0.11093559116125107, 0.010639740154147148, -0.07528438419103622, -0.04927658289670944, 0.029837394133210182, 0.08677157014608383, 0.16849984228610992, 0.12852294743061066, 0.05564858391880989, -0.05091646686196327, 0.10256296396255493, -0.09564967453479767, 0.144073486328125, 0.11897442489862442, 0.08517076075077057, -0.04776204004883766, -0.03807414323091507, 0.04396812990307808, 0.06303292512893677, 0.054741375148296356, 0.05108165368437767, 0.08666060864925385, -0.02823702245950699, -0.39314302802085876, 0.17386646568775177, 0.3529648780822754, -0.548403263092041, 0.11447206884622574, -0.7351410388946533, -0.24930495023727417, -0.47238704562187195, 0.8444850444793701, -0.889801025390625, -0.5707900524139404, -0.9077063798904419, 0.260810524225235, -0.7302236557006836, 0.3237786293029785, -0.6065971255302429, -0.14203928411006927, -0.06819208711385727, -0.0007730330689810216, 0.2370966374874115, 0.23275445401668549, -0.054901596158742905, -0.2538972496986389, -0.05882846191525459, -0.0330713614821434, -0.059591833502054214, 0.048977550119161606, 0.07510123401880264, 0.13671182096004486, 0.06062696874141693, -0.09511604905128479, -0.042360901832580566, 0.010660743340849876, -0.17797395586967468, 0.036277927458286285, -0.01927143707871437, -0.25409018993377686, 0.192867711186409, 0.02293381281197071, -0.2602468729019165, 0.26710689067840576, -0.16705504059791565, 0.05009157955646515, 0.1886875182390213, 0.02034410834312439, 0.048234157264232635, 0.18789072334766388, 0.181944340467453, -0.12967611849308014, -0.1659330576658249, 0.03312617912888527, 0.15396547317504883, 0.06558293104171753, 0.16865414381027222, -0.005424509756267071, 0.0521307997405529, -0.060996830463409424, 0.023049576207995415, -0.20833805203437805, -0.20040109753608704, -0.03455810248851776, 0.07383240759372711, 0.16306042671203613, 0.02202736958861351, 0.1622350662946701, 0.20428086817264557, -0.3343372642993927, -0.317132830619812, -0.15401074290275574, 0.07507652044296265, -0.16541787981987, -0.06797070801258087, -0.04569550231099129, 0.08101844787597656, 0.1112510934472084, 0.11080989241600037, -0.10471376776695251, -0.209655299782753, 0.15521307289600372, 0.026546884328126907, 0.40714168548583984, 0.09183384478092194, -0.43388107419013977, -0.20017075538635254, 0.17522449791431427, 0.14258088171482086, 0.0017815232276916504, 0.389877587556839, 0.05010780319571495, 0.03786543756723404, 0.0847545713186264, 0.2953261137008667, -0.2901630699634552, -0.0796465054154396, 0.10563147068023682, -0.07709981501102448, -0.11086335778236389, -0.11569677293300629, -0.3336777091026306, -0.0492689423263073, 0.02419603429734707, -0.14710280299186707, -0.015353036113083363, -0.09967590123414993, 0.19453823566436768, 0.24535837769508362, -0.09744538366794586, -0.1398863047361374, -0.12798157334327698, -0.11104074120521545, 0.15345242619514465, 0.06938230246305466, 0.13989174365997314, -0.017539527267217636, 0.14461250603199005, -0.29893338680267334, 0.1272481232881546, 0.1742670238018036, -0.36385393142700195, -0.031590208411216736, -0.08841225504875183, -0.01555708423256874, -0.0873907208442688, 0.35772815346717834, 0.006148789077997208, -0.014094413258135319, -0.3683727979660034, 0.238429993391037, 0.13071349263191223, -0.054882679134607315, 0.08498299866914749, 0.17697657644748688, 0.05290845036506653, -0.08926372975111008, -0.038313157856464386, -0.04937261715531349, 0.07157333940267563, 0.3002066910266876, -0.40499311685562134, -0.15366828441619873, -0.10588417202234268, 0.14733649790287018, 0.2398826777935028, 0.08282289654016495, -0.04760539159178734, 0.14875011146068573, -0.13526813685894012, -0.19689689576625824, -0.1732167899608612, -0.1786767840385437, -0.03554911911487579, -0.06287496536970139, -0.03709717467427254, -0.0013975147157907486, 0.2505161166191101, -0.012218075804412365, -0.0999656543135643, 0.12833358347415924, -0.13902665674686432, 0.24212607741355896, -0.0766850933432579, 0.05871531367301941, -0.16130216419696808, 0.07257474213838577, 0.11933023482561111, -0.17694318294525146, 0.08161791414022446, -0.005083119496703148, -0.025133289396762848, -0.019696807488799095, 0.1141994446516037, 0.19187712669372559, 0.2384273111820221, 0.0013171531027182937, 0.19792433083057404, -0.15710197389125824, -0.17301909625530243, -0.08972008526325226, -0.13461682200431824, 0.008398831821978092, 0.11817441880702972, -0.09530290216207504, -0.08366678655147552, 0.07018115371465683, 0.02918410487473011, 0.2272413671016693, -0.08877506107091904, 0.3309582769870758, 0.1177140474319458, 0.05033823847770691, -0.09628518670797348, 0.09720703214406967, 0.13112279772758484, 0.3260454535484314, -0.3250894546508789, -0.12985709309577942, -0.13946129381656647, -0.11073429137468338, 0.008509903214871883, 0.22081318497657776, -0.21525900065898895, 0.1754462718963623, 0.23095554113388062, -0.14149601757526398, 0.022533465176820755, -0.12910500168800354, 0.03559558838605881, -0.14538106322288513, -0.16204603016376495, -0.2215801477432251, -0.11446088552474976, 0.18777962028980255, -0.009346548467874527, -0.024673910811543465, -0.09646392613649368, 0.14450442790985107, -0.17254891991615295, -0.10970902442932129, -0.15903495252132416, -0.1184307113289833, 0.1084514856338501, -0.22035309672355652, -0.06313793361186981, -0.03649139776825905, 0.07694018632173538, 0.03182196989655495, -0.13766203820705414, 0.23898597061634064, -0.26228511333465576, 0.05675211176276207, 0.0271859522908926, -0.06526338309049606, 0.12407397478818893, 0.18071497976779938, 0.09783037006855011, 0.019794411957263947, 0.09964160621166229, 0.16001026332378387, 0.058067772537469864, -0.03932463377714157, -0.006671351380646229, 0.2074827402830124, 0.05291339010000229, -0.06209215894341469, -0.18955574929714203, -0.10826326161623001, 0.1989688277244568, -0.010272951796650887, -0.0548589788377285, 0.10099287331104279, -0.09427350759506226, 0.05192292854189873, -0.1846562922000885, 0.10440569370985031, 0.18464647233486176, 0.17176857590675354, 0.17230021953582764, -0.07537516951560974, -0.0938415378332138, 0.05322199687361717, -0.19848869740962982, -0.05222450569272041, -0.1893736571073532, 0.1612275242805481, 0.10425685346126556, -0.14510472118854523, 0.27303943037986755, 0.11057519912719727, -0.24061506986618042, 0.20758874714374542, -0.4472532570362091, -0.2306816428899765, -0.1060214564204216, -0.0072048199363052845, 0.007808476220816374, 0.009856284596025944, -0.008762672543525696, -0.01648910529911518, 0.10559385269880295, 0.11513830721378326, 0.1100727841258049, 0.03967252001166344, 0.04763602092862129, -0.16786006093025208, 0.08463384956121445, -0.22876237332820892, -0.11143390834331512, -0.04443060979247093, 0.17011095583438873, 0.005383097101002932, -0.17672567069530487, 0.03303683549165726, -0.14579880237579346, 0.03567589819431305, 0.00022730836644768715, -0.06536038219928741, 0.0310286283493042, 0.01962965726852417, -0.08294843137264252, -0.10238736122846603, 0.1035841703414917, 0.09943025559186935, -0.054022349417209625, 0.12381909787654877, 0.06535318493843079, -0.031500138342380524, -0.05230338126420975, 0.0032279000151902437, 0.022077182307839394, 0.03502248600125313, 0.08702486753463745, -0.10638140141963959, -0.14524182677268982, 0.09375499933958054, 0.009397533722221851, 0.10139333456754684, 0.08095920830965042, -0.11967144161462784, -0.06716298311948776, 0.037430111318826675, -0.027961909770965576, -0.07948953658342361, 0.10263420641422272, -0.0524083636701107, -0.07753761112689972, -0.13167588412761688, -0.008425015024840832, -0.17308932542800903, 0.023634187877178192, -0.006882185582071543, 0.059994567185640335, 0.04150770232081413, -0.0140449907630682, 0.15526342391967773, -0.056153569370508194, -0.04903719946742058, -0.0883677676320076, -0.11047674715518951, 0.10446514934301376, -0.10814407467842102, 0.11144634336233139, -0.14192727208137512, 0.10949940234422684, 0.14244255423545837, 0.08882447332143784, 0.012823322787880898, -0.07413263618946075, -0.024816857650876045, 0.14721478521823883, -0.08364354074001312, 0.03581489622592926, -0.06376433372497559, 0.04026637598872185, -0.0748981386423111, 0.11844661086797714, -0.12453371286392212, 0.09844741225242615, -0.06627392023801804, -0.06187610700726509, -0.007956922985613346, 0.08915986120700836, 0.00409149331972003, -0.14381925761699677, 0.10224208980798721, 0.13521336019039154, 0.14843076467514038, 0.05877621844410896, 0.0414423793554306, -0.09278887510299683, -0.046863701194524765, -0.13966956734657288, -0.021464107558131218, -0.007839796133339405, 0.11627219617366791, -0.05403656139969826, -0.004016061779111624, 0.021662723273038864, -0.18692389130592346, -0.029126860201358795, 0.13773618638515472, 0.010028992779552937, 0.2222038060426712, -0.011151080951094627, 0.07249735295772552, 0.09267070889472961, 0.0649566724896431, -0.06453626602888107, 0.1820344775915146, -0.12818191945552826, -0.11443042755126953, 0.2330516129732132, 0.0388990193605423, 0.12319930642843246, -0.18874245882034302, -0.057639554142951965, 0.16397163271903992, -0.1517728716135025, -0.16633819043636322, 0.1673012226819992, -0.00021824119903612882, -0.10821285098791122, 0.050819188356399536, -0.14505445957183838, 0.13429579138755798, 0.009050903841853142, -0.1478794515132904, -0.0288850124925375, -0.023699335753917694, 0.03153686225414276, 0.007029178086668253, 0.0307335052639246, -0.08788630366325378, 0.06055903807282448, -0.1494961977005005, -0.113893061876297, 0.14610838890075684, -0.020685464143753052, -0.23092590272426605, 0.05057930201292038, 0.023945480585098267, 0.2010011076927185, 0.06755470484495163, 0.09991303086280823, 0.12429676949977875, 0.03377864137291908, 0.14110656082630157, 0.19831638038158417, -0.14799444377422333, 0.013474847190082073, -0.20046792924404144, 0.05523685738444328, 0.05552639067173004, -0.08346983790397644, -0.14852526783943176, 0.1697470247745514, -0.14870166778564453, 0.14534030854701996, -0.034473542124032974, 0.0766349658370018, 0.17380575835704803, -0.16317331790924072, 0.08955196291208267, 0.05378726124763489, -0.08777200430631638, 0.013280972838401794, -0.07352389395236969, -0.01697140745818615, -0.07933596521615982, -0.011919812299311161, 0.12370531260967255, 0.13346076011657715, -0.10964331030845642, -0.1031806617975235, -0.013830114156007767, 0.0680270865559578, 0.11431685835123062, 0.04717234894633293, 0.0569797083735466, 0.0455801896750927, -0.07792290300130844, -0.09919562190771103, -0.06277243793010712, -0.020936856046319008, -0.012485092505812645, -0.03369002044200897, 0.18393251299858093, -0.055384863168001175, -0.006845810450613499, 0.050072334706783295, -0.03369249403476715, -0.04201221093535423, 0.12691333889961243, 0.008917582221329212, 0.01769566349685192, -0.013947835192084312, -0.05057161673903465, -0.020437907427549362, 0.005371293053030968, -0.04125216230750084, 0.13212373852729797, 0.04064683988690376, -0.24717237055301666, 0.056129053235054016, 0.027034547179937363, 0.2073163241147995, 0.10750007629394531, 0.0422716960310936, 0.09513396769762039, -0.12781842052936554, 0.04825062304735184, 0.23179543018341064, -0.0685536116361618, -0.02764754742383957, 0.11887673288583755, -0.04533148184418678, 0.0637703388929367, 0.15421907603740692, -0.02590758353471756, -0.03726445138454437, -0.09577479213476181, 0.05446061119437218, -0.07591889798641205, -0.08553425222635269, 0.07486166059970856, 0.022789999842643738, -0.1473316103219986, 0.01564391516149044, 0.09986164420843124, 0.07165927439928055, 0.1587207019329071, -0.04517487809062004, -0.08001936227083206, -0.07260263711214066, 0.025045784190297127, -0.026517288759350777, -0.1550021469593048, -0.10214614868164062, 0.06004082038998604, -0.06073707714676857, -0.08876413106918335, -0.04355784133076668, 0.002690855646505952, 0.009748236276209354, 0.027512654662132263, 0.11358147114515305, 0.0242513008415699, -0.06699688732624054, 0.040617842227220535, 0.2202242761850357, 0.05950560048222542, -0.17316201329231262, 0.10165083408355713, -0.06795687228441238, 0.02586473524570465, -0.1104031354188919, -0.21638482809066772, -0.05280337855219841, -0.10782255232334137, -0.11291202902793884, 0.06177892908453941, -0.08596398681402206, -0.03719129040837288, -0.007999202236533165, -0.10257334262132645, -0.10409064590930939, -0.005670522805303335, -0.15426324307918549, 0.11969377100467682, 0.060742441564798355, -0.05643250793218613, -0.13037900626659393, 0.04514789581298828, -0.03190547227859497, -0.05906780809164047, -0.12534098327159882, -0.007723398972302675, 0.08308222889900208, -0.06791774183511734, -0.002034552861005068, -0.022459223866462708, 0.02585606649518013, -0.01414148136973381, 0.2233256846666336, 0.0468568280339241, 0.07487314939498901, -0.10035952180624008, -0.04725955054163933, -0.11611063033342361, -0.05870582163333893, 0.12137122452259064, -0.07346892356872559, -0.15899842977523804, -0.03729947656393051, 0.1963730752468109, 0.09229948371648788, 0.004785831551998854, -0.04307621344923973, -0.034550972282886505, -0.010736384429037571, 0.061247579753398895, -0.06822452694177628, -0.02107197977602482, 0.08046311885118484, -0.10183525085449219, -0.04386157542467117, -0.04023893550038338, 0.14740227162837982, -0.018859634175896645, 0.021791579201817513, 0.010331893339753151, 0.030046161264181137, -0.07028914988040924, 0.06621477752923965, -0.06601130217313766, 0.04661908000707626, 0.036707598716020584, -0.10893531888723373, 0.14811593294143677, 0.08690527081489563, -0.1091611459851265, -0.10623137652873993, 0.008308177813887596, 0.16689686477184296, -0.03744303435087204, 0.14313077926635742, -0.15019002556800842, -0.14784567058086395, 0.047531843185424805, -0.06902961432933807, -0.024187028408050537, -0.022273899987339973, -0.08598794788122177, -0.136108860373497, -0.11636117845773697, 0.12549255788326263, -0.08100137114524841, -0.130281463265419, 0.056879181414842606, -0.1806386560201645, 0.004216635134071112, 0.1348882019519806, 0.20080527663230896, -0.0692211389541626, -0.03664908558130264, 0.125469371676445, 0.11112628132104874, -0.22295796871185303, 0.041424211114645004, 0.05716324597597122, 0.11815520375967026, -0.14504656195640564, 0.07144332677125931, -0.007183086592704058, -0.1639316827058792, 0.008144279941916466, 0.020358018577098846, -0.13095130026340485, 0.0735073834657669, -0.09941194951534271, 0.062822625041008, 0.1359906643629074, 0.0076550948433578014, -0.076811283826828, -0.08757481724023819, 0.026102356612682343, -0.03953840956091881, 0.09459669142961502, -0.031427860260009766, -0.06870653480291367, 0.0554920993745327, -0.08484126627445221, -0.010860269889235497, 0.1095888540148735, -0.21740847826004028, 0.07492072880268097, -0.1446375995874405, 0.026327677071094513, 0.009903599508106709, 0.10740509629249573, -0.1679396629333496, -0.04118083044886589, 0.016657883301377296, 0.12502248585224152, -0.21793676912784576, -0.1342221349477768, 0.0982232391834259, -0.07292795181274414, -0.12058734148740768, -0.05561616271734238, -0.001953898463398218, -0.13186778128147125, -0.12533150613307953, -0.1374266892671585, -0.01678652875125408, -0.0837150514125824, 0.07311315834522247, -0.2350185215473175, 0.022152293473482132, -0.03837985545396805, -0.08004319667816162, 0.006479400210082531, -0.08254261314868927, 0.06562618166208267, 0.09842916578054428, -0.169123113155365, 0.00938680674880743, -0.03990689292550087, 0.010435657575726509, -0.20240631699562073, -0.2195911705493927, 0.1499331295490265, 0.14265932142734528, 0.08605482429265976, 0.04522455111145973, -0.16087783873081207, -0.09784822165966034, 0.05456339567899704, -0.09821738302707672, 0.13402417302131653, -0.00833661388605833, 0.12844310700893402, -0.006058108061552048, 0.09687820076942444, -0.005713745020329952, -0.029547663405537605, 0.011586306616663933, 0.13977180421352386, -0.1476026326417923, -0.16104590892791748, 0.12523460388183594, 0.07291758805513382, 0.04033740237355232, -0.12755103409290314, 0.22343900799751282, 0.154991015791893, -0.018841544166207314, 0.10340358316898346, 0.07262182235717773, 0.29582440853118896, 0.046376731246709824, -0.12555545568466187, 0.005459576845169067, 0.019749460741877556, 0.1407647281885147, 0.11593610048294067, 0.03882307931780815, 0.13242080807685852, 0.0435267798602581, 0.06694561243057251, -0.0657423883676529, -0.08722247183322906, -0.1243211105465889, -0.05374976620078087, -0.04252171888947487, 0.03498665988445282, -0.10410138964653015, -0.034100957214832306, 0.0017822181107476354, -0.21882237493991852, 0.03232382982969284, -0.15080943703651428, -0.01331615075469017, -0.16647617518901825, -0.07468800991773605, -0.01561309490352869, -0.14962905645370483, 0.06633251905441284, 0.0350668728351593, -0.07090650498867035, 0.1719142347574234, 0.11848612129688263, 0.03762279823422432, -0.11610879749059677, -0.18966345489025116, 0.08007435500621796, -0.042404547333717346, 0.05097957327961922, 0.030409980565309525, -0.09476018697023392, 0.062295250594615936, -0.1299501657485962, -0.1438780277967453, 0.05917616933584213, 0.08591028302907944, -0.199934184551239, -0.04768778383731842, 0.02206486277282238, -0.027319684624671936, 0.11586391180753708, -0.007980401627719402, 0.03478088974952698, 0.027015112340450287, 0.22922667860984802, 0.24914121627807617, 0.04793786630034447, 0.0787959173321724, 0.07173190265893936, 0.06185195967555046, 0.17749033868312836, 0.1525581330060959, 0.13826771080493927, -0.12962502241134644, 0.09670095890760422, 0.035304587334394455, 0.12191549688577652, 0.016506541520357132, 0.10446667671203613, -0.08861389011144638, -0.20554323494434357, -0.03402365371584892, 0.07979438453912735, -0.05008557811379433, -0.05955672264099121, 0.028251292183995247, -0.057955048978328705, -0.050101518630981445, -0.06420060992240906, 0.004576088860630989, 0.18651577830314636, -0.023532485589385033, 0.10871539264917374, 0.06013457104563713, -0.11058881133794785, 0.06059424579143524, 0.09002213925123215, 0.00462251016870141, -0.042401544749736786, 0.11367543786764145, -0.06623337417840958, -0.05453190952539444, -0.048423927277326584, 0.20118969678878784, -0.12027367204427719, 0.01677185483276844, -0.2750856876373291, -0.034552525728940964, 0.06951011717319489, 0.09810397028923035, 0.07597925513982773, 0.09408443421125412, -0.13060781359672546, 0.06306406110525131, 0.0768083781003952, -0.064876988530159, 0.19884392619132996, -0.12412373721599579, -0.039694808423519135, 0.028087038546800613, 0.02882641926407814, -0.055268291383981705, -0.0017821644432842731, -0.07002303004264832, -0.21265506744384766, -0.10289617627859116, -0.11819101870059967, 0.1260443478822708, 0.13515344262123108, 0.12357916682958603, -0.0883379802107811, -0.15929563343524933, -0.1791086345911026, 0.030690666288137436, -0.06161516532301903, -0.1560809463262558, -0.017523523420095444, -0.22125296294689178, -0.02130843512713909, -0.06915737688541412, 0.005445179063826799, 0.028665989637374878, 0.012707113288342953, 0.06886156648397446, 0.0035828102845698595, -0.04718694090843201, -0.0029810438863933086, -0.09231383353471756, -0.19632910192012787, 0.19572888314723969, -0.020346036180853844, -0.2072717249393463, 0.25235286355018616, -0.058774322271347046, -0.014603869989514351, -0.1414722353219986, -0.10775537043809891, -0.10595971345901489, 0.266369491815567, 0.14057761430740356, 0.04110890254378319, -0.17181465029716492, 0.020843274891376495, -0.09586421400308609, -0.028028788045048714, -0.023027673363685608, -0.01560129877179861, 0.022721191868185997, -0.002420566976070404, 0.03561239317059517, 0.09905049949884415, -0.028537247329950333, 0.02554638311266899, 0.07883089035749435, -0.22958071529865265, 0.08699209243059158, -0.03723591938614845, 0.04012824594974518, -0.0948358029127121, -0.009242154657840729, 0.03977346420288086, -0.14478932321071625, 0.023682506754994392, -0.15152086317539215, 0.020786922425031662, 0.08254661411046982, 0.04846363887190819, 0.15310519933700562, -0.01962331123650074, -0.06387719511985779, -0.11457617580890656, 0.14226433634757996, -0.010740446858108044, 0.07595264911651611, -0.10004286468029022, 0.1700475662946701, 0.1477799415588379, -0.013356564566493034, 0.04937442019581795, 0.09585452824831009, -0.2439107596874237, 0.07013341039419174, -0.051193807274103165, 0.132653146982193, -0.030138280242681503, -0.024817774072289467, 0.043452806770801544, 0.11911622434854507, -0.08365929871797562, -0.030697958543896675, 0.15631189942359924, 0.04664302244782448, -0.18171539902687073, -0.15480946004390717, -0.0491752028465271, 0.14500491321086884, -0.17017102241516113, 0.10678946226835251, 0.08415480703115463, -0.12799938023090363, -0.07113496214151382, 0.0010271331993862987, -0.042116280645132065, 0.013039343059062958, -0.010555855929851532, -0.014217827469110489, -0.006809445098042488, -0.04775543138384819, 0.025689005851745605, 0.051669344305992126, -0.03817933425307274, -0.048994261771440506, -0.0900481715798378, 0.20178012549877167, 0.011383943259716034, 0.05723990127444267, -0.19893746078014374, -0.20630767941474915, -0.02964620478451252, -0.005061051808297634, 0.014234574511647224, 0.12201790511608124, -0.03176926448941231, 0.16739365458488464, 0.18517766892910004, -0.13700886070728302, 0.004627908114343882, 0.0048544504679739475, -0.11336463689804077, -0.09144928306341171, -0.01137141976505518, 0.010131527669727802, 0.08600494265556335, 0.12460674345493317, -0.018875915557146072, 0.06372911483049393, 0.018695328384637833, 0.11945533752441406, -0.037468671798706055, -0.06946869194507599, 0.09709174931049347, -0.1403903216123581, -0.09708874672651291, 0.012139170430600643, -0.0466645210981369, -0.01951855607330799, -0.10326997190713882, 0.09730806201696396, -0.03471476212143898, -0.13983725011348724, -0.06979440897703171, 0.043360088020563126, -0.07277976721525192, 0.026565829291939735, -0.021845083683729172, -0.004848203621804714, -0.012861852534115314, -0.12234809994697571, 0.06996694207191467, 0.14333787560462952, 0.009256629273295403, -0.05230120196938515, -0.026382504031062126, 0.048543669283390045, 0.1406598687171936, -0.11230067163705826, 0.12202095240354538, -0.22422419488430023, -0.107431560754776, -0.12017370015382767, -0.06284747272729874, -0.12525369226932526, -0.1458793580532074, 0.16076886653900146, -0.027952978387475014, -0.10603828728199005, 0.15060459077358246, 0.046569425612688065, 0.09704827517271042, -0.1044701337814331, -0.16663630306720734, -0.024374689906835556, 0.13808895647525787, 0.03870052099227905, 0.15533387660980225, 0.1294289231300354, -0.08430444449186325, 0.20799598097801208, 0.021272428333759308, -0.009195199236273766, -0.05185244232416153, 0.15229183435440063, 0.07540006190538406, -0.035704463720321655, 0.06084633991122246, 0.10777375102043152, 0.037850271910429, -0.02001281827688217, 0.08941144496202469, -0.073450468480587, -0.02828148938715458, 0.0007540906080976129, 0.11463335901498795, 0.14506401121616364, 0.06907238066196442, -0.10058988630771637, -0.045395929366350174, -0.13854220509529114, -0.004468596540391445, 0.11371296644210815, -0.06452688574790955, -0.14448004961013794, -0.07002874463796616, -0.03175912797451019, -0.0964953601360321, 0.22889895737171173, -0.13156704604625702, 0.10032858699560165, -0.21308958530426025, 0.018005797639489174, 0.10382881760597229, -0.21723809838294983, 0.16070975363254547, -0.024269254878163338, -0.1462065577507019, -0.1370125561952591, -0.2602273225784302, 0.10012676566839218, 0.09024592489004135, 0.037888359278440475, 0.0035423145163804293, -0.07924334704875946, 0.08140306174755096, -0.028057649731636047, -0.02592713013291359, -0.08404315263032913, 0.09926225244998932, 0.04753462225198746, 0.018871519714593887, -0.027669835835695267, -0.115300253033638, 0.04428195208311081, -0.029437869787216187, 0.04804857820272446, -0.23976930975914001, -0.39638960361480713, 0.631555438041687, 0.47118085622787476, -0.2067231684923172, 0.09555917233228683, -0.243263840675354, -0.024288497865200043, 0.2906893193721771, -0.7362496852874756, 0.949588418006897, 0.5384379625320435, 0.04225710406899452, -0.40200290083885193, 0.16275550425052643, -0.4759388566017151, 0.169768825173378, -0.18359923362731934, 0.03377601504325867, -0.28797921538352966, 0.15645961463451385, 0.17185978591442108, 0.19350960850715637, 0.036827314645051956, 0.18627846240997314, 0.09765444695949554, 0.15452609956264496, 0.20036955177783966, -0.2555198073387146, -0.015015008859336376, -0.028312377631664276, -0.1403321623802185, 0.25248202681541443, -0.1205507218837738, 0.11053679883480072, 0.021901004016399384, 0.12724368274211884, 0.24231480062007904, 0.025234874337911606, -0.13204070925712585, -0.17380543053150177, 0.02548166736960411, -0.11247863620519638, 0.08098580688238144, 0.06712236255407333, 0.2785307765007019, 0.21455368399620056, -0.13221858441829681, -0.008180971257388592, -0.1329263150691986, 0.16087016463279724, -0.08379848301410675, -0.09082995355129242, -0.10375431925058365, -0.07743559032678604, -0.23312588036060333, -0.28422024846076965, -0.03486485779285431, 0.027480348944664, 0.08854327350854874, 0.2892262935638428, -0.08647710084915161, -0.11610628664493561, 0.13605913519859314, 0.29811325669288635, -0.11911632120609283, 0.2217620462179184, -0.18975070118904114, -0.08043824136257172, 0.24652791023254395, -0.14028030633926392, 0.2735278308391571, 0.25873562693595886, 0.005387261975556612, -0.07913093268871307, 0.38272103667259216, -0.010600595735013485, 0.1467292755842209, 0.2785082757472992, -0.07661450654268265, 0.06289456784725189, -0.05140816420316696, 0.22060278058052063, -0.1626349687576294, 0.05642683431506157, -0.08095503598451614, 0.1264561414718628, 0.007981160655617714, 0.15199348330497742, 0.09552758187055588, -0.29236114025115967, 0.16476298868656158, -0.1959458440542221, -0.15360091626644135, 0.1263117790222168, -0.09512045979499817, -0.16310517489910126, -0.010239844210445881, -0.1013697013258934, -0.026425162330269814, -0.08027513325214386, -0.09047257900238037, 0.20192578434944153, 0.0693238154053688, -0.20466311275959015, -0.140764057636261, -0.03431333228945732, -0.05497578904032707, 0.05251901596784592, 0.09747350215911865, 0.12433351576328278, 0.16305063664913177, -0.051728010177612305, 0.2501746118068695, -0.16022078692913055, 0.23945003747940063, 0.036369502544403076, -0.13157036900520325, -0.02039439044892788, -0.14143557846546173, -0.46787452697753906, -0.008349282667040825, 0.4492167830467224, -0.44955313205718994, 0.18804775178432465, -0.03511929512023926, -0.018082641065120697, 0.161367267370224, 0.15429440140724182, 0.12430112808942795, -0.1404315084218979, -0.08520965278148651, 0.1702127903699875, -0.15262450277805328, 0.014421853236854076, -0.0857565626502037, 0.12397933751344681, 0.15650373697280884, 0.10152850300073624, 0.186836376786232, 0.05226564034819603, 0.17273332178592682, 0.10483916103839874, -0.05769754946231842, -0.2648625075817108, 0.3078893721103668, 0.0532882995903492, 0.28420621156692505, 0.014484681189060211, -0.06494667381048203, -0.25936514139175415, -0.12122811377048492, -0.10468074679374695, 0.07570934295654297, 0.0030841745901852846, 0.19904762506484985, -0.1615697294473648, 0.016431404277682304, -0.06376370787620544, 0.06426763534545898, 0.18653123080730438, -0.15324042737483978, -0.2256973832845688, 0.16567400097846985, 0.08876219391822815, 0.15878774225711823, -0.14401906728744507, -0.1448037177324295, -0.04026959463953972, -0.021092332899570465, 0.1596459299325943, -0.1218484416604042, -0.04968223720788956, -0.15228797495365143, 0.2640964686870575, -0.14109137654304504, 0.11032254993915558, -0.08628012239933014, 0.010473869740962982, -0.10112131386995316, -0.008202791213989258, -0.17177723348140717, 0.028394244611263275, -0.1733672022819519, 0.12794490158557892, 0.18994785845279694, -0.15690754354000092, 0.04105762764811516, 0.18503281474113464, -0.13620240986347198, 0.01714435964822769, 0.26989081501960754, 0.11091985553503036, -0.026899099349975586, -0.08013992756605148, -0.022673657163977623, -0.0878923311829567, 0.2701033353805542, 0.26612553000450134, 0.139755517244339, -0.025617187842726707, -0.23160377144813538, -0.1602877676486969, 0.3027537167072296, -0.3009684383869171, -0.3270241916179657, 0.06554188579320908, 0.03683090582489967, -0.19769176840782166, -0.22344079613685608, -0.0816456526517868, -0.07480435073375702, 0.11770423501729965, 0.15625351667404175, -0.20379777252674103, -0.1796436756849289, 0.04496356099843979, -0.07929731905460358, -0.20564676821231842, -0.04122109338641167, 0.003129753516986966, 0.12402453273534775, 0.06664955615997314, -0.12426067143678665, -0.1920616775751114, 0.2116549015045166, -0.14841921627521515, 0.05622793734073639, 0.04256962612271309, -0.155789315700531, 0.08103650063276291, -0.22118471562862396, -0.02560342103242874, 0.021433399990200996, 0.10030547529459, -0.34741926193237305, 0.04524099454283714, 0.20230846107006073, -0.21787627041339874, 0.08369303494691849, 0.02419435977935791, 0.22485263645648956, -0.07781171053647995, -0.018135955557227135, -0.13409137725830078, 0.005154841113835573, 0.062184564769268036, -0.22155044972896576, 0.13346968591213226, 0.19042488932609558, -0.013675691559910774, 0.19990260899066925, -0.039472464472055435, 0.07359626144170761, 0.022725800052285194, -0.16371765732765198, -0.14029239118099213, -0.090845987200737, -0.040892794728279114, -0.19841861724853516, -0.13455544412136078, -0.05300644412636757, -0.05836561694741249, -0.20358124375343323, -0.06859682500362396, 0.17980273067951202, 0.26689955592155457, 0.1795441061258316, -0.14557336270809174, -0.10126113146543503, -0.10607290267944336, 0.2022012174129486, 0.08946648240089417, 0.04124434292316437, -0.02412438578903675, 0.12197808176279068, -0.06498970091342926, 0.12212114036083221, 0.07392948120832443, -0.03377613425254822, -0.17248307168483734, -0.1402219831943512, 0.016852134838700294, 0.11811318248510361, 0.17748893797397614, 0.1381300836801529, 0.060870956629514694, -0.011345078237354755, 0.10375729948282242, -0.16768626868724823, 0.005738687235862017, -0.24335287511348724, 0.034300509840250015, 0.05511036887764931, 0.07650897651910782, -0.041232042014598846, 0.10395462810993195, -0.11626347154378891, -0.21640285849571228, 0.1754121631383896, 0.062308765947818756, -0.24894830584526062, -0.01505136489868164, 0.0024244089145213366, -0.08772490918636322, -0.005294439848512411, 0.25796735286712646, 0.07602880895137787, -0.030848152935504913, -0.1652185022830963, 0.07852406054735184, 0.03795050457119942, 0.12838484346866608, -0.05691752955317497, 0.10291449725627899, -0.002863601315766573, 0.09321197867393494, -0.15135468542575836, 0.00701897731050849, -0.14899203181266785, 0.30109119415283203, 0.11190178990364075, -0.23064012825489044, -0.09610011428594589, -0.19539795815944672, -0.04142329841852188, -0.05261639133095741, -0.021040959283709526, -0.01061393041163683, -0.08614566922187805, -0.15757623314857483, -0.17803733050823212, 0.029646847397089005, 0.26954472064971924, -0.3182242810726166, 0.07397905737161636, 0.05463322624564171, 0.07680335640907288, -0.1242917850613594, 0.04678523913025856, 0.01920834556221962, -0.09001770615577698, -0.023805787786841393, -0.13433486223220825, 0.06459871679544449, 0.031713321805000305, 0.19525733590126038, 0.10560355335474014, 0.11697618663311005, 0.09695571660995483, 0.08547092229127884, 0.11104210466146469, -0.12805402278900146, -0.16025753319263458, -0.209978386759758, 0.08907674998044968, -0.03715220093727112, 0.00573475006967783, -0.10954250395298004, -0.1105489507317543, -0.05102428048849106, 0.15195512771606445, -0.058492016047239304, 0.1060776337981224, 0.1589222252368927, 0.1097695454955101, -0.07573238760232925, 0.04899730160832405, 0.007323459722101688, 0.2680356800556183, -0.009625141508877277, -0.17280203104019165, -0.10032341629266739, 0.009645075537264347, 0.04568854346871376, -0.2656751573085785, 0.05758590251207352, -0.10370103269815445, 0.011587790213525295, 0.13472069799900055, 0.0819956362247467, 0.0706004723906517, 0.09878122806549072, -0.05943461135029793, -0.1876205950975418, -0.06820454448461533, 0.0495101623237133, 0.25731682777404785, -0.1452101469039917, -0.0482790544629097, -0.050089385360479355, -0.015445612370967865, 0.11451628059148788, -0.17553681135177612, 0.03581812605261803, -0.019702905789017677, 0.04345153272151947, -0.02452928200364113, 0.04033920168876648, -0.17860674858093262, -0.1267802119255066, 0.025568872690200806, 0.040227219462394714, 0.10888257622718811, -0.2124069482088089, -0.06422070413827896, -0.09239600598812103, 0.021324967965483665, -0.01689557358622551, 0.06402706354856491, 0.10635591298341751, -0.008326840586960316, -0.021602056920528412, 0.031562257558107376, 0.025376293808221817, 0.15690824389457703, 0.021031131967902184, -0.2744002640247345, -0.039908766746520996, -0.07337190955877304, -0.03436942398548126, -0.06157292053103447, -0.03564095497131348, 0.010468686930835247, -0.02861173264682293, -0.027551012113690376, 0.1618829220533371, -0.1659896820783615, -0.03641173616051674, -0.1579580157995224, 0.11694545298814774, -0.030988482758402824, -0.08068539202213287, 0.21687708795070648, 0.044722188264131546, 0.07029949873685837, 0.058049559593200684, 0.07096049934625626, 0.15003886818885803, 0.021769577637314796, -0.10205098986625671, 0.0385170616209507, 0.24358971416950226, -0.023264221847057343, 0.10011277347803116, 0.17926283180713654, -0.13232554495334625, -0.08044134825468063, -0.07893998175859451, 0.12818221747875214, 0.07983362674713135, -0.17339159548282623, 0.06348873674869537, -0.012958568520843983, -0.03186362236738205, 0.1144653707742691, 0.06750073283910751, -0.22802601754665375, -0.20564699172973633, -0.22585538029670715, 0.0004637181991711259, 0.15490618348121643, 0.023451710119843483, 0.1271010786294937, -0.08122006058692932, -0.06041732802987099, 0.19196899235248566, 0.13892722129821777, 0.059767160564661026, 0.18840989470481873, -0.0946073830127716, 0.16461285948753357, 0.11264140903949738, -0.15287533402442932, -0.05183601379394531, 0.07462894916534424, -0.17904773354530334, -0.18218478560447693, 0.026093434542417526, -0.04483529180288315, 0.19368186593055725, -0.012598826549947262, -0.1640205979347229, 0.08364138752222061, 0.1498376578092575, 0.05188518017530441, -0.14518430829048157, 0.10396858304738998, -0.05220991000533104, 0.0381314791738987, 0.00047221241402439773, 0.1219877302646637, -0.009257870726287365, -0.13239501416683197, -0.048540204763412476, -0.012946855276823044, 0.048728764057159424, 0.2131381332874298, -0.01484654750674963, -0.17127454280853271, 0.09510498493909836, 0.20680496096611023, 0.10869670659303665, -0.0065252166241407394, -0.16572275757789612, 0.0008354549063369632, -0.02340235561132431, -0.009774185717105865, -0.06668449938297272, -0.028584973886609077, -0.06700494885444641, -0.027474014088511467, -0.13060139119625092, 0.018541907891631126, -0.16827569901943207, -0.11971799284219742, -0.18350541591644287, 0.07444028556346893, -0.02870224043726921, -0.2579500377178192, -0.08142907917499542, -0.02306150458753109, -0.1486910730600357, -0.04536215588450432, 0.09367503225803375, -0.05813617631793022, -0.10360990464687347, 0.018110103905200958, 0.08008545637130737, -0.07213892787694931, -0.18211445212364197, -0.10674915462732315, -0.034678347408771515, -0.05965089797973633, -0.07323223352432251, 0.08536618947982788, 0.17152747511863708, -0.017903929576277733, 0.13248080015182495, -0.1590219885110855, 0.11506161838769913, -0.024029815569519997, -0.0997639074921608, 0.0333220399916172, -0.10176421701908112, 0.02062191255390644, -0.07184881716966629, 0.0805448442697525, 0.03899810090661049, 0.1224571168422699, -0.02436988800764084, -0.07265377044677734, -0.2584918737411499, 0.03888283297419548, 0.03528710827231407, 0.10436683893203735, 0.0676637515425682, -0.15030701458454132, -0.14322428405284882, -0.1111808717250824, -0.030264293774962425, 0.19467122852802277, -0.0053404709324240685, 0.016058167442679405, -0.06793536245822906, -0.003597868140786886, -0.08799709379673004, -0.16268980503082275, -0.05851809307932854, 0.057899296283721924, -0.15385562181472778, 0.025356585159897804, 0.06811770051717758, -0.08610980957746506, 0.13913187384605408, -0.10799738019704819, 0.21037901937961578, -0.003515050280839205, -0.1512449085712433, -0.15237928926944733, -0.06636577099561691, -0.04963251203298569, -0.026032589375972748, 0.1348818838596344, 0.09538892656564713, -0.0666092038154602, -0.34799644351005554, -0.03690750524401665, -0.06994050741195679, -0.1577654480934143, 0.10688109695911407, -0.014783252030611038, -0.20080538094043732, 0.09855738282203674, 0.004956332501024008, 0.11642210185527802, 0.0017141241114586592, 0.22744609415531158, 0.06904663145542145, -0.02141677215695381, -0.09689847379922867, 0.07204863429069519, 0.09420176595449448, 0.05240578204393387, 0.03903075307607651, -0.0747026801109314, 0.07334339618682861, -0.0644683763384819, 0.19725297391414642, 0.053847622126340866, -0.3075461983680725, -0.004749347921460867, 0.11654770374298096, -0.07959386706352234, -0.023921407759189606, -0.22589415311813354, 0.01735481433570385, -0.08326825499534607, -0.1033480167388916, 0.0641210526227951, 0.18449199199676514, 0.006791020277887583, 0.041392263025045395, -0.11793145537376404, -0.10658426582813263, -0.08307439833879471, 0.010999062098562717, 0.08933093398809433, -0.04491736367344856, 0.11890891194343567, -0.07356879115104675, -0.12211143970489502, 0.08895561099052429, -0.10103751718997955, 0.15049509704113007, 0.022334100678563118, -0.0610756017267704, 0.14117352664470673, -0.0650697648525238, -0.13941529393196106, -0.10777260363101959, -0.005294655449688435, 0.025596776977181435, -0.17534512281417847, 0.0632772222161293, -0.12056416273117065, 0.015201853588223457, -0.024952730163931847, 0.09714903682470322, -0.013846960850059986, -0.04371276870369911, -0.13784916698932648, -0.1051115095615387, 0.09933529049158096, 0.00762066338211298, -0.05889669433236122, -0.19160465896129608, -0.08827009052038193, -0.061545439064502716, 0.17943158745765686, 0.14037837088108063, 0.03883802890777588, 0.08361131697893143, 0.16252487897872925, -0.11710374802350998, -0.09682134538888931, 0.04913460090756416, -0.08071158081293106, -0.09218183159828186, 0.006326489150524139, -0.014597345143556595, 0.05047798901796341, -0.025678709149360657, 0.12936580181121826, 0.15494339168071747, -0.00040407877531833947, 0.09884116798639297, -0.030069779604673386, -0.07617843896150589, -0.13416266441345215, -0.0060195946134626865, 0.04364416003227234, 0.04758898913860321, 0.052388083189725876, -0.035811156034469604, -0.0009109980310313404, 0.040061332285404205, 0.06519241631031036, -0.018465647473931313, -0.0759575217962265, -0.05886829271912575, -0.15098612010478973, -0.09281861037015915, -0.03701205551624298, -0.14646819233894348, -0.16731610894203186, -0.0644439086318016, -0.03102540597319603, -0.17613635957241058, 0.17481565475463867, 0.12770144641399384, -0.08930596709251404, 0.09543365240097046, -0.06158652901649475, -0.08810506016016006, 0.3133855164051056, 0.022307127714157104, -0.08691080659627914, 0.10588043928146362, 0.06526829302310944, -0.07559981942176819, -0.16670764982700348, 0.13892996311187744, 0.0226313266903162, 0.026786481961607933, 0.18563617765903473, -0.03144555538892746, 0.1614108830690384, 0.030937206000089645, 0.22375084459781647, -0.2761238217353821, 0.16483739018440247, 0.1501339077949524, 0.23585112392902374, -0.1078273132443428, -0.01794818602502346, 0.1763753443956375, 0.026812728494405746, -0.04565431550145149, -0.08885085582733154, 0.002449541352689266, 0.06269281357526779, -0.059482477605342865, 0.15378789603710175, 0.09922196716070175, -0.09538247436285019, 0.0004359794547781348, -0.053580645471811295, 0.04718003422021866, -0.11540129035711288, 0.06922208517789841, -0.08908510953187943, -0.01850862428545952, 0.048434142023324966, 0.1813213974237442, 0.056584279984235764, -0.031206805258989334, -0.23603670299053192, -0.003591591492295265, 0.026958979666233063, -0.1045425683259964, 0.2568073272705078, -0.031224766746163368, -0.2538369297981262, -0.08962706476449966, -0.016633156687021255, 0.14282551407814026, -0.035256557166576385, -0.07145808637142181, 0.09735868126153946, 0.1325089931488037, -0.08650364726781845, 0.2084697037935257, 0.1196979433298111, -0.17974956333637238, -0.056738924235105515, 0.06882186233997345, 0.1070735976099968, 0.00525532616302371, -0.30433782935142517, -0.11897530406713486, 0.06995519250631332, 0.04139603674411774, 0.18165194988250732, -0.05263770744204521, -0.020967332646250725, 0.2266932874917984, 0.04679315164685249, 0.018723051995038986, -0.15844756364822388, -0.17764422297477722, -0.057941317558288574, -0.05094322934746742, -0.22580191493034363, -0.11386961489915848, -0.22158148884773254, 0.00218446203507483, 0.039196595549583435, -0.15026703476905823, -0.09024036675691605, -0.03546248748898506, -0.007152686361223459, 0.0810253769159317, 0.13865132629871368, 0.22906170785427094, -0.0709293931722641, 0.0320957750082016, -0.013677376322448254, 0.06609845906496048, -0.07016798853874207, -0.08095159381628036, -0.17005276679992676, -0.09577963501214981, -0.22728145122528076, 0.046601150184869766, -0.1327992081642151, 0.08102711290121078, 0.11036275327205658, 0.013700413517653942, 0.11274805665016174, 0.01924682781100273, 0.06832938641309738, 0.13964827358722687, 0.08726879209280014, -0.10225961357355118, 0.08309699594974518, -0.018793852999806404, 0.05868053436279297, -0.03994530439376831, 0.13631224632263184, 0.08322031050920486, -0.029240649193525314, -0.017938239499926567, 0.004447754472494125, 0.1754976212978363, -0.17140743136405945, -0.24386341869831085, 0.01723547838628292, -0.18121574819087982, -0.16860437393188477, 0.16919638216495514, -0.06990581750869751, -0.20013733208179474, -0.06579054147005081, 0.02155797928571701, -0.005297488532960415, -0.08355040848255157, 0.045652326196432114, -0.034454409033060074, 0.06620948016643524, -0.05356194078922272, -0.07470614463090897, 0.15943643450737, -0.07372242212295532, 0.1193259134888649, 0.019066717475652695, 0.05881123244762421, -0.07116832584142685, 0.26015108823776245, 0.007005117367953062, -0.14469796419143677, -0.024331120774149895, 0.03255019336938858, 0.05960647761821747, -0.12611790001392365, 0.08643344789743423, -0.024897441267967224, 0.12866897881031036, -0.09562031179666519, -0.15203864872455597, 0.012766261585056782, 0.1052178144454956, -0.11654096096754074, 0.10199572145938873, -0.03586355969309807, 0.08201330900192261, 0.00035886515979655087, 0.02838301844894886, -0.13464394211769104, -0.05699469521641731, 0.20558632910251617, 0.008905051276087761, -0.053196754306554794, -0.1726536899805069, 0.08108077943325043, -0.15972204506397247, -0.03070925362408161, 0.1396973878145218, -0.08391784876585007, 0.042004864662885666, 0.08209512382745743, 0.014438863843679428, -0.0876493752002716, 0.07661840319633484, -0.10671541839838028, 0.02526053600013256, 0.010546267963945866, 0.09814074635505676, -0.037042006850242615, 0.1292286366224289, -0.158940389752388, -0.22967350482940674, 0.06847769767045975, 0.011852378956973553, 0.019512804225087166, 0.01830807700753212, -0.04814119637012482, -0.25273019075393677, 0.05094943940639496, 0.1468435376882553, 0.10875953733921051, 0.029177360236644745, -0.02683510258793831, 0.2629534602165222, 0.02557293511927128, 0.0473838746547699, 0.07395977526903152, 0.018016666173934937, -0.012557756155729294, 0.07378202676773071, 0.04667187109589577, -0.06422702968120575, -0.12673112750053406, -0.19499118626117706, -0.018709443509578705, 0.17470301687717438, 0.2894967198371887, 0.013302652165293694, 0.01159233320504427, 0.10881746560335159, 0.1266779601573944, -0.08231623470783234, -0.06323082000017166, -0.06940067559480667, -0.027778035029768944, -0.13447678089141846, 0.040984489023685455, -0.11873655021190643, -0.046061936765909195, -0.049017611891031265, -0.11456555128097534, -0.007545200642198324, 0.1789851188659668, -0.169603168964386, -0.05471379682421684, -0.14180317521095276, 0.11198845505714417, 0.06754034757614136, 0.19903387129306793, -0.12492911517620087, -0.20190218091011047, 0.07954706996679306, 0.05530090257525444, -0.04125482216477394, 0.06919001787900925, -0.15438517928123474, -0.2251812219619751, -0.10588894784450531, 0.018053501844406128, -0.04566424712538719, -0.06775498390197754, 0.019448822364211082, 0.0028295540250837803, 0.06978316605091095, 0.042803164571523666, -0.01062080543488264, 0.11950760334730148, -0.05247523635625839, -0.12431616336107254, 0.25575295090675354, 0.07553306221961975, 0.019412511959671974, 0.04950568079948425, -0.2095196694135666, 0.004527099430561066, 0.05763818696141243, -0.11696352809667587, 0.021824533119797707, 0.08461108803749084, -0.047973357141017914, -0.010718843899667263, 0.11334057152271271, -0.10673811286687851, -0.12054973095655441, -0.12255733460187912, 0.1673189103603363, -0.12800481915473938, -0.0886346697807312, 0.08601794391870499, -0.19319038093090057, 0.12048159539699554, 0.02074338309466839, 0.08369576930999756, 0.042964596301317215, -0.11175781488418579, 0.023988300934433937, 0.13651026785373688, 0.04088357463479042, 0.07964169234037399, -0.02363230101764202, -0.1041286513209343, -0.15729014575481415, 0.014995452016592026, 0.24722683429718018, -0.1652236431837082, -0.2197169065475464, -0.21249572932720184, 0.03078276850283146, -0.027690192684531212, -0.1771313101053238, 0.11283368617296219, 0.006310614291578531, -0.18411670625209808, 0.034149665385484695, -0.005225085187703371, -0.05140690505504608, -0.11738251149654388, -0.004946886096149683, -0.19966857135295868, 0.20293082296848297, 0.18033744394779205, 0.010264345444738865, 0.08221342414617538, 0.03723563253879547, -0.029594438150525093, -0.0689420998096466, -0.1592562347650528, 0.009923151694238186, 0.09396125376224518, 0.08924822509288788, -0.11017919331789017, 0.08767883479595184, 0.005944099277257919, -0.1702994555234909, -0.013918466866016388, 0.16516177356243134, 0.07782866060733795, -0.1352732628583908, -0.0999806597828865, -0.15722782909870148, 0.09458612650632858, -0.08657050877809525, 0.18000563979148865, -0.11414468288421631, -0.08046237379312515, -0.23368431627750397, -0.05263132601976395, 0.18755042552947998, -0.08265174180269241, 0.10496911406517029, -0.17838580906391144, -0.12947805225849152, -0.08929254859685898, -0.05495937541127205, -0.04228415712714195, 0.003783205524086952, 0.009945554658770561, 0.006730528548359871, 0.05782587081193924, 0.026656918227672577, 0.18701498210430145, 0.14801061153411865, -0.013211207464337349, -0.09606563299894333, -0.055592816323041916, 0.15764935314655304, 0.046537794172763824, -0.09049451351165771, 0.03719787299633026, -0.10529793053865433, 0.14269033074378967, 0.10880360752344131, -0.05026896297931671, -0.11759868264198303, 0.07617348432540894, 0.14460735023021698, -0.058276668190956116, -0.09894783794879913, 0.11830984801054001, -0.024464361369609833, -0.006834795232862234, 0.11873214691877365, 0.695181667804718, 0.2709135413169861, 0.43112999200820923, -0.966333270072937, -0.40248680114746094, 0.09413916617631912, 0.3231676518917084, -0.09640277177095413, 0.16413556039333344, 0.18852627277374268, -0.8999083638191223, 0.28285592794418335, -0.10002552717924118, -0.6068917512893677, 0.14684563875198364, -0.26886650919914246, -0.04727449268102646, -0.129015251994133, 0.1861005276441574, -0.3797612488269806, 0.11564826965332031, 0.2676530182361603, 0.029121538624167442, -0.2502996027469635, -0.11356265842914581, 0.011704006232321262, -0.12816953659057617, -0.10827460885047913, -0.015193608589470387, -0.04249780997633934, 0.2611522972583771, -0.10124076157808304, -0.021231111139059067, -0.26193127036094666, 0.20959992706775665, -0.05713840574026108, 0.04200652614235878, -0.11477136611938477, 0.21567684412002563, -0.09949850291013718, -0.2826494872570038, 0.029988911002874374, -0.23821789026260376, 0.500436007976532, -0.018890010192990303, 0.022820547223091125, 0.06373269855976105, 0.2940165102481842, -0.15398915112018585, 0.22913628816604614, -0.3060384690761566, -0.14651106297969818, 0.12948870658874512, -0.10398148000240326, -0.16762660443782806, 0.021734386682510376, 0.27565956115722656, -0.2305997759103775, -0.02717391774058342, -0.21471324563026428, -0.07823991775512695, 0.050273023545742035, 0.1614643931388855, 0.13296449184417725, -0.0544276237487793, 0.09704422950744629, -0.1942332684993744, -0.039279673248529434, 0.506635308265686, 0.383378267288208, 0.3342131972312927, -0.08488384634256363, -0.1838110238313675, -0.20369853079319, 0.08689804375171661, -0.17589330673217773, 0.07114654034376144, 0.16050879657268524, 0.2750283181667328, -0.300262451171875, 0.15290425717830658, 0.032056357711553574, -0.12878775596618652, -0.025762004777789116, 0.06940856575965881, -0.07087372988462448, 0.08508750051259995, -0.18378853797912598, 0.3097895681858063, 0.19270813465118408, 0.15510991215705872, 0.04084758087992668, -0.3201669454574585, -0.05831189081072807, -0.17260554432868958, -0.16209526360034943, -0.2785911560058594, 0.27496227622032166, 0.10609327256679535, 0.17747332155704498, -0.19470444321632385, 0.157561257481575, -0.09252054244279861, 0.03991730138659477, 0.13271203637123108, 0.12341185659170151, -0.1409832388162613, 0.08377479761838913, -0.012568558566272259, 0.11441062390804291, -0.34054380655288696, 0.04523928090929985, -0.15420794486999512, -0.13172253966331482, -0.1517680436372757, 0.05364881828427315, -0.13773508369922638, 0.017908727750182152, 0.16082577407360077, 0.05381175875663757, -0.14490851759910583, 0.045632753521203995, 0.031123174354434013, -0.13506528735160828, 0.11396478116512299, -0.16741390526294708, 0.04791778698563576, -0.26148805022239685, -0.09534198045730591, 0.24493445456027985, -0.12438787519931793, 0.014932977966964245, 0.29837682843208313, -0.22056473791599274, 0.010196331888437271, 0.2523344159126282, 0.11286608129739761, 0.08334659785032272, 0.06548120081424713, 0.11969731003046036, -0.1903015673160553, 0.22330844402313232, 0.2455303966999054, 0.04909694567322731, -0.38452643156051636, 0.05401620641350746, -0.16145500540733337, 0.12561450898647308, 0.16766440868377686, 0.05968102440237999, -0.21094313263893127, -0.17519763112068176, -0.022714493796229362, -0.04838326945900917, -0.07352994382381439, -0.25369027256965637, 0.2528482973575592, 0.08001347631216049, 0.02477073110640049, 0.04163622111082077, 0.056577276438474655, 0.22392581403255463, 0.06898093223571777, -0.18017779290676117, -0.1048872247338295, 0.1331598311662674, -0.2207111418247223, 0.05491909757256508, -0.11215323954820633, -0.10600195080041885, 0.11383847892284393, -0.3107774555683136, 0.15155324339866638, -0.15584580600261688, 0.24531958997249603, 0.012048590928316116, -0.2973829507827759, 0.17036783695220947, -0.2457810640335083, 0.0012757249642163515, -0.11778292804956436, 0.037050239741802216, -0.06555146723985672, -0.2127540409564972, 0.24368348717689514, 0.014491468667984009, -0.014649159274995327, -0.08899877220392227, -0.12007898092269897, 0.20561940968036652, 0.17785978317260742, -0.042631667107343674, 0.13454781472682953, 0.2000875324010849, -0.13172535598278046, -0.28307193517684937, -0.01264607347548008, -0.1298203319311142, 0.049973662942647934, -0.053607117384672165, -0.11914543062448502, 0.04617452993988991, 0.265621542930603, 0.04975203797221184, -0.20056460797786713, 0.29780930280685425, -0.12774330377578735, -0.16683344542980194, 0.08652808517217636, 0.2151675671339035, 0.23730117082595825, 0.5110045075416565, -0.24970273673534393, 0.04267297312617302, -0.14878323674201965, 0.12942607700824738, 0.15544915199279785, 0.08582262694835663, -0.2253294587135315, -0.08690901845693588, -0.202792689204216, 0.10826021432876587, -0.003199043683707714, -0.1294168084859848, -0.1689341813325882, 0.13518229126930237, -0.12536366283893585, 0.3588676452636719, 0.14107245206832886, 0.17643816769123077, -0.0849226862192154, -0.07438772916793823, 0.05195016413927078, 0.15506654977798462, 0.12265899777412415, -0.19717177748680115, -0.23620256781578064, -0.26866787672042847, 0.04914027452468872, -0.020153148099780083, 0.21593837440013885, -0.12127821892499924, 0.1426059901714325, 0.3323640823364258, -0.28793805837631226, -0.29355061054229736, 0.04050978273153305, 0.23004506528377533, -0.22996562719345093, 0.08876928687095642, -0.24841150641441345, 0.1215335801243782, 0.16316799819469452, -0.03767886012792587, -0.14258314669132233, 0.19392602145671844, 0.025953371077775955, 0.20807760953903198, -0.23717886209487915, -0.2654273509979248, -0.2018902450799942, -0.20068542659282684, 0.2567110061645508, -0.08403956145048141, -0.17457953095436096, 0.05923886597156525, -0.10590663552284241, -0.0915241464972496, 0.0834437683224678, 0.07731535285711288, 0.15094807744026184, 0.0025983769446611404, -0.17022061347961426, -0.009700099937617779, 0.07963773608207703, -0.0101183345541358, 0.04200153797864914, -0.008525720797479153, 0.008384105749428272, 0.04052344709634781, -0.17827680706977844, 0.19735512137413025, 0.05777055025100708, 0.05541718378663063, -0.015690011903643608, -0.1736452579498291, -0.09334057569503784, 0.018095742911100388, 0.041034337133169174, 0.05596486106514931, -0.06618737429380417, -0.11440325528383255, 0.10194464772939682, -0.05209999158978462, 0.036773134022951126, 0.018800485879182816, -0.08158953487873077, -0.1275668740272522, 0.07744237780570984, 0.05275300517678261, -0.050687119364738464, 0.1314513236284256, -0.047639474272727966, 0.19168050587177277, -0.018461735919117928, 0.04240817576646805, 0.06891216337680817, -0.021234631538391113, 0.06235095486044884, 0.17776931822299957, 0.19413411617279053, -0.14377626776695251, 0.033481426537036896, -0.2663733959197998, 0.10826930403709412, 0.13203415274620056, -0.00014632898091804236, -0.1462295651435852, 0.15789715945720673, -0.01982789672911167, -0.04868131875991821, 0.05389394983649254, 0.12058670073747635, -0.11928454786539078, 0.038587965071201324, 0.0033070531208068132, 0.13185542821884155, -0.16866691410541534, -0.3000319302082062, -0.02211046777665615, 0.0931471437215805, -0.1307682991027832, 0.11224029213190079, -0.04030949994921684, 0.08452776074409485, -0.00246729445643723, -0.006984364241361618, 0.14819033443927765, 0.09660295397043228, 0.007980615831911564, -0.14994996786117554, 0.06533731520175934, -0.05584617331624031, -0.24267756938934326, -0.05641132965683937, 0.02894636057317257, 0.15850113332271576, 0.047782789915800095, 0.22334159910678864, 0.1082557886838913, -0.0006263416144065559, 0.0836670771241188, 0.11677679419517517, -0.1347954124212265, -0.2557178735733032, 0.0535321868956089, 0.07892875373363495, -0.10770489275455475, -0.08798083662986755, -0.11496163159608841, -0.029286159202456474, 0.012119016610085964, 0.05986037850379944, -0.02793002687394619, 0.14826960861682892, -0.051678191870450974, 0.2288549244403839, -0.22552219033241272, 0.0263493824750185, -0.12019611150026321, 0.16307953000068665, -0.04507603123784065, -0.0056306105107069016, -0.19630023837089539, 0.0069205001927912235, 0.012619673274457455, -0.23271286487579346, 0.02529427781701088, 0.12318869680166245, 0.002899870276451111, -0.008571370504796505, -0.09012649208307266, -0.026440080255270004, -0.03588215634226799, -0.07530819624662399, -0.06405985355377197, 0.18926164507865906, 0.10274534672498703, 0.3749634325504303, 0.012443517334759235, -0.13511712849140167, -0.039012327790260315, 0.0080209169536829, 0.011880564503371716, 0.1389654278755188, 0.004544692113995552, 0.06217089667916298, -0.20938043296337128, -0.04075534641742706, 0.05944233387708664, -0.1589411199092865, 0.09753294289112091, -0.013055200688540936, -0.0013927260879427195, -0.023865792900323868, -0.27249693870544434, 0.05167387053370476, -0.14553247392177582, 0.05431593582034111, -0.10668948292732239, -0.09952888637781143, 0.019131341949105263, -0.2282535284757614, 0.18284925818443298, 0.14251823723316193, 0.18518364429473877, 0.06898421049118042, 0.05517100915312767, -0.1505855917930603, 0.08775966614484787, 0.0013642206322401762, -0.09536686539649963, -0.02039068192243576, 0.12053065001964569, 0.14304858446121216, 0.053799767047166824, 0.04882890731096268, -0.09212064743041992, -0.01963142119348049, 0.17046405375003815, -0.10662052780389786, 0.05735740810632706, -0.08316608518362045, -0.1409471333026886, 0.13988184928894043, 0.05484858527779579, 0.09593456983566284, -0.1677245944738388, 0.052610140293836594, 0.17070770263671875, 0.06391698122024536, 0.12370538711547852, -0.0948646292090416, 0.13826271891593933, 0.13276197016239166, 0.018129834905266762, 0.11150698363780975, -0.023090502247214317, -0.05515798553824425, 0.13595698773860931, 0.10842575132846832, -0.1013093888759613, 0.11036169528961182, 0.08885209262371063, 0.014004446566104889, -0.10257724672555923, 0.03218233585357666, 0.04075115546584129, 0.1240309476852417, -0.18661482632160187, -0.044291816651821136, 0.09689164161682129, 0.01623818278312683, 0.16190719604492188, 0.04655475169420242, -0.07594896852970123, -0.24231834709644318, -0.027380647137761116, 0.03462724760174751, 0.08180670440196991, -0.06152272969484329, -0.022703297436237335, 0.17462721467018127, -0.1213090717792511, 0.09708191454410553, -0.033660613000392914, -0.025617925450205803, 0.16714012622833252, 0.022295771166682243, 0.07790117710828781, -0.04685063660144806, 0.21232585608959198, -0.04243959113955498, -0.06867572665214539, 0.10093225538730621, 0.06815700978040695, 0.11506681144237518, 0.016280166804790497, 0.12359219789505005, -0.17053718864917755, 0.20305857062339783, 0.03381425142288208, 0.08677070587873459, 0.14302419126033783, 0.13056820631027222, 0.0943753719329834, -0.11705686897039413, -0.11282392591238022, 0.10604160279035568, -0.04736001417040825, -0.08426033705472946, 0.1055741012096405, 0.11129359900951385, -0.029596630483865738, -0.013933340087532997, -0.15355004370212555, 0.18676118552684784, 0.08662319928407669, 0.12475904822349548, -0.0576748363673687, 0.01070780586451292, -0.02573293447494507, -0.09168078005313873, 0.08268793672323227, -0.021516695618629456, -0.15136297047138214, -0.1482924073934555, 0.02808333933353424, 0.07084906846284866, -0.06794051080942154, -0.13061727583408356, 0.07663141936063766, -0.026187054812908173, -0.10048901289701462, 0.13114750385284424, -0.024223025888204575, 0.06005745008587837, 0.05840518698096275, -0.04372263327240944, 0.16508907079696655, -0.22714900970458984, -0.12644967436790466, 0.018719729036092758, 0.10778293013572693, 0.06690318137407303, -0.022247187793254852, -0.05153084546327591, -0.10632926970720291, 0.040162160992622375, -0.15236039459705353, -0.1735583394765854, 0.05333360657095909, 0.015703968703746796, -0.12656979262828827, -0.10257691144943237, 0.02898266352713108, 0.1661265641450882, -0.08976080268621445, -0.1225765272974968, -0.040147315710783005, 0.08044897764921188, -0.0483846589922905, -0.0681140273809433, -0.2029937505722046, 0.031085092574357986, 0.06589687615633011, 0.13588015735149384, -0.252703458070755, 0.012709097005426884, 0.009543129242956638, -0.013973972760140896, -0.08017929643392563, 0.2804756760597229, -0.03793371096253395, 0.029454128816723824, -0.11682095378637314, -0.08338775485754013, -0.2152206301689148, -0.20672622323036194, 0.08290062844753265, -0.06190044805407524, 0.1012038141489029, 0.04268955811858177, 0.07106909900903702, 0.15665456652641296, -0.06873805075883865, -0.04228959605097771, 0.046261146664619446, -0.049918804317712784, -0.011493331752717495, -0.14099425077438354, 0.08798032999038696, -0.014252622611820698, -0.18552899360656738, 0.057930994778871536, -0.06783411651849747, -0.04311945661902428, 0.005422883667051792, 0.03149756044149399, 0.17350450158119202, -0.16546092927455902, 0.009425424970686436, 0.18100643157958984, 0.08150280267000198, -0.011344143189489841, 0.04959515482187271, 0.04447133466601372, -0.014705244451761246, -0.06399600207805634, 