{"version": "0.5.2", "metadata": {"date": {"year": 2023, "month": 7, "day": 22, "hour": 13, "minute": 40, "second": 24}, "loudness": -19.22199249267578, "gain": 0.39309002541353744}, "architecture": "WaveNet", "config": {"layers": [{"input_size": 1, "condition_size": 1, "head_size": 8, "channels": 16, "kernel_size": 3, "dilations": [1, 2, 4, 8, 16, 32, 64, 128, 256, 512], "activation": "Tanh", "gated": false, "head_bias": false}, {"input_size": 16, "condition_size": 1, "head_size": 1, "channels": 8, "kernel_size": 3, "dilations": [1, 2, 4, 8, 16, 32, 64, 128, 256, 512], "activation": "Tanh", "gated": false, "head_bias": true}], "head": null, "head_scale": 0.02}, "weights": [-0.004913797602057457, 0.5378756523132324, -0.76301109790802, -0.7066612839698792, -0.2288283258676529, 0.05358503386378288, -0.0029270758386701345, 0.7668187022209167, 0.0002965815656352788, 0.22658587992191315, -0.20437084138393402, -0.0026610775385051966, -0.9064392447471619, -0.6280665993690491, -0.2596189081668854, -0.0031458609737455845, 0.00020127523748669773, -0.010652553290128708, -0.05541326478123665, -0.14408892393112183, 0.01580807939171791, 0.1429671347141266, 0.05442187935113907, 0.14846156537532806, -0.04324474185705185, 0.09848710894584656, 0.17064951360225677, -0.15621188282966614, -0.01748150959610939, -0.0034253313206136227, -0.083293616771698, 0.07005468010902405, -0.11418744176626205, -0.02138340100646019, -0.02080104686319828, -0.06679817289113998, -0.10821472108364105, 0.04030051454901695, 0.023287812247872353, 0.09131622314453125, 0.045263346284627914, -0.06564262509346008, -0.040237367153167725, -0.20399902760982513, -0.12910541892051697, -0.04068626090884209, 0.16088245809078217, 0.1140211820602417, -0.0985594168305397, 0.053588975220918655, 0.10210193693637848, 0.10567997395992279, 0.14283186197280884, 0.06167253106832504, 0.07702232897281647, -0.0014981572749093175, 0.06553207337856293, -0.1334618628025055, -0.02461555227637291, -0.044344957917928696, 0.04153614118695259, 0.011724977754056454, -0.18508540093898773, 0.006958105135709047, -0.022491220384836197, 0.17388257384300232, -0.23060858249664307, 0.1601070910692215, 0.03745817393064499, 0.18369652330875397, -0.23340539634227753, -0.005217257887125015, 0.017288994044065475, -0.0011894560884684324, 0.1739712804555893, 0.08906102180480957, -0.09407876431941986, -0.07493731379508972, -0.034200530499219894, 0.024281304329633713, -0.16632682085037231, 0.16710048913955688, 0.1314651221036911, -0.14029163122177124, 0.06509886682033539, 0.0955185666680336, -0.07029151916503906, -0.028453931212425232, -0.056113313883543015, -0.012699945829808712, 0.02620083838701248, 0.2009674310684204, 0.05840219929814339, 0.10041414946317673, -0.2652553915977478, -0.053612999618053436, 0.02809763513505459, -0.0710756704211235, -0.020417241379618645, -0.1262832134962082, 0.01630825735628605, 0.14668433368206024, -0.09999088943004608, -0.1579572856426239, -0.08909403532743454, -0.041242022067308426, -0.2324649542570114, -0.0667949765920639, -0.05404079332947731, -0.13830062747001648, 0.06506821513175964, -0.08140460401773453, -0.05890989676117897, 0.12520664930343628, 0.031062522903084755, -0.11874426901340485, 0.10993936657905579, -0.058864034712314606, 0.015595805831253529, -0.11339060962200165, 0.1204749122262001, 0.0028459331952035427, -0.2176610678434372, 0.13178563117980957, -0.1331602931022644, -0.22019051015377045, 0.035704635083675385, -0.09647621214389801, 0.055658552795648575, -0.21096661686897278, -0.06658342480659485, 0.026287978515028954, -0.06703625619411469, -0.0018717666389420629, 0.2506221532821655, -0.07862569391727448, 0.033779919147491455, -0.05354757234454155, 0.12628276646137238, 0.07924067974090576, 0.2639596462249756, 0.011342881247401237, 0.14712436497211456, -0.13889345526695251, -0.050528667867183685, -0.05581868439912796, 0.021111486479640007, 0.07467898726463318, -0.07968657463788986, -0.25994232296943665, -0.07361134141683578, -0.12640942633152008, -0.17435114085674286, 0.14382056891918182, 0.08151394128799438, -0.2708413898944855, 0.15918901562690735, -0.0718846544623375, -0.029210839420557022, -0.1448095291852951, 0.0499110221862793, 0.09893512725830078, -0.08564896136522293, -0.16594965755939484, -0.10119976103305817, 0.11524032056331635, -0.024597857147455215, 0.13490301370620728, -0.24134252965450287, 0.03379492834210396, 0.2090228646993637, -0.16849461197853088, 0.15988701581954956, 0.11916497349739075, -0.2531416714191437, 0.08179251104593277, -0.06332569569349289, 0.07047560811042786, 0.05840457230806351, -0.19099001586437225, -0.13150623440742493, -0.07234469056129456, 0.021500151604413986, 0.1511547863483429, 0.11163255572319031, 0.019870435819029808, -0.1014845073223114, -0.05565537139773369, -0.17923544347286224, 0.20532011985778809, 0.1409929245710373, 0.16457490622997284, -0.22675932943820953, 0.026486525312066078, -0.06392395496368408, -0.21100731194019318, -0.03907611966133118, 0.1327902376651764, -0.19435007870197296, 0.03804364427924156, 0.08410833775997162, -0.01880878396332264, -0.07693921774625778, -0.03414379805326462, -0.1990470439195633, 0.14101390540599823, -0.13529188930988312, 0.2827315628528595, -0.09195537120103836, -0.14084398746490479, -0.24905474483966827, 0.018687300384044647, 0.0004934422904625535, -0.09081487357616425, -0.046766869723796844, 0.03535603731870651, -0.05433114618062973, -0.12369371205568314, 0.13162167370319366, -0.06120961159467697, -0.05598887801170349, 0.15391917526721954, 0.10594543814659119, 0.037077344954013824, -0.13273809850215912, 0.026278791949152946, -0.024569373577833176, 0.07406166940927505, 0.12947942316532135, 0.026140375062823296, -0.012916338630020618, 0.06310348212718964, -0.008724186569452286, 0.12235914170742035, 0.0938444435596466, -0.04678458347916603, 0.04944205656647682, -0.15558303892612457, -0.10273387283086777, 0.05613487586379051, 0.10249567031860352, 0.0757133886218071, -0.04187668114900589, 0.02374144084751606, 0.025599146261811256, -0.12496843934059143, 0.1604614108800888, -0.1671382486820221, 0.01844385452568531, 0.032009635120630264, -0.12568630278110504, 0.03279642388224602, 0.16962294280529022, -0.05225919932126999, 0.025497468188405037, -0.06862497329711914, -0.07592722028493881, 0.05404672026634216, -0.0775960236787796, -0.12415062636137009, 0.07040838897228241, 0.07679814100265503, 0.1021181270480156, -0.04383660852909088, 0.05684962868690491, -0.02392871305346489, -0.1953972578048706, 0.04695473983883858, 0.15228228271007538, -0.1037973165512085, -0.05350221320986748, -0.11877934634685516, -0.023669682443141937, -0.00640774006024003, -0.05606434494256973, -0.09850265830755234, 0.18598464131355286, -0.11865654587745667, 0.13831490278244019, 0.03652996942400932, 0.03451363369822502, -0.1317649930715561, -0.08938151597976685, 0.07300035655498505, 0.15835782885551453, 0.09885584563016891, -0.010349860414862633, -0.09453445672988892, -0.011823281645774841, 0.020682768896222115, -0.17080536484718323, 0.08155392110347748, 0.06824518740177155, -0.15965823829174042, -0.029803678393363953, -0.06328409910202026, -0.05277128517627716, -0.10217634588479996, 0.09053435921669006, -0.18803104758262634, -0.059698961675167084, 0.057307079434394836, -0.06439413130283356, -0.11722926795482635, 0.07050669938325882, -0.047673650085926056, 0.006443324498832226, 0.09231214225292206, 0.1976010650396347, -0.11880393326282501, -0.1518392562866211, -0.16343604028224945, 0.14903782308101654, -0.08624573796987534, -0.08591869473457336, 0.1944475620985031, -0.0984787568449974, -0.13053438067436218, 0.1634739190340042, 0.010285950265824795, 0.11232320219278336, -0.1065509244799614, -0.15283703804016113, -0.019029727205634117, 0.11564155668020248, 0.1632997691631317, 0.22538918256759644, -0.07948251068592072, 0.08868967741727829, -0.12283892929553986, 0.025442516431212425, -0.10843630135059357, 0.26616063714027405, -0.02293028123676777, -0.11781734973192215, -0.06642306596040726, 0.22050297260284424, 0.13520880043506622, 0.050781991332769394, 0.20439840853214264, -0.06868956983089447, -0.19342929124832153, 0.21500709652900696, 0.04822399094700813, -0.22571516036987305, 0.2290312945842743, 0.045199714601039886, -0.04850567504763603, 0.011158588342368603, 0.07507040351629257, -0.08728209882974625, 0.08616293966770172, -0.03405298665165901, -0.025511359795928, -0.12451102584600449, 0.21127183735370636, 0.1368810385465622, 0.07429952919483185, -0.25238969922065735, -0.1549404412508011, -0.10326378792524338, -0.2952224314212799, -0.3049773573875427, 0.10775616765022278, -0.05550079047679901, -0.03656196966767311, 0.12377527356147766, -0.02051059529185295, 0.04737941175699234, -0.054195187985897064, -0.1278715580701828, 0.1504168063402176, -0.0016249471809715033, 0.08170571178197861, 0.04951220005750656, -0.07625780254602432, 0.006040158215910196, 0.06094720959663391, 0.11031506210565567, 0.24377144873142242, 0.294767826795578, -0.04923504590988159, -0.06884945183992386, -0.041077468544244766, 0.060813285410404205, 0.02894030697643757, -0.04883147031068802, 0.11626230180263519, -0.20543697476387024, -0.1218101903796196, 0.008226556703448296, -0.18615812063217163, -0.26757821440696716, -0.08612753450870514, -0.24988001585006714, -0.07339274138212204, 0.10375937074422836, -0.04962557181715965, -0.03157796710729599, -0.10884400457143784, 0.11943411827087402, -0.02801460586488247, 0.0009465746115893126, 0.1455347090959549, 0.20821915566921234, -0.21092787384986877, 0.12231244146823883, -0.041402023285627365, 0.044257376343011856, 0.06634364277124405, -0.23184475302696228, 0.07522708177566528, 0.11754965782165527, -0.1326160728931427, 0.005411302205175161, -0.06267684698104858, 0.07078129798173904, -0.14841152727603912, -0.12015041708946228, 0.020715951919555664, -0.04640910029411316, -0.07397052645683289, 0.15753695368766785, -0.028161445632576942, 0.09321673214435577, -0.18915550410747528, 0.10331584513187408, -0.10828175395727158, 0.07066073268651962, -0.06154993548989296, -0.10255369544029236, -0.07832428067922592, 0.23353734612464905, 0.012051437050104141, -0.1794661581516266, 0.05352334305644035, 0.014070571400225163, -0.26232489943504333, 0.1670438051223755, -0.14523962140083313, -0.2871814966201782, -0.04193112254142761, -0.033962324261665344, -0.03811096027493477, -0.03279263153672218, 0.2203104943037033, -0.046487148851156235, 0.12499327957630157, 0.10079967230558395, -0.0425126850605011, 0.16645447909832, 0.1750773787498474, 0.103224016726017, -0.04782147705554962, -0.19542811810970306, 0.1575196087360382, 0.12480925023555756, -0.030330630019307137, -0.07875936478376389, 0.0763651505112648, -0.23210841417312622, -0.025775672867894173, 0.14410565793514252, -0.038869138807058334, 0.020595388486981392, -0.03120593912899494, 0.09939317405223846, -0.025727128610014915, 0.07884171605110168, 0.05426063761115074, 0.027055174112319946, 0.025217873975634575, 0.06442891061306, 0.012535788118839264, 0.18296878039836884, -0.051852189004421234, -0.16607190668582916, -0.05326179787516594, -0.17016024887561798, 0.10481611639261246, 0.016365058720111847, -0.13343842327594757, -0.11041814088821411, 0.1773238331079483, -0.11374056339263916, 0.14784227311611176, 0.2069656103849411, -0.019508160650730133, 0.04293898120522499, 0.07280172407627106, -0.12720662355422974, 0.05356868728995323, 0.1794893443584442, -0.11061887443065643, 0.1604701727628708, -0.035428162664175034, -0.14990922808647156, -0.05759653449058533, -0.11834021657705307, 0.3053889870643616, -0.09829219430685043, 0.042359285056591034, -0.10261726379394531, 0.04657836630940437, 0.18200890719890594, -0.25141268968582153, 0.007602864410728216, 0.11807689070701599, -0.20297028124332428, 0.0112843569368124, 0.01093301735818386, 0.23423781991004944, -9.772143675945699e-05, -0.10215772688388824, 0.06588151305913925, 0.03181297704577446, 0.04933210089802742, 0.18578621745109558, 0.12273383140563965, -0.07363461703062057, -0.06711901724338531, -0.03387609124183655, 0.06436403840780258, 0.06251919269561768, -0.051323067396879196, -0.13108815252780914, -0.02723216637969017, -0.07431843876838684, 0.05802202969789505, -0.17184796929359436, 0.15361998975276947, 0.19280065596103668, -0.28244227170944214, -0.15524737536907196, -0.05022130161523819, -0.17445363104343414, -0.07300321012735367, -0.03489050269126892, -0.21775652468204498, -0.006018432788550854, -0.02408478781580925, 0.053277693688869476, 0.11984161287546158, -0.06792930513620377, 0.10627375543117523, 0.33792227506637573, -0.11083295941352844, 0.05083920434117317, -0.08650784939527512, 0.10674083977937698, -0.17990340292453766, -0.10757790505886078, 0.1766962856054306, -0.13231462240219116, 0.05985039100050926, 0.022992465645074844, -0.07349476963281631, -0.00346231902949512, 0.11724719405174255, 0.03430192917585373, -0.17215988039970398, -0.1148613840341568, -0.0018608192913234234, 0.016866885125637054, -0.06268002837896347, 0.17718353867530823, -0.06279569864273071, -0.05973128229379654, 0.06449427455663681, 0.10873745381832123, 0.12981465458869934, 0.12441812455654144, -0.07589343935251236, -0.12752628326416016, -0.046417687088251114, 0.1520409733057022, -0.016530171036720276, -0.16148091852664948, 0.1308300644159317, 0.17645129561424255, -0.0821845754981041, -0.08814328163862228, -0.09611427783966064, -0.006503779906779528, 0.019210640341043472, -0.03944433853030205, -0.010564453899860382, 0.08289878070354462, 0.14495804905891418, -0.02615835890173912, -0.014439806342124939, -0.1412505954504013, -0.17389792203903198, 0.1595381647348404, -0.04673556610941887, -0.0467144250869751, -0.09535352140665054, 0.14242883026599884, 0.24243669211864471, 0.09766899049282074, -0.1292068511247635, 0.05226066708564758, -0.1295175403356552, 0.13036921620368958, 0.039701513946056366, -0.0916835144162178, 0.06083063781261444, -0.158733069896698, -0.04429402947425842, -0.009379556402564049, -0.013471044600009918, -0.1277758628129959, 0.033367156982421875, -0.17076893150806427, 0.08037438243627548, 0.1303386092185974, 0.17043665051460266, -0.06823434680700302, 0.17745175957679749, -0.08535391092300415, -0.03474978730082512, 0.144092857837677, 0.13310004770755768, -0.16909736394882202, -0.05106149986386299, -0.020882951095700264, 0.09211326390504837, -0.05592603236436844, -0.023666009306907654, -0.038380805402994156, 0.08548435568809509, 0.1447911262512207, 0.014618723653256893, 0.007898391224443913, 0.15616600215435028, -0.06588207185268402, -0.06382511556148529, -0.09667199850082397, -0.20038717985153198, 0.1076168641448021, -0.13505147397518158, 0.07910273224115372, -0.01925075054168701, 0.009552878327667713, -0.30833327770233154, 0.22188404202461243, -0.08073151111602783, 0.3340272307395935, -0.19375935196876526, -0.031505607068538666, 0.2933655381202698, -0.13823707401752472, 0.11246982216835022, 0.10198481380939484, -0.2145862579345703, -0.036330364644527435, -0.14411453902721405, 0.24038338661193848, 0.10938605666160583, 0.22313259541988373, 0.07801130414009094, -0.03436689078807831, -0.10852468758821487, -0.03268065303564072, 0.0010704676387831569, 0.23249247670173645, -0.11016715317964554, 0.1270293891429901, -0.2391868233680725, 0.21377478539943695, -0.15284501016139984, 0.17334149777889252, -0.12029121816158295, 0.03796755149960518, 0.19783423840999603, 0.015113518573343754, -0.015671243891119957, 0.21159464120864868, 0.022069357335567474, -0.03694669157266617, 0.3394014537334442, -0.17610715329647064, -0.024391023442149162, 0.18902824819087982, -0.022818053141236305, -0.016570284962654114, -0.06454028934240341, -0.15602222084999084, -0.0041193887591362, -0.01165496464818716, 0.015708543360233307, -0.09337177872657776, 0.09294117987155914, 0.10145393759012222, 0.017354173585772514, -0.1373247653245926, 0.1336076855659485, -0.10090968757867813, 0.031872037798166275, 0.05533038452267647, -0.0639110654592514, 0.04960785433650017, -0.09186223894357681, 0.02960057556629181, -0.09000004827976227, -0.04977795109152794, 0.04308050125837326, 0.08229956030845642, 0.03584010899066925, 0.08660722523927689, -0.015860984101891518, -0.10178934037685394, -0.16192461550235748, -0.08925260603427887, 0.13507317006587982, -0.04135684296488762, 0.004108121618628502, 0.003921124618500471, 0.10617852210998535, 0.12179497629404068, 0.15447388589382172, -0.10975383222103119, -0.0023101798724383116, -0.024906707927584648, -0.0773443877696991, 0.032293014228343964, 0.1688380241394043, -0.10937216132879257, 0.08707921952009201, -0.040366727858781815, -0.021861907094717026, 0.11820834130048752, 0.0008839768706820905, -0.08505751937627792, 0.014461482875049114, -0.04138508811593056, -0.014591310173273087, -0.08162641525268555, 0.12061136215925217, -0.12263563275337219, -0.1566506177186966, 0.0594690665602684, 0.13555118441581726, 0.004416248295456171, 0.017776384949684143, 0.14689593017101288, 0.14180713891983032, -0.12460318952798843, -0.006698812358081341, -0.013633988797664642, -0.1762685775756836, 0.004929329268634319, 0.08973310887813568, 0.19667194783687592, 0.014298742637038231, -0.020154675468802452, -0.15619105100631714, 0.08640776574611664, -0.10681793838739395, -0.05123722553253174, 0.022585010156035423, 0.05441287159919739, -0.18982172012329102, 0.12369802594184875, 0.023812338709831238, -0.038121696561574936, -0.022485924884676933, 0.15753063559532166, -0.17420922219753265, -0.03703678026795387, 0.048452991992235184, -0.2019600123167038, 0.10377520322799683, 0.12301622331142426, 0.04239858686923981, -0.07038882374763489, 0.18732593953609467, -0.13560274243354797, 0.15779414772987366, -0.10602767765522003, -0.18354979157447815, 0.10241031646728516, -0.028025859966874123, 0.13582631945610046, -0.02374052070081234, -0.15895918011665344, -0.2738063931465149, -0.09773840755224228, 0.009225639514625072, -0.15302686393260956, -0.11882949620485306, -0.11817996203899384, 0.1090247705578804, 0.08079373836517334, -0.004936643876135349, 0.00928925909101963, -0.05256451666355133, 0.03035753220319748, -0.015722399577498436, -0.03308822959661484, 0.4588450789451599, -0.3935682773590088, 0.7429033517837524, -0.5999827980995178, -0.05294960364699364, 0.9035884141921997, 0.9044891595840454, -0.5628679394721985, 0.08948645740747452, 0.0021223328076303005, -0.5279051065444946, -0.3809724450111389, 0.2747471034526825, -0.626204788684845, 0.13298043608665466, 0.47388219833374023, -0.14365795254707336, 0.1802632063627243, -0.021380718797445297, 0.21248821914196014, 0.02453693188726902, -0.11236321926116943, 0.12752847373485565, 0.1453380584716797, -0.10009374469518661, 0.010757101699709892, 0.06537164747714996, 0.08286559581756592, 0.03156586363911629, 0.10877393931150436, 0.09269323945045471, 0.07180515676736832, -0.1373744010925293, -0.0619087778031826, -0.2312004119157791, -0.08849601447582245, 0.2137794941663742, -0.0192679725587368, -0.08802895247936249, -0.027690965682268143, 0.08424387127161026, 0.3016992509365082, 0.12878859043121338, 0.09782141447067261, -0.07563547044992447, -0.14170701801776886, 0.1756497025489807, 0.039825379848480225, 0.10807839781045914, 0.05529462918639183, -0.07561787217855453, 0.190313458442688, -0.10001882165670395, -0.14685559272766113, 0.0312599316239357, -0.40863871574401855, -0.05307106673717499, -0.20298272371292114, 0.03113611415028572, -0.2419736087322235, 0.24299338459968567, 0.3276960849761963, -0.1431002914905548, 0.11152342706918716, 0.16054703295230865, -0.17318381369113922, -0.014734459109604359, -0.13349507749080658, -0.00880321767181158, 0.14334921538829803, 0.039630208164453506, -0.06648920476436615, -0.18167613446712494, 0.030828403308987617, -0.07730750739574432, -0.040779873728752136, 0.11325162649154663, 0.20027028024196625, -0.09269954264163971, 0.04624037817120552, -0.13950596749782562, -0.26028063893318176, -0.24152271449565887, 0.02338533289730549, 0.11821787804365158, 0.14460493624210358, 0.13438737392425537, -0.1233305111527443, 0.12528416514396667, 0.2814505398273468, -0.08343593776226044, 0.185108482837677, -0.16668137907981873, 0.13694922626018524, 0.004588223062455654, -0.05651775002479553, -0.13435004651546478, -0.09369076043367386, 0.13252337276935577, 0.09845034778118134, 0.1655913144350052, 0.22734394669532776, 0.2561652958393097, 0.173090860247612, 0.17255668342113495, -0.02000342309474945, -0.2673639953136444, -0.1038040742278099, -0.049042362719774246, -0.15881019830703735, 0.0603407621383667, 0.12008818984031677, 0.3069201707839966, 0.08351319283246994, 0.20954740047454834, 0.17264267802238464, -0.18563753366470337, -0.1547621637582779, 0.08098572492599487, -0.22035495936870575, 0.06683547794818878, -0.24884508550167084, -0.3474462926387787, -0.06193304806947708, 0.3986751437187195, -0.24118882417678833, -0.1537131369113922, 0.14149554073810577, 0.1546715646982193, 0.09762173891067505, 0.3544808328151703, -0.3293250501155853, -0.1551491767168045, 0.2165425717830658, 0.32125529646873474, 0.28139299154281616, 0.255367249250412, -0.1045667827129364, 0.2809818387031555, -0.09895526617765427, -0.008706572465598583, -0.26765957474708557, -0.01453390996903181, -0.019777819514274597, -0.09635712206363678, 0.06870018690824509, -0.16568155586719513, -0.2492002546787262, 0.17289790511131287, 0.0666964054107666, -0.07309713959693909, -0.1048591136932373, -0.2136715203523636, -0.09962250292301178, 0.19613155722618103, 0.12899711728096008, 0.1609971523284912, -0.22588016092777252, -0.1403132826089859, 0.10274585336446762, -0.1954895406961441, 0.06684762984514236, 0.0847196951508522, -0.2618054151535034, -0.12853950262069702, -0.10512184351682663, 0.06283736228942871, -0.13028840720653534, 0.027219504117965698, 0.12518098950386047, 0.12550465762615204, 0.16441679000854492, 0.14381279051303864, 0.2874302268028259, -0.28518813848495483, 0.0037842278834432364, 0.15460295975208282, 0.25962045788764954, -0.2785438597202301, 0.10925659537315369, -0.07584129273891449, -0.18734385073184967, 0.04022980108857155, -0.1378788948059082, 0.03524282947182655, -0.2627154588699341, -0.16587305068969727, -0.11383210867643356, -0.12166392803192139, 0.15036821365356445, 0.21560414135456085, 0.20477430522441864, 0.09254457801580429, -0.17484143376350403, 0.09315498918294907, -0.10798942297697067, -0.05450766161084175, -0.020519884303212166, -0.010969655588269234, -0.048053666949272156, 0.09679633378982544, -0.22410812973976135, -0.06077146157622337, -0.4072659909725189, -0.09176431596279144, 0.033459387719631195, -0.09317903220653534, -0.05549422651529312, -0.03072284162044525, -0.03128543123602867, 0.15709730982780457, 0.03357413411140442, 0.026004787534475327, -0.046930793672800064, 0.07031488418579102, 0.18785594403743744, 0.2085941582918167, 0.11262042820453644, -0.012113275937736034, 0.07129193842411041, 0.1444586217403412, -0.2375422865152359, -0.07651156932115555, 0.18207964301109314, -0.01622685417532921, -0.14068186283111572, -0.07659090310335159, 0.0845436081290245, -0.001387435826472938, 0.23856735229492188, 0.24398186802864075, -0.0003769327886402607, -0.00503915548324585, -0.008148160763084888, 0.09477656334638596, -0.06205616891384125, -0.11653364449739456, -0.14058537781238556, -0.005893666762858629, 0.12097139656543732, -0.09806247055530548, 0.16361473500728607, 0.12466917186975479, -0.007580916862934828, 0.0753747746348381, 0.1401633322238922, 0.2607487440109253, 0.030525201931595802, -0.3316047191619873, 0.11832951754331589, 0.04631604626774788, 0.14181949198246002, 0.21691615879535675, 0.26589080691337585, -0.21247966587543488, 0.11067502200603485, 0.19184106588363647, 0.05652017891407013, 0.18936283886432648, 0.026142071932554245, -0.17886479198932648, 0.16420619189739227, 0.03515053167939186, 0.26620355248451233, -0.21814177930355072, -0.19541649520397186, -0.01110654603689909, -0.10194452852010727, 0.00854245014488697, 0.31732603907585144, -0.0291146207600832, 0.047878384590148926, 0.131831556558609, -0.1479046791791916, 0.1754768341779709, -0.10558716207742691, -0.08470728248357773, 0.01674276404082775, 0.08332318812608719, 0.014998918399214745, -0.011971911415457726, -0.0531310997903347, 0.027522103860974312, 0.00609581870958209, 0.09901173412799835, 0.042696256190538406, 0.12860432267189026, 0.13965538144111633, -0.005701109301298857, 0.06568407267332077, 0.05149135738611221, 0.2052227258682251, -0.049433641135692596, 0.019776534289121628, -0.19654887914657593, -0.11423899978399277, 0.2237337827682495, -0.2932390868663788, -0.11820971965789795, 0.056264735758304596, -0.18363942205905914, -0.12290943413972855, 0.15527001023292542, 0.2565227448940277, -0.025338439270853996, -0.14588719606399536, 0.15741387009620667, -0.15125715732574463, 0.07363056391477585, 0.16643670201301575, -0.011278541758656502, -0.36815863847732544, -0.17075632512569427, 0.04816547408699989, 0.044143252074718475, -0.12926587462425232, -0.02414005808532238, -0.06444432586431503, -0.24734486639499664, -0.12384231388568878, 0.18085138499736786, 0.06448707729578018, -0.11576753109693527, 0.025106457993388176, -0.2590827941894531, 0.176345095038414, 0.18235230445861816, -0.14696268737316132, 0.1576889008283615, -0.059271249920129776, -0.11336295306682587, -0.1002015545964241, 0.0017409988213330507, 0.3818664848804474, 0.04115113988518715, -0.3111780285835266, 0.03341398015618324, -0.11392734199762344, 0.13693945109844208, -0.1115671768784523, -0.14613227546215057, 0.21633517742156982, -0.14167740941047668, -0.1879379153251648, 0.16792291402816772, -0.10832411795854568, 0.04881347715854645, -0.020949682220816612, 0.011807003989815712, -0.22947245836257935, 0.16648957133293152, -0.11997006833553314, -0.011889331974089146, -0.16415397822856903, 0.08284102380275726, -0.08527703583240509, -0.22844460606575012, 0.107077956199646, -0.03411951661109924, -0.09738245606422424, -0.07727456837892532, -0.053620778024196625, 0.029722217470407486, 0.12033113837242126, 0.04709189012646675, -0.10677701234817505, 0.03217730671167374, -0.06674735993146896, 0.12665459513664246, -0.058400366455316544, 0.015443872660398483, 0.10240926593542099, -0.17969226837158203, -0.07933609932661057, -0.05846916511654854, -0.22450867295265198, -0.04684646800160408, -0.16690538823604584, -0.28013700246810913, -0.33982497453689575, -0.4959084689617157, -0.04181470721960068, 0.05211198329925537, -0.196612149477005, -0.019247891381382942, -0.12331066280603409, -0.04416137933731079, 0.030097853392362595, 0.03908887133002281, -0.14137358963489532, 0.07524845749139786, -0.005786465015262365, 0.09694835543632507, 0.2180783897638321, 0.0016208708984777331, -0.02858918160200119, 0.1645878106355667, -0.03809496387839317, 0.1147034764289856, -0.0960332378745079, 0.2044072300195694, 0.11218153685331345, 0.1339292675256729, -0.22111043334007263, -0.18576233088970184, -0.13985268771648407, 0.006483137141913176, 0.09058697521686554, -0.03945896774530411, -0.2045898288488388, -0.09613176435232162, -0.05845864862203598, 0.05806254595518112, -0.16414764523506165, -0.062177106738090515, -0.2749234139919281, 0.10397157818078995, 0.13180415332317352, -0.07541193813085556, 0.12826810777187347, 0.1226472333073616, 0.1565142571926117, 0.0879889652132988, -0.038059644401073456, 0.07860647141933441, 0.05233832448720932, 0.1386273205280304, 0.25937923789024353, 0.01516379602253437, -0.10915219783782959, 0.15155772864818573, 0.16048277914524078, -0.29089587926864624, -0.2742144465446472, -0.003945492208003998, -0.16514016687870026, 0.15351341664791107, 0.1868579387664795, 0.40555307269096375, -0.2732192873954773, -0.3269523084163666, 0.3691725730895996, 0.022389860823750496, -0.2142680436372757, 0.20122794806957245, -0.13439273834228516, -0.14751073718070984, -0.3609291911125183, 0.3436863422393799, 0.1873878389596939, 0.3119639754295349, 0.23952235281467438, -0.16037848591804504, -0.3872932195663452, 0.2983291745185852, 0.278042197227478, 0.313186377286911, -0.2480631023645401, -0.023692496120929718, 0.11113842576742172, -0.12159635126590729, 0.12046372890472412, 0.44140440225601196, -0.29798904061317444, -0.1623997986316681, 0.4283655881881714, 0.19843004643917084, 0.030304575338959694, 0.0631474032998085, 0.08488058298826218, -0.1581963300704956, -0.12694567441940308, -0.02730337344110012, -0.14991821348667145, -0.07266359776258469, -0.19529077410697937, -0.023712510243058205, -0.15716788172721863, 0.13179230690002441, 0.21308588981628418, -0.10493440181016922, -0.10480328649282455, -0.07945118844509125, -0.11840324848890305, -0.01718873344361782, -0.13970167934894562, -0.014498953707516193, 0.12092158198356628, 0.025896629318594933, -0.11460460722446442, 0.08257865160703659, 0.09809237718582153, -0.04257027432322502, 0.012684051878750324, -0.09570323675870895, -0.1088176965713501, 0.07579126209020615, -0.10573633760213852, 0.1872812807559967, -0.04709974303841591, 0.05725075304508209, -0.012923276983201504, 0.08854338526725769, 0.060094721615314484, 0.0800967887043953, 0.05463121831417084, -0.062043771147727966, -0.21815606951713562, -0.15772657096385956, -0.09157362580299377, 0.14420703053474426, -0.03369727358222008, 0.054462630301713943, -0.04331846162676811, 0.06819566339254379, 0.2387395054101944, -0.03332506865262985, -0.1547902226448059, 0.14025236666202545, 0.1937103122472763, 0.08878076076507568, 0.06845059990882874, 0.08331757038831711, 0.07840189337730408, -0.11422809958457947, 0.11779500544071198, 0.0033207829110324383, 0.027621760964393616, 0.023623600602149963, 0.003973890095949173, 0.0696188285946846, -0.109998919069767, 0.09940969198942184, 0.057861652225255966, -0.21473726630210876, 0.13258643448352814, -0.03478948026895523, -0.08080700039863586, 0.1541413813829422, 0.021024247631430626, -0.21059183776378632, -0.0005026502185501158, -0.04740367457270622, 0.2359357327222824, -0.24781781435012817, 0.05609676241874695, 0.0802462249994278, 0.022121364250779152, -0.038343656808137894, 0.2097017765045166, -0.2592304050922394, 0.19607257843017578, 0.026034170761704445, 0.21743462979793549, -0.06769400089979172, 0.24411380290985107, 0.028016312047839165, -0.056019026786088943, -0.058451808989048004, 0.2374923676252365, -0.013065433129668236, 0.137974351644516, 0.07836629450321198, 0.07328564673662186, 0.15813975036144257, -0.07649355381727219, 0.35628288984298706, -0.04387791082262993, -0.47698867321014404, 0.21202977001667023, 0.054712146520614624, 0.2466966062784195, -0.05359851196408272, 0.14419791102409363, 0.09513263404369354, 0.1029791608452797, 0.17927835881710052, 0.06841808557510376, 0.08328128606081009, -0.036098331212997437, -0.011501788161695004, -0.028216930106282234, -0.027503838762640953, -0.1402367651462555, 0.22168481349945068, 0.18899387121200562, 0.0311202984303236, 0.10148172825574875, -0.1455691158771515, -0.027960946783423424, -0.033234063535928726, 0.15320904552936554, 0.2184140384197235, -0.007641305681318045, 0.1478271186351776, 0.08118896931409836, 0.09176621586084366, -0.03178371489048004, 0.1754222959280014, -0.1205713078379631, 0.03475493937730789, -0.1498054414987564, -0.03548598289489746, 0.05029584839940071, -0.04689844697713852, 0.02470993436872959, 0.07451734691858292, -0.174935445189476, 0.19176256656646729, -0.09978519380092621, 0.14141817390918732, 0.025740070268511772, 0.043180715292692184, 0.19927766919136047, 0.14304384589195251, -0.052368078380823135, 0.17500708997249603, -0.19206352531909943, 0.16033285856246948, 0.13948246836662292, -0.021227095276117325, 0.018837450072169304, 0.11890192329883575, 0.041033755987882614, -0.027797745540738106, -0.012868491001427174, 0.13174492120742798, -0.0018700314685702324, -0.09345393627882004, -0.20408888161182404, -0.15173907577991486, -0.008778351359069347, 0.22882236540317535, -0.06705722957849503, -0.07073405385017395, -0.008844236843287945, -0.03423717990517616, -0.24363523721694946, -0.1796075403690338, 0.18532468378543854, -0.022565212100744247, -0.16500063240528107, 0.06814984232187271, 0.2737882137298584, 0.09452720731496811, 0.09850011020898819, -0.005832978989928961, -0.1437401920557022, -0.017237108200788498, -0.18109619617462158, 0.23740456998348236, 0.058353736996650696, 0.037277527153491974, -0.035453129559755325, 0.03047541342675686, -0.15265288949012756, 0.09814317524433136, -0.010758569464087486, 0.13156282901763916, 0.12464283406734467, -0.06838814169168472, -0.09655852615833282, 0.10488206148147583, 0.01149811502546072, 0.005415336694568396, 0.0008540720446035266, 0.23395982384681702, -0.046836838126182556, 0.1539633423089981, 0.09600667655467987, 0.202519953250885, -0.041011977940797806, 0.22670570015907288, 0.23983240127563477, 0.1409580409526825, -0.26285320520401, -0.10927465558052063, -0.17121349275112152, 0.3400859236717224, 0.18545323610305786, -0.0015720372321084142, 0.14540736377239227, -0.018443502485752106, -0.25563278794288635, 0.2165667712688446, 0.11210096627473831, -0.02887073904275894, -0.2328902930021286, 0.03144897148013115, 0.20969058573246002, 0.07674653083086014, 0.12475646287202835, -0.09253162890672684, -0.2681249976158142, -0.10881181806325912, 0.28955844044685364, 0.10641180723905563, -0.022716226056218147, 0.11731648445129395, -0.11147069931030273, 0.02316354587674141, -0.2050994485616684, 0.21715188026428223, 0.050335951149463654, -0.2621203362941742, 0.1770148128271103, 0.18020455539226532, 0.20452512800693512, 0.25611552596092224, 0.10934111475944519, 0.296181321144104, 0.08028274774551392, -0.13647040724754333, 0.017708411440253258, 0.013751358725130558, -0.1134534552693367, 0.12905526161193848, -0.209243044257164, -0.04184450954198837, 0.026385879144072533, 0.2098342478275299, 0.08167989552021027, 0.1531718522310257, -0.013365808874368668, 0.07733456045389175, 0.2515643537044525, -0.1530558317899704, 0.04876869544386864, -0.13106469810009003, -0.16069921851158142, 0.0664752945303917, -0.18350540101528168, 0.0477885901927948, -0.06338339298963547, -0.04259258508682251, -0.10287066549062729, -0.14131198823451996, 0.1458244025707245, -0.006688043009489775, 0.10726802051067352, -0.0882720947265625, -0.10400237143039703, -0.04684456065297127, 0.2519572675228119, 0.07549720257520676, 0.22410809993743896, 0.06312353163957596, -0.14258968830108643, -0.1168144941329956, -0.00888032466173172, -0.09169619530439377, 0.10796457529067993, 0.007360630668699741, 0.04134906828403473, 0.0848718136548996, -0.13816650211811066, 0.03831881657242775, -0.19054001569747925, -0.17872360348701477, -0.15266333520412445, -0.04994382709264755, -0.04467732459306717, -0.31821149587631226, -0.2402907907962799, -0.08515945822000504, -0.20547455549240112, -0.12033534049987793, -0.07681230455636978, -0.05942152440547943, 0.06006860360503197, -0.181837797164917, -0.16846704483032227, -0.04513705521821976, -0.052999891340732574, -0.006808243691921234, -0.03182486817240715, 0.17763683199882507, -0.10588666051626205, -0.004703183192759752, 0.07436443120241165, -0.04878614470362663, -0.06819344311952591, -0.18560008704662323, 0.057485368102788925, 0.11676480621099472, -0.12083897739648819, -0.02365786023437977, 0.20832736790180206, 0.19800274074077606, 0.022355474531650543, 0.1158737763762474, 0.011378109455108643, 0.011665159836411476, 0.04247775673866272, 0.26887625455856323, -0.08842769265174866, -0.2849847972393036, -0.13672597706317902, 0.0813407152891159, -0.09362433850765228, 0.06972700357437134, 0.05852346122264862, 0.08603918552398682, -0.07936415821313858, -0.10745112597942352, 0.12905116379261017, 0.042720068246126175, 0.005723672918975353, 0.07548930495977402, 0.08908262103796005, 0.10116767138242722, 0.07483852654695511, -0.073222815990448, 0.04015689343214035, -0.07021569460630417, 0.007842115126550198, 0.1709829568862915, -0.030576279386878014, -0.12272938340902328, 0.011670109815895557, -0.05229227617383003, 0.05118408054113388, -0.10583603382110596, 0.10788840800523758, 0.139983132481575, 0.05042189359664917, 0.07695984095335007, 0.03425896167755127, -0.04626508802175522, -0.07731088250875473, -0.18259796500205994, -0.014434362761676311, 0.16876168549060822, -0.07008262723684311, -0.1386767476797104, 0.1163526177406311, 0.1473691761493683, 0.13595625758171082, 0.16546034812927246, -0.0038693705573678017, 0.19211933016777039, -0.10262540727853775, -0.0004948931746184826, -0.19607867300510406, 0.014312985353171825, -0.09327453374862671, -0.09345576167106628, 0.007439589127898216, 0.040620580315589905, -0.12048723548650742, 0.1391860693693161, -0.015250295400619507, -0.13058775663375854, -0.09705209732055664, -0.10965827852487564, 0.06408526003360748, 0.042846422642469406, -0.16952194273471832, 0.0795719176530838, -0.02767970599234104, -0.36940646171569824, -0.21720129251480103, -0.03058270551264286, 0.012370944954454899, -0.022275125607848167, 0.11049096286296844, -0.009857180528342724, 0.10424605011940002, 0.06373342126607895, 0.04565979540348053, 0.025059843435883522, 0.10014087706804276, -0.1522396206855774, -0.018280912190675735, 0.07571764290332794, -0.07587751746177673, 0.046590059995651245, -0.09464762359857559, -0.19336026906967163, -0.036850858479738235, -0.19041788578033447, 0.17207230627536774, -0.06673064082860947, -0.10330251604318619, -0.05223441869020462, -0.0843488797545433, -0.1492854803800583, 0.1142578274011612, -0.142815500497818, 0.10196676850318909, 0.07129669189453125, 0.028951086103916168, 0.05267474800348282, -0.10453541576862335, 0.058965008705854416, 0.17852731049060822, -0.021930327638983727, 0.11850588023662567, -0.1006695032119751, -0.09830666333436966, 0.14719447493553162, -0.033915985375642776, 0.02206822857260704, 0.00474939402192831, -0.025467876344919205, -0.13488860428333282, 0.09559173136949539, -0.05697907134890556, -0.029966067522764206, 0.08826927840709686, 0.11171243339776993, 0.13593953847885132, 0.09249934554100037, 0.07132180780172348, 0.21617622673511505, -0.038493260741233826, 0.0022245324216783047, 0.0744185522198677, 0.16827088594436646, -0.24945539236068726, 0.1650225818157196, -0.025829901918768883, -0.1267070472240448, 0.051399994641542435, -0.00484375050291419, -0.08114627003669739, 0.20621202886104584, -0.10796552896499634, 0.21583573520183563, -0.17493268847465515, 0.08170155435800552, 0.10182984173297882, -0.008506678976118565, 0.11218605935573578, 0.23404847085475922, -0.03991333022713661, 0.13448622822761536, -0.14244107902050018, 0.08731499314308167, -0.03491905704140663, -0.14481529593467712, 0.223268061876297, 0.044992368668317795, -0.15799008309841156, -0.004435625858604908, 0.06728564947843552, 0.010275325737893581, -0.08295910060405731, -0.24314138293266296, 0.08093609660863876, 0.1658758670091629, 0.04496007040143013, 0.34474191069602966, 0.11523107439279556, 0.1670447736978531, 0.15554524958133698, 0.009626487269997597, 0.02865724265575409, 0.03891218453645706, -0.011412416584789753, 0.055641695857048035, 0.036226943135261536, -0.04106641188263893, 0.04845781251788139, 0.18742477893829346, -0.13653071224689484, -0.01958298869431019, 0.23131124675273895, 0.07795846462249756, -0.08915406465530396, -0.06499385088682175, -0.039637114852666855, 0.0630718469619751, 0.20427000522613525, 0.05792447552084923, 0.061748769134283066, -0.17243602871894836, -0.024065252393484116, -0.2871154546737671, 0.07729488611221313, 0.1916503608226776, -0.06472109258174896, -0.08152429759502411, -0.08352380245923996, 0.10621178895235062, -0.09449101984500885, -0.07943198084831238, -0.10085010528564453, -0.13937348127365112, 0.07441280782222748, 0.04954952001571655, 0.2241392880678177, 0.10880634933710098, -0.09977861493825912, 0.14477308094501495, 0.10760176181793213, 0.21660363674163818, 0.14606966078281403, 0.09207572788000107, 0.002612919081002474, 0.04106072708964348, -0.011011441238224506, 0.05386234074831009, 0.040406424552202225, -0.029079314321279526, 0.14697623252868652, -0.07421505451202393, 0.08342505246400833, -0.08251582086086273, 0.152542382478714, 0.030715379863977432, 0.0968250036239624, 0.0975857749581337, 0.16617830097675323, -0.01982429251074791, 0.08456316590309143, -0.11619409918785095, -0.038522686809301376, 0.01601669378578663, -0.26603439450263977, -0.10629110783338547, 9.074104309547693e-05, 0.0043733250349760056, -0.02436506748199463, -0.17989426851272583, 0.17609398066997528, 0.008737309835851192, 0.04308394715189934, -0.237984299659729, 0.06853436678647995, -0.1819080114364624, 0.053702693432569504, -0.14397646486759186, -0.045157428830862045, -0.11814718693494797, -0.09413990378379822, 0.14477497339248657, 0.09324926137924194, -0.01855127140879631, 0.15273556113243103, -0.29082122445106506, -0.007326036691665649, -0.00830767210572958, -0.06981942802667618, 0.04527878016233444, -0.2323291003704071, -0.011391040869057178, 0.09667591005563736, -0.017672747373580933, -0.05336543172597885, -0.12933449447155, -0.10625404119491577, -0.0026958088856190443, -0.005153029691427946, 0.09915520995855331, 0.22243624925613403, 0.16293728351593018, -0.019907968118786812, -0.010850685648620129, 0.12705449759960175, -0.01262842956930399, 0.09416366368532181, 0.08184164017438889, 0.15725131332874298, 0.09424062073230743, -0.009107253514230251, 0.038919515907764435, 0.06729818880558014, 0.059083741158246994, 0.07761722058057785, 0.15887093544006348, -0.02145143784582615, -0.5589777231216431, 0.2802433967590332, 0.21142761409282684, -0.3785721957683563, 0.06528729200363159, -0.8006007671356201, -0.3774057626724243, -0.551567792892456, 0.9482799172401428, -0.7530245780944824, -0.5670925974845886, -0.8108046650886536, 0.2683638036251068, -0.8707191348075867, 0.3122209310531616, -0.5326134562492371, -0.23537564277648926, -0.07233025878667831, 0.23405902087688446, 0.39968621730804443, 0.15696293115615845, -0.10868512839078903, -0.03197426721453667, -0.15822818875312805, 0.09762878715991974, -0.03066142462193966, 0.10731258988380432, 0.11200790107250214, 0.12386109679937363, 0.16754795610904694, -0.17858126759529114, -0.09481684118509293, -0.16682930290699005, 0.12932395935058594, 0.06980857998132706, -0.2048150897026062, -0.008051137439906597, 0.1860404759645462, -0.060259606689214706, -0.29914289712905884, 0.13475973904132843, -0.09904999285936356, 0.09995713084936142, 0.06986238062381744, 0.07617335021495819, -0.008951020427048206, 0.1308143138885498, 0.09443450719118118, -0.23474840819835663, -0.025655752047896385, -0.014987611211836338, -0.156005859375, 0.019724825397133827, 0.1976894587278366, -0.14331448078155518, -0.17899291217327118, -0.042060643434524536, 0.16531209647655487, -0.16341142356395721, -0.086979940533638, 0.11272435635328293, -0.1069040521979332, 0.17252328991889954, 0.07364357262849808, 0.02851255238056183, 0.005138929467648268, 0.054957758635282516, -0.18389113247394562, -0.00672066630795598, -0.012485833838582039, 0.024121351540088654, -0.1254691183567047, -0.036655984818935394, 0.0016933277947828174, 0.006419220007956028, 0.037372931838035583, 0.14158590137958527, -0.012697190977633, 0.016802091151475906, 0.012803700752556324, 0.23562133312225342, -0.08002166450023651, -0.2690708339214325, -0.26034417748451233, 0.09213168174028397, -0.06535609066486359, -0.1672929972410202, 0.2907359004020691, 0.20784686505794525, -0.2806786000728607, -0.1251796931028366, 0.12472973018884659, -0.2184867411851883, -0.010852894745767117, -0.0906185507774353, -0.19707819819450378, -0.2302035242319107, -0.028131594881415367, -0.39304280281066895, -0.0700942724943161, -0.07975701987743378, -0.10404358059167862, -0.10232613980770111, -0.08646061271429062, 0.16420970857143402, 0.21483388543128967, -0.055769313126802444, -0.09873028099536896, -0.0847816988825798, -0.3666568696498871, 0.12116178870201111, 0.07255129516124725, 0.0007404098869301379, 0.07742927223443985, 0.10992088913917542, -0.361346572637558, -0.0752585157752037, 0.27130475640296936, -0.41732057929039, -0.2202681601047516, 0.2182760387659073, -0.169416144490242, -0.1580306887626648, -0.009030137211084366, 0.13448095321655273, -0.43384575843811035, -0.1078982725739479, 0.16554929316043854, 0.13982276618480682, 0.2847340404987335, -0.12107834964990616, 0.13990212976932526, -0.048466846346855164, -0.1673760861158371, -0.09606395661830902, 0.14113204181194305, -0.12188980728387833, 0.07050906866788864, -0.21995969116687775, 0.008179880678653717, -0.16139332950115204, 0.017572147771716118, 0.13184188306331635, -0.06251341104507446, -0.19468122720718384, 0.2308332473039627, 0.0615263357758522, -0.0806933119893074, -0.026616454124450684, -0.21333155035972595, 0.1159479022026062, -0.24381783604621887, -0.058189116418361664, 6.961931831028778e-06, 0.2313075214624405, -0.13331295549869537, -0.04652232304215431, 0.051138658076524734, -0.1287134736776352, 0.10129812359809875, -0.19417554140090942, 0.06895019859075546, -0.14680901169776917, 0.20056988298892975, -0.010002069175243378, -0.1256534457206726, 0.0015364481369033456, -0.1505165994167328, -0.09902609884738922, 0.09751106053590775, 0.16104629635810852, 0.2635158896446228, 0.08120165765285492, -0.09564046561717987, 0.29132163524627686, -0.03940461948513985, -0.12285325676202774, -0.10613521188497543, -0.06321179866790771, -0.05461797118186951, 0.06453196704387665, -0.07255831360816956, -0.13182000815868378, -0.04948152229189873, 0.22025758028030396, 0.07210254669189453, -0.2118423730134964, -0.053562965244054794, 0.011981895193457603, -0.05451783910393715, -0.049094170331954956, 0.05659611523151398, 0.25474920868873596, 0.22986949980258942, -0.19285926222801208, -0.4406411051750183, -0.12434706091880798, -0.11527691781520844, -0.038015689700841904, 0.28384894132614136, -0.3830956220626831, 0.13587947189807892, 0.13970263302326202, -0.13161726295948029, -0.11179099231958389, -0.08749671280384064, 0.07783795148134232, -0.04540769383311272, -0.3206412196159363, -0.2621442377567291, -0.07001955062150955, 0.04707074910402298, 0.11162881553173065, -0.11207941174507141, -0.20324549078941345, 0.05453643202781677, -0.281785786151886, -0.13792994618415833, -0.18817618489265442, -0.24746616184711456, 0.18577873706817627, -0.1207498088479042, -0.04150571674108505, 0.0009598227916285396, -0.023359930142760277, -0.12194687128067017, -0.29284733533859253, 0.4308106005191803, -0.07803750038146973, -0.0015367630403488874, -0.2876204550266266, 0.03018087148666382, 0.44253283739089966, 0.15301336348056793, -0.013929086737334728, -0.24250508844852448, 0.36149758100509644, -0.05922098085284233, 0.1286897361278534, -0.10600055754184723, -0.11495678126811981, 0.10470470786094666, 0.184763103723526, 0.554184079170227, 0.04325467720627785, -0.2618083357810974, 0.14634911715984344, -0.05027034133672714, -0.026341024786233902, 0.11136720329523087, -0.06769511103630066, 0.09144696593284607, 0.00028005673084408045, 0.28168681263923645, 0.10287103801965714, 0.07284334301948547, 0.1764535754919052, -0.12601980566978455, 0.045685939490795135, 0.03624451905488968, -0.025242075324058533, 0.007808457128703594, -0.10927411168813705, 0.12326052039861679, -0.17133952677249908, -0.1407030075788498, 0.20468860864639282, 0.20745687186717987, -0.3481869697570801, 0.42715930938720703, -0.36547237634658813, -0.19629856944084167, -0.06514353305101395, 0.0031033989507704973, -0.04736069589853287, -0.02853856049478054, -0.14597374200820923, 0.025096457451581955, 0.07240413129329681, 0.18165355920791626, 0.1216454729437828, 0.013037397526204586, 0.013397704809904099, -0.11626517027616501, 0.13484077155590057, -0.25844261050224304, -0.1024089902639389, 0.10655667632818222, -0.0340576246380806, -0.24579665064811707, -0.17765869200229645, 0.29584258794784546, -0.024224719032645226, -0.12114269286394119, -0.09231200814247131, 0.11120174825191498, -0.009070908650755882, -0.06164240837097168, -0.07672467082738876, -0.07890520989894867, 0.18039608001708984, 0.07893381267786026, -0.0071171484887599945, 0.06386613100767136, -0.09677423536777496, -0.03294171392917633, -0.2506123185157776, 0.039114393293857574, 0.07084551453590393, 0.14403165876865387, 0.0027575299609452486, -0.11508331447839737, -0.24974074959754944, -0.30482691526412964, -0.14282546937465668, -0.14383555948734283, -0.07460511475801468, -0.4438611567020416, -0.15458928048610687, 0.1328175961971283, 0.008776712231338024, -0.06243877485394478, 0.16355033218860626, -0.04038165137171745, -0.14745379984378815, -0.16167627274990082, 0.15068958699703217, -0.09748781472444534, 0.07118446379899979, 0.18278251588344574, -0.06355004757642746, -0.14772287011146545, -0.22995604574680328, 0.23824913799762726, -0.2122792899608612, -0.09151974320411682, -0.3382749557495117, -0.17674307525157928, 0.02353539690375328, -0.06256095319986343, 0.04668249189853668, 0.15536296367645264, 0.16978922486305237, 0.2545606195926666, 0.31298527121543884, -0.025541428476572037, -0.17777837812900543, -0.185677170753479, 0.13246649503707886, 0.01437784917652607, -0.05361511930823326, -0.13650394976139069, -0.06458859145641327, -0.1455768197774887, -0.06453803926706314, -0.21013283729553223, 0.2325132042169571, -0.11901800334453583, -0.13932305574417114, -0.02450120635330677, -0.11320316791534424, -0.28227701783180237, 0.008093073032796383, 0.1125251054763794, 0.019954683259129524, 0.2507222294807434, 0.12375813722610474, 0.1343192458152771, 0.1440577208995819, 0.2175697535276413, -0.13680994510650635, -0.15534766018390656, -0.0393080972135067, 0.06257869303226471, 0.17493847012519836, -0.3273395597934723, 0.0004999372758902609, -0.1880917102098465, -0.35417282581329346, -0.05732593312859535, -0.09965688735246658, 0.3636209964752197, -0.056985627859830856, -0.03063284046947956, 0.08690114319324493, 0.12049205601215363, -0.0260467529296875, 0.045327939093112946, -0.055994488298892975, -0.3836764395236969, 0.21229645609855652, 0.03461715579032898, 0.043974343687295914, -0.06640428304672241, -0.042707186192274094, 0.02162136137485504, -0.029266998171806335, -0.22436513006687164, 0.005715596955269575, 0.011736159212887287, 0.1951068639755249, 0.03934049233794212, 0.03289132937788963, 0.1939673274755478, -0.08849022537469864, -0.23644199967384338, 0.08293003588914871, 0.0632229745388031, 0.16639021039009094, -0.03166554123163223, -0.06554712355136871, -0.1562315970659256, 0.10856592655181885, -0.016208570450544357, -0.1183803454041481, 0.016443725675344467, -0.14935320615768433, 0.043231770396232605, -0.1093696653842926, 0.0464453287422657, 0.29318124055862427, 0.11293365806341171, -0.032099511474370956, 0.09447420388460159, 0.20989297330379486, 0.0968686193227768, 0.03182012215256691, 0.03928219527006149, 0.19861964881420135, -0.1635274887084961, -0.16211487352848053, 0.21625299751758575, -0.056993450969457626, -0.011222736909985542, 0.04547291249036789, -0.42070916295051575, 0.14024479687213898, 0.03171973302960396, 0.18731680512428284, 0.1321811079978943, -0.1085926964879036, 0.14684469997882843, -0.05142133682966232, -0.20858895778656006, 0.07060402631759644, 0.0059607671573758125, -0.008073840290307999, -0.1657450795173645, -0.07201985269784927, 0.07014507800340652, -0.019396303221583366, -0.12720084190368652, -0.2176678478717804, -0.14239569008350372, 0.019665097817778587, 0.11339505761861801, -0.06435024738311768, 0.055259350687265396, -0.10066752135753632, -0.05409282445907593, -0.2645838260650635, -0.36922046542167664, 0.11240924894809723, 0.04111633449792862, 0.021686626598238945, 0.20933720469474792, -0.11269911378622055, -0.05511988699436188, 0.31280970573425293, 0.0031844046898186207, -0.15006496012210846, 0.10886011272668839, -0.1011391207575798, -0.02211347222328186, -0.020262902602553368, -0.058838680386543274, -0.016630515456199646, -0.044557590037584305, 0.16373074054718018, 0.28735095262527466, 0.07970079779624939, -0.3984832465648651, 0.11150823533535004, -0.2385421097278595, 0.21491052210330963, -0.10627150535583496, -0.14178837835788727, 0.2182699292898178, 0.005585863254964352, -0.12303681671619415, 0.3115605413913727, -0.08904589712619781, -0.046990275382995605, 0.10205867886543274, -0.0037302521523088217, 0.07767093926668167, -0.12238813936710358, -0.11862161755561829, -0.27847209572792053, 0.057664453983306885, -0.12738965451717377, 0.04641846939921379, -0.263771116733551, -0.06797901540994644, -0.04583657160401344, -0.10540733486413956, -0.08256269991397858, 0.09713243693113327, 0.07056257128715515, 0.13666070997714996, -0.2143200933933258, 0.06676778942346573, 0.12929505109786987, 0.07241703569889069, 0.38469719886779785, -0.20769451558589935, -0.17254701256752014, 0.06880498677492142, -0.02732902765274048, -0.2373073697090149, -0.10630635917186737, 0.12191281467676163, 0.04070669040083885, -0.3149700462818146, 0.49790412187576294, 0.364536851644516, -0.02466861717402935, -0.21838220953941345, -0.02964070439338684, -0.13909389078617096, -0.16816619038581848, 0.19021426141262054, -0.33927032351493835, -0.14523404836654663, 0.005568071734160185, 0.0599517785012722, -0.17426948249340057, -0.039141058921813965, -0.018552178516983986, 0.06736144423484802, 0.029524551704525948, -0.01826567016541958, 0.08158279210329056, -0.05363389104604721, -0.25482189655303955, 0.07504444569349289, 0.060223717242479324, 0.16455671191215515, 0.0003336885420139879, -0.04819031432271004, -0.22500143945217133, 0.17252342402935028, -0.26254013180732727, -0.26462405920028687, -0.17840346693992615, 0.06333112716674805, -0.1561528444290161, -0.49316221475601196, 0.04596162959933281, 0.06851563602685928, -0.0650363638997078, -0.061718493700027466, 0.16606928408145905, 0.0023213091772049665, 0.17887450754642487, -0.004525669850409031, 0.030538316816091537, 0.1300565004348755, 0.07636646181344986, 0.037652499973773956, -0.14309187233448029, -0.16047148406505585, -0.07271286845207214, 0.12591978907585144, -0.025067228823900223, 0.15860691666603088, -0.08123945444822311, -0.023194510489702225, -0.04715943709015846, -0.14744076132774353, -0.0326826274394989, 0.13580751419067383, 0.17142634093761444, -0.13013321161270142, -0.051997262984514236, -0.013671405613422394, 0.05962759628891945, -0.0002530889760237187, -0.04613635689020157, -0.14844945073127747, 0.1569654941558838, -0.13786090910434723, 0.1856054961681366, 0.054703183472156525, -0.03944583982229233, -0.013456251472234726, 0.03765500336885452, 0.05224365368485451, 0.1772882640361786, -0.13657495379447937, -0.02536443993449211, 0.10624922811985016, 0.4286959171295166, 0.0276379082351923, 0.2681553363800049, -0.25026464462280273, -0.1668006032705307, 0.010580365546047688, 0.011797101236879826, 0.007983607240021229, -0.049816787242889404, -0.1436881422996521, 0.006301435641944408, 0.05710863322019577, 0.14651040732860565, -0.05711536854505539, -0.10329082608222961, 0.12399615347385406, -0.0074388314969837666, -0.016465499997138977, -0.09882690757513046, 0.16158278286457062, -0.13528671860694885, -0.021344326436519623, -0.04280576482415199, 0.16269919276237488, 0.1334109753370285, -0.33786001801490784, 0.08434462547302246, -0.39969807863235474, -0.08979811519384384, 0.18316364288330078, -0.22442196309566498, -0.12297013401985168, -0.0675271525979042, -0.07648592442274094, -0.09851693361997604, -0.05278654024004936, -0.19578024744987488, -0.16872838139533997, 0.19358009099960327, -0.031154075637459755, -0.27480828762054443, 0.07877319306135178, -0.30996087193489075, -0.15477484464645386, 0.11440303176641464, 0.13909243047237396, -0.10130733996629715, 0.09715370833873749, -0.06502582132816315, -0.09027625620365143, 0.24944782257080078, -0.06902123987674713, 0.11648450046777725, -0.05508948117494583, -0.15587681531906128, -0.0022102617658674717, -0.27361607551574707, -0.21447394788265228, -0.03280011564493179, 0.23549680411815643, 0.4157523810863495, -0.0590607188642025, 0.18646904826164246, -0.03111499547958374, 0.12179295718669891, 0.01804172806441784, 0.4885013997554779, 0.05435854569077492, -0.3374481201171875, 0.24295730888843536, -0.2629483640193939, -0.11215434968471527, -0.018534887582063675, -0.0014609171776100993, 0.26475760340690613, -0.17425450682640076, 0.009274707175791264, 0.25604867935180664, 0.01123928651213646, 0.04751771315932274, 0.22196051478385925, 0.17986193299293518, 0.06240994483232498, -0.03932344168424606, 0.07044423371553421, -0.19360749423503876, -0.1310410499572754, -0.13356584310531616, 0.028029069304466248, 0.25980323553085327, 0.1428113430738449, -0.055253852158784866, -0.2576260566711426, -0.13115540146827698, -0.0456341952085495, -0.0308215469121933, -0.0012154189171269536, -0.26196977496147156, 0.32815635204315186, 0.2886802852153778, -0.006653286051005125, 0.14681969583034515, -0.0561915822327137, 0.7123206257820129, 0.00683586485683918, 0.07233267277479172, -0.16781587898731232, 0.3727993071079254, 0.015237519517540932, -0.38360267877578735, 0.25055602192878723, 0.18178853392601013, -0.32640424370765686, 0.057488955557346344, -0.07637060433626175, 0.29787707328796387, -0.13433660566806793, -0.1004851832985878, -0.016705723479390144, -0.2516951560974121, -0.13305875658988953, -0.03441808745265007, -0.15406882762908936, 0.1457035392522812, -0.056287236511707306, 0.0854816734790802, 0.06549817323684692, -0.13130946457386017, 0.0885818600654602, -0.1639990508556366, -0.04868459329009056, 0.17567570507526398, 0.10373528301715851, 0.19692999124526978, -0.26558732986450195, 0.16613538563251495, -0.05949455872178078, -0.18042996525764465, -0.2582859396934509, 0.12734617292881012, -0.2992771863937378, -0.09684516489505768, -0.08124370872974396, -0.2945442497730255, -0.19913534820079803, 0.235841304063797, -0.24090580642223358, -0.08173948526382446, -0.05012444779276848, 0.023087652400135994, -0.10696986317634583, -0.17008119821548462, 0.47757580876350403, -0.33565187454223633, -0.012123778462409973, -0.1422804892063141, 0.23703305423259735, -0.11402878165245056, -0.455788254737854, 0.19776205718517303, 0.0685701072216034, -0.05581269785761833, -0.045472487807273865, 0.10026568919420242, 0.1713685393333435, -0.3234900236129761, -0.198821559548378, -0.19747550785541534, 0.16714982688426971, 0.12554208934307098, 0.3660535216331482, 0.07682844996452332, 0.052324917167425156, 0.12475597113370895, -0.08233525604009628, 0.06858509033918381, 0.033332083374261856, -0.15921296179294586, 0.184465691447258, -0.20876027643680573, 0.0714777335524559, 0.06518831849098206, 0.23218388855457306, 0.04428815469145775, 0.24953019618988037, 0.6526185274124146, -0.4914335310459137, 0.02738961949944496, 0.2098100334405899, 0.21304306387901306, -0.23578009009361267, -0.04724075272679329, -0.038699254393577576, -0.01054930966347456, 0.11064107716083527, -0.2057580202817917, 0.06761869788169861, 0.0023147091269493103, -0.0942029356956482, 0.20445768535137177, -0.08406335860490799, -0.15093111991882324, 0.026657970622181892, -0.02850845642387867, 0.0655028447508812, 0.23712977766990662, 0.13086335361003876, -0.17383067309856415, -0.2264409363269806, -0.11987163126468658, 0.10026594251394272, -0.07507353276014328, -0.49751749634742737, 0.10108019411563873, -0.04587123543024063, -0.3142683207988739, 0.024768728762865067, -0.2321927398443222, 0.17584753036499023, -0.28834661841392517, -0.007344094570726156, 0.19961312413215637, 0.13827204704284668, -0.1197398230433464, 0.17778126895427704, 0.04641677439212799, 0.1701774150133133, 0.07194532454013824, 0.06684079021215439, -0.28342172503471375, -0.18884453177452087, -0.09569158405065536, -0.286435604095459, 0.37634631991386414, -0.12540856003761292, -0.007039329037070274, -0.2449738085269928, -0.22422705590724945, -0.11031487584114075, 0.14970360696315765, -0.15559478104114532, -0.3094853460788727, -0.025052404031157494, 0.23908953368663788, -0.07331407070159912, 0.033848728984594345, -0.06860630214214325, 0.29269134998321533, 0.046742770820856094, 0.04283546283841133, -0.135781392455101, 0.16962562501430511, -0.03477821126580238, -0.42783546447753906, -0.03360592573881149, 0.23825079202651978, -0.0738515853881836, -0.5649043321609497, 0.3959871530532837, 0.3496749699115753, -0.42766332626342773, -0.16768638789653778, -0.06148968264460564, 0.07755245268344879, 0.22461184859275818, 0.23288515210151672, 0.12398846447467804, 0.011744419112801552, 0.00850870180875063, -0.20719648897647858, 0.005002560559660196, 0.009342907927930355, -0.034659493714571, -0.017270265147089958, 0.10173399746417999, 0.06472577899694443, 0.15556667745113373, 0.07411648333072662, 0.046637825667858124, 0.04739831015467644, -0.010906348936259747, 0.08858240395784378, -0.09525168687105179, 0.031720735132694244, -0.06952110677957535, -0.06352358311414719, 0.09871836751699448, -0.10951029509305954, 0.2766537666320801, -0.06241806223988533, 0.038157545030117035, -0.26521143317222595, 0.040324702858924866, 0.09177913516759872, 0.056719642132520676, 0.09861487150192261, -0.08325172960758209, 0.12583079934120178, 0.03206650912761688, 0.19464920461177826, -0.1588985174894333, 0.1935749351978302, 0.18549972772598267, 0.10631946474313736, -0.12930701673030853, 0.10724931955337524, -0.21499647200107574, 0.02969718724489212, 0.09486773610115051, 0.24326854944229126, 0.0803699716925621, 0.0768333449959755, 0.06848718225955963, 0.09995453804731369, -0.16112928092479706, -0.10180921852588654, 0.17982567846775055, -0.01949215494096279, -0.13305068016052246, -0.13380780816078186, -0.17991259694099426, 0.041381947696208954, -0.10858654230833054, 0.1735266149044037, 0.14377452433109283, 0.04628702625632286, 0.013317268341779709, -0.07874651998281479, 0.06142636016011238, -0.09570501744747162, -0.0551493763923645, -0.06225701421499252, 0.031250424683094025, -0.11780540645122528, -0.23924092948436737, -0.17557424306869507, 0.02400573343038559, 0.42706114053726196, -0.12255671620368958, 0.24629159271717072, 0.14617659151554108, 0.0072621614672243595, -0.07331959158182144, -0.31791508197784424, -0.11464417725801468, -0.10865949094295502, 0.025201205164194107, -0.08636324852705002, -0.04109276831150055, 0.43918687105178833, 0.2155490517616272, -0.2055937796831131, 0.15734273195266724, 0.10113120079040527, 0.24889349937438965, -0.2763214111328125, -0.02720562368631363, 0.15638212859630585, 0.05574680492281914, -0.03361593931913376, 0.214381605386734, -0.22008483111858368, -0.006669905502349138, 0.09326949715614319, 0.04386361315846443, 0.019927769899368286, 0.00211331807076931, -0.0635567381978035, -0.025712214410305023, 0.002073463052511215, 0.0024442512076348066, -0.039328306913375854, -0.22185270488262177, -0.030140860006213188, -0.09430459141731262, -0.13408122956752777, -0.08976569026708603, 0.23792661726474762, -0.21601659059524536, -0.0676836296916008, -0.08769238740205765, 0.05145084857940674, 0.18303075432777405, -0.1675139218568802, -0.07449276745319366, -0.0880793109536171, -0.17238935828208923, 0.20098575949668884, 0.006154451984912157, 0.061448175460100174, 0.052674997597932816, -0.05955289304256439, 0.172917440533638, -0.23890984058380127, -0.22227446734905243, -0.16586114466190338, -0.1299135684967041, -0.18736405670642853, 0.046987973153591156, 0.06524058431386948, 0.1826201230287552, -0.08775491267442703, 0.24282203614711761, -0.06713538616895676, 0.005639117676764727, -0.14152537286281586, -0.0006852220976725221, 0.21393395960330963, -0.23900003731250763, 0.33266663551330566, -0.2369765192270279, 0.3011464476585388, -0.0750180259346962, 0.007011909503489733, 0.31740686297416687, -0.12387914955615997, 0.02957186847925186, 0.2893066108226776, 0.03671295568346977, 0.11030402779579163, 0.09868258982896805, 0.17622330784797668, -0.11016300320625305, -0.28933390974998474, 0.09879598766565323, -0.32152339816093445, 0.30410492420196533, 0.027638690546154976, -0.012713674455881119, -0.15578684210777283, 0.08591461926698685, 0.033580388873815536, -0.17098864912986755, -0.15325166285037994, -0.03820809721946716, 0.07653926312923431, -0.05973568931221962, -0.16362665593624115, 0.18761907517910004, -0.07048816978931427, 0.046538759022951126, 0.538468599319458, -0.04795585945248604, 0.06865526735782623, -0.1514458805322647, -0.012063417583703995, -0.14103193581104279, -0.08059514313936234, 0.02195669151842594, 0.25166499614715576, -0.3576022982597351, -0.06554696708917618, 0.22278092801570892, 0.05585525184869766, 0.1706366091966629, 0.15396176278591156, 0.009569636546075344, 0.0007141662645153701, -0.006412912625819445, -0.007781136780977249, -0.04362083226442337, 0.007340878713876009, -0.03177279233932495, -0.13407687842845917, 0.07958667725324631, -0.08049499988555908, -0.12631730735301971, 0.08847685158252716, -0.00039531930815428495, -0.07333164662122726, -0.24638652801513672, -0.43096399307250977, 0.7989139556884766, 0.415371835231781, -0.5637227296829224, 0.1088128536939621, -0.27730420231819153, -0.02452743984758854, 0.3007122278213501, -0.8508492112159729, 1.1360540390014648, 0.42368829250335693, -0.08052855730056763, -0.3390031158924103, 0.30301907658576965, -0.8860688209533691, 0.07861258834600449, -0.2102425992488861, 0.07033371925354004, -0.17695342004299164, 0.29006820917129517, 0.33079418540000916, 0.231953427195549, -0.06596606224775314, 0.025050828233361244, 0.12977880239486694, 0.2044992297887802, 0.24008257687091827, -0.03778019919991493, 0.08972851932048798, -0.23711657524108887, -0.083734892308712, -0.06735291332006454, -0.22825945913791656, 0.2436346560716629, 0.5021809935569763, 0.03864409029483795, 0.06910394132137299, -0.08556235581636429, -0.27782192826271057, -0.11842750012874603, 0.14557544887065887, 0.03442850336432457, 0.061677295714616776, 0.14542829990386963, 0.06328892707824707, 0.09759537875652313, 0.07409121096134186, 0.026947021484375, -0.2308557778596878, 0.0005662787589244545, -0.11027155071496964, 0.2620600759983063, 0.053971413522958755, -0.03499003127217293, -0.09146985411643982, -0.018306763842701912, 0.17745603621006012, -0.20091113448143005, 0.20465219020843506, 0.1103961318731308, -0.12806953489780426, -0.10761315375566483, 0.2556602358818054, -0.017455987632274628, 0.07597235590219498, 0.19233296811580658, 0.23071807622909546, 0.07110480964183807, 0.1009669154882431, -0.20365874469280243, 0.08335614949464798, 0.23738957941532135, -0.041750673204660416, 0.12658625841140747, 0.34138116240501404, 0.06143783777952194, 0.21569345891475677, 0.09318578243255615, 0.06474262475967407, 0.15349221229553223, -0.12637576460838318, 0.15278735756874084, -0.18976657092571259, -0.0757066011428833, 0.0025303647853434086, -0.3557318449020386, 0.18762308359146118, 0.08909715712070465, -0.03073064424097538, -0.040489181876182556, -0.009465568698942661, -0.3730526268482208, -0.0639834925532341, 0.2816704511642456, -0.18662486970424652, -0.10085544735193253, 0.005224443972110748, -0.01303672045469284, -0.15977339446544647, 0.04305069521069527, -0.2074519693851471, 0.41723331809043884, 0.23019090294837952, 0.12143941968679428, -0.18595191836357117, -0.025316283106803894, 0.14452499151229858, 0.18442507088184357, 0.0029974100179970264, -0.09648682922124863, 0.04000415280461311, -0.32630857825279236, 0.02239619567990303, 0.060100529342889786, 0.24233798682689667, 0.23349523544311523, -0.20909148454666138, 0.3592921495437622, -0.15010735392570496, -0.19708599150180817, 0.20556989312171936, -0.018812840804457664, -0.09117388725280762, 0.12921762466430664, -0.03210388496518135, 0.0711221843957901, 0.05932178348302841, 0.018812820315361023, 0.09956787526607513, -0.003955022431910038, -0.030473917722702026, 0.1766873151063919, -0.4513583779335022, 0.22181153297424316, -0.2180916666984558, 0.20169447362422943, 0.10811582207679749, -0.05556970089673996, 0.27868688106536865, 0.21142807602882385, 0.275336891412735, 0.027595140039920807, 0.12413232773542404, -0.08936509490013123, 0.23803524672985077, 0.10557778924703598, 0.15132099390029907, 0.23525172472000122, 0.10004612058401108, 0.05675635486841202, -0.1616954654455185, -0.11300540715456009, 0.1915832906961441, 0.05837591737508774, 0.3118567168712616, -0.19526521861553192, 0.014890561811625957, -0.05479419231414795, 0.16723193228244781, 0.3522299826145172, -0.10686780512332916, -0.26025229692459106, -0.07534345984458923, 0.07044322043657303, 0.2162201851606369, -0.27181509137153625, -0.05187230184674263, -0.1536473035812378, 0.051177896559238434, 0.0023610142525285482, -0.12236886471509933, -0.12689459323883057, -0.3037201464176178, 0.21702048182487488, -0.021939333528280258, 0.13307061791419983, -0.13672538101673126, -0.18226784467697144, -0.28466466069221497, 0.28283315896987915, -0.034609436988830566, 0.04459815099835396, -0.1467113494873047, 0.17283214628696442, 0.18535009026527405, -0.33244264125823975, 0.04264196380972862, -0.0767194926738739, -0.17293934524059296, 0.008205856196582317, 0.3235333561897278, -0.21616345643997192, -0.13419340550899506, -0.21564076840877533, 0.22655069828033447, 0.05852587893605232, -0.17644645273685455, 0.15114490687847137, 0.24100974202156067, 0.014954379759728909, -0.07566762715578079, -0.1750614196062088, 0.10120420157909393, -0.43469804525375366, -0.3587856888771057, 0.06890098750591278, -0.026922449469566345, -0.4334910213947296, -0.3068942725658417, 0.019052106887102127, 0.04778050258755684, 0.1229001134634018, 0.010990690439939499, 0.06317964196205139, -0.24959945678710938, 0.04267687723040581, 0.13742081820964813, -0.11632858961820602, -0.0018353217747062445, -0.03357169032096863, 0.02468891441822052, 0.17945745587348938, 0.11761415004730225, -0.08856398612260818, 0.2738055884838104, -0.3933311998844147, -0.028893446549773216, -0.07529605180025101, -0.3580016493797302, 0.06783997267484665, -0.2194223552942276, -0.08448745310306549, -0.041647180914878845, -0.08579843491315842, -0.20333904027938843, -0.014347820542752743, 0.03795282542705536, -0.18216454982757568, -0.0018069904763251543, 0.2449413686990738, 0.14698193967342377, -0.44731613993644714, -0.13871259987354279, -0.10760077089071274, 0.1045873612165451, -0.11646915227174759, -0.029032371938228607, 0.17239370942115784, -0.08858108520507812, 0.0616455078125, -0.02766561321914196, -0.20289486646652222, -0.06315026432275772, -0.28978049755096436, -0.18596139550209045, -0.10102453082799911, -0.1774669587612152, 0.10937346518039703, -0.09926862269639969, -0.018411869183182716, -0.11987383663654327, -0.15572287142276764, -0.18061567842960358, 0.031909286975860596, 0.031400132924318314, 0.17368285357952118, 0.20077770948410034, -0.17498214542865753, -0.3227611482143402, -0.19883602857589722, 0.14018851518630981, 0.07524354755878448, 0.08947709202766418, 0.13361047208309174, 0.12528887391090393, -0.03963945433497429, 0.06283468008041382, 0.10076278448104858, 0.006164730992168188, -0.17115433514118195, -0.10377227514982224, 0.04785768687725067, 0.19974857568740845, 0.26162195205688477, 0.03055734932422638, 0.004669083282351494, 0.12251189351081848, 0.06638676673173904, -0.01822691783308983, 0.20862607657909393, 0.239342600107193, 0.09109688550233841, 0.008070489391684532, -0.018064012750983238, 0.009648432023823261, 0.01359623670578003, -0.2192273586988449, 0.10591244697570801, 0.25514015555381775, -0.08332951366901398, -0.2200849950313568, -0.33541131019592285, 0.13806352019309998, -0.015434661880135536, 0.06446906924247742, -0.011501152068376541, 0.10381219536066055, 0.022091496735811234, -0.029641935601830482, 0.052289772778749466, -0.01282078679651022, -0.23170509934425354, -0.14052912592887878, -0.07424797117710114, -0.06963978707790375, -0.0001465001842007041, -0.12765410542488098, -0.19712957739830017, -0.06749928742647171, 0.14845669269561768, 0.032131683081388474, 0.0359937958419323, -0.0978952944278717, 0.06656701862812042, 0.12223341315984726, 0.05994294211268425, -0.18420736491680145, -0.25923314690589905, -0.06869276612997055, -0.2068404108285904, -0.21663200855255127, -0.15480074286460876, 0.19254900515079498, -0.010995661839842796, -0.09723813831806183, 0.11323140561580658, 0.18039648234844208, -0.03808657452464104, -0.07220837473869324, -0.10933828353881836, 0.2238582968711853, 0.025599313899874687, -0.036623574793338776, -0.005861031822860241, -0.2985309064388275, 0.030316688120365143, 0.10393037647008896, -0.01317515131086111, 0.04342605546116829, 0.0858631506562233, 0.05032964423298836, 0.007035139482468367, -0.05249660462141037, -0.15057535469532013, -0.1974901705980301, -0.07474105805158615, 0.31736814975738525, -0.010470409877598286, -0.014260551892220974, 0.024177901446819305, 0.11564502865076065, -0.05818997323513031, 0.2391691952943802, 0.020139344036579132, -0.08324871212244034, -0.02366880141198635, 0.1499597281217575, -0.008510555140674114, 0.3176672160625458, 0.0635313093662262, -0.36892539262771606, -0.10239429026842117, 0.019645467400550842, 0.07354924827814102, -0.21161791682243347, -0.10862942039966583, 0.06058703735470772, -0.010440690442919731, 0.11636146157979965, -0.21607060730457306, 0.15310734510421753, 0.18089239299297333, -0.27824899554252625, -0.26909172534942627, -0.13267882168293, 0.14928315579891205, 0.4777645170688629, -0.2719252407550812, -0.4591892659664154, -0.10156252980232239, -0.015851294621825218, 0.021044299006462097, -0.22858183085918427, 0.11039600521326065, 0.017496971413493156, 0.14565250277519226, 0.1263672560453415, 0.04733306169509888, -0.10688184201717377, -0.19933198392391205, 0.00826110877096653, 0.18699145317077637, 0.0781557708978653, -0.06655842065811157, 0.11741864681243896, -0.03173268958926201, -0.1680239588022232, -0.10773301124572754, 0.04669048264622688, 0.030007947236299515, 0.2530808746814728, -0.024143829941749573, 0.021066775545477867, -0.02838478423655033, 0.07226120680570602, -0.1303124725818634, 0.3893009424209595, 0.14960674941539764, 0.01912180706858635, 0.04706329479813576, -0.036860622465610504, 0.03448771685361862, -0.2613491117954254, -0.09309931099414825, 0.010336135514080524, -0.04843256622552872, -0.006216820795089006, 0.022045304998755455, 0.08974660187959671, 0.04304298758506775, -0.011209433898329735, 0.14073604345321655, 0.09904169291257858, 0.08884519338607788, 0.051178187131881714, -0.16385015845298767, 0.11305288970470428, 0.11340044438838959, -0.023280572146177292, -0.13556525111198425, 0.09961950033903122, 0.08499447256326675, -0.13280878961086273, 0.10332717001438141, -0.01011778973042965, -0.04305605590343475, -0.00379861518740654, -0.05534399300813675, 0.04593879356980324, 0.17737482488155365, -0.08914545178413391, 0.09767882525920868, 0.00792746152728796, 0.026245905086398125, 0.30231544375419617, 0.14787083864212036, -0.10185306519269943, -0.060817327350378036, -0.177305668592453, -0.075334832072258, 0.32129529118537903, -0.05756889283657074, 0.11946576088666916, -0.06662524491548538, -0.01274841744452715, 0.22407126426696777, 0.30019116401672363, 0.005928803235292435, 0.190299391746521, -0.23702885210514069, 0.07660883665084839, -0.03575490415096283, -0.17710979282855988, -0.043006956577301025, -0.04923667386174202, 0.0029558332171291113, -0.17198771238327026, 0.13142238557338715, 0.16804088652133942, 0.09380520135164261, 0.1147499606013298, -0.1893855780363083, -0.03690430521965027, 0.11976128816604614, 0.20785333216190338, -0.05984743684530258, 0.09982260316610336, 0.031318359076976776, 0.24436365067958832, -0.035417426377534866, -0.10847225785255432, 0.0635845810174942, 0.16933932900428772, -0.08150556683540344, 0.04475751146674156, 0.09505695104598999, 0.11991403996944427, -0.0630941316485405, -0.09328747540712357, 0.0527070015668869, 0.25363436341285706, 0.07065755128860474, -0.1679590940475464, -0.0197591595351696, 0.12437344342470169, -0.10359442979097366, -0.5476629734039307, -0.07904931157827377, 0.20368459820747375, 0.10214384645223618, 0.03969202935695648, -0.02297373116016388, -0.37634512782096863, -0.1698213815689087, -0.19612105190753937, -0.12681418657302856, -0.05544184520840645, 0.02222037874162197, 0.13520503044128418, -0.18347439169883728, -0.15862973034381866, 0.0028830249793827534, 0.11588478833436966, -0.026729006320238113, -0.07369868457317352, 0.0873049944639206, 0.08848738670349121, -0.05774271488189697, 0.2527763843536377, -0.04400854557752609, 0.10911981016397476, -0.17359735071659088, -0.050061702728271484, 0.11201146990060806, 0.14206404983997345, 0.08904660493135452, 0.04563576728105545, 0.1036054939031601, -0.22327224910259247, 0.21751712262630463, -0.09933257848024368, -0.056899234652519226, -0.26066604256629944, -0.2558305263519287, -0.007782341446727514, -0.10942532867193222, -0.11791355907917023, 0.09830337762832642, -0.03446495532989502, -0.039601024240255356, 0.13989205658435822, 0.029199078679084778, 0.16554971039295197, 0.001486006542108953, -0.027934541925787926, 0.16960139572620392, 0.1063150092959404, 0.04718080535531044, -0.057396624237298965, -0.1582954227924347, 0.14332778751850128, -0.06632675975561142, 0.2606915533542633, 0.029141798615455627, -0.10055205225944519, -0.2482369840145111, 0.09996717423200607, 0.1196291372179985, 0.01797972060739994, -0.024683039635419846, 0.33427852392196655, 0.21976234018802643, -0.03930461406707764, -0.006319943815469742, 0.19805482029914856, -0.044451288878917694, -0.003642471507191658, -0.0637405514717102, -0.09361512959003448, 0.24971336126327515, -0.06231357902288437, -0.06410156935453415, 0.426425039768219, 0.05666949972510338, -0.0929211974143982, 0.0576852411031723, -0.15324744582176208, -0.08794610947370529, 0.0164648424834013, 0.0013066149549558759, 0.03464912250638008, -0.13953500986099243, 0.010239064693450928, 0.04750402644276619, 0.04165565222501755, -0.20111502707004547, 0.05042373389005661, 0.09287075698375702, 0.06487297266721725, -0.06891194730997086, 0.3102934658527374, 0.058478258550167084, -0.0795939490199089, 0.029925772920250893, -0.011789838783442974, 0.032634492963552475, 0.3139398396015167, 0.06883794814348221, 0.027237441390752792, 0.14521023631095886, -0.16493357717990875, 0.16377246379852295, 0.12622855603694916, 0.08053871989250183, -0.12571556866168976, 0.033090218901634216, -0.1186060979962349, -0.07940146327018738, -0.12397538125514984, -0.06489720195531845, 0.11282447725534439, -0.18524472415447235, -0.07998404651880264, -0.30416834354400635, -0.37877729535102844, 0.2502624988555908, 0.06855367124080658, 0.14042435586452484, 0.3035908341407776, -0.054340511560440063, -0.0423201248049736, 0.11421085149049759, -0.20328794419765472, 0.11631094664335251, 0.2638377845287323, 0.11834288388490677, 0.10539544373750687, -0.11552156507968903, -0.19460415840148926, -0.20548832416534424, -0.06375190615653992, -0.07050014287233353, -0.25223514437675476, 0.05581801384687424, 0.01331897359341383, -0.2517969310283661, -0.0053037856705486774, -0.10574400424957275, -0.11797671020030975, 0.10802534967660904, -0.0992368757724762, -0.0965970903635025, -0.14142248034477234, -0.03398215025663376, 0.019258171319961548, -0.18694204092025757, 0.09076309949159622, -0.788823664188385, -0.014857948757708073, -0.010340572334825993, -0.02779562585055828, 0.09684593975543976, 0.09172350913286209, 0.3632272779941559, -0.27728793025016785, -0.06626691669225693, 0.13682685792446136, -0.0771750807762146, 0.07042840868234634, -0.1736418604850769, 0.11667934060096741, -0.10189618915319443, 0.03931370750069618, -0.02695288509130478, -0.1832360029220581, 0.3322215974330902, -0.1196700930595398, -0.5023568272590637, -0.10756542533636093, 0.009481603279709816, -0.3229374587535858, -0.18816441297531128, -0.031208815053105354, 0.2626316249370575, -0.11636023223400116, 0.05812664330005646, 0.292721688747406, 0.0842447280883789, -0.008782686665654182, -0.03175250440835953, -0.06593454629182816, 0.056596096605062485, -0.8048692345619202, -0.26978740096092224, 0.13305127620697021, -0.4619259834289551, -0.019287018105387688, -0.03227733448147774, 0.28332868218421936, 0.33757659792900085, 0.06009893864393234, -0.45361530780792236, -0.045661017298698425, -0.0608508475124836, -0.21650663018226624, 0.32131534814834595, 0.12844465672969818, -0.31693658232688904, 0.053311921656131744, -0.025491543114185333, -0.008256103843450546, -0.08603846281766891, 0.22027823328971863, 0.2025381475687027, -0.04141895845532417, -0.05142659693956375, 0.05490488186478615, 0.2476254105567932, 0.2302522361278534, 0.02929009310901165, -0.321829617023468, -0.14870476722717285, 0.17570531368255615, 0.14178811013698578, 0.05929519608616829, 0.06961029022932053, 0.12596730887889862, -0.026079708710312843, -0.03655910864472389, -0.16188862919807434, -0.06156698614358902, 0.13727697730064392, 0.25989919900894165, -0.10657438635826111, 0.055780794471502304, -0.13816265761852264, -0.12844787538051605, 0.08443246781826019, -0.06374802440404892, 0.25728702545166016, -0.10316843539476395, -0.35936522483825684, -0.0757782831788063, 0.031328096985816956, -0.06283991038799286, -0.06942513585090637, -0.15582332015037537, 0.10923174023628235, 0.0016271627973765135, -0.1974085569381714, 0.16844864189624786, -0.03415609523653984, -0.03383837640285492, -0.14053800702095032, -0.2863202691078186, 0.15118926763534546, 0.007138482294976711, 0.08838170021772385, -0.10193904489278793, 0.17327383160591125, 0.15259550511837006, 0.007713088300079107, 0.1013336032629013, -0.0905279666185379, -0.011282977648079395, -0.1696949303150177, -0.009987101890146732, 0.07466039061546326, -0.1477254033088684, -0.10801205039024353, -0.12733763456344604, -0.11190500855445862, 0.22529444098472595, -0.12267715483903885, -0.2835158109664917, 0.05263204127550125, 0.25663211941719055, -0.040234267711639404, -0.24581700563430786, -0.15209759771823883, -0.11139585822820663, 0.07425013929605484, -0.015325133688747883, -0.027139578014612198, 0.2657117545604706, 0.17001676559448242, -0.015641892328858376, -0.11834698915481567, -0.05807541683316231, 0.18239575624465942, 0.14282548427581787, 0.061695702373981476, 0.03177616745233536, -0.038011062890291214, -0.061080191284418106, 0.07048971951007843, -0.11714522540569305, 0.01792769879102707, -0.1338740736246109, -0.03179267793893814, 0.11792054772377014, -0.1741403192281723, -0.33841514587402344, 0.030569490045309067, -0.09104114770889282, 0.09230508655309677, -0.1496468186378479, 0.07372591644525528, 0.10010185092687607, -0.07962322235107422, 0.10722358524799347, 0.04880893975496292, 0.11091511696577072, -0.015468419529497623, -0.056743867695331573, -0.02607244998216629, -0.14844956994056702, 0.12869134545326233, -0.14227625727653503, 0.3607916235923767, -0.14945809543132782, -0.058901347219944, -0.008291356265544891, 0.019583184272050858, -0.24394211173057556, -0.10890419781208038, 0.03919937089085579, -0.0018598020542412996, -0.0360441729426384, 0.1262698471546173, 0.08343371748924255, -0.21112655103206635, -0.0006184173398651183, -0.09094981104135513, -0.0719781145453453, -0.16894206404685974, 0.21328163146972656, -0.19742326438426971, -0.14926199615001678, -0.14922566711902618, -0.13831959664821625, -0.09509875625371933, 0.13280247151851654, 0.20780038833618164, -0.08538149297237396, 0.09319573640823364, -0.09176867455244064, -0.00503126997500658, 0.22061827778816223, -0.24577279388904572, -0.2569516599178314, 0.028370119631290436, 0.13953876495361328, -0.0785931870341301, 0.20258207619190216, 0.12180313467979431, 0.08009109646081924, 0.06568703800439835, -0.001094082952477038, -0.035686347633600235, 0.13482411205768585, -0.08258283883333206, -0.004515009466558695, 0.12242075800895691, -0.08329399675130844, -0.030071765184402466, 0.034921612590551376, -0.22160299122333527, -0.09588240832090378, 0.029815539717674255, -0.021134410053491592, 0.03270723670721054, -0.33586615324020386, 0.01949109137058258, -0.08190479129552841, -0.1316356211900711, 0.13071291148662567, 0.10177825391292572, 0.3343004286289215, 0.03441152721643448, -0.0985119566321373, -0.05456967651844025, -0.001617381814867258, -0.134258434176445, 0.4829179644584656, 0.2648352384567261, 0.11789453029632568, 0.008441978134214878, 0.17036816477775574, -0.09175829589366913, -0.16804727911949158, 0.008212804794311523, -0.1196875050663948, -0.17197996377944946, -0.02219078503549099, 0.0083537045866251, -0.0817352831363678, 0.022088123485445976, 0.22329704463481903, -0.11057984083890915, -0.1724400520324707, 0.03553568199276924, 0.013673866167664528, 0.020436594262719154, 0.17131580412387848, -0.011658591218292713, 0.07707268744707108, 0.0706363320350647, 0.2831384837627411, 0.0375639833509922, -0.15530888736248016, 0.058071453124284744, 0.5019198060035706, 0.1809433549642563, -0.2516102194786072, 0.055355142802000046, -0.06914447247982025, -0.14218860864639282, -0.18162228167057037, 0.05345004051923752, 0.024661626666784286, -0.14628325402736664, -0.020518992096185684, 0.4402451515197754, 0.09135305136442184, 0.2635626494884491, 0.11838088929653168, 0.2762252986431122, 0.3023516833782196, -0.21068814396858215, -0.049997758120298386, 0.2730177044868469, -0.3646024465560913, -0.04023619741201401, 0.07866493612527847, -0.11710332334041595, -0.04083051532506943, 0.09045477211475372, 0.04035515710711479, 0.03898469731211662, 0.03696693852543831, 0.14011834561824799, -0.18531006574630737, 0.11470216512680054, -0.023402554914355278, -0.3905058801174164, 0.054675158113241196, -0.007152331527322531, -0.034115806221961975, -0.24570371210575104, 0.3439022898674011, -0.011143534444272518, -0.1361437737941742, -0.2687685489654541, 0.09460998326539993, -0.04947865754365921, 0.1480240821838379, -0.053607430309057236, 0.03825387358665466, 0.07136940211057663, 0.08145387470722198, 0.20242884755134583, -0.010024165734648705, -0.08431541919708252, -0.08506767451763153, 0.07752673327922821, 0.05086264759302139, 0.07808873802423477, -0.07059463113546371, -0.14538559317588806, 0.04498056694865227, -0.08182501792907715, -0.16205798089504242, -0.35281673073768616, -0.08286570012569427, 0.020428285002708435, 0.02209687978029251, -0.0883646085858345, -0.137579545378685, 0.02557447925209999, 0.27700290083885193, 0.17012004554271698, 0.012130958028137684, 0.021360935643315315, -0.04489462450146675, 0.0735030397772789, -0.01822110265493393, -0.045319050550460815, -0.021020961925387383, 0.17429456114768982, -0.05883898586034775, -0.030540065839886665, -0.07127019017934799, 0.15589666366577148, -0.09260760247707367, -0.1980760097503662, -0.11071454733610153, -0.076133593916893, 0.06846650689840317, 0.26647651195526123, -0.12399653345346451, -0.018586358055472374, 0.1696702092885971, 0.06758731603622437, 0.10012217611074448, 0.28532329201698303, 0.055879659950733185, 0.01802677847445011, 0.029354888945817947, 0.014095456339418888, -0.4142604172229767, 0.2707359790802002, -0.030380649492144585, -0.3214986026287079, -0.10713464766740799, -0.10377281904220581, -0.06855914741754532, -0.0014522891724482179, 0.14708155393600464, 0.20428548753261566, 0.248956561088562, -0.05365205928683281, -0.02128429152071476, -0.057134959846735, 0.04367554187774658, -0.09295155107975006, 0.35607925057411194, -0.005445674527436495, -0.15295131504535675, 0.07848741114139557, -0.20001666247844696, -0.06614946573972702, -0.10325249284505844, 0.0025083180516958237, -0.06653984636068344, 0.12888029217720032, 0.02249767817556858, -0.371963232755661, 0.035615209490060806, -0.10212262719869614, 0.07556787878274918, 0.19821497797966003, 0.042850907891988754, -0.15847061574459076, -0.23235777020454407, 0.18904626369476318, -0.010175739414989948, -0.4132615923881531, 0.33031919598579407, 0.1718328595161438, 0.017355220392346382, 0.08965031802654266, 0.04238200932741165, 0.07584603875875473, 0.05330142378807068, 0.01619039848446846, -0.2155248522758484, 0.1716989427804947, -0.08280434459447861, 0.12042132019996643, 0.19882439076900482, -0.08255220949649811, -0.10449619591236115, 0.1195586770772934, 0.30237841606140137, 0.04516913369297981, 0.003356560366228223, 0.14342531561851501, -0.1921570897102356, -0.02331751212477684, -0.019670618698000908, 0.4824220538139343, 0.2881554663181305, 0.44910967350006104, -0.934281587600708, -0.3922213017940521, 0.145278662443161, 0.05830121412873268, -0.013067512772977352, 0.18376965820789337, 0.21037162840366364, -0.6026479601860046, 0.3162568211555481, -0.026378674432635307, -0.1661500632762909, 0.2295803427696228, -0.3046409785747528, 0.06425108760595322, -0.3690744638442993, 0.10630784183740616, -0.2277875393629074, -0.027508992701768875, 0.044549670070409775, -0.13896724581718445, -0.14468131959438324, -0.14819392561912537, 0.16279391944408417, -0.13218224048614502, -0.06182769313454628, 0.05041275918483734, 0.030846916139125824, -0.1739366203546524, 0.15561501681804657, -0.040066394954919815, -0.2208741158246994, 0.25378793478012085, 0.02214331552386284, 0.07991714030504227, 0.270354300737381, 0.23261161148548126, -0.2736336588859558, -0.14631468057632446, -0.06358528137207031, -0.01805092580616474, -0.07379524409770966, 0.0007580726523883641, 0.07187556475400925, -0.07526803016662598, 0.06874177604913712, 0.012902564369142056, 0.15772783756256104, -0.06087255850434303, -0.05429918318986893, -0.2188488394021988, -0.06290749460458755, -0.19216716289520264, -0.1579681783914566, 0.25334009528160095, -0.1600579470396042, 0.03965703770518303, -0.16647431254386902, -0.068206787109375, 0.20619234442710876, -0.059097304940223694, 0.10562486201524734, -0.18719635903835297, 0.036753978580236435, -0.13815537095069885, 0.10803103446960449, 0.2787305414676666, 0.19016116857528687, 0.20332297682762146, -0.11625199764966965, -0.15864349901676178, -0.10643761605024338, 0.10973914712667465, -0.2544962763786316, 0.15956734120845795, 0.052639253437519073, 0.01321118138730526, -0.2578708827495575, 0.002791302278637886, -0.1562434434890747, -0.32040566205978394, -0.010068347677588463, 0.08975962549448013, -0.2586674392223358, 0.038720499724149704, -0.04765158146619797, 0.2159925103187561, 0.10356906056404114, 0.003008809871971607, 0.06030852347612381, -0.4086790382862091, -0.05403706431388855, 0.2825359106063843, -0.06181349605321884, -0.3514378070831299, 0.2301046997308731, 0.03169978782534599, 0.2466486245393753, -0.020098688080906868, 0.27244889736175537, 0.0411023385822773, -0.13624446094036102, 0.1839764416217804, 0.09008388966321945, -0.2641419768333435, 0.21559850871562958, 0.07030891627073288, 0.03545619174838066, -0.21259137988090515, 0.05138873681426048, -0.08064964413642883, -0.07567179203033447, -0.09191910922527313, 0.06876736879348755, -0.031241796910762787, -0.19736811518669128, 0.20004449784755707, 0.10061614960432053, -0.14731696248054504, -0.08449158072471619, 0.1900777667760849, 0.020273925736546516, 0.13273267447948456, -0.0579930916428566, -0.14258436858654022, -0.2444588840007782, -0.0881613940000534, 0.1540195643901825, 0.04411105066537857, 0.14094588160514832, 0.21858526766300201, -0.15658968687057495, 0.03869590163230896, 0.01805218867957592, -0.0829632505774498, -0.04393533244729042, 0.19163529574871063, 0.1009390652179718, 0.019666319712996483, 0.07176825404167175, -0.06787411868572235, -0.09502170979976654, -0.3887976408004761, 0.014909939840435982, 0.12231405079364777, -0.0203370563685894, 0.13188132643699646, 0.24441225826740265, -0.14233337342739105, -0.41491004824638367, -0.0514274537563324, 0.2547742426395416, 0.20614971220493317, 0.20179642736911774, 0.39898237586021423, 0.21070192754268646, -0.18076756596565247, 0.004812845028936863, 0.07219374179840088, 0.12452434748411179, -0.10143651813268661, -0.11576808243989944, -0.1614767611026764, -0.08334942162036896, -0.492974191904068, 0.13801467418670654, -0.35364851355552673, -0.06635388731956482, 0.10031172633171082, -0.15001553297042847, 0.1253415197134018, -0.03690124303102493, 0.2567795515060425, 0.07032407075166702, -0.11669964343309402, -0.042883820831775665, -0.2760024666786194, -0.09391553699970245, -0.14363743364810944, -0.05586135387420654, 0.0850759893655777, 0.007779784966260195, 0.3405422866344452, -0.04703379422426224, -0.14419913291931152, -0.006545004900544882, -0.1580609530210495, -0.111415795981884, 0.01887611858546734, -0.11712624877691269, 0.17475976049900055, 0.11959617584943771, -0.15025483071804047, -0.1803763210773468, 0.1510922610759735, -0.2586148977279663, -0.06927645951509476, -0.0684623196721077, -0.36442330479621887, 0.10381276905536652, 0.04867533966898918, 0.14860667288303375, -0.15583017468452454, 0.2080451101064682, -0.42783480882644653, -0.05653505027294159, 0.051466137170791626, 0.11284423619508743, 0.10679417103528976, 0.40531039237976074, -0.049697354435920715, 0.04031677544116974, 0.12271793931722641, -0.05246379226446152, 0.2510950267314911, -0.056497734040021896, -0.10856938362121582, -0.11390922963619232, -0.2287147492170334, 0.18868570029735565, -0.04195057973265648, -0.16763269901275635, 0.042674317955970764, -0.13197529315948486, 0.020037014037370682, 0.37428197264671326, 0.07731912285089493, 0.0075917113572359085, -0.17739972472190857, 0.09628917276859283, -0.06901496648788452, 0.17136436700820923, 0.2635519802570343, -0.12064176797866821, -0.1602768450975418, -0.2718844711780548, -0.1617307960987091, 0.1445671021938324, 0.6018540859222412, 0.008483827114105225, 0.02952897921204567, 0.027457190677523613, -0.17126162350177765, -0.1793171763420105, 0.29146212339401245, 0.3511957824230194, -0.1717342734336853, -0.2087564915418625, -0.3142419457435608, -0.028345612809062004, 0.14270758628845215, -0.20547270774841309, -0.04412169009447098, -0.0165129192173481, 0.2070951610803604, 0.2127961963415146, -0.012663055211305618, -0.304837703704834, -0.16260088980197906, -0.42772194743156433, 0.39517250657081604, -0.24522055685520172, -0.4811200201511383, 0.06701211631298065, 0.10492588579654694, 0.08170484751462936, 0.26711395382881165, 0.13644248247146606, -0.11293375492095947, 0.10915150493383408, -0.1315973699092865, 0.03560172766447067, 0.11568259447813034, 0.005926623474806547, 0.06254728883504868, 0.003915733192116022, 0.10025708377361298, 0.08251877129077911, -0.1233460083603859, 0.10639741271734238, 0.1176571249961853, 0.12117689847946167, 0.17647680640220642, -0.17868086695671082, -0.028881676495075226, 0.1319996565580368, -0.015998397022485733, -0.1359473168849945, 0.2816808521747589, -0.12679684162139893, 0.3127863109111786, -0.26142773032188416, 0.17039000988006592, 0.037771958857774734, -0.20344001054763794, -0.05014757066965103, 0.1047087088227272, 0.17125165462493896, 0.1006951853632927, 0.16162237524986267, -0.3658253848552704, -0.04192227125167847, 0.154954731464386, 0.008973302319645882, -0.09897029399871826, 0.019637765362858772, 0.10140890628099442, 0.17645713686943054, 0.12087137997150421, -0.21389365196228027, -0.1351207047700882, -0.2873506546020508, -0.14850924909114838, 0.020595861598849297, -0.0004002177738584578, 0.05639064684510231, 0.08542293310165405, 0.07261840999126434, -0.13371607661247253, 0.021143868565559387, -0.07897500693798065, 0.20614074170589447, 0.053801555186510086, 0.10822086781263351, 0.3839973211288452, -0.04827520623803139, -0.23781080543994904, 0.10527317225933075, 0.14544790983200073, -0.07164210081100464, -0.13425767421722412, -0.2643733322620392, 0.10532825440168381, 0.21504530310630798, -0.03423893451690674, -0.15430167317390442, -0.006129875313490629, -0.02387741580605507, -0.32471561431884766, -0.07864760607481003, 0.1880948841571808, 0.1626269519329071, -0.1419995129108429, -0.0030673735309392214, -0.0003088294470217079, 0.09160028398036957, 0.15007159113883972, 0.3963510990142822, 0.23649759590625763, -0.1273806244134903, 0.0043333182111382484, -0.028095820918679237, -0.09258396923542023, -0.17194616794586182, 0.04563625156879425, -0.7748610973358154, -0.06941830366849899, -0.07678235322237015, 0.23729117214679718, -0.04854578897356987, 0.342975378036499, 0.14273414015769958, -0.20572391152381897, -0.08520542085170746, 0.28956934809684753, 0.015543575398623943, 0.023381980136036873, 0.4395970404148102, -0.47534188628196716, -0.021630726754665375, -0.09624659270048141, 0.15572112798690796, -0.06576906889677048, 0.21223361790180206, -0.015102176927030087, 0.17083172500133514, 0.15366877615451813, -0.4696364998817444, -0.16081875562667847, -0.2578321397304535, -0.7978864312171936, 0.041211891919374466, -0.25602513551712036, 0.10535912960767746, 0.0022593457251787186, -0.08799312263727188, 0.22410929203033447, -0.1777127981185913, 0.0984717607498169, 0.08210910856723785, -0.04478016495704651, -0.12243189662694931, 0.14257553219795227, -0.017952464520931244, -0.13092336058616638, -0.08738918602466583, -0.17819152772426605, 0.06642312556505203, 0.1023167222738266, 0.13602134585380554, 0.021515263244509697, -0.16352508962154388, -0.15645533800125122, -0.21848367154598236, -0.15732164680957794, -0.055414509028196335, 0.08181846141815186, 0.0019454327411949635, -0.112068310379982, 0.04526807367801666, -0.6231204271316528, 0.11538192629814148, 0.2860451936721802, 0.3089282810688019, 0.09407230466604233, -0.005267692264169455, -0.43708518147468567, 0.07674543559551239, -0.11120016872882843, 0.26554545760154724, -0.0905899778008461, 0.3108215630054474, -0.08660758286714554, 0.011549687944352627, 0.20382924377918243, -0.14664632081985474, 0.06393158435821533, 0.03875209391117096, -0.44333431124687195, 0.05773087963461876, -0.2368345856666565, 0.05641045793890953, -0.022672073915600777, -0.15998172760009766, 0.4499148726463318, -0.32544198632240295, 0.019151901826262474, -0.0581815131008625, -0.022901665419340134, 0.03126607835292816, -0.21668590605258942, 0.03622128814458847, 0.08066924661397934, -0.09272678941488266, -0.06974092125892639, -0.10840592533349991, -0.05448653921484947, 0.1646207571029663, 0.17405347526073456, -0.012834304012358189, 0.06637199968099594, 0.386514276266098, 0.06444865465164185, -0.29198578000068665, -0.01770314946770668, 0.041089046746492386, -0.15756390988826752, -0.29628434777259827, -0.055675916373729706, 0.01265732105821371, -0.011530841700732708, 0.08220342546701431, 0.09754762798547745, -0.10552467405796051, -0.27070870995521545, -0.2642863094806671, -0.07155481725931168, -0.031200438737869263, 0.14847148954868317, -0.2001744508743286, 0.3211931884288788, -0.08021092414855957, 0.15338315069675446, 0.08907268941402435, -0.12615546584129333, 0.10272640734910965, 0.3222113847732544, -0.1916089504957199, -0.06390634924173355, -0.18790192902088165, -0.050428278744220734, 0.1747795045375824, 0.060886502265930176, -0.14724862575531006, 0.14008785784244537, -0.010515250265598297, -0.13029004633426666, -0.13923108577728271, 0.05199737474322319, 0.17907994985580444, 0.07880519330501556, 0.08600791543722153, -0.014258084818720818, 0.08542340248823166, 0.08243966102600098, -0.21959567070007324, 0.1602061539888382, -0.1260319948196411, -0.2927806079387665, 0.5106277465820312, -0.33380916714668274, 0.011476307176053524, 0.10189611464738846, 0.1783090978860855, 0.481213241815567, 0.153622105717659, -0.19691914319992065, 0.01276485063135624, -0.031180376186966896, 0.1328626424074173, -0.06889211386442184, 0.18076255917549133, -0.6952870488166809, -0.06865262985229492, -0.20607946813106537, 0.03990645334124565, -0.08077585697174072, 0.004934667609632015, -0.13553102314472198, -0.03534410893917084, -0.03349002078175545, -0.262183278799057, -0.011336829513311386, 0.03218621760606766, -0.4008252024650574, 0.4500618577003479, -0.1124897301197052, 0.02245725877583027, 0.07395848631858826, 0.09868966788053513, 0.06863581389188766, 0.16666674613952637, 0.2667669951915741, -0.1415516585111618, -0.10946892201900482, 0.053615931421518326, 0.005021174903959036, -0.11974022537469864, 0.05916477367281914, 0.07863423973321915, 0.05763565003871918, -0.1661028265953064, -0.08776441216468811, 0.05309506505727768, 0.20741185545921326, 0.0012388350442051888, -0.12816481292247772, -0.16445638239383698, 0.10230553895235062, 0.006150903645902872, -0.011078758165240288, -0.010442814789712429, 0.05440503731369972, -0.28966227173805237, 0.14675988256931305, -0.03620097413659096, 0.19053992629051208, -0.028938721865415573, -0.10969521105289459, -0.033524058759212494, 0.25469329953193665, -0.005089289043098688, 0.3227787911891937, -0.21401484310626984, -0.07426363229751587, -0.01679568737745285, 0.17473815381526947, -0.05708669126033783, 0.21235139667987823, -0.15796354413032532, -0.23090995848178864, -0.14051471650600433, -0.07331281900405884, -0.007630331441760063, -0.15940727293491364, 0.29030153155326843, 0.00764982495456934, -0.11872793734073639, -0.14293228089809418, -0.058455690741539, -0.24426336586475372, -0.13512492179870605, -0.08573437482118607, -0.27453720569610596, -0.19799306988716125, 0.15528279542922974, -0.18312066793441772, 0.4863865077495575, 0.0008560895221307874, 0.3829212486743927, -0.1085040420293808, -0.07441383600234985, -0.1452016681432724, 0.03230274096131325, -0.023066876456141472, -0.5833823084831238, -0.38613536953926086, -0.08964946120977402, -0.20004132390022278, -0.22898466885089874, 0.07917885482311249, 0.06704404205083847, 0.053145986050367355, 