{"version": "0.5.2", "metadata": {"date": {"year": 2023, "month": 7, "day": 31, "hour": 22, "minute": 16, "second": 58}, "loudness": -20.11812973022461, "gain": 0.8326580167626693}, "architecture": "WaveNet", "config": {"layers": [{"input_size": 1, "condition_size": 1, "head_size": 8, "channels": 16, "kernel_size": 3, "dilations": [1, 2, 4, 8, 16, 32, 64, 128, 256, 512], "activation": "Tanh", "gated": false, "head_bias": false}, {"input_size": 16, "condition_size": 1, "head_size": 1, "channels": 8, "kernel_size": 3, "dilations": [1, 2, 4, 8, 16, 32, 64, 128, 256, 512], "activation": "Tanh", "gated": false, "head_bias": true}], "head": null, "head_scale": 0.02}, "weights": [-0.18865647912025452, 0.5509248971939087, -0.9542561769485474, -0.925387442111969, -0.39348024129867554, 0.36761951446533203, -0.15232205390930176, 1.0801804065704346, -0.029670847579836845, 0.47167670726776123, -0.6803579926490784, -0.16283173859119415, -0.9690434336662292, -0.6468644142150879, -0.44268599152565, 0.27581340074539185, 0.18568338453769684, 0.11556699126958847, -0.20308806002140045, -0.1568143516778946, 0.0525016263127327, 0.22666248679161072, 0.06263706088066101, 0.10368788987398148, -0.13537071645259857, 0.1053052619099617, 0.12541534006595612, -0.24726040661334991, 0.010230344720184803, -0.03200235962867737, -0.15663091838359833, 0.04176866635680199, -0.09089025110006332, 0.04965604096651077, 0.011901582591235638, -0.11380119621753693, -0.18221135437488556, 0.03340752050280571, 0.07002153992652893, 0.1823674440383911, 0.036260295659303665, -0.08243538439273834, -0.052912820130586624, -0.22889834642410278, -0.10080976784229279, 0.033607229590415955, 0.18326885998249054, 0.07897935062646866, -0.18093180656433105, 0.08590824902057648, 0.09685603529214859, 0.055920928716659546, 0.14640620350837708, 0.014604467898607254, -0.013602305203676224, 0.0049472772516310215, 0.023747995495796204, -0.21822446584701538, -0.0046754879876971245, -0.07337648421525955, -0.03567022830247879, -0.029065970331430435, -0.09452588856220245, 0.13882556557655334, -0.007129048462957144, -0.03557023033499718, -0.024121414870023727, 0.16443654894828796, 0.08866281807422638, 0.1348351389169693, -0.24876591563224792, -0.05310207977890968, 0.05950923636555672, -0.01774275116622448, 0.12399671226739883, 0.13108153641223907, -0.09968311339616776, -0.11951027065515518, 0.018505005165934563, 0.02886423096060753, -0.13124606013298035, 0.12373742461204529, 0.05855415016412735, -0.1244892030954361, 0.031862180680036545, 0.11516726762056351, -0.026503676548600197, -0.07303720712661743, -0.006182147189974785, -0.05107416957616806, 0.02997906692326069, 0.20296047627925873, 0.08893128484487534, 0.03963502123951912, -0.27891722321510315, -0.0895710289478302, 0.07808685302734375, -0.0629570260643959, -0.0986325591802597, -0.06454751640558243, -0.000964930048212409, 0.0950036346912384, -0.05856195092201233, -0.16672977805137634, -0.1335245668888092, 0.0074197519570589066, -0.23885053396224976, -0.10942691564559937, -0.0024419270921498537, 0.10061758011579514, -0.10645125061273575, 0.03512046858668327, 0.24703721702098846, -0.07732140272855759, 0.05387243628501892, -0.3769892454147339, 0.20292498171329498, 0.0469585582613945, 0.27267199754714966, -0.21132969856262207, 0.010638377629220486, 0.26090866327285767, -0.31561774015426636, 0.026729103177785873, 0.12276969850063324, -0.3150155246257782, -0.0681728944182396, -0.33226609230041504, 0.18009771406650543, -0.07658127695322037, 0.24917607009410858, -0.16418078541755676, -0.11674928665161133, -0.2619175910949707, 0.3466808795928955, 0.02199462056159973, 0.17871202528476715, 0.08194290846586227, 0.13725042343139648, -0.18003211915493011, 0.35878777503967285, 0.10739468038082123, 0.4099065065383911, -0.24393869936466217, -0.16033630073070526, 0.1736752986907959, -0.11552555859088898, -0.02767825871706009, 0.1753738671541214, -0.35483667254447937, -0.1760053038597107, 0.12740346789360046, -0.2660089433193207, 0.04626088961958885, 0.333255797624588, -0.36764761805534363, 0.061889488250017166, -0.4180920124053955, 0.1667814701795578, -0.06951145827770233, -0.041823919862508774, -0.010303840972483158, -0.1607193499803543, -0.16091462969779968, -0.07128456234931946, 0.040532778948545456, -0.023442190140485764, 0.10774699598550797, -0.16560234129428864, 0.03303300216794014, 0.18149517476558685, -0.09514425694942474, 0.1603022664785385, 0.09438633918762207, -0.17740575969219208, 0.05784399434924126, -0.06427346915006638, -0.029535969719290733, 0.10584363341331482, -0.10888640582561493, -0.05006347596645355, -0.07238700985908508, 0.051965586841106415, 0.0824674442410469, 0.11200898140668869, 0.12518815696239471, 0.003637508722022176, -0.06089463084936142, -0.15412738919258118, 0.13967356085777283, 0.14761798083782196, 0.13813839852809906, -0.1519332081079483, 0.034850794821977615, -0.05949168652296066, -0.13310523331165314, -0.040312763303518295, 0.10456670820713043, -0.12261336296796799, 0.03792719170451164, 0.05576047673821449, 0.04799703508615494, -0.07277382910251617, -0.052525028586387634, -0.1304451823234558, 0.08764301240444183, -0.0641910508275032, 0.20741550624370575, 0.022406700998544693, 0.14046165347099304, -0.07941282540559769, -0.06628120690584183, -0.15480659902095795, 0.056831542402505875, 0.044344913214445114, 0.19947746396064758, -0.1985834538936615, -0.03111247904598713, 0.29633650183677673, -0.20540502667427063, 0.022186819463968277, 0.30881038308143616, -0.04285821691155434, -0.02773192897439003, -0.29017937183380127, 0.1610449105501175, -0.09501238912343979, 0.0777691975235939, -0.13207927346229553, -0.06487559527158737, -0.176060289144516, 0.21413390338420868, 0.029273418709635735, 0.13765519857406616, 0.0481412336230278, -0.12142650783061981, -0.09344635903835297, 0.011250583454966545, -0.028266459703445435, 0.20989428460597992, -0.054245200008153915, 0.13888885080814362, 0.09763719141483307, -0.0977923646569252, 0.12005878984928131, 0.03899762034416199, 0.015585605055093765, -0.0757230594754219, 0.17438893020153046, -0.11952117830514908, -0.039380356669425964, 0.18164025247097015, 0.020592886954545975, -0.03953586518764496, -0.19970770180225372, 0.10475585609674454, -0.15663306415081024, 0.042857713997364044, 0.02951274812221527, -0.016099022701382637, -0.04344520717859268, -0.004069964867085218, -0.011354882270097733, 0.06807465851306915, 0.1362566500902176, -0.13413994014263153, -0.08223840594291687, 0.13106033205986023, 0.04365156218409538, 0.004402677994221449, 0.02651667594909668, 6.209198909346014e-05, -0.10696384310722351, -0.05502485856413841, -0.10148552805185318, -0.1385050266981125, 0.25911059975624084, -0.005880891811102629, 0.02372737042605877, -0.05059118941426277, -0.02332206442952156, -0.10734447091817856, -0.04214010015130043, 0.18920662999153137, 0.04689745232462883, 0.008251702412962914, -0.12438425421714783, 0.016339175403118134, 0.06823641806840897, -0.061516173183918, -0.10553453117609024, 0.1587333381175995, -0.041982799768447876, -0.046516355127096176, 0.05463400483131409, -0.1739465445280075, 0.06125982850790024, -0.013969631865620613, -0.017983054742217064, -0.08022720366716385, 0.03010851889848709, 0.07718735933303833, -0.07510393112897873, -0.09727095067501068, 0.09044799953699112, -0.2025628536939621, 0.11682142317295074, 0.05891891568899155, 0.13352252542972565, -0.1261259913444519, -0.12426917254924774, -0.10209374874830246, 0.15534979104995728, -0.05560201033949852, -0.024543633684515953, 0.20511607825756073, -0.06676064431667328, -0.06968382000923157, 0.1713980734348297, -0.007449515163898468, 0.08126746118068695, -0.0912737026810646, -0.0624915212392807, -0.06566149741411209, 0.21739281713962555, 0.13259251415729523, 0.15879733860492706, -0.09495580941438675, 0.11855641007423401, -0.03845589980483055, -0.04605747014284134, -0.1408839076757431, 0.19996896386146545, -0.0383334681391716, -0.08845484256744385, -0.009564475156366825, 0.2298937886953354, 0.16743135452270508, 0.06473416835069656, 0.22966720163822174, -0.03785813972353935, -0.1295318454504013, 0.22725912928581238, 0.08014510571956635, -0.16037605702877045, 0.24377869069576263, 0.07653971761465073, 0.010167776606976986, 0.025778790935873985, -0.008257750421762466, -0.014932255260646343, -0.042864225804805756, -0.09328899532556534, 0.0032333761919289827, 0.024674074724316597, 0.20011326670646667, 0.019624987617135048, 0.07255414128303528, -0.2451036125421524, -0.03725210204720497, -0.10108396410942078, -0.2869393527507782, -0.1881866753101349, 0.11213584989309311, -0.057786937803030014, 0.06906434893608093, 0.11775536835193634, -0.004478983581066132, -0.04048695042729378, -0.02759045548737049, -0.14165325462818146, 0.07822655141353607, -0.06738247722387314, 0.07897523045539856, -0.06723567098379135, -0.08215036988258362, 0.042782969772815704, 0.09854117780923843, 0.12230654805898666, 0.2529941201210022, 0.19157209992408752, -0.05005882680416107, -0.07827514410018921, 0.06451022624969482, 0.05465935915708542, 0.044891055673360825, 0.03173213079571724, 0.11261225491762161, -0.1966516524553299, -0.00515463761985302, 0.013227309100329876, -0.176128089427948, -0.1501436084508896, -0.0772603303194046, -0.24722036719322205, 0.03079233691096306, 0.10829374939203262, 0.0865349993109703, -0.06751659512519836, 0.05352993682026863, -0.008912471123039722, 0.12561526894569397, -0.08499268442392349, 0.3129245638847351, -0.054574500769376755, -0.11396367102861404, -0.049253497272729874, 0.22491592168807983, -0.0484548881649971, -0.1039828509092331, 0.03228036314249039, -0.016731614246964455, -0.05228525772690773, 0.12818396091461182, -0.09094177186489105, 0.11913181841373444, -0.15331700444221497, -0.027365565299987793, -0.09198495745658875, 0.24812160432338715, 0.006504463963210583, 0.10090362280607224, -0.11077538132667542, 0.05953298509120941, 0.0815335065126419, 0.05469450727105141, 0.06531912833452225, 0.06955424696207047, -0.19867485761642456, 0.027528880164027214, -0.2822944223880768, 0.183444544672966, 0.13554537296295166, -0.1398453712463379, 0.020627925172448158, -0.037265364080667496, -0.15586955845355988, -0.000779196445364505, 0.07598362118005753, -0.3129098415374756, -0.023017197847366333, -0.12950603663921356, -0.20130209624767303, 0.22253647446632385, -0.1205308586359024, 0.28388985991477966, -0.19394738972187042, 0.014545096084475517, -0.08259457349777222, -0.10812303423881531, 0.1153673529624939, 0.19544768333435059, 0.11509448289871216, 0.04615696892142296, -0.22016647458076477, 0.1477803885936737, 0.0335383377969265, -0.054641954600811005, -0.08794299513101578, -0.014782463200390339, -0.25828200578689575, -0.028593525290489197, 0.061039041727781296, -0.008569656871259212, 0.012837566435337067, 0.06017725169658661, -0.04950343072414398, -0.05606887862086296, -0.08732287585735321, 0.07929681241512299, 0.032516930252313614, 0.11131603270769119, 0.0723656639456749, -0.017606517300009727, 0.1004084125161171, -0.02880123257637024, -0.164359912276268, 0.024749113246798515, -0.19693726301193237, 0.10954437404870987, -0.06754397600889206, -0.15961676836013794, -0.0806831493973732, 0.11527718603610992, -0.13812141120433807, 0.13749419152736664, 0.11646837741136551, -0.03915856033563614, 0.03542650490999222, -0.01267483364790678, -0.1473587453365326, 0.049787331372499466, 0.10491757839918137, 0.01564905233681202, 0.08172580599784851, -0.044080208986997604, -0.09738926589488983, -0.32177290320396423, 0.25207069516181946, 0.17311826348304749, 0.14147387444972992, -0.03365188464522362, 0.02303391508758068, -0.1985754817724228, 0.2540542185306549, -0.12619726359844208, -0.23780976235866547, 0.19385430216789246, -0.07910928875207901, -0.22062410414218903, 0.10068444162607193, 0.1221964880824089, 0.2284223884344101, -0.1876557469367981, 0.042910028249025345, -0.15666711330413818, 0.08715708553791046, 0.060218021273612976, 0.36455145478248596, -0.15580688416957855, -0.016295064240694046, -0.14272361993789673, 0.09515237808227539, -0.07080873847007751, 0.17824414372444153, -0.23445914685726166, 0.09781013429164886, -0.3094031512737274, 0.15146900713443756, -0.09541433304548264, -0.09097938239574432, 0.29304617643356323, -0.15800510346889496, -0.397490531206131, 0.025368234142661095, -0.04730156064033508, -0.3110957741737366, 0.04676104709506035, -0.09060216695070267, -0.237435445189476, 0.0707692801952362, 0.03285859897732735, 0.18845173716545105, -0.26868531107902527, -0.144565612077713, 0.31408295035362244, -0.06155770644545555, 0.11909940093755722, -0.2623664140701294, 0.13968691229820251, -0.24613599479198456, 0.0777539312839508, 0.14558425545692444, -0.20033729076385498, 0.24260404706001282, -0.011530018411576748, -0.15001288056373596, 0.16782772541046143, 0.08693836629390717, 0.12427731603384018, -0.3359299898147583, -0.08974472433328629, -0.19666163623332977, 0.21236321330070496, -0.09564743936061859, 0.24713346362113953, -0.24428510665893555, -0.02060355246067047, 0.02640552446246147, 0.00910228956490755, 0.08197449147701263, 0.20958617329597473, -0.2365831881761551, -0.0739838033914566, -0.13437287509441376, 0.3248123526573181, -0.05864768847823143, -0.23740261793136597, 0.24713364243507385, 0.14171837270259857, -0.1470550000667572, 0.09352544695138931, -0.13101732730865479, -0.072022445499897, 0.19498959183692932, -0.07969506829977036, -0.084856316447258, 0.25339454412460327, 0.10530658811330795, 0.25452888011932373, -0.1870211511850357, -0.08893487602472305, 0.11264924705028534, -0.06825101375579834, 0.042822979390621185, -0.12216688692569733, 0.12630358338356018, 0.1410544365644455, 0.3159676790237427, -0.13237982988357544, -0.13646505773067474, 0.12625844776630402, -0.35759738087654114, 0.12560634315013885, 0.1255076378583908, -0.31352245807647705, 0.07094142585992813, -0.25764209032058716, 0.16798901557922363, -0.00341897364705801, 0.1763077974319458, -0.3136265277862549, 0.09586441516876221, -0.24869517982006073, 0.3085665702819824, 0.12985894083976746, 0.12809567153453827, -0.0690237283706665, 0.09410909563302994, -0.1794048547744751, 0.17518766224384308, 0.12407273054122925, 0.23458923399448395, -0.3897547423839569, -0.03880830481648445, 0.06986628472805023, -0.10356015712022781, -0.030162477865815163, 0.04687521606683731, -0.2644982635974884, 0.08238206058740616, 0.21742835640907288, -0.2040977030992508, 0.011064276099205017, 0.2358180582523346, -0.28103014826774597, -0.05915066599845886, -0.3567807078361511, 0.11181674152612686, 0.0314582996070385, -0.05915830284357071, -0.0028510489501059055, -0.04080629721283913, -0.08842211216688156, -0.12217219173908234, 0.2088841050863266, 0.020443003624677658, 0.15071465075016022, -0.18452495336532593, 0.06884284317493439, 0.11045441031455994, -0.12919966876506805, 0.21584700047969818, -0.07529131323099136, -0.20067591965198517, -0.15556953847408295, -0.0004731185326818377, 0.20060352981090546, -0.03440412878990173, 0.03706323727965355, -0.12447047233581543, -0.1386503428220749, 0.07280033826828003, -0.03946961835026741, 0.08796575665473938, 0.17676053941249847, -0.04102994129061699, 0.01217558141797781, -0.06778980791568756, 0.2047397345304489, -0.040214892476797104, 0.0019507419783622026, -0.10732895135879517, 0.12167365849018097, 0.06796903163194656, 0.02054528146982193, 0.08412041515111923, 0.02944524586200714, 0.03182784840464592, 0.06421128660440445, 0.1581125408411026, -0.16968286037445068, 0.08018580079078674, 0.01618402823805809, -0.017692336812615395, 0.013325292617082596, -0.03193432465195656, -0.02156929485499859, -0.14779368042945862, 0.02821890451014042, 0.23698468506336212, 0.16290368139743805, 0.11239202320575714, -0.030310090631246567, -0.24684648215770721, -0.15584897994995117, 0.2659783661365509, -0.36398789286613464, 0.013881956227123737, 0.1911080777645111, -0.3215564787387848, 0.031923528760671616, 0.04432154446840286, 0.26728323101997375, -0.08161778748035431, -0.18703582882881165, -0.17292623221874237, 0.14121225476264954, 0.15835729241371155, 0.35346490144729614, 0.001383630558848381, -0.23866114020347595, -0.2998390197753906, -0.14456652104854584, 0.30259284377098083, 0.2190956026315689, 0.01747097633779049, -0.14546440541744232, -0.15807412564754486, 0.11068513989448547, 0.29386019706726074, -0.3122670352458954, -0.011480442248284817, 0.1126626580953598, -0.33863401412963867, 0.01370322797447443, 0.30319899320602417, -0.3683166205883026, 0.07008419930934906, 0.0977807492017746, -0.27714526653289795, 0.10144256800413132, 0.14624521136283875, 0.2135181725025177, -0.1272859126329422, -0.08690959960222244, 0.2911677062511444, -0.048505302518606186, -0.19850967824459076, -0.3799608647823334, -0.11672727763652802, 0.29441818594932556, 0.3946645259857178, -0.04116128757596016, -0.22332479059696198, 0.4025506377220154, 0.09640634804964066, -0.36537718772888184, 0.26652634143829346, -0.04119852930307388, -0.3998713195323944, -0.2646225690841675, 0.10900172591209412, 0.40946879982948303, 0.2779906392097473, 0.05045014247298241, -0.33606594800949097, -0.17156144976615906, -0.058353226631879807, 0.192688450217247, 0.19434869289398193, 0.09677916765213013, -0.269093781709671, -0.15239016711711884, 0.053403787314891815, 0.192149356007576, 0.2504040002822876, 0.12227225303649902, -0.4080648124217987, 0.20695558190345764, 0.03872248902916908, -0.4175175726413727, 0.3542676270008087, 0.07449380308389664, -0.19925077259540558, 0.18061093986034393, 0.14135582745075226, -0.3760688304901123, 0.421382874250412, -0.1372727006673813, -0.4158393442630768, -0.15114498138427734, 0.04423925280570984, 0.3293225169181824, -0.04604391008615494, -0.11379214376211166, -0.09325870126485825, -0.08208078891038895, 0.029305344447493553, 0.05066465586423874, 0.013810398988425732, -0.003694800892844796, 0.08037056028842926, 0.08969351649284363, -0.048627253621816635, -0.0021437988616526127, -0.036176037043333054, -0.0026342463679611683, -0.031159717589616776, -0.0479530394077301, 0.5614826083183289, -0.4281652569770813, 0.8443847894668579, -0.6713299751281738, 0.08523277193307877, 0.8165574669837952, 0.8892711400985718, -0.5702963471412659, 0.17545223236083984, 0.09107907116413116, -0.5978465676307678, -0.34811827540397644, 0.2839197516441345, -0.6335020065307617, 0.0011034380877390504, 0.7207249999046326, -0.33036619424819946, 0.19777177274227142, -0.013327466323971748, 0.16625742614269257, -0.005813265684992075, -0.23113444447517395, 0.1236797645688057, 0.038643255829811096, -0.21757164597511292, -0.13714240491390228, 0.40548601746559143, -0.1126692146062851, 0.11333300173282623, 0.047190625220537186, 0.3722519874572754, -0.7012712955474854, 0.018909452483057976, -0.15358370542526245, -0.25821787118911743, 0.14261582493782043, 0.2334110587835312, -0.1339932084083557, -0.17651991546154022, -0.10064893960952759, -0.06305191665887833, 0.08549492806196213, -0.21672461926937103, 0.09776008874177933, 0.04882276803255081, 0.01862792670726776, -0.2514471113681793, 0.20563070476055145, 0.0003005993494298309, -0.0026839037891477346, 0.21920758485794067, 0.19393908977508545, -0.15185271203517914, -0.184292271733284, 0.07793714106082916, -0.270464152097702, -0.1465873271226883, -0.23661217093467712, 0.23701423406600952, -0.37477821111679077, 0.2900417447090149, 0.23945438861846924, -0.04374491795897484, 0.1032700464129448, -0.0016053757863119245, -0.1713765263557434, 0.13833992183208466, -0.2755792438983917, -0.20551447570323944, 0.1130089983344078, 0.08197082579135895, 0.10886653512716293, -0.12644922733306885, 0.1161675825715065, 0.18293455243110657, -0.2163388729095459, 0.26990535855293274, 0.09057225286960602, -0.1535702794790268, -0.1403777152299881, -0.05322536453604698, -0.32141587138175964, -0.25687533617019653, 0.07676927000284195, 0.1989654302597046, 0.3017571270465851, 0.15643513202667236, -0.10675451159477234, 0.18779970705509186, 0.3503459692001343, -0.2180761992931366, 0.24534489214420319, -0.09612368792295456, 0.07576502859592438, -0.03180511295795441, -0.1151881217956543, -0.16668877005577087, 0.05830653756856918, 0.10895643383264542, 0.01945732720196247, 0.11615082621574402, 0.2305014729499817, 0.26535317301750183, 0.18872064352035522, 0.18993277847766876, 0.023957733064889908, -0.16776807606220245, -0.1465117186307907, 0.03562302142381668, -0.1464308351278305, 0.21069349348545074, 0.011541190557181835, 0.12170000374317169, 0.08378451317548752, 0.2164946049451828, 0.18828286230564117, -0.08420073240995407, -0.3281897306442261, -0.03735089674592018, -0.13238824903964996, -0.08205380290746689, -0.38547542691230774, -0.27126240730285645, 0.20353136956691742, 0.2719745337963104, -0.07344643771648407, -0.04470355063676834, -0.16652937233448029, 0.2955552041530609, 0.2151046097278595, 0.35281652212142944, -0.29370012879371643, -0.38669583201408386, 0.2931581735610962, 0.4260199964046478, 0.22645370662212372, 0.29866519570350647, 0.0015731037128716707, 0.28403550386428833, -0.22594936192035675, 0.14985628426074982, -0.311580628156662, 0.034223686903715134, 0.07065700739622116, 0.028685763478279114, -0.03308019042015076, -0.2067694216966629, -0.2557671368122101, 0.07375435531139374, -0.033731088042259216, -0.09691209346055984, -0.12661528587341309, -0.16756103932857513, -0.1955772042274475, 0.07785888016223907, 0.024655451998114586, 0.0806608572602272, -0.1410714089870453, -0.07960133999586105, 0.17023639380931854, 0.09127561002969742, 0.017952052876353264, 0.6617203950881958, -0.4098068177700043, -0.4521868824958801, 0.35191452503204346, 0.4100925326347351, -0.145231232047081, 0.1800185590982437, 0.36744099855422974, 0.17330393195152283, -0.279926598072052, 0.48205336928367615, -0.09250703454017639, -0.2433641105890274, 0.5740744471549988, -0.04593288525938988, 0.019363045692443848, -0.46080324053764343, 0.30296117067337036, 0.1862674504518509, -0.41477686166763306, -0.1894029825925827, -0.2718560993671417, -0.13748610019683838, -0.4053204357624054, -0.37206724286079407, 0.23270481824874878, -0.23703783750534058, 0.35072776675224304, -0.10702089965343475, 0.1360805779695511, 0.055732548236846924, -0.24907656013965607, 0.11737730354070663, 0.04087618365883827, 0.2162969559431076, -0.10539727658033371, -0.0962892472743988, -0.3034590184688568, -0.1070316880941391, -0.2770942747592926, -0.232716903090477, -0.1855722814798355, -0.09534034132957458, 0.2082306444644928, -0.5210056304931641, 0.26977452635765076, -0.07308448851108551, 0.0440891832113266, 0.06452590227127075, 0.053551021963357925, 0.03918927535414696, -0.14455686509609222, 0.0049112718552351, 0.18883635103702545, 0.1702527552843094, -0.04001964256167412, 0.021809881553053856, 0.015071304515004158, 0.18234707415103912, -0.18152526021003723, -0.050374362617731094, -0.038242410868406296, 0.15343067049980164, -0.2971007227897644, 0.05141187831759453, 0.1063748300075531, -0.08944207429885864, 0.14237402379512787, 0.14890816807746887, -0.11183048784732819, -0.15350639820098877, -0.17256473004817963, -0.036453187465667725, -0.15808965265750885, 0.03787704184651375, 0.014334612525999546, -0.3834622800350189, 0.28426069021224976, 0.03417719528079033, 0.15757644176483154, -0.125258207321167, -0.20628271996974945, 0.14284156262874603, 0.11268246918916702, 0.24244581162929535, -0.02168789505958557, -0.23542332649230957, 0.10438550263643265, -0.1588788628578186, -0.12512584030628204, 0.16551245748996735, 0.09786045551300049, -0.3703879714012146, 0.17746463418006897, 0.22226954996585846, 0.17716680467128754, 0.46659427881240845, -0.17991529405117035, -0.37601590156555176, 0.32256636023521423, 0.28001540899276733, 0.3413134813308716, 0.018016817048192024, 0.054224077612161636, 0.20800505578517914, -0.3607631325721741, 0.2861252725124359, 0.0011589119676500559, 0.20788909494876862, -0.020218180492520332, 0.11617343127727509, -0.13662177324295044, 0.1399727463722229, -0.07480860501527786, -0.08514074236154556, -0.042776428163051605, 0.1138499528169632, 0.021229585632681847, 0.0029839451890438795, -0.10986149311065674, 0.030039742588996887, 0.03639364242553711, 0.0065554119646549225, 0.07551351189613342, 0.0170596856623888, 0.0197384525090456, -0.014793534763157368, -0.239590123295784, -0.014652017503976822, -0.03260337561368942, 0.04019206762313843, 0.2219441682100296, -0.292892187833786, 0.016303278505802155, -0.1492416262626648, -0.09671687334775925, 0.16958817839622498, -0.005222259555011988, -0.2424595057964325, -0.12486248463392258, 0.23830130696296692, 0.31543341279029846, -0.0983828455209732, -0.06463745981454849, -0.27981165051460266, -0.04028012976050377, 0.10702104866504669, 0.23141860961914062, -0.05341915413737297, -0.33982351422309875, -0.24364623427391052, 0.08089521527290344, -0.04350212961435318, 0.10926555842161179, 0.11578764766454697, -0.2858290672302246, -0.35561463236808777, -0.04975297674536705, 0.21519313752651215, -0.4012118875980377, -0.010580959729850292, 0.12785708904266357, -0.264847069978714, 0.038117822259664536, 0.1596927046775818, -0.3468379080295563, 0.07050762325525284, -0.11784086376428604, -0.40202978253364563, 0.06947997957468033, 0.03427658975124359, 0.3668909966945648, -0.028805222362279892, -0.31018325686454773, 0.07483994960784912, 0.04682374373078346, -0.037498991936445236, -0.06267010420560837, -0.09458048641681671, 0.15831822156906128, -0.19801482558250427, 0.054285090416669846, -0.00425660889595747, -0.25523462891578674, 0.0840497612953186, -0.23664265871047974, 0.17650377750396729, -0.18095120787620544, 0.11303872615098953, -0.2226557731628418, -0.09862267971038818, 0.03074447438120842, 0.15412281453609467, -0.17919695377349854, -0.10863504558801651, -0.08813169598579407, -0.03591357171535492, 0.03777817264199257, -0.094769686460495, -0.06442324072122574, -0.041325394064188004, -0.09715819358825684, 0.08479801565408707, -0.1036514863371849, 0.23721663653850555, -0.027623722329735756, -0.030061475932598114, -0.030486634001135826, -0.07315071672201157, 0.12170455604791641, 0.07882385700941086, -0.09389739483594894, -0.18529383838176727, -0.013043484650552273, 0.06311909109354019, 0.052573129534721375, -0.05358594283461571, -0.17823049426078796, -0.07450941950082779, -0.24901904165744781, 0.14629733562469482, -0.14786601066589355, -0.20589037239551544, 0.06341073662042618, -0.021396705880761147, 0.33920857310295105, -0.06250271946191788, 0.022878730669617653, -0.04563358798623085, 0.29843515157699585, 0.2411249577999115, 0.0050800517201423645, 0.5073307156562805, -0.022761588916182518, 0.24056695401668549, -0.22380784153938293, 0.19095443189144135, -0.11035215854644775, 0.23799586296081543, -0.0218808576464653, 0.25734901428222656, -0.26507434248924255, 0.08408088237047195, -0.12672831118106842, 0.18021084368228912, 0.00622094701975584, 0.017156727612018585, -0.3202240765094757, 0.06486988067626953, -0.15586774051189423, 0.3314984440803528, -0.21740829944610596, 0.015566468238830566, -0.3813154697418213, 0.246303528547287, 0.24386267364025116, -0.28496941924095154, 0.19979196786880493, 0.10895448923110962, 0.0631454810500145, 0.0991683080792427, 0.06474548578262329, -0.14395084977149963, 0.17793209850788116, -0.01517453696578741, -0.15037591755390167, 0.09639208763837814, -0.20376794040203094, 0.4269393980503082, 0.022362157702445984, 0.082905612885952, -0.1801195740699768, -0.08821603655815125, -0.17388197779655457, 0.18694095313549042, 0.1596207618713379, 0.12155545502901077, -0.3748065233230591, -0.3341939151287079, 0.21465621888637543, -0.16974228620529175, -0.2285386174917221, -0.0866067111492157, -0.025888243690133095, -0.035448480397462845, 0.033401597291231155, 0.2125318944454193, 0.03533855080604553, 0.09888911247253418, 0.1485259234905243, 0.07033518701791763, -0.03501934930682182, 0.19487354159355164, 0.12242837250232697, -0.008549021556973457, -0.09864217042922974, 0.13263113796710968, 0.2024194747209549, -0.06387557834386826, 0.02439052425324917, -0.0010811473475769162, -0.19132976233959198, 0.0010547543643042445, 0.055044349282979965, 0.04806537553668022, 0.1956842988729477, 0.09222935140132904, -0.16382229328155518, -0.0631946250796318, 0.025871824473142624, -0.17740555107593536, -0.09150013327598572, -0.08294270932674408, -0.009855992160737514, 0.16888074576854706, 0.16206924617290497, 0.11608380079269409, 0.11123815923929214, -0.023532407358288765, 0.048946019262075424, -0.03078480064868927, 0.054022882133722305, 0.10102833062410355, 0.1584572196006775, -0.12677307426929474, 0.043867845088243484, 0.003420577384531498, -0.1602257937192917, 0.03582467883825302, 0.0700499415397644, -0.10078568011522293, -0.069208525121212, -0.1416938602924347, -0.06889386475086212, 0.056053273379802704, -0.22647231817245483, 0.0769951269030571, -0.11482750624418259, 0.12318772077560425, 0.12158089131116867, 0.160492405295372, 0.04770316928625107, -0.0006419176352210343, 0.06740787625312805, 0.15815326571464539, -0.02406783029437065, -0.09308536350727081, -0.06071307882666588, 0.0889006033539772, -0.010660598985850811, 0.15513411164283752, -0.1547912061214447, -0.017652902752161026, 0.24804170429706573, -0.29927578568458557, -0.180853009223938, 0.16401050984859467, -0.046869292855262756, -0.04600856080651283, 0.13750024139881134, -0.06629499047994614, -0.07581067830324173, -0.015047884546220303, 0.1672499030828476, 0.02044062875211239, -0.16516682505607605, -0.06656176596879959, -0.04575306549668312, -0.054779697209596634, -0.21674074232578278, 0.192121222615242, -0.14507345855236053, -0.2963680922985077, -0.40135079622268677, 0.1706368774175644, 0.03753691911697388, -0.03393925726413727, 0.28897199034690857, -0.16097840666770935, 0.3240659534931183, -0.05703665316104889, 0.1926175355911255, -0.12205284088850021, 0.14713230729103088, -0.022650640457868576, -0.08782026171684265, -0.09478016942739487, 0.16867400705814362, -0.402486652135849, 0.24495117366313934, 0.08016299456357956, 0.19335676729679108, -0.21686187386512756, 0.2228737622499466, -0.395712673664093, 0.130655437707901, -0.03848860412836075, 0.27152958512306213, -0.13516543805599213, 0.05810822173953056, -0.014817735180258751, -0.0005607701605185866, 0.0595395602285862, 0.2828505337238312, -0.014769993722438812, -0.18315623700618744, -0.20406612753868103, 0.030911343172192574, -0.21070297062397003, 0.13765917718410492, -0.13982269167900085, 0.08016521483659744, -0.28943610191345215, 0.22583727538585663, -0.1775054633617401, 0.16223789751529694, -0.20335103571414948, 0.1920960694551468, 0.022444067522883415, 0.07194537669420242, 0.13089433312416077, -0.09164196252822876, -0.12482351064682007, 0.2177734076976776, -0.021094955503940582, -0.2569068372249603, -0.08814988285303116, 0.050199657678604126, 0.04684451222419739, -0.0034214372280985117, 0.21805724501609802, 0.21898551285266876, 0.3099902868270874, -0.17279963195323944, 0.07971583306789398, -0.18904829025268555, 0.15499107539653778, 0.04174523055553436, 0.17095518112182617, -0.1863715499639511, -0.10681094229221344, -0.012307222932577133, 0.05815372243523598, 0.0032982630655169487, 0.2495926320552826, -0.17156608402729034, 0.02882646769285202, 0.20739078521728516, -0.1131160780787468, 0.023526690900325775, 0.2034590244293213, 0.036301858723163605, -0.14841651916503906, 0.16858097910881042, 0.0017797518521547318, -0.14046433568000793, 0.03743737190961838, -0.126687690615654, -0.047252949327230453, -0.2127266228199005, 0.05533603951334953, -0.03333327919244766, -0.05897892266511917, -0.004938902333378792, -0.0412796214222908, 0.11493512988090515, 0.03468701243400574, 0.0809500589966774, -0.13646440207958221, -0.023244911804795265, 0.008224130608141422, -0.0934392437338829, -0.17707674205303192, -0.22171400487422943, -0.06789489835500717, -0.208229199051857, -0.18526574969291687, 0.15217064321041107, -0.09244782477617264, -0.11922182142734528, -0.04731990769505501, -0.11773338168859482, -0.008357902057468891, 0.09687189757823944, -0.0017066742293536663, -0.04607566073536873, -9.492719982517883e-05, -0.015555850230157375, 0.31579652428627014, 0.15774203836917877, 0.15592478215694427, -0.07573936134576797, 0.096855528652668, -0.08740201592445374, 0.08628089725971222, -0.04216475784778595, -0.060581039637327194, 0.16999097168445587, -0.17082621157169342, -0.1243557557463646, -0.027543777599930763, -0.15041179955005646, 0.04283873364329338, -0.009579244069755077, 0.0569743849337101, 0.11608801037073135, 0.1767684668302536, -0.06691975146532059, -0.027451710775494576, -0.08291785418987274, -0.02862738072872162, 0.6559000611305237, -0.2969578504562378, -0.268207848072052, -0.47274303436279297, 0.2573282718658447, -0.07247883826494217, 0.22340066730976105, 0.3645627498626709, -0.187743678689003, 0.27558034658432007, -0.13255755603313446, -0.11431433260440826, -0.025867100805044174, 0.23778846859931946, 0.21973270177841187, 0.2685701251029968, -0.3865002989768982, -0.09939917176961899, -0.0474301241338253, 0.3833467364311218, 0.22485357522964478, 0.026072494685649872, -0.26549357175827026, -0.1928759664297104, -0.18966475129127502, 0.5290102958679199, 0.21812614798545837, 0.11932425945997238, -0.4353457987308502, -0.30715593695640564, -0.2572552561759949, 0.3163025677204132, -0.3101244866847992, -0.3028998374938965, 0.5945161581039429, -0.2736009955406189, 0.2783932685852051, 0.3437558114528656, -0.13564597070217133, -0.14696051180362701, 0.24265432357788086, -0.19794528186321259, -0.20321759581565857, 0.37854909896850586, 0.31349852681159973, 0.12139405310153961, -0.47899287939071655, 0.1449153572320938, -0.03994026407599449, -0.002731017768383026, -0.15848308801651, 0.066889688372612, 0.0642276406288147, 0.0587783120572567, 0.0539252944290638, -0.07938794791698456, 0.14266499876976013, 0.13436736166477203, -0.07176078110933304, 0.11700542271137238, -0.021157236769795418, -0.00037491964758373797, -0.09753262996673584, -0.0054187714122235775, 0.18146628141403198, 0.12642376124858856, -0.06755231320858002, 0.06972651183605194, -0.17452438175678253, 0.09587622433900833, 0.23507413268089294, 0.04302189126610756, 0.14777618646621704, -0.08344268053770065, -0.16706493496894836, -0.06164920702576637, 0.09384897351264954, -0.05872846767306328, -0.06850264966487885, 0.006546585820615292, 0.038632359355688095, -0.07627024501562119, -0.132261261343956, 0.11943729221820831, -0.15895307064056396, -0.2104756236076355, -0.04576611891388893, 0.0868925079703331, -0.015105406753718853, -0.005081315990537405, -0.14870792627334595, -0.016848789528012276, -0.11278390139341354, 0.035672299563884735, -0.02065047062933445, -0.06927182525396347, 0.3472503125667572, 0.0361456498503685, -0.148580402135849, 0.04413021728396416, -0.22978977859020233, 0.2047310620546341, 0.00429369555786252, -0.04684801027178764, -0.04185348004102707, -0.14235106110572815, -0.10815486311912537, -0.09135888516902924, 0.07504817843437195, -0.1270645409822464, 0.007691964507102966, 0.048653919249773026, 0.1260746717453003, -0.05671640485525131, 0.11760491877794266, 0.005452844314277172, -0.09223447740077972, -0.041839905083179474, 0.15353769063949585, -0.008877812884747982, -0.00803258828818798, -0.06877537816762924, -0.047261279076337814, -0.27679064869880676, 0.01891940087080002, 0.132642924785614, 0.043332502245903015, -0.1810428649187088, 0.18515156209468842, 0.04724154621362686, -0.23396508395671844, 0.06665719300508499, -0.005215886980295181, -0.06267378479242325, 0.13380801677703857, -0.07302913069725037, -0.11255226284265518, 0.1380407065153122, 0.07617463916540146, -0.09389151632785797, -0.010489317588508129, -0.25485116243362427, 0.11512499302625656, 0.8977538347244263, -0.6089233160018921, -0.0019622603431344032, -0.38794347643852234, 0.27382054924964905, -0.3507404625415802, -0.25455614924430847, 0.41830775141716003, 0.04774981364607811, 0.043529704213142395, 0.035488519817590714, 0.06607235968112946, -0.009223888628184795, -0.010683964937925339, -0.28798186779022217, 0.11491458863019943, -0.08237811923027039, 0.03536929562687874, -0.19539599120616913, 0.25274384021759033, 0.0902143195271492, 0.18124033510684967, 0.05163289234042168, 0.1406075805425644, -0.08561588823795319, 0.11996819078922272, -0.22711235284805298, -0.23666533827781677, 0.13385817408561707, 0.061738595366477966, -0.15609444677829742, 0.1619676649570465, -0.16410495340824127, -0.45949795842170715, 0.46217915415763855, -0.052421003580093384, 0.0579814687371254, -0.10322567820549011, 0.14878986775875092, -0.08060844987630844, 0.3199416399002075, -0.15150459110736847, -0.08947159349918365, 0.36510246992111206, -0.19143551588058472, -0.05735592171549797, -0.08807478100061417, 0.17245669662952423, -0.04268619045615196, 0.05405213683843613, 0.012998555786907673, 0.02321111224591732, 0.07275046408176422, -0.11405176669359207, 0.17735709249973297, 0.08997657150030136, -0.030601391568779945, 0.1784338504076004, 0.041530102491378784, 0.023920675739645958, 0.13753625750541687, 0.013162452727556229, -0.043410468846559525, -0.04743083566427231, -0.13441987335681915, 0.22587846219539642, -0.06243924796581268, -0.07575888931751251, -0.017203712835907936, -0.14696374535560608, -0.15100720524787903, 0.10605335980653763, -0.07302665710449219, 0.10424530506134033, 0.004062012769281864, -0.04371858388185501, -0.05521511659026146, -0.09179846197366714, 0.09225858002901077, 0.16118493676185608, -0.05891723185777664, 0.08356145024299622, -0.17149695754051208, -0.16492758691310883, 0.1645958572626114, -0.10630126297473907, 0.04369595646858215, -0.037740353494882584, -0.031889621168375015, -0.16112317144870758, 0.06713355332612991, -0.09607227891683578, -0.05233299359679222, 0.07758353650569916, 0.07126984745264053, 0.10302533209323883, -0.035190436989068985, -0.3084922730922699, 0.018755948171019554, -0.048011068254709244, 0.33083808422088623, 0.10222745686769485, 0.13995371758937836, -0.24198414385318756, -0.013246254995465279, 0.07434705644845963, -0.08927278965711594, -0.00016348955978173763, -0.06079667806625366, 0.09704825282096863, 0.10390810668468475, 0.01608148403465748, -0.022150568664073944, -0.11031106114387512, -0.02481081523001194, 0.2510516345500946, 0.11742667853832245, 0.2448858916759491, 0.0013964821118861437, -0.027756918221712112, -0.08939463645219803, 0.014688858762383461, 0.09598103910684586, 0.20075038075447083, -0.13732030987739563, 0.15930615365505219, -0.15584610402584076, 0.09561791270971298, -0.03182544559240341, -0.11262645572423935, 0.204901322722435, 0.0029714624397456646, -0.09313340485095978, -0.0006104350904934108, 0.050732411444187164, 0.06996103376150131, 0.15965203940868378, -0.13298486173152924, -0.05767526477575302, 0.08122707903385162, -0.07046833634376526, 0.06707111746072769, -0.18376536667346954, 0.03494662046432495, 0.1886797696352005, 0.07856263220310211, -0.1611487865447998, -0.08273947238922119, 0.12648609280586243, -0.14594703912734985, -0.03202877938747406, 0.06830662488937378, -0.04642432928085327, -0.08637963235378265, -0.145602285861969, -0.041249267756938934, 0.1102573499083519, 0.1852666288614273, -0.06356934458017349, 0.10872668027877808, -0.05534980446100235, 0.17077462375164032, 0.08337489515542984, 0.07662006467580795, -0.02969358302652836, -0.1597961038351059, -0.08530312776565552, 0.08596038073301315, 0.0676833838224411, -0.10566040873527527, -0.21922403573989868, -0.24713100492954254, -0.1758112907409668, 0.2724247872829437, 0.09021096676588058, 0.12322837114334106, -0.11386363953351974, 0.08973230421543121, 0.08318190276622772, -0.1766005903482437, 0.14271612465381622, 0.0035919244401156902, -0.1847124695777893, -0.041779693216085434, 0.0008614413673058152, -0.09648377448320389, -0.1055033802986145, 0.018642211332917213, -0.2173975557088852, -0.015660284087061882, -0.11698853224515915, 0.16247017681598663, -0.165903702378273, 0.0014863288961350918, -0.08108474314212799, 0.06528527289628983, 0.07202061265707016, -0.0023504351265728474, 0.02569187432527542, 0.06061110645532608, -0.008164992555975914, 0.11430374532938004, 0.0835433080792427, -0.06703455001115799, 0.009931102395057678, 0.046797048300504684, 0.09554166346788406, -0.056352730840444565, -0.1564839780330658, 0.1030450165271759, 0.02726864628493786, 0.0792609378695488, -0.25498709082603455, 0.009299497120082378, -0.21212996542453766, -0.1005687341094017, -0.05867540091276169, -0.05065801367163658, -0.17957304418087006, -0.13747867941856384, 0.11018778383731842, 0.18080748617649078, 0.0011938392417505383, 0.09087856858968735, -0.20018911361694336, -0.05069215968251228, 0.03861294686794281, -0.0900479257106781, 0.020343568176031113, -0.08094430714845657, 0.010718883946537971, 0.06022130325436592, 0.12886066734790802, -0.17668673396110535, 0.029896752908825874, -0.13122457265853882, -0.09210624545812607, -0.010876350104808807, 0.11136315017938614, 0.1829848289489746, 0.04552682489156723, 0.06804721802473068, -0.10226599127054214, 0.13595640659332275, -0.08072739839553833, 0.07395178079605103, 0.12586559355258942, 0.19594091176986694, 0.06189458817243576, -0.06683328747749329, 0.07367700338363647, 0.1372816413640976, 0.021045558154582977, 0.0621030293405056, 0.0976569876074791, -0.10974135249853134, -0.45515939593315125, 0.33054524660110474, 0.24492761492729187, -0.4110996723175049, 0.17592445015907288, -0.8042622804641724, -0.1430000215768814, -0.26010388135910034, 0.5397815704345703, -0.9087316989898682, -0.5143042206764221, -0.8245111703872681, 0.08649652451276779, -0.7576825022697449, 0.5291001200675964, -0.8004658222198486, 0.0063399369828403, -0.01325919944792986, -0.00017308139649685472, 0.006820217240601778, 0.1278679221868515, 0.12699958682060242, -0.20661285519599915, -0.06620455533266068, -0.1717139631509781, -0.07377931475639343, -0.0057147894985973835, 0.1879541426897049, -0.06377925723791122, 0.08893156796693802, 0.08333860337734222, 0.07514578849077225, 0.047117870301008224, -0.19801200926303864, -0.33360755443573, -0.12634795904159546, -0.26882410049438477, 0.5333347320556641, -0.10407242178916931, -0.22317452728748322, 0.16658170521259308, -0.2307683527469635, 0.1099204495549202, 0.3839276432991028, -0.0318310521543026, 0.02690226398408413, 0.2813776731491089, 0.2190435528755188, -0.0794740542769432, -0.18873071670532227, -0.1792011260986328, 0.14464588463306427, 0.02425665222108364, 0.329794704914093, -0.20047412812709808, 0.01743767410516739, -0.020606176927685738, -0.019080014899373055, -0.23727335035800934, -0.18359710276126862, 0.0056863813661038876, 0.21866220235824585, 0.058182504028081894, -0.01733982004225254, -0.010302981361746788, 0.07878221571445465, -0.07636798173189163, -0.02628178894519806, -0.18792548775672913, 0.0329086035490036, 0.11503966897726059, -0.0401870533823967, -0.05749712511897087, 0.14798498153686523, 0.1618773490190506, 0.27195414900779724, 0.3178879916667938, -0.36306047439575195, 0.1264556646347046, 0.07903233915567398, 0.5016164183616638, 0.15378263592720032, -0.07813242077827454, -0.1508740335702896, 0.24243444204330444, -0.2623208165168762, -0.02253672666847706, 0.3256922960281372, 0.42010292410850525, -0.11830034106969833, -0.13974565267562866, 0.10599085688591003, -0.22075702250003815, -0.0648639053106308, -0.27090924978256226, -0.2705130875110626, -0.1269640326499939, -0.054377537220716476, -0.22908417880535126, -0.09196174144744873, 0.197836235165596, -0.10821431875228882, -0.055902983993291855, 0.031533654779195786, 0.05140423774719238, 0.07074763625860214, -0.057246237993240356, -0.04731808975338936, -0.2531953752040863, 0.001508760848082602, 0.016318393871188164, -0.040247272700071335, 0.07544255256652832, -0.09880328178405762, -0.07941819727420807, -0.3507642447948456, -0.16870027780532837, 0.2912156879901886, -0.269325852394104, -0.40324506163597107, 0.1116914227604866, 0.08526001870632172, 0.020748533308506012, 0.20466692745685577, 0.16907396912574768, 0.021721212193369865, -0.08478783071041107, 0.46786463260650635, 0.1370871216058731, 0.014612680301070213, 0.11793113499879837, 0.08040458709001541, 0.24479234218597412, -0.20085914433002472, -0.11912810057401657, 0.14008185267448425, -0.10527489334344864, 0.16682562232017517, -0.2853420078754425, 0.09651370346546173, -0.2363058626651764, 0.07973214238882065, 0.13623002171516418, -0.06093209609389305, -0.11649341136217117, 0.15745097398757935, -0.010706118308007717, -0.12895599007606506, -0.24409735202789307, -0.19799038767814636, 0.17506183683872223, -0.09574232250452042, -0.008287272416055202, 0.11948956549167633, 0.3840501606464386, -0.14091984927654266, 0.04387954995036125, -0.16992586851119995, 0.024045638740062714, 0.3055294454097748, -0.3580069839954376, 0.059627383947372437, -0.21665777266025543, 0.058310601860284805, 0.0009295069612562656, 0.00898209773004055, 0.18225029110908508, -0.17701327800750732, -0.28006646037101746, 0.18196024000644684, 0.1701665222644806, 0.13090582191944122, 0.3590187132358551, -0.18191225826740265, 0.31357353925704956, -0.050847701728343964, -0.07263574749231339, -0.17481262981891632, -0.024608610197901726, 0.1386118233203888, 0.06413418054580688, -0.16325166821479797, -0.05687269940972328, -0.016900205984711647, 0.30803361535072327, 0.16980165243148804, -0.2558937668800354, 0.16202983260154724, 0.018795546144247055, 0.028835147619247437, -0.13056528568267822, 0.10402312874794006, 0.12395405769348145, 0.08850263059139252, -0.2707673907279968, -0.1441918909549713, -0.2977583110332489, -0.026353701949119568, 0.06879758834838867, 0.033724747598171234, -0.13520276546478271, 0.06345225125551224, 0.20061442255973816, -0.0020959184039384127, 0.02944568730890751, 0.023749923333525658, 0.07723388075828552, -0.0031698686070740223, -0.21306326985359192, -0.17078830301761627, -0.10051575303077698, 0.14937245845794678, -0.05139445513486862, -0.11262645572423935, 0.01617414318025112, 0.0838836207985878, -0.19453096389770508, 0.03808993473649025, -0.021787265315651894, -0.21648670732975006, 0.3674326539039612, -0.18886736035346985, -0.02293184958398342, 0.038640160113573074, 0.14966079592704773, 0.017043286934494972, -0.316060334444046, 0.12502986192703247, -0.29995614290237427, 0.1943618208169937, -0.06270010769367218, -0.06218314543366432, 0.23003588616847992, 0.08828665316104889, 0.09543853998184204, 0.0890059769153595, 0.08821402490139008, 0.17135392129421234, 0.1305280178785324, -0.0232973825186491, 0.009315162897109985, 0.28469663858413696, 0.03587322309613228, 0.011934644542634487, -0.17786318063735962, -0.18161331117153168, 0.21464473009109497, 0.000489480618853122, 0.07046203315258026, 0.15220724046230316, -0.11694369465112686, 0.016354085877537727, -0.09217779338359833, 0.16165465116500854, 0.2051466703414917, 0.13021297752857208, 0.3077757656574249, -0.20723730325698853, -0.220438152551651, -0.07171564549207687, -0.13990937173366547, 0.18849100172519684, -0.31393522024154663, 0.10744720697402954, 0.27885639667510986, -0.2820705771446228, 0.11456264555454254, 0.12024622410535812, -0.26815712451934814, 0.27963629364967346, -0.2205294668674469, -0.244131937623024, -0.015466118231415749, -0.05107619985938072, 0.031316544860601425, -0.09660965949296951, -0.1258646845817566, 0.02057991549372673, 0.046968746930360794, 0.1509556621313095, 0.06222120299935341, 0.06062621995806694, 0.0074371881783008575, -0.17972886562347412, 0.019954951480031013, -0.2217329442501068, -0.09782645106315613, -0.03051096759736538, 0.12270847707986832, 0.08984658867120743, -0.29951515793800354, -0.13398900628089905, -0.10422792285680771, 0.0990167036652565, -0.023242516443133354, 0.011671365238726139, -0.11574859172105789, 0.03921734169125557, -0.13939139246940613, 0.014203448779881, 0.1256967931985855, 0.11876039952039719, 0.07886607199907303, 0.2276698350906372, 0.13259677588939667, -0.06347229331731796, -0.24835050106048584, -0.03892594948410988, 0.1559366136789322, 0.11921592056751251, 0.07029213756322861, -0.2827989161014557, -0.2104981690645218, 0.06881718337535858, 0.10983514785766602, 0.21964131295681, -0.06259514391422272, -0.27385395765304565, -0.21526680886745453, 0.10821112990379333, 0.17314764857292175, -0.19715116918087006, -0.03363072872161865, 0.1675642877817154, -0.029102619737386703, -0.09756796807050705, 0.07975921034812927, -0.15507973730564117, 0.15570002794265747, 0.14416293799877167, 0.09540658444166183, 0.12017006427049637, 0.07313807308673859, 0.21968397498130798, -0.0696306824684143, -0.09226131439208984, 0.09148688614368439, 0.03889421001076698, -0.08522015810012817, -0.16675147414207458, 0.25043603777885437, -0.04224802926182747, 0.14437657594680786, -0.00895825494080782, 0.022093219682574272, -0.12785771489143372, -0.06409347802400589, 0.05585424229502678, 0.1691049337387085, -0.06343763321638107, -0.14455361664295197, 0.15875042974948883, 0.0823100209236145, -0.11616184562444687, -0.04814954102039337, -0.07330445200204849, 0.18230463564395905, 0.09305588901042938, -0.09573002904653549, -0.17341969907283783, -0.0968574583530426, -0.0032895219046622515, -0.00898772943764925, 0.31737300753593445, 0.055482275784015656, 0.019530339166522026, -0.04735013470053673, 0.07812973856925964, 0.06810707598924637, -0.257379949092865, -0.09646227955818176, 0.08794703334569931, -0.15007475018501282, 0.092860646545887, 0.12931080162525177, -0.11764110624790192, 0.1078415960073471, 0.09013238549232483, -0.2041977047920227, 0.04047320783138275, 0.1270708292722702, 0.2881855070590973, 0.05777980387210846, -0.15270794928073883, 0.10356315970420837, 0.19866645336151123, 0.007893144153058529, 0.2171838879585266, -0.002774781547486782, -0.10950193554162979, -0.038248900324106216, -0.021307488903403282, 0.3771411180496216, -0.04713503643870354, 0.11207670718431473, -0.03604264557361603, -0.1750110238790512, -0.4258471429347992, 0.20159170031547546, -0.09221356362104416, -0.028415631502866745, -0.04349766671657562, 0.16508951783180237, 0.12972678244113922, 0.005999893415719271, -0.1559070348739624, 0.10903719067573547, 0.14880388975143433, 0.1465456634759903, -0.01422167755663395, -0.09929405897855759, -0.15659502148628235, 0.20854704082012177, -0.13379256427288055, -0.006663282867521048, -0.05967586115002632, -0.016002297401428223, 0.0842491015791893, 0.04744221270084381, -0.06178278848528862, 0.16595610976219177, 0.10386088490486145, -0.07807642221450806, 0.07646835595369339, -0.056630101054906845, 0.09534996002912521, 0.23779836297035217, -0.12273403257131577, -0.08503585308790207, -0.21689046919345856, -0.11207280308008194, 0.21556030213832855, -0.0724855363368988, -0.0014647080097347498, 0.058701641857624054, -0.13993553817272186, 0.10450815409421921, 0.03379961848258972, 0.08194927126169205, 0.21256253123283386, -0.009059148840606213, 0.17387472093105316, 0.042539406567811966, -0.21223004162311554, -0.0039979275315999985, 0.04476227983832359, 0.054829102009534836, -0.10057047009468079, -0.07686258107423782, 0.16337141394615173, 0.19163109362125397, 0.0030327292624861, -0.13435019552707672, -0.096031554043293, -0.004568242933601141, 0.18490786850452423, 0.058369800448417664, 0.06310294568538666, -0.05312475562095642, -0.12566424906253815, -0.20755760371685028, -0.1325327605009079, 0.054189637303352356, 0.06361520290374756, -0.05181829258799553, 0.23035937547683716, -0.024338601157069206, -0.17223374545574188, 0.06304343789815903, -0.05015375837683678, -0.14604678750038147, 0.18213042616844177, 0.006760613527148962, 0.056537289172410965, 0.0968906506896019, -0.07683762907981873, 0.08925580978393555, -0.1947508156299591, 0.06179417297244072, 0.14713045954704285, -0.02422049455344677, -0.04400361329317093, 0.02967911958694458, -0.12215153872966766, 0.1665073037147522, 0.11483602970838547, 0.11281734704971313, 0.1007356196641922, -0.19732655584812164, 0.04963332414627075, 0.15723136067390442, -0.16515925526618958, -0.24367888271808624, 0.10884825140237808, 0.1241765171289444, -0.0175579022616148, 0.22258584201335907, 0.1133907362818718, -0.25234344601631165, -0.11043408513069153, 0.08252210915088654, -0.19473473727703094, -0.20383773744106293, 0.09699644893407822, 0.014086863957345486, -0.1950501799583435, -0.04537731036543846, 0.2126069813966751, 0.03726104646921158, 0.09299067407846451, 0.012914853170514107, -0.019790666177868843, -0.008715999312698841, 0.11316528916358948, 0.0811397135257721, -0.14525161683559418, 0.09562548249959946, 0.030411386862397194, -0.22378361225128174, -0.024909019470214844, 0.06893941015005112, 0.10569454729557037, 0.06272353231906891, -0.2033623903989792, 0.09367284178733826, -0.12742885947227478, -0.02974296547472477, 0.1519051045179367, 0.22597086429595947, 0.039418116211891174, 0.09353537112474442, 0.1338646560907364, -0.025019818916916847, -0.01570390723645687, 0.1709105670452118, 0.08249668776988983, 0.22901619970798492, 0.1133965328335762, -0.15137626230716705, -0.010036157444119453, -0.05401647463440895, 0.05682674050331116, 0.18006813526153564, -0.21641285717487335, -0.04582589864730835, 0.11380884796380997, 0.04846694692969322, 0.11087188124656677, 0.027655024081468582, -0.2398950457572937, -0.12087248265743256, 0.1649739146232605, 0.11372239142656326, -0.06780310720205307, -0.2636958062648773, -0.14311960339546204, -0.052328575402498245, 0.01701730117201805, 0.16130197048187256, 0.06747326254844666, -0.08511153608560562, 0.1434805542230606, 0.06383726000785828, -0.0575089305639267, 0.19568811357021332, -0.14587721228599548, -0.15952302515506744, 0.08184775710105896, 0.030799906700849533, -0.08824972063302994, 0.0730319395661354, -0.038283444941043854, -0.12922364473342896, 0.009976053610444069, 0.04731248691678047, 0.12287969887256622, -0.008993038907647133, -0.14159788191318512, -0.09208756685256958, 0.04679049551486969, -0.08191120624542236, -0.002840994391590357, 0.13230574131011963, -0.08392053842544556, -0.1942576915025711, -0.10301249474287033, 0.18868231773376465, 0.1575874239206314, 0.038093142211437225, -0.21158254146575928, -0.18261246383190155, -0.010326357558369637, 0.05702630430459976, -0.07690557092428207, 0.00935373455286026, 0.05414833873510361, -0.008634920231997967, 0.22814719378948212, 0.10268689692020416, -0.19769233465194702, -0.17517583072185516, -0.024773065000772476, 0.24054153263568878, -0.014140687882900238, 0.24004797637462616, -0.11408963799476624, -0.20126302540302277, 0.06947949528694153, 0.00835692510008812, -0.15796306729316711, -0.04905180260539055, 0.09064476191997528, -0.14369729161262512, -0.016600169241428375, 0.2241227626800537, -0.05757150426506996, -0.11415999382734299, 0.10649838298559189, -0.27952852845191956, 0.07799515128135681, 0.17719261348247528, 0.29321834444999695, -0.210090771317482, -0.1584869921207428, 0.2824931740760803, 0.13375215232372284, -0.0946892648935318, -0.08884915709495544, 0.1562841385602951, 0.09875798225402832, 0.06640452146530151, 0.10032489895820618, 0.05265417695045471, -0.17487339675426483, 0.08181343227624893, -0.01056560967117548, -0.013755113817751408, 0.11748384684324265, -0.048527780920267105, -0.006315828301012516, 0.09170281141996384, -0.029746156185865402, -0.13401219248771667, 0.010808615013957024, -0.007394760847091675, -0.16799594461917877, 0.0719265565276146, 0.052717823535203934, -0.06939512491226196, 0.07444234192371368, -0.16554787755012512, -0.2453920990228653, 0.08530715852975845, -0.05969353765249252, 0.3070421516895294, -0.07198050618171692, -0.07730917632579803, -0.09790410846471786, 0.009149356745183468, -0.2315681129693985, -0.004246285185217857, -0.004005600232630968, 0.08229223638772964, -0.17636345326900482, -0.042928554117679596, -0.08920671790838242, 0.06665033102035522, 0.034094616770744324, -0.00888878758996725, -0.14817461371421814, -0.013019119389355183, 0.049836643040180206, 0.053499486297369, -0.1903190016746521, -0.3631760776042938, 0.4303375482559204, 0.029462618753314018, 0.10086656361818314, -0.05131696164608002, -0.038660258054733276, -0.17803798615932465, 0.020985061302781105, 0.0960870236158371, 0.010643882676959038, -0.015435728244483471, -0.10886307805776596, 0.08897519111633301, -0.06932839006185532, -0.0659933015704155, -0.2183838188648224, 0.3035060167312622, -0.09219630062580109, 0.05180640518665314, 0.03072223626077175, -0.06319408863782883, 0.0033098410349339247, 0.06837606430053711, -0.1269102543592453, 0.06290334463119507, -0.16650541126728058, 0.2563231885433197, -0.056935638189315796, 0.17604537308216095, 0.0004334680561441928, 0.02401072345674038, 0.0293179452419281, 0.03991422429680824, -0.057600412517786026, -0.23145583271980286, 0.1550779491662979, -0.09226146340370178, 0.11458557099103928, -0.11176519840955734, 0.12855833768844604, 0.09748781472444534, 0.060292430222034454, 0.09775141626596451, 0.2000802457332611, 0.004756743088364601, 0.03491109982132912, -0.18346883356571198, 0.08141247928142548, -0.11724020540714264, -0.032525863498449326, 0.22397086024284363, 0.18039262294769287, 0.04550253227353096, 0.010343119502067566, 0.01700943149626255, -0.17096897959709167, -0.06459322571754456, -0.002730057341977954, 0.046248339116573334, -0.012467860244214535, -0.09166976064443588, 0.06713264435529709, 0.06796971708536148, -0.060504987835884094, -0.25641879439353943, 0.02481609769165516, -0.08961981534957886, 0.17614875733852386, -0.12690505385398865, -0.19315026700496674, -0.13341374695301056, -0.13896678388118744, 0.2129647135734558, 0.28105807304382324, -0.09434303641319275, 0.011457882821559906, -0.08808243274688721, 0.021693486720323563, -0.012526646256446838, -0.2423146814107895, 0.08939708024263382, -0.02217608503997326, -0.09143245965242386, 0.016717901453375816, 0.07168832421302795, -0.15062040090560913, -0.06827222555875778, 0.12790559232234955, -0.1609504520893097, 0.0052226874977350235, -0.06518751382827759, 0.21983587741851807, 0.061830274760723114, -0.15212148427963257, 0.03411766514182091, -0.05528887361288071, -0.18651606142520905, -0.12000833451747894, -0.05467424541711807, 0.11976683884859085, -0.15261632204055786, -0.1017230972647667, 0.24290731549263, -0.00821282621473074, 0.05372190847992897, 0.18997691571712494, 0.16878792643547058, -0.1594642549753189, -0.07865965366363525, 0.10527542233467102, -0.09923719614744186, -0.12888912856578827, -0.024238115176558495, 0.10408788919448853, -0.05187966674566269, 0.2244528830051422, 0.1293371319770813, -0.1107836440205574, -0.06473612040281296, 0.12035626173019409, 0.1525084227323532, 0.053517505526542664, 0.013108138926327229, -0.02532265894114971, -0.31419533491134644, 0.04761934280395508, 0.16502496600151062, -0.050513170659542084, -0.107474185526371, 0.1902889609336853, 0.033476706594228745, 0.08871077001094818, 0.18480850756168365, -0.12468720972537994, -0.2023601084947586, 0.09223538637161255, -0.20830102264881134, 0.15972742438316345, -0.11131596565246582, 0.14298737049102783, -0.2206781953573227, -0.24296221137046814, 0.19941063225269318, 0.011197327636182308, 0.16075950860977173, -0.11941305547952652, -0.0988037958741188, 0.1310519576072693, 0.19953133165836334, 0.06984245777130127, 0.08583241701126099, -0.27751412987709045, -0.03893813118338585, 0.10719411075115204, 0.12304691970348358, 0.2030523270368576, 0.2136424034833908, 0.06939848512411118, -0.07228349149227142, -0.12816709280014038, -0.15592975914478302, 0.08999776095151901, 0.2502578794956207, 0.32281726598739624, 0.006470051594078541, -0.2733181416988373, -0.31449463963508606, -0.014959807507693768, -0.010363615117967129, 0.09288832545280457, -0.09049452841281891, -0.5164396166801453, -0.25490251183509827, -0.0961310938000679, 0.23297259211540222, -0.0910218134522438, -0.139750674366951, 0.20493389666080475, -0.13060235977172852, -0.07920920848846436, 0.043882500380277634, -0.21909409761428833, -0.10373301804065704, 0.32183152437210083, -0.26294127106666565, -0.19063764810562134, 0.22386355698108673, 0.2027604877948761, -0.0005619483417831361, -0.1981244534254074, 0.10756427049636841, 0.054692190140485764, 0.3609515130519867, 0.12510359287261963, 0.03332817927002907, -0.15060389041900635, 0.18907718360424042, -0.38096216320991516, 0.18088288605213165, 0.11673597991466522, -0.06751049309968948, -0.11270155012607574, 0.10508515685796738, 0.21727466583251953, 0.16368205845355988, -0.12063095718622208, 0.03500821441411972, 0.07635986804962158, -0.015610424801707268, 0.10873115062713623, -0.1577359288930893, -0.08640490472316742, -0.09842704981565475, 0.12074770778417587, 0.10944674164056778, -0.151961088180542, -0.07678154855966568, -0.22579170763492584, -0.045445218682289124, 0.09065639972686768, 0.286601722240448, 0.20540136098861694, -0.09635915607213974, 0.13274824619293213, -0.07406504452228546, -0.04317961633205414, 0.017143147066235542, 0.011909576132893562, -0.2106691151857376, 0.17400339245796204, 0.1532144695520401, -0.013728667050600052, 0.08135619014501572, 0.0687393844127655, -0.24878628551959991, -0.022186486050486565, 0.008920162916183472, 0.2195410430431366, 0.20619669556617737, -0.08403917402029037, -0.07704773545265198, 0.05431540682911873, -0.05562567338347435, 0.013595773838460445, 0.010835284367203712, -0.10601581633090973, 0.3156431317329407, -0.018932310864329338, -0.11417504400014877, 0.30357569456100464, -0.05416414141654968, 0.18098485469818115, -0.017295992001891136, 0.07827349752187729, -0.03860641270875931, -0.11773047596216202, -0.06178003549575806, -0.024531133472919464, 0.03594077005982399, 0.13766877353191376, 0.03692387044429779, -0.13455910980701447, -0.044468894600868225, 0.016965806484222412, 0.059318263083696365, 0.11523129045963287, -0.08907248824834824, 0.18490679562091827, -0.12970302999019623, 0.03468138724565506, -0.13443073630332947, -0.13324876129627228, 0.053438957780599594, 0.09880076348781586, -0.11271832138299942, 0.029671303927898407, 0.08316608518362045, 0.0027900587301701307, 0.15365533530712128, 0.04562807455658913, -0.11948893964290619, -0.03142897039651871, 8.85930876393104e-06, 0.02273344248533249, -0.025787353515625, -0.09709475934505463, 0.4015941917896271, 0.09502553939819336, 0.12806262075901031, 0.07120117545127869, 0.0014446813147515059, 0.007037806790322065, 0.12117107212543488, 0.08019018173217773, 0.1825920045375824, 0.0950937569141388, -0.13802140951156616, -0.10400459170341492, -0.20292051136493683, -0.012984367087483406, -0.0737893134355545, 0.016911951825022697, -0.07946699112653732, -0.09093889594078064, -0.01744592934846878, 0.1669606864452362, -0.08503510057926178, -0.007870503701269627, 0.024650784209370613, -0.029775237664580345, 0.12011577934026718, -0.1378343552350998, 0.04030900076031685, 0.19561313092708588, -0.09679054468870163, -0.07023601233959198, -0.35975995659828186, 0.11543233692646027, 0.14227017760276794, -0.07171128690242767, 0.09630528837442398, -0.10591515898704529, 0.08229485899209976, -0.18858391046524048, -0.13652066886425018, -0.033181872218847275, -0.053320445120334625, 0.12280958890914917, -0.16753552854061127, 0.0013645298313349485, -0.0290994830429554, 0.002209143480286002, 0.14869782328605652, -0.13849472999572754, -0.1648031324148178, 0.2764275372028351, 0.3040931820869446, -0.12062916159629822, 0.4363178312778473, 0.04111460596323013, -0.22417809069156647, 0.017192548140883446, 0.01732007972896099, -0.1832241714000702, 0.23898792266845703, -0.0213099867105484, -0.21668016910552979, 0.011707598343491554, 0.41143420338630676, 0.016589568927884102, -0.028034642338752747, -0.2758115828037262, -0.10106050968170166, -0.03997524827718735, 0.08318383246660233, -0.016091182827949524, 0.06682237982749939, -0.012937015853822231, -0.0024791231844574213, 0.002235713414847851, 0.011087336577475071, 0.055255744606256485, 0.4070355296134949, -0.33587339520454407, 0.11743149906396866, -0.43384116888046265, 0.348356157541275, -0.1956779509782791, 0.056862007826566696, 0.026395946741104126, -0.0684572085738182, 0.1098967120051384, -0.23787878453731537, -0.13685697317123413, 0.23901936411857605, 0.03235336020588875, 0.14896748960018158, -0.1333046704530716, 0.0033617611043155193, -0.17470690608024597, -0.02858741767704487, 0.2533165514469147, 0.048222728073596954, -0.013080563396215439, 0.013056407682597637, -0.09932468831539154, 0.007944156415760517, -0.0061875637620687485, -0.06277327239513397, 0.02413836680352688, 0.12214911729097366, 0.06740625947713852, 0.016447482630610466, -0.05662160366773605, -0.04795268550515175, 0.024112656712532043, -0.0558081679046154, 0.011293571442365646, -0.44215530157089233, -0.6419833898544312, 0.8426843285560608, 0.3745214343070984, -0.35933783650398254, 0.13981382548809052, -0.2847960889339447, -0.057176318019628525, 0.5052196383476257, -0.86920166015625, 0.8459668755531311, 0.46609026193618774, 0.018688810989260674, -0.4765073359012604, 0.14801202714443207, -0.9263045191764832, 0.2104002684354782, -0.05936088413000107, 0.06462728977203369, -0.2433333545923233, 0.05994067341089249, 0.09278180450201035, 0.29589757323265076, -0.015802830457687378, -0.047777578234672546, 0.10866212099790573, 0.35999834537506104, 0.2085302770137787, -0.25131624937057495, 0.15196847915649414, 0.07434052228927612, -0.1671134978532791, 0.2934521734714508, 0.18504245579242706, -0.3500973582267761, 0.023172933608293533, -0.2542887032032013, 0.0708601251244545, 0.02854757569730282, -0.34770166873931885, -0.2623170018196106, 0.2381853610277176, 0.2895791828632355, -0.023661524057388306, 0.049666065722703934, 0.24761684238910675, 0.1002635732293129, -0.4776947498321533, -0.031681329011917114, -0.25753965973854065, 0.2246381789445877, -0.16687166690826416, 0.2859650254249573, -0.08950896561145782, 0.19140568375587463, -0.17531557381153107, 0.21454887092113495, -0.13942621648311615, -0.23281633853912354, 0.31533169746398926, 0.001628962578251958, -0.6892051100730896, -0.2603442668914795, 0.36322465538978577, 0.2706577181816101, 0.0626092180609703, 0.09689244627952576, 0.01587892509996891, -0.10404422879219055, 0.19109077751636505, -0.1518246978521347, 0.22052083909511566, 0.27238380908966064, 0.04083983600139618, 0.18600448966026306, 0.2905983030796051, 0.134450763463974, 0.1047590970993042, 0.03796255216002464, -0.1830565333366394, 0.1362028568983078, -0.02276281826198101, 0.25737860798835754, -0.37563231587409973, 0.003216368146240711, -0.5091741681098938, 0.46749347448349, -0.14950025081634521, 0.22273346781730652, 0.005819066893309355, 0.1947644203901291, 0.261738121509552, -0.40995272994041443, -0.20780044794082642, 0.1816757619380951, 0.054556746035814285, -0.011192189529538155, -0.13417072594165802, -0.05379021167755127, -0.11963878571987152, -0.23652751743793488, 0.04257883504033089, 0.27031466364860535, 0.12695810198783875, -0.028564149513840675, -0.26000118255615234, 0.09616553783416748, 0.13346631824970245, 0.26485204696655273, 0.12714709341526031, 0.14108267426490784, -0.008480135351419449, 0.14414380490779877, 0.2595135271549225, -0.36794450879096985, -0.019266702234745026, 0.1929529458284378, -0.28420910239219666, -0.036520566791296005, -0.1298103630542755, -0.4325192868709564, 0.34791627526283264, 0.060816165059804916, 0.07189986854791641, -0.10367438942193985, 0.03902291879057884, 0.22221963107585907, 0.0915708914399147, 0.16569271683692932, 0.1499037742614746, -0.2493857443332672, -0.28373339772224426, -0.03797627612948418, -0.23982615768909454, 0.05852775275707245, -0.0032091904431581497, -0.08754473179578781, 0.12022978812456131, -0.04544742777943611, 0.08589820563793182, 1.135747879743576e-05, 0.1946648508310318, 0.034762099385261536, -0.09205445647239685, -0.14449630677700043, 0.2040063887834549, -0.08744607865810394, 0.18886534869670868, 0.22944855690002441, 0.08986230194568634, -0.20293086767196655, -0.08218752592802048, -0.027790363878011703, 0.10821390151977539, -0.12294727563858032, 0.3069123923778534, -0.1143789291381836, -0.11922149360179901, 0.004607435781508684, -0.03885694593191147, -0.17039793729782104, -0.39492616057395935, 0.050864215940237045, 0.46522486209869385, 0.13926273584365845, 0.4109034538269043, -0.45835569500923157, -0.10718519985675812, 0.024698173627257347, -0.3563719391822815, 0.008642230182886124, -0.5449224710464478, -0.0013450413243845105, -0.23213642835617065, 0.011023841798305511, -0.17384783923625946, 0.34643009305000305, -0.08645520359277725, -0.14570800960063934, -0.12445859611034393, 0.19333328306674957, -0.12757046520709991, 0.17363514006137848, 0.07095296680927277, 0.2381908893585205, 0.14083363115787506, -0.39956480264663696, 0.284168004989624, 0.22179603576660156, -0.31960922479629517, -0.020707352086901665, 0.22011736035346985, 0.20217494666576385, 0.19619303941726685, -0.21282228827476501, -0.018905196338891983, -0.09700144082307816, -0.028738241642713547, 0.25800299644470215, -0.038533300161361694, -0.22273015975952148, 0.01487722247838974, 0.10170761495828629, 0.5064073204994202, -0.4564463496208191, -0.14376983046531677, 0.13234494626522064, -0.03590184450149536, -0.39644256234169006, -0.33106520771980286, 0.01237501297146082, 0.21104831993579865, 0.1749446541070938, 0.3090246915817261, -0.3741223216056824, -0.0031171829905360937, 0.1677960604429245, -0.1413659155368805, -0.36602750420570374, -0.04164283350110054, 0.14417828619480133, -0.028843099251389503, -0.16064558923244476, -0.06485527008771896, -0.12101547420024872, 0.15539759397506714, -0.101000115275383, -0.044937822967767715, 0.06738275289535522, -0.06367642432451248, 0.28867802023887634, 0.027704721316695213, 0.22591149806976318, 0.023682381957769394, 0.41732752323150635, -0.04388269782066345, 0.17889973521232605, 0.078521229326725, -0.38097095489501953, -0.03325435146689415, 0.17945773899555206, 0.4875440299510956, -0.3588964343070984, -0.28639712929725647, -0.2764014005661011, -0.2761284410953522, 0.26229315996170044, -0.36194488406181335, 0.1378328949213028, 0.4941389262676239, 0.3153916895389557, 0.527804970741272, -0.16046783328056335, 0.23355208337306976, 0.21945297718048096, -0.09036122262477875, -0.0397324375808239, -0.03895445168018341, -0.09868184477090836, -0.3035949766635895, -0.1631651520729065, -0.16196851432323456, 0.12323013693094254, -0.21334396302700043, -0.018058449029922485, 0.19904446601867676, 0.16267931461334229, 0.3390435576438904, -0.20997974276542664, -0.038115788251161575, -0.08233465254306793, 0.11829198896884918, 0.04637164995074272, 0.002526957541704178, 0.015859758481383324, 0.0009755527717061341, -0.05993273854255676, 0.1547263115644455, 0.055897969752550125, 0.010119711048901081, -0.08141954988241196, -0.14960825443267822, -0.03354430943727493, 0.07757890224456787, 0.06984225660562515, 0.0213905181735754, 0.1051216721534729, -0.03080241195857525, -0.10564212501049042, -0.15305525064468384, 0.11336585134267807, -0.005198589060455561, 0.138956218957901, 0.3182937800884247, 0.2279980480670929, -0.19139836728572845, -0.0701621025800705, 0.12105055898427963, 0.13399870693683624, -0.03794334456324577, -0.16116033494472504, -0.43072840571403503, -0.02087508700788021, -0.16730953752994537, -0.05927913635969162, 0.10335977375507355, 0.09708401560783386, -0.10022950917482376, -0.04300042614340782, -0.31807419657707214, 0.08253051340579987, 0.10137103497982025, 0.1823642998933792, -0.19822314381599426, -0.19514678418636322, 0.06883011758327484, 0.5693615674972534, -0.038950640708208084, 0.1219269335269928, -0.8446063995361328, 0.18847928941249847, 0.12941788136959076, -0.39329689741134644, -0.20953592658042908, 0.14238819479942322, 0.10661695152521133, -0.07418122887611389, -0.05029316619038582, -0.06547516584396362, -0.25323253870010376, -0.3268739581108093, -0.30798760056495667, -0.046061545610427856, -0.2418014258146286, -0.11988943070173264, 0.030072197318077087, 0.08963429927825928, 0.19803978502750397, -0.09137291461229324, 0.14602462947368622, 0.14283421635627747, 0.029351424425840378, 0.03845139220356941, -0.023977156728506088, -0.17920222878456116, -0.14211000502109528, 0.17379826307296753, 0.22533099353313446, 0.11323603242635727, 0.1989409178495407, 0.07995688915252686, 0.1843711882829666, -0.11448279768228531, -0.04804091155529022, -0.06534403562545776, 0.333262175321579, 0.046304430812597275, 0.09902636706829071, -0.09404105693101883, -0.10313361138105392, -0.10423589497804642, 0.16783539950847626, -0.017674876376986504, -0.02739754505455494, -0.08674578368663788, 0.10062693804502487, -0.03672384098172188, 0.3603367805480957, -0.0016044751973822713, 0.11082425713539124, 0.2291010022163391, -0.0029161132406443357, -0.12810349464416504, -0.07309184968471527, 0.06794589012861252, -0.2783685028553009, 0.13414840400218964, -0.2065027505159378, 0.1923476755619049, 0.2542070150375366, 0.025702010840177536, 0.11162625253200531, 0.11193559318780899, -0.09359517693519592, -0.3055574893951416, -0.2135934680700302, 0.022907910868525505, 0.02741973102092743, -0.29024389386177063, -0.7784553170204163, 0.08956462144851685, 0.016932379454374313, 0.6678791046142578, 0.09724096208810806, 0.06611456722021103, -0.5257628560066223, -0.030778782442212105, -0.21578356623649597, 0.14398665726184845, -0.32285377383232117, -0.13697180151939392, 0.06600683182477951, 0.09507719427347183, 0.010266211815178394, -0.49249136447906494, -0.19643908739089966, -0.09175221621990204, 0.12581409513950348, 0.14592185616493225, 0.07222305238246918, -0.22882378101348877, 0.10243240743875504, 0.11112029105424881, 0.33290740847587585, 0.15495602786540985, -0.21751531958580017, -0.19169680774211884, 0.10257087647914886, -0.10244972258806229, -0.5215180516242981, 0.17724987864494324, 0.12513378262519836, -0.04285116493701935, -0.010137696750462055, 0.032227613031864166, -0.16484609246253967, -0.07626216113567352, -0.21843479573726654, -0.3341829180717468, -0.3095386028289795, -0.03391991928219795, 0.12779046595096588, -0.08625245094299316, 0.04852961376309395, 0.13029766082763672, -0.02720014750957489, 0.06758294999599457, 0.05863691493868828, 0.05009172484278679, 0.07982145994901657, -0.07480728626251221, 0.18991968035697937, 0.16500888764858246, -0.14314980804920197, -0.08096572011709213, 0.022517066448926926, 0.03283028304576874, -0.018431147560477257, -0.40259525179862976, 0.2940506637096405, 0.094114750623703, 0.047480616718530655, -0.041505128145217896, -0.07579053193330765, -0.04987078532576561, 0.32288074493408203, 0.10033171623945236, 0.049888864159584045, -0.2816462516784668, -0.19321464002132416, 0.005432416684925556, 0.014386402443051338, 0.018832089379429817, 0.20735298097133636, -0.009988902136683464, 0.11966510117053986, 0.16927574574947357, -0.0014962166314944625, 0.07343824952840805, 0.16347095370292664, -0.26803502440452576, 0.1536787897348404, 0.135469451546669, -0.09123463928699493, -0.1251140534877777, 0.048257697373628616, 0.06927168369293213, -0.19975687563419342, -0.013412405736744404, 0.16274888813495636, 0.22304917871952057, -0.09117693454027176, -0.10105995833873749, 0.07820204645395279, 0.2396647185087204, -0.052527181804180145, 0.12883268296718597, -0.3786267042160034, 0.0014724491629749537, 0.01686844415962696, -0.03980228304862976, 0.023534025996923447, 0.02685893326997757, -0.15648740530014038, -0.10452821850776672, -0.0026428105775266886, -0.05958021804690361, 0.1015227660536766, -0.112363800406456, 0.06757809966802597, 0.07340140640735626, 0.24380873143672943, 0.008755745366215706, -0.06774407625198364, -0.22649076581001282, 0.1534768044948578, -0.047657888382673264, -0.15867921710014343, -0.05402660742402077, 0.015857413411140442, 0.10384917259216309, 0.10368714481592178, -0.07020539790391922, -0.17455895245075226, -0.1267651915550232, -0.01210714876651764, -0.17748306691646576, 0.11191433668136597, -0.009665081277489662, -0.14433635771274567, -0.2882479131221771, -0.12363288551568985, 0.10587464272975922, -0.018323726952075958, -0.009135831147432327, 0.1823880970478058, -0.2718346416950226, -0.0682251900434494, 0.19148419797420502, 0.07543595880270004, -0.016026495024561882, 0.11450083553791046, 1.0094350576400757, -0.0562075600028038, -0.10528384149074554, -0.0764688178896904, -0.0019439570605754852, -0.012987729161977768, 0.2556546926498413, -0.08477813750505447, 0.28144752979278564, -0.13560383021831512, -0.08223441988229752, 0.0013143339892849326, -0.15795964002609253, -0.054121050983667374, -0.00040059417369775474, 0.44158753752708435, 0.07649481296539307, 0.14529776573181152, -0.045759014785289764, -0.12229687720537186, -0.2537553310394287, 0.20897194743156433, -0.036734867841005325, -0.2014738917350769, -0.255482941865921, -0.05083310231566429, 0.040886636823415756, 0.18939432501792908, -0.02394780144095421, 0.05172664672136307, 0.3329326808452606, 0.14113140106201172, -0.1905527412891388, -0.041972704231739044, -0.10590845346450806, 0.13649313151836395, 0.11206133663654327, -0.05573565885424614, 0.2899942994117737, 0.2642553150653839, -0.13204000890254974, 0.20080561935901642, 0.12611399590969086, 0.00941991526633501, 0.0480654202401638, 0.02819535881280899, -0.12140748649835587, 0.030850715935230255, -0.22053486108779907, -0.02128925360739231, 0.050605110824108124, -0.08564905822277069, 0.0974249392747879, 0.018910042941570282, -0.17771269381046295, -0.16724905371665955, -0.08717726171016693, 0.025966748595237732, -0.015093650668859482, -0.24530863761901855, -0.12660729885101318, 0.05151642858982086, -0.14214006066322327, -0.23543287813663483, -0.20026275515556335, 0.04609980434179306, -0.01570531167089939, -0.0458320751786232, 0.06702136248350143, 0.05045023560523987, 0.014708093367516994, -0.07409539073705673, 0.18462619185447693, -0.06549563258886337, 0.25359809398651123, -0.16979753971099854, 0.11840547621250153, 0.11232373863458633, -0.32884564995765686, -0.03686545416712761, 0.17800681293010712, -0.07353362441062927, -0.07047975808382034, -0.0691913291811943, -0.06239534169435501, 0.007461176253855228, -0.06977274268865585, 0.06086672469973564, 0.13998085260391235, -0.028956042602658272, 0.01567632518708706, -0.1261909455060959, -0.12858892977237701, -0.04871869087219238, -0.055686093866825104, 0.04552099481225014, 0.05228186398744583, -0.036575913429260254, -0.06914930045604706, -0.05264771729707718, 0.2244333028793335, 0.010843762196600437, 0.06858114153146744, -0.011552992276847363, -0.17338672280311584, 0.12410072982311249, -0.03910551220178604, -0.08279842138290405, -0.011185324750840664, 0.12028966844081879, -0.05023485794663429, -0.18047870695590973, -0.1446492224931717, -0.28502118587493896, 0.10595905780792236, 0.0562685951590538, 0.17944304645061493, 0.005464129149913788, -0.04427407309412956, -0.11582670360803604, -0.1312849521636963, -0.002886395901441574, 0.0957753136754036, -0.11176585406064987, -0.1443203091621399, 0.0302166398614645, -0.1270286589860916, 0.02125859633088112, 0.17689798772335052, 0.017968133091926575, 0.024825308471918106, 0.21251387894153595, -0.32320743799209595, 0.0341731458902359, -0.08456003665924072, -0.020608725026249886, 0.06436310708522797, -0.2658361792564392, -0.01382830087095499, 0.08399900048971176, -0.12833483517169952, 0.194784477353096, 0.10823458433151245, 0.04084179177880287, -0.024851243942975998, 0.03138340637087822, 0.1288691908121109, -0.16313104331493378, 0.0909336507320404, 0.14313358068466187, 0.11447413265705109, 0.025135254487395287, -0.21692316234111786, -0.023976676166057587, 0.018546542152762413, -0.06170671433210373, 0.19961126148700714, -0.070344939827919, -0.22679831087589264, -0.06526622176170349, -0.030932219699025154, -0.022037070244550705, -0.00010516832116991282, -0.07342176139354706, 0.06625843048095703, 0.0460425466299057, -0.006348500493913889, 0.17746207118034363, 0.0879809558391571, -0.10406190901994705, 0.1289750337600708, -0.13194788992404938, 0.06651786714792252, 0.15688714385032654, 0.16637438535690308, -0.1169055849313736, 0.18452860414981842, -0.09014137834310532, -0.09210535883903503, 0.012749272398650646, 0.016398975625634193, -0.08906959742307663, 0.10124333947896957, 0.22564665973186493, -0.13047263026237488, -0.0014049048768356442, 0.00034657801734283566, 0.18952630460262299, -0.16247418522834778, 0.05630794167518616, -0.048198308795690536, 0.06057565659284592, -0.20828412473201752, -0.0626029372215271, 0.12309835851192474, -0.014443567022681236, 0.0012382169952616096, 0.18311281502246857, -0.1032276526093483, -0.02502254769206047, -0.06874096393585205, 0.024599816650152206, 0.020045310258865356, -0.17498578131198883, 0.12385142594575882, -0.20449814200401306, -0.09589716047048569, -0.1729108691215515, 0.09566500782966614, -0.14355652034282684, 0.10496516525745392, 0.09055060148239136, 0.2456883192062378, 0.09994639456272125, 0.12708814442157745, -0.09614444524049759, 0.027226300910115242, -0.02330448292195797, -0.07267040014266968, 0.08665911108255386, 0.007456030696630478, 0.054671283811330795, -0.010305818170309067, -0.11739480495452881, 0.23005253076553345, -0.051038581877946854, 0.025661520659923553, -0.03790271282196045, -0.1073460802435875, -0.10843080282211304, 0.04365051910281181, 0.1895301192998886, -0.14754757285118103, -0.05874567851424217, 0.040944792330265045, 0.12655384838581085, -0.01613137312233448, -0.26676079630851746, -0.011417843401432037, 0.009245735593140125, -0.07460225373506546, 0.02133362926542759, 0.06264826655387878, 0.022363321855664253, 0.08758880943059921, 0.04277656599879265, 0.08739852160215378, -0.2710650563240051, -0.12570442259311676, -0.3983513116836548, 0.0801091194152832, -0.016254732385277748, -0.08032169938087463, 0.18777939677238464, 0.06818222254514694, -0.01619107462465763, -0.26856696605682373, -0.20227566361427307, 0.03978559374809265, 0.2116241455078125, -0.01807263307273388, 0.030833879485726357, -0.08486924320459366, -0.07296400517225266, 0.17664708197116852, 0.08793070167303085, 0.19013676047325134, 0.0023543499410152435, -0.07871232181787491, -0.13591431081295013, -0.12118477374315262, -0.31257379055023193, 0.15286949276924133, 0.02744113653898239, -0.025168484076857567, 0.27292561531066895, -0.10631579905748367, 0.015565486624836922, -0.12952306866645813, 0.0026546658482402563, 0.0790087878704071, -0.09516780078411102, -0.03667502850294113, 0.1696825921535492, -0.1437385380268097, -0.1389448493719101, 0.18535324931144714, 0.045658886432647705, 0.32492852210998535, 0.017280707135796547, 0.13571138679981232, -0.1842900961637497, 0.3338860273361206, 0.03427223861217499, -0.23654592037200928, -0.1760501116514206, -0.2052820324897766, -0.09145680069923401, 0.1957099884748459, -0.1773015558719635, -0.051036205142736435, 0.022923607379198074, -0.013796520419418812, -0.1770365834236145, -0.14401687681674957, -0.16092543303966522, -0.04662172496318817, 0.17795124650001526, 0.1006755456328392, -0.16732464730739594, -0.22426067292690277, -0.10197030752897263, 0.39595580101013184, 0.19141818583011627, 0.33439868688583374, -0.4088898301124573, 0.14879858493804932, 0.3498065173625946, 0.20073799788951874, -0.11004767566919327, 0.2786792814731598, 0.07772798091173172, -0.16127759218215942, 0.11002303659915924, -0.08206409960985184, 0.3061733543872833, -0.2762196660041809, -0.11769489198923111, -0.2029946744441986, -0.13862982392311096, -0.12136977910995483, 0.2206951528787613, -0.028582483530044556, 0.04914126917719841, -0.1124105304479599, -0.08549223840236664, 0.0054704295471310616, 0.10436227917671204, 0.03326848894357681, -0.11101415008306503, 0.09685175120830536, -0.15993890166282654, -0.010654731653630733, -0.03745640814304352, -0.030307618901133537, 0.11844401061534882, -0.19025547802448273, 0.08406081795692444, 0.16844339668750763, -0.2729804217815399, -0.04853992164134979, 0.1013929694890976, 0.01908775046467781, 0.09046674519777298, 0.010983388870954514, 0.0159853957593441, -0.13187777996063232, 0.08241099864244461, -0.11472520232200623, -0.11692452430725098, 0.021866431459784508, 0.0018498942954465747, 0.016738876700401306, -0.01816600002348423, -0.003980944398790598, -0.0763261690735817, 0.02397981286048889, 0.21843472123146057, 0.07759571075439453, 0.0401407852768898, 0.07382966578006744, -0.23940932750701904, -0.012665602378547192, -0.0031360185239464045, -0.1328875869512558, 0.03401818871498108, -0.023983271792531013, 0.045446041971445084, 0.044327884912490845, -0.08566240966320038, 0.08861199021339417, 0.04967854544520378, 0.2578892707824707, 0.0800011157989502, 0.3207736313343048, 0.1750013828277588, -0.30237218737602234, -0.10137994587421417, 0.5917572975158691, 0.11289554089307785, 0.01859673485159874, 0.08782374858856201, 0.19778892397880554, -0.002201300812885165, 0.6099715232849121, 0.07055927813053131, 0.0796503946185112, 0.1855047047138214, -0.21393626928329468, 0.06232352927327156, 0.24435482919216156, -0.06482988595962524, 0.09423702955245972, -0.020157383754849434, -0.06662452220916748, -0.040473420172929764, 0.13086268305778503, -0.12120568752288818, -0.11278107762336731, -0.2777897119522095, 0.1490168273448944, -0.01654847152531147, 0.5395377278327942, 0.05264528468251228, -0.1746801733970642, 0.2011818140745163, -0.07411753386259079, -0.1651659905910492, -0.3198605477809906, -0.036973025649785995, -0.19060839712619781, 0.13607193529605865, 0.01974129118025303, -0.02467474341392517, 0.3573043644428253, 0.020970258861780167, 0.15887120366096497, 0.2962624728679657, 0.09266681224107742, 0.04006898030638695, 0.03948645293712616, -0.08753669261932373, -0.13323047757148743, -0.14791527390480042, -0.22465457022190094, 0.012322084978222847, 0.24874496459960938, -0.16075046360492706, -0.06938595324754715, 0.1580420434474945, -0.03295024484395981, -0.051015254110097885, -0.09428595751523972, 0.24525530636310577, -0.09874239563941956, -0.10439547151327133, 0.05392654612660408, -0.236433207988739, -0.01814187504351139, 0.02790948562324047, -0.023155467584729195, -0.10675019025802612, -0.1470009833574295, 0.033383775502443314, 0.15958380699157715, -0.10978858172893524, 0.08354410529136658, -0.004976609721779823, -0.1484045684337616, -0.12134147435426712, 0.11850902438163757, 0.06610354036092758, -0.21058988571166992, -0.04093203321099281, -0.2585752308368683, 0.09905652701854706, 0.028051236644387245, -0.08972351253032684, 0.13711467385292053, 0.16975010931491852, -0.010918972082436085, -0.09074527025222778, -0.16633644700050354, 0.08057764917612076, 0.050546590238809586, -0.07618178427219391, -0.22049404680728912, 0.14061741530895233, 0.051573578268289566, -0.27502068877220154, 0.36370179057121277, 0.1007239818572998, -0.1371001899242401, 0.011246932670474052, -0.22400695085525513, 0.0052159633487463, 0.14196054637432098, 0.12558583915233612, -0.10897011309862137, 0.17685331404209137, -0.010889869183301926, -0.15435285866260529, -0.029093770310282707, -0.005343096796423197, -0.047024812549352646, 0.31698495149612427, 0.0590156726539135, -0.13578495383262634, 0.14972293376922607, -0.11358878016471863, 0.020897934213280678, 0.010582712478935719, -0.018803942948579788, 0.10237905383110046, -0.1951228678226471, 0.16704028844833374, -0.23924094438552856, 0.34378939867019653, -0.010265680029988289, -0.04907170310616493, 0.2054819017648697, 0.0051463451236486435, -0.03437500447034836, -0.12562906742095947, 0.07033400982618332, -0.2353779822587967, 0.012558037415146828, 0.09097473323345184, -0.14825521409511566, 0.2445821911096573, -0.004001855384558439, -0.08493256568908691, 0.07302951067686081, 0.11284301429986954, 0.06735192239284515, -0.08055273443460464, 0.05653277039527893, -0.0948360487818718, 0.17818371951580048, 0.08004056662321091, -0.04451212286949158, -0.02909853495657444, 0.07124694436788559, 0.19718042016029358, -0.08343363553285599, -0.1411036252975464, 0.012216881848871708, 0.11302750557661057, 0.010195528157055378, 0.008038797415792942, 0.5880672335624695, 0.2642364799976349, 0.7785665988922119, -0.7548678517341614, -0.4920039474964142, 0.0997307077050209, 0.18042472004890442, -0.06659810245037079, 0.38013938069343567, 0.3471934199333191, -0.7302517294883728, 0.33929508924484253, -0.20673035085201263, -0.7689753770828247, -0.06083870306611061, -0.21685144305229187, 0.012727550230920315, -0.03502897173166275, 0.3072289228439331, -0.48541703820228577, 0.23632490634918213, 0.12743787467479706, 0.04775204136967659, -0.33839958906173706, -0.6511136293411255, -0.02711886540055275, -0.3184594511985779, 0.0564916767179966, 0.1566050946712494, -0.2218284010887146, 0.2517680823802948, 0.05150650441646576, -0.09859080612659454, -0.03286074846982956, 0.010613777674734592, -0.3212074935436249, 0.06911871582269669, -0.13062894344329834, 0.1833537071943283, -0.17526747286319733, -0.1533271223306656, 0.0004252264625392854, -0.20334820449352264, 0.06914477795362473, -0.17325246334075928, -0.008163739927113056, 0.2646928131580353, -0.1383884996175766, -0.12853482365608215, 0.38108253479003906, -0.054492294788360596, -0.2638373374938965, -0.013493748381733894, 0.02010037750005722, -0.15684504806995392, 0.04854339361190796, 0.05941419303417206, -0.18294762074947357, -0.15765990316867828, -0.13335898518562317, -0.17117911577224731, -0.0761701837182045, -0.03280637413263321, 0.1350959986448288, -0.3120412528514862, -0.23584522306919098, -0.24968591332435608, 0.5466302037239075, 0.2577047049999237, 0.181596577167511, 0.3896728754043579, 0.3226712644100189, -0.2993430495262146, -0.12555906176567078, 0.24412427842617035, -0.23564587533473969, -0.11163042485713959, 0.11888723075389862, 0.20831023156642914, -0.25522562861442566, 0.18740825355052948, 0.29253846406936646, -0.1314321607351303, 0.17442718148231506, -0.05269599333405495, -0.14834168553352356, 0.057622019201517105, -0.0927213728427887, 0.15984828770160675, 0.295795202255249, 0.08125148713588715, 0.08793807774782181, -0.3925710618495941, -0.2347709685564041, 0.04142307862639427, -0.10209155827760696, -0.2003922462463379, 0.3261273205280304, 0.29218098521232605, 0.27728402614593506, -0.1963835507631302, 0.07281742244958878, 0.0640631839632988, 0.04920511320233345, 0.04601851478219032, 0.19260276854038239, -0.2203054577112198, 0.2767714262008667, 0.029180802404880524, -0.05242699757218361, -0.30810707807540894, -0.05901894345879555, 0.09538206458091736, -0.21432815492153168, -0.2870151102542877, 0.09524091333150864, -0.15485255420207977, -0.3586183190345764, 0.20931075513362885, 0.1287054866552353, 0.020612871274352074, 0.1050427183508873, 0.025511709973216057, 0.07945922017097473, 0.11429648101329803, 0.06273230165243149, 0.17718079686164856, -0.208077073097229, 0.10191204398870468, 0.13433805108070374, -0.0026562220882624388, -0.20262067019939423, 0.10759030282497406, -0.3065352439880371, -0.03183411806821823, 0.2439652532339096, 0.17025914788246155, 0.09759782999753952, 0.021951541304588318, 0.14556415379047394, -0.16568341851234436, 0.028409121558070183, 0.05514802038669586, -0.23543481528759003, -0.2324487417936325, 0.014983241446316242, -0.16861285269260406, -0.20068217813968658, 0.4581333100795746, 0.05800776928663254, -0.2744939625263214, -0.29638344049453735, -0.42045870423316956, -0.2657974064350128, -0.21630890667438507, -0.18397347629070282, 0.20618529617786407, -0.0658503845334053, 0.46661198139190674, -0.0038298487197607756, -0.0833008885383606, 0.017556127160787582, -0.18601390719413757, 0.20500448346138, -0.21606770157814026, 0.20284640789031982, -0.11584720760583878, 0.20018818974494934, -0.22015349566936493, -0.11634932458400726, 0.30405300855636597, -0.15476523339748383, -0.0445660836994648, -0.026982324197888374, 0.059340912848711014, 0.17216044664382935, -0.1062089279294014, 0.16816173493862152, -0.19464406371116638, -0.23670512437820435, 0.050404928624629974, 0.008518639951944351, 0.08970800042152405, -0.3946124017238617, 0.02612948790192604, -0.1693471223115921, -0.33313828706741333, -0.01847749948501587, -0.03682563826441765, 0.039614755660295486, 0.04627196863293648, -0.30659809708595276, 0.14135496318340302, 0.01687520742416382, -0.21277326345443726, -0.03317110240459442, 0.013468241319060326, -0.30354151129722595, 0.040595803409814835, -0.05152522027492523, -0.03302997723221779, 0.0582595095038414, 0.21299228072166443, 0.2081110030412674, -0.11626920104026794, 0.2993367314338684, -0.21836230158805847, -0.14021676778793335, -0.03634445741772652, 0.23275981843471527, 0.19120776653289795, 0.6695525050163269, -0.10216446220874786, 0.039423178881406784, -0.11264868825674057, 0.08304911851882935, -0.09543514996767044, 0.08403368294239044, -0.20830485224723816, -0.08752173185348511, -0.5015693306922913, 0.07810709625482559, 0.1383582204580307, -0.17571094632148743, -0.2739023268222809, 0.0927857831120491, 0.04116338491439819, -0.005062502343207598, 0.05362556874752045, 0.04790744185447693, -0.09593592584133148, -0.20320650935173035, 0.046112898737192154, 0.10802090913057327, -0.18159934878349304, -0.1309521496295929, 0.033743083477020264, -0.3353538513183594, -0.2790297567844391, 0.32348883152008057, 0.4339044988155365, -0.014910596422851086, -0.048568252474069595, 0.02506573311984539, -0.22259537875652313, -0.34125399589538574, -0.025435440242290497, 0.1572090983390808, 0.1153770238161087, 0.030348898842930794, -0.29046857357025146, 0.052075330168008804, 0.06302212178707123, 0.06802525371313095, -0.04810493439435959, -0.05759921297430992, 0.10453293472528458, 0.20213395357131958, -0.10895045846700668, -0.32356417179107666, -0.1454288810491562, -0.3077787160873413, 0.1410757154226303, -0.1457141935825348, -0.34418970346450806, 0.04893186688423157, -0.24945153295993805, -0.010408609174191952, 0.11902914941310883, -0.02119820937514305, 0.19377806782722473, 0.0395808145403862, -0.013647324405610561, 0.02669510245323181, -0.01616908423602581, -0.14599087834358215, 0.08905945718288422, 0.021252429112792015, 0.04292347654700279, 0.05594201385974884, -0.14675727486610413, 0.14766468107700348, 0.014565184712409973, 0.04808714613318443, -0.03515344113111496, -0.08357591927051544, -0.027946006506681442, 0.05225149914622307, 0.1643994003534317, -0.08973201364278793, 0.053780194371938705, -0.012487689964473248, 0.08011232316493988, -0.08098938316106796, -0.015692535787820816, 0.1775658279657364, -0.14806032180786133, -0.2389272004365921, 0.23711815476417542, -0.019349919632077217, 0.06573653966188431, -0.17752933502197266, -0.1434040367603302, 0.20399045944213867, 0.04915960878133774, -0.04630572721362114, -0.06846843659877777, -0.11970341205596924, 0.10831693559885025, 0.25897762179374695, 0.05013476684689522, -0.06361078470945358, -0.11573615670204163, 0.04610046371817589, -0.015220080502331257, 0.06066957488656044, -0.1004779189825058, -0.26750263571739197, 0.005870536435395479, 0.2533891797065735, -0.11366868764162064, -0.11285553872585297, -0.09788724780082703, -0.12286302447319031, -0.062069203704595566, 0.17413051426410675, 0.12525257468223572, -0.1215047761797905, 0.26098886132240295, -0.048369187861680984, 0.09516577422618866, -0.18432077765464783, 0.07753243297338486, 0.04072647914290428, -0.006896402221173048, 0.033125538378953934, -0.07645402103662491, -0.19159241020679474, 0.1509310007095337, -0.05600447580218315, 0.026575759053230286, 0.08414001762866974, -0.17239561676979065, 0.04462889954447746, -0.015976035967469215, 0.12743526697158813, 0.05602492392063141, -0.07946255803108215, -0.036344755440950394, 0.07307280600070953, 0.07777091860771179, 0.2897205352783203, -0.4056258797645569, 0.09741304069757462, -0.09193561971187592, 0.11200065165758133, 0.019470611587166786, -0.18082602322101593, -0.1648855358362198, -0.10879606008529663, -0.05723731592297554, 0.2187233567237854, 0.08014308661222458, -0.03261614963412285, 0.08770804852247238, 0.042482227087020874, 0.13727356493473053, -0.02683786302804947, 0.04150993749499321, 0.041411008685827255, -0.010690702125430107, -0.18794772028923035, 0.07320351153612137, -0.23426325619220734, -0.2750401198863983, -0.06722436845302582, -0.03914754465222359, -0.008761486038565636, 0.09953083842992783, -0.1090569719672203, -0.013897554948925972, -0.1904294192790985, -0.18540039658546448, 0.07074837386608124, -0.0015836759703233838, -0.050632499158382416, 0.23575736582279205, -0.0044551510363817215, 0.062158986926078796, 0.1390911042690277, -0.09264467656612396, -0.01346644852310419, 0.014388306997716427, -0.2582545280456543, 0.1988607794046402, -0.080124132335186, -0.10045868903398514, -0.20786763727664948, -0.08248724043369293, 0.028488367795944214, 0.06161694973707199, -0.010569036938250065, -0.09009119123220444, -0.17994655668735504, -0.15814343094825745, 0.04490933567285538, -0.107301265001297, -0.016622871160507202, -0.043199095875024796, -0.05126984417438507, -0.07269415259361267, 0.0825905129313469, 0.020438287407159805, 0.01815047860145569, 0.08823901414871216, 0.28995707631111145, 0.15415745973587036, -0.11684094369411469, 0.12701909244060516, -0.06651141494512558, -0.13893073797225952, 0.06441490352153778, -0.03250039368867874, -0.07103551924228668, 0.06875592470169067, 0.032121993601322174, 0.07702774554491043, -0.14597941935062408, 0.042814817279577255, 0.17070308327674866, -0.17545482516288757, 0.09895478934049606, -0.07560548931360245, -0.08971882611513138, 0.13970686495304108, -0.07135605812072754, 0.08475487679243088, -0.15756593644618988, -0.042642828077077866, 0.09258808195590973, -0.04441734403371811, -0.08821683377027512, 0.0009526737267151475, 0.01682349666953087, 0.10498026758432388, -0.06433042138814926, 0.05551177263259888, 0.05947938933968544, -0.16398388147354126, 0.0748651996254921, 0.08293919265270233, -0.07748707383871078, 0.05559040233492851, 0.2609521448612213, -0.0693284347653389, -0.11617332696914673, -0.18130354583263397, 0.03441154211759567, 0.10192407667636871, 0.03980281576514244, 0.14050531387329102, 0.012155736796557903, -0.08240003883838654, 0.19032137095928192, 0.03653884679079056, -0.1773727983236313, 0.019038982689380646, -0.047378525137901306, -0.020759323611855507, 0.1193924993276596, 0.009204838424921036, -0.14958006143569946, 0.10191772878170013, -0.06808929145336151, 0.2104240506887436, -0.07203163206577301, -0.015818346291780472, 0.1939680576324463, -0.06476791203022003, -0.0026562148705124855, 0.01023957971483469, 0.06068551167845726, 0.0844365581870079, -0.09264662116765976, 0.027510881423950195, 0.009797420352697372, 0.10471149533987045, 0.19821469485759735, 0.01708289608359337, -0.22523486614227295, 0.32604557275772095, 0.03415204957127571, 0.0029357706662267447, -0.06962529569864273, 0.09432061016559601, 0.16208040714263916, 0.04214566573500633, -0.1309901922941208, 0.026719195768237114, -0.24201428890228271, -0.0852726623415947, 0.09158201515674591, -0.06835874915122986, 0.024012815207242966, -0.007445175666362047, 0.18908588588237762, 0.13259321451187134, 0.00924188643693924, -0.007638341747224331, -0.05972597748041153, -0.025774100795388222, 0.22257409989833832, -0.10169047117233276, 0.04225403815507889, -0.06697846949100494, -0.06426814943552017, -0.19358152151107788, 0.16674473881721497, 0.019160714000463486, -0.0008408456924371421, 0.3135312497615814, -0.05753030255436897, -0.014811412431299686, -0.25116583704948425, 0.031197836622595787, -0.03538950905203819, -0.09883005172014236, 0.13885293900966644, -0.25118663907051086, 0.12848977744579315, -0.15973708033561707, -0.07274853438138962, -0.07177873700857162, 0.03436921909451485, 0.09632501006126404, -0.1460171490907669, -0.009505188092589378, 0.14900480210781097, -0.20115242898464203, 0.03741387650370598, -0.11380752176046371, 0.018282756209373474, -0.02498803846538067, -0.15706001222133636, -0.1471569687128067, 0.010717402212321758, 0.25334662199020386, 0.06486471742391586, -0.017247602343559265, -0.1568533331155777, 0.09659750014543533, -0.04078204929828644, 0.03288988769054413, -0.3158509135246277, 0.03079329803586006, -0.1017836406826973, -0.02046409249305725, -0.10584785789251328, 0.04100901260972023, -0.18697212636470795, -0.024981709197163582, -0.022731667384505272, 0.14792533218860626, 0.01615033857524395, 0.17834210395812988, -0.11235195398330688, -0.09480337798595428, 0.016607800498604774, -0.3506041467189789, -0.031016265973448753, -0.07965477555990219, 0.2501104772090912, -0.11416400223970413, -0.03472989797592163, 0.14389711618423462, -0.04525472968816757, 0.061555732041597366, 0.06238973140716553, 0.12684039771556854, -0.0241542998701334, 0.09631380438804626, -0.35952097177505493, -0.13013234734535217, -0.12102805823087692, 0.13243509829044342, -0.07049734145402908, -0.09243058413267136, -0.08410008251667023, 0.12040220946073532, 0.03994397073984146, -0.14769412577152252, 0.09004480391740799, -0.45406392216682434, 0.046270858496427536, -0.11579069495201111, 0.15965917706489563, -0.14600694179534912, 0.09837163984775543, -0.23189613223075867, -0.026570996269583702, -0.0674060583114624, 0.0481681227684021, 0.15808705985546112, 0.1182454451918602, 0.09319864213466644, -0.05602012947201729, -0.06934351474046707, 0.023066973313689232, 0.11168879270553589, -0.09331199526786804, 0.1364947259426117, 