{"version": "0.5.2", "metadata": {"date": {"year": 2023, "month": 7, "day": 31, "hour": 21, "minute": 17, "second": 39}, "loudness": -15.151069641113281, "gain": 0.8145685559254294}, "architecture": "WaveNet", "config": {"layers": [{"input_size": 1, "condition_size": 1, "head_size": 8, "channels": 16, "kernel_size": 3, "dilations": [1, 2, 4, 8, 16, 32, 64, 128, 256, 512], "activation": "Tanh", "gated": false, "head_bias": false}, {"input_size": 16, "condition_size": 1, "head_size": 1, "channels": 8, "kernel_size": 3, "dilations": [1, 2, 4, 8, 16, 32, 64, 128, 256, 512], "activation": "Tanh", "gated": false, "head_bias": true}], "head": null, "head_scale": 0.02}, "weights": [-0.02896447852253914, 0.4366801679134369, -0.5207936763763428, -0.7069052457809448, -0.24605971574783325, 0.10376045107841492, 0.011761334724724293, 0.6598405241966248, -0.015629399567842484, 0.12135425209999084, -0.18416541814804077, -0.1083349660038948, -0.8284843564033508, -0.5378879904747009, -0.23978452384471893, -0.0044038984924554825, 0.1685980260372162, 0.16154572367668152, -0.11863309890031815, -0.19487427175045013, -0.03493400290608406, 0.13365432620048523, 0.10750456154346466, 0.19986489415168762, -0.03309790417551994, 0.14461341500282288, 0.21569138765335083, -0.15265296399593353, 0.040230557322502136, 0.04958246648311615, -0.06837930530309677, 0.009740512818098068, -0.16087830066680908, -0.03843798115849495, -0.10302967578172684, -0.22632785141468048, -0.16916294395923615, -0.005277260672301054, -0.01995134726166725, 0.09044606238603592, 0.09888821095228195, -0.026829548180103302, 0.006231101229786873, -0.24018646776676178, -0.15811240673065186, -0.0350319929420948, 0.1963498741388321, 0.1407061070203781, -0.10371366143226624, 0.10223773121833801, 0.1500292718410492, 0.10791538655757904, 0.19192293286323547, 0.11025015264749527, 0.0825841948390007, 0.040190599858760834, 0.10617595911026001, -0.13358323276042938, 0.03670455142855644, 0.01918485015630722, 0.058442648500204086, -0.04061248153448105, -0.1296117752790451, 0.02490123175084591, -0.11837618052959442, -0.060238443315029144, -0.02908233366906643, 0.19367125630378723, 0.10569383203983307, 0.15707947313785553, -0.27063077688217163, -0.07516568154096603, 0.03678174689412117, -0.03282223269343376, 0.11456522345542908, 0.11458670347929001, -0.12873797118663788, -0.14103326201438904, -0.0037341290153563023, 0.050415102392435074, -0.12872527539730072, 0.13387078046798706, 0.057195570319890976, -0.14737461507320404, 0.043725866824388504, 0.12315910309553146, -0.013495753519237041, -0.05743444338440895, -0.07069499045610428, -0.07274916023015976, 0.04031509533524513, 0.21278969943523407, 0.09899593144655228, 0.04860730469226837, -0.2741352617740631, -0.08706996589899063, 0.07237178087234497, -0.10202114284038544, -0.1040777713060379, -0.07842917740345001, -0.01778954453766346, 0.080740787088871, -0.07776039838790894, -0.18339689075946808, -0.14394192397594452, -0.012341471388936043, -0.27660781145095825, -0.13948161900043488, -0.03138452768325806, 0.11693945527076721, -0.07225081324577332, 0.07118000835180283, -0.011243302375078201, -0.001727475319057703, 0.2819335162639618, -0.1385195106267929, 0.1327754408121109, -0.18841981887817383, 0.029953785240650177, -0.13348019123077393, 0.23745307326316833, 0.03013645112514496, -0.2314918041229248, 0.2741822600364685, -0.11567504703998566, -0.24238507449626923, 0.15444552898406982, -0.08809531480073929, 0.09846121072769165, -0.31268155574798584, -0.09991684556007385, -0.022986112162470818, -0.11964204162359238, -0.027028517797589302, 0.2586153745651245, -0.2199021726846695, 0.08427559584379196, -0.09078353643417358, 0.25363239645957947, 0.05014022812247276, 0.25697454810142517, -0.12409571558237076, 0.17382818460464478, -0.13919171690940857, 0.09701059758663177, -0.03690989688038826, -0.04175950214266777, 0.20744936168193817, -0.058672867715358734, -0.2755339741706848, 0.05939332768321037, -0.09795434027910233, -0.1833997517824173, 0.28901436924934387, 0.098719522356987, -0.3003048300743103, 0.27234333753585815, -0.1278020292520523, 0.05571078136563301, -0.14948631823062897, 0.049014490097761154, -0.010198025964200497, -0.2560461759567261, -0.24286726117134094, -0.06105261668562889, 0.14963752031326294, 0.05366487428545952, 0.09702171385288239, -0.26783591508865356, 0.10601571202278137, 0.16213840246200562, -0.21205535531044006, 0.24126140773296356, 0.08459275960922241, -0.2762192487716675, -0.020169280469417572, -0.04986422881484032, 0.07925104349851608, 0.15839913487434387, -0.12350065261125565, -0.011612634174525738, -0.14532308280467987, 0.06820961087942123, 0.19284839928150177, 0.14889083802700043, 0.05823427438735962, -0.16070498526096344, -0.12371576577425003, -0.12725716829299927, 0.2418694794178009, 0.21333719789981842, 0.11276670545339584, -0.2673588693141937, 0.10742437094449997, -0.08473283052444458, -0.23985624313354492, 0.035676270723342896, 0.09026501327753067, -0.23287087678909302, 0.10943640023469925, 0.0362580381333828, -0.06371146440505981, 0.005370791535824537, -0.05715637281537056, -0.21763396263122559, 0.02841798961162567, -0.08352581411600113, 0.15927331149578094, -0.037758711725473404, 0.007072048261761665, -0.00618838332593441, 0.027779702097177505, -0.0199419055134058, -0.06943769007921219, -0.05284775421023369, 0.05771491304039955, -0.07412952929735184, -0.1306157261133194, 0.15587693452835083, -0.07889336347579956, -0.06765579432249069, 0.17592696845531464, 0.08337492495775223, 0.046397384256124496, -0.17031827569007874, 0.033028583973646164, -0.04068013280630112, 0.011340596713125706, -0.007662470452487469, 0.031684376299381256, -0.03808892145752907, 0.08004265278577805, -0.030164726078510284, 0.1503237932920456, 0.09338037669658661, -0.03914032131433487, 0.03290813788771629, -0.1290515512228012, -0.10787071287631989, 0.0845482349395752, 0.08439188450574875, 0.06287092715501785, -0.004452716093510389, 0.0353173092007637, 0.019994130358099937, -0.09962061792612076, 0.1441660076379776, -0.172902911901474, 0.04161667078733444, 0.011971731670200825, -0.13458168506622314, 0.04927489906549454, 0.15023010969161987, -0.02694818004965782, -0.10280781239271164, -0.04383362457156181, -0.10220497846603394, -0.024777362123131752, 0.11058354377746582, -0.06262066215276718, 0.030999431386590004, -0.09299372136592865, 0.030328169465065002, -0.008092621341347694, 0.2150595784187317, -0.07843831926584244, -0.1510886400938034, 0.22386811673641205, 0.08448440581560135, -0.07496550679206848, 0.09728024899959564, -0.04980374127626419, -0.04283205419778824, -0.1410585641860962, -0.06405604630708694, -0.17834477126598358, 0.12866495549678802, -0.06246579438447952, 0.09015992283821106, -0.13885433971881866, 0.06580036133527756, -0.15029925107955933, 0.05806826427578926, 0.12547549605369568, 0.11696033179759979, -0.05243159085512161, -0.05439102649688721, -0.04383556917309761, 0.15329331159591675, -0.0099710738286376, -0.1756722629070282, 0.23079903423786163, 0.005447333212941885, -0.11601246148347855, 0.1426951289176941, -0.11559956520795822, -0.006140983663499355, 0.07217008620500565, 0.0255944412201643, -0.16560098528862, 0.09223107248544693, -0.01579473353922367, -0.03775542229413986, -0.09383051097393036, 0.06128472462296486, -0.17210009694099426, 0.1456729918718338, 0.05955846980214119, 0.13497653603553772, -0.16137510538101196, -0.12960073351860046, -0.10585697740316391, 0.1838994324207306, -0.048377875238657, -0.020219162106513977, 0.24371948838233948, -0.0782371237874031, -0.07754910737276077, 0.1947251707315445, -0.0028738905675709248, 0.06983437389135361, -0.12927402555942535, -0.1736249029636383, -0.033946696668863297, 0.08527874201536179, 0.1255728006362915, 0.15599411725997925, -0.13016679883003235, 0.12336146831512451, -0.09763341397047043, 0.015916869044303894, -0.1398410052061081, 0.1988552361726761, -0.05635833367705345, -0.07494061440229416, 0.005311731249094009, 0.2664443552494049, 0.16481001675128937, 0.07232213020324707, 0.26372581720352173, -0.03516155481338501, -0.12826493382453918, 0.26337525248527527, 0.0885464996099472, -0.15701790153980255, 0.2788239121437073, 0.06298375129699707, -0.0056679025292396545, 0.03849724680185318, 0.02453608065843582, -0.042280133813619614, 0.0096417972818017, -0.048764508217573166, -0.07202313095331192, 0.04978249594569206, 0.1343175172805786, 0.10810405761003494, 0.06315755844116211, -0.1797243058681488, -0.12464886158704758, -0.09302540868520737, -0.2095777690410614, -0.26576149463653564, 0.13138096034526825, 0.011533518321812153, -0.011796737089753151, 0.1298113316297531, -0.06572900712490082, 0.043739404529333115, -0.046764131635427475, -0.15343254804611206, 0.06686501204967499, -0.050843097269535065, -0.0010738210985437036, 0.007593831513077021, -0.10162920504808426, 0.12345089018344879, 0.036165911704301834, 0.17721834778785706, 0.15910372138023376, 0.24642102420330048, -0.0847480297088623, 0.012440765276551247, 0.0021553742699325085, 0.09055831283330917, 0.09564460813999176, -0.0500694140791893, 0.13237881660461426, -0.12741433084011078, -0.08746501803398132, 0.024421069771051407, -0.09837424755096436, -0.2266765832901001, -0.059053611010313034, -0.1809886395931244, -0.05654837191104889, 0.11001918464899063, -0.025267992168664932, -0.025405172258615494, 0.03380996733903885, 0.17959831655025482, -0.09169289469718933, 0.06470225006341934, 0.12040380388498306, 0.24556103348731995, -0.20604346692562103, 0.1435222178697586, -0.07430696487426758, 0.029124509543180466, 0.0954522117972374, -0.26469147205352783, 0.07877199351787567, 0.13905932009220123, -0.1701004058122635, -0.009704596363008022, -0.05964027717709541, 0.1304876208305359, -0.12594866752624512, -0.000737598689738661, 0.11464397609233856, -0.024776849895715714, -0.10051526129245758, 0.18711042404174805, -0.027505889534950256, 0.13668619096279144, -0.23027350008487701, 0.10966511815786362, -0.13408797979354858, 0.09002544730901718, -0.05256924778223038, -0.08165378868579865, -0.11057110130786896, 0.23290468752384186, 0.030838027596473694, -0.2595776319503784, 0.054002199321985245, 0.03801534324884415, -0.2975104749202728, 0.16067537665367126, -0.11632507294416428, -0.31836095452308655, -0.03690207377076149, -0.009498385712504387, -0.07230211794376373, -0.045458972454071045, 0.11954347789287567, 0.01882033236324787, -0.011352410539984703, -0.05512532964348793, -0.1391422003507614, 0.17227309942245483, 0.19612626731395721, 0.14338241517543793, 0.005467298440635204, -0.21894463896751404, 0.11008825898170471, 0.06574472039937973, -0.05006440728902817, -0.114920973777771, 0.027585182338953018, -0.25925877690315247, -0.06388522684574127, 0.08889140188694, -0.02037115953862667, 0.03907110542058945, 0.008364477194845676, 0.08128898590803146, -0.13599418103694916, -0.13564953207969666, 0.07347019761800766, 0.06310015171766281, 0.07298675924539566, 0.03109983541071415, -0.01905382052063942, 0.0891086757183075, -0.04922264441847801, -0.12544357776641846, 0.0038547636941075325, -0.17315614223480225, 0.08404280990362167, -0.025302952155470848, -0.1540924310684204, -0.10387790948152542, 0.14994744956493378, -0.13884669542312622, 0.10909638553857803, 0.15701191127300262, -0.03341573104262352, 0.008926129899919033, 0.02587829902768135, -0.15003645420074463, 0.002737421775236726, 0.12296555191278458, -0.0736473947763443, 0.17254506051540375, 0.01162109337747097, -0.26325586438179016, -0.1268533170223236, 0.15523572266101837, 0.3022555410861969, -0.0824609324336052, 0.07335291802883148, -0.10168851912021637, 0.028970658779144287, 0.15090666711330414, -0.24038781225681305, 0.002616249956190586, 0.09829344600439072, -0.2088337540626526, 0.0011010161833837628, -0.008489351719617844, 0.2529492974281311, 0.0029539703391492367, -0.08648879081010818, -0.055795688182115555, 0.10990740358829498, 0.02619500271975994, 0.17385266721248627, 0.12582449615001678, -0.05756424739956856, -0.09217499196529388, -0.042328428477048874, 0.0961051806807518, 0.040397536009550095, -0.06545191258192062, -0.13500012457370758, -0.00954875536262989, -0.05437476933002472, 0.0596785768866539, -0.21765372157096863, 0.11959104984998703, 0.19306738674640656, -0.2772354483604431, -0.16704732179641724, -0.07489240169525146, -0.16057072579860687, -0.07387128472328186, -0.0519532710313797, -0.22440549731254578, -0.03296920657157898, -0.04818740114569664, 0.19983328878879547, 0.03930990397930145, -0.03160610422492027, 0.03842364251613617, 0.19413869082927704, -0.16496258974075317, -0.022272488102316856, -0.11433477699756622, 0.19501325488090515, -0.09804774820804596, -0.07225117832422256, 0.09917639195919037, -0.06383229047060013, 0.08622753620147705, -0.06774993240833282, 0.00025434038252569735, 0.029903650283813477, 0.043690912425518036, -0.016451720148324966, -0.1929774433374405, -0.030945388600230217, -0.014376905746757984, 0.13783186674118042, -0.06395949423313141, 0.10825996100902557, -0.08787938952445984, 0.029506660997867584, 0.0968349426984787, 0.10443496704101562, 0.056398678570985794, 0.05986235663294792, -0.09918686002492905, -0.04433358088135719, 0.004990041721612215, 0.16654612123966217, -0.10905908048152924, -0.11196871101856232, 0.11371223628520966, 0.08656986802816391, -0.009569242596626282, -0.060522302985191345, -0.18252146244049072, 0.060354605317115784, 0.044234342873096466, -0.12847492098808289, 0.0633549615740776, 0.12121590226888657, 0.06923658400774002, 0.09925545006990433, -0.05688580498099327, -0.08030951023101807, -0.10347478091716766, 0.06276695430278778, 0.11303261667490005, 0.0633082464337349, -0.03152666240930557, 0.05858098343014717, 0.12454941123723984, 0.030729107558727264, -0.05792123079299927, -0.05668553337454796, -0.19356608390808105, 0.21213006973266602, -0.06713161617517471, -0.1595515012741089, 0.14206045866012573, -0.06845957040786743, 0.007427575066685677, -0.08752226084470749, -0.1617589145898819, -0.21960638463497162, 0.03721155971288681, -0.06080933287739754, 0.14288444817066193, 0.04833092913031578, 0.08049576729536057, -0.04316570609807968, 0.163158118724823, 0.014024404808878899, 0.004318622872233391, 0.0604315847158432, 0.044978659600019455, -0.21297381818294525, 0.04374988377094269, -0.09427573531866074, 0.050462014973163605, 0.05228758603334427, -0.1362597793340683, -0.10438407212495804, 0.16654841601848602, 0.038093384355306625, -0.04290207847952843, 0.09185077250003815, 0.04412439092993736, -0.134282186627388, -2.2098822228144854e-05, -0.1236368864774704, -0.07586417347192764, 0.04914287477731705, -0.11160894483327866, 0.07346882671117783, -0.10528817772865295, -0.029763326048851013, -0.19983144104480743, 0.2920970618724823, -0.038831233978271484, 0.22715289890766144, -0.25379639863967896, 0.0021843058057129383, 0.18016432225704193, -0.21978046000003815, 0.15653793513774872, 0.0012581816408783197, -0.2683448791503906, -0.10118092596530914, -0.07293188571929932, 0.27708733081817627, -0.06482335180044174, 0.06938415765762329, 0.022003255784511566, -0.06967121362686157, 0.006259961985051632, 0.045005008578300476, 0.003969712182879448, 0.1894632875919342, -0.1623394787311554, 0.09013155847787857, -0.1248582974076271, 0.2692362070083618, -0.11437688022851944, 0.06335951387882233, -0.19052356481552124, 0.06993801146745682, 0.13977016508579254, -0.04827849194407463, 0.023097271099686623, 0.10221979022026062, -0.05129634961485863, -0.0036225791554898024, 0.22534102201461792, -0.257559597492218, 0.018389936536550522, 0.09311119467020035, -0.07547961175441742, 0.06994231045246124, -0.10567902028560638, -0.11294526606798172, 0.005378544796258211, 0.025097424164414406, 0.10585572570562363, 0.0012026092736050487, 0.10511518269777298, 0.09002897888422012, -0.08497071266174316, -0.15651433169841766, 0.14039990305900574, -0.19166605174541473, 0.0254368893802166, 0.07183090597391129, -0.15976044535636902, 0.03423825278878212, -0.08679433912038803, 0.10598650574684143, -0.09062850475311279, -0.0709247887134552, -0.005777786485850811, 0.10781212896108627, -0.06085836887359619, 0.175986647605896, -0.011125854216516018, -0.12129678577184677, -0.15950907766819, -0.11230775713920593, 0.1897394061088562, 0.04086707904934883, 0.007891489192843437, -0.018821334466338158, 0.03142556548118591, 0.13045734167099, 0.17603714764118195, -0.16802635788917542, -0.010872277431190014, -0.018778355792164803, -0.17292188107967377, 0.021406264975667, 0.1828027367591858, -0.19661855697631836, 0.08342518657445908, -0.02268766239285469, -0.12212588638067245, 0.09136871248483658, 0.008286148309707642, 0.03959226608276367, -0.10339805483818054, 0.07567207515239716, 0.04404918849468231, -0.028569547459483147, 0.009887847118079662, -0.1635277420282364, -0.18200615048408508, 0.06656718254089355, 0.17447054386138916, 0.023541202768683434, 0.010772652924060822, 0.1797424703836441, 0.15681280195713043, -0.14198213815689087, 0.03641399368643761, 0.012301106937229633, -0.1772318184375763, -0.05822460353374481, 0.04813302680850029, 0.17920096218585968, 0.07724813371896744, 0.046722911298274994, -0.034500397741794586, 0.05476796254515648, -0.11810027062892914, -0.031235961243510246, 0.04525437951087952, 0.10721081495285034, -0.20010586082935333, 0.09664849936962128, 0.019133033230900764, -0.020002027973532677, 0.007836506702005863, 0.16164343059062958, -0.19349560141563416, 0.008012494072318077, 0.09907593578100204, -0.19361512362957, 0.13766641914844513, 0.13911975920200348, 0.02746019884943962, -0.03968638554215431, 0.19949649274349213, -0.15489953756332397, 0.2025742530822754, -0.07363216578960419, -0.18421804904937744, 0.0043101259507238865, -0.06966720521450043, -0.04198351502418518, -0.08220072090625763, -0.14531774818897247, -0.06068130210042, -0.10715015977621078, 0.031223870813846588, 0.06177602708339691, -0.011648123152554035, 0.009122935123741627, 0.07487282156944275, 0.1270594447851181, -0.08029355108737946, 0.008987936191260815, -0.0761089101433754, -0.022203952074050903, -0.06666653603315353, -0.0004001700726803392, 0.4493786096572876, -0.4032747745513916, 0.6126201748847961, -0.5636991262435913, -0.039229586720466614, 0.7279375791549683, 0.8555790781974792, -0.5727152228355408, 0.09431886672973633, 0.05445125326514244, -0.49037042260169983, -0.2970566749572754, 0.19905175268650055, -0.5521054267883301, 0.1260005086660385, 0.48501962423324585, -0.07050471007823944, 0.2458958625793457, -0.07061497122049332, 0.11801374703645706, 0.1087353304028511, -0.19138678908348083, 0.06674268841743469, -0.019854625687003136, -0.08777710050344467, -0.07462506741285324, 0.07884036749601364, -0.0004961517406627536, 0.04229661077260971, 0.053458135575056076, 0.178264781832695, -0.09482882916927338, -0.026476755738258362, -0.15869173407554626, -0.2114696204662323, 0.04590451344847679, 0.03502336144447327, -0.024331489577889442, -0.08516138046979904, 0.1015746220946312, 0.029764071106910706, 0.20204345881938934, -0.09839949011802673, 0.008147005923092365, 0.06176317483186722, -0.11422254145145416, 0.007968127727508545, 0.14332452416419983, 0.1561547964811325, 0.11033084988594055, 0.09761182218790054, 0.19256173074245453, -0.22203893959522247, -0.07273434847593307, 0.13353614509105682, -0.22484350204467773, -0.0015409751795232296, -0.14604796469211578, 0.19441290199756622, -0.25557711720466614, 0.20663483440876007, 0.18641699850559235, 0.10337832570075989, 0.13844610750675201, 0.26902157068252563, -0.31922465562820435, -0.11888152360916138, -0.12259671092033386, 0.014730229042470455, 0.13392150402069092, -0.117735356092453, -0.145406574010849, -0.17564526200294495, -0.0381166972219944, -0.2791379690170288, -0.026805266737937927, 0.012565563432872295, 0.22204698622226715, -0.36435967683792114, 0.08639039099216461, -0.18172365427017212, -0.3280743956565857, -0.11594924330711365, 0.08402294665575027, 0.1847231239080429, 0.2878473401069641, 0.20211189985275269, -0.10307449102401733, 0.1793193817138672, 0.3701719343662262, -0.2042403370141983, 0.11807296425104141, 0.01118277758359909, 0.020549293607473373, -0.11403588205575943, 0.022443825379014015, -0.25523480772972107, -0.014043045230209827, 0.17253431677818298, 0.028898796066641808, 0.12004676461219788, 0.22992029786109924, 0.2708330452442169, 0.14977404475212097, 0.2499508410692215, 0.007701801601797342, -0.1973273754119873, -0.09439288824796677, 8.147080370690674e-05, -0.20396874845027924, 0.0829688161611557, 0.04188207536935806, 0.1878499835729599, 0.042924974113702774, 0.26088547706604004, 0.21334604918956757, -0.22936300933361053, -0.19159406423568726, 0.04000820964574814, -0.10398006439208984, 0.09716840833425522, -0.35228705406188965, -0.39667701721191406, 0.17205391824245453, 0.1576201468706131, -0.18996921181678772, -0.023667141795158386, 0.008436797186732292, 0.14084693789482117, 0.1770927459001541, 0.30491361021995544, -0.26515865325927734, -0.17912106215953827, 0.1278597116470337, 0.32613605260849, 0.1852535456418991, 0.1597214788198471, -0.13290885090827942, 0.3006521463394165, -0.19986742734909058, 0.14928634464740753, -0.164296492934227, 0.003133991966024041, -0.06374839693307877, -0.046357594430446625, 0.007930711843073368, -0.19873565435409546, -0.18114814162254333, 0.08962996304035187, -0.08160646259784698, -0.1558162122964859, 0.005540753249078989, -0.22536490857601166, -0.24995651841163635, 0.19580461084842682, 0.09529463201761246, 0.04130210354924202, -0.12609770894050598, 0.15418194234371185, -0.00128898152615875, -0.29510051012039185, 0.034130267798900604, 0.16900712251663208, -0.25605303049087524, -0.06972506642341614, -0.00397522235289216, 0.18414421379566193, -0.055443283170461655, 0.07880555838346481, 0.19959567487239838, 0.09245650470256805, 0.04008784890174866, 0.1645641177892685, 0.16685746610164642, -0.13811509311199188, -0.12576107680797577, 0.16377364099025726, 0.20530837774276733, -0.25036534667015076, 0.16785749793052673, -0.10038669407367706, -0.17900756001472473, 0.027514727786183357, -0.12645742297172546, 0.010422538965940475, -0.19841481745243073, -0.19215096533298492, -0.057156533002853394, -0.07794134318828583, 0.16053804755210876, 0.015183343552052975, 0.21761620044708252, -0.027451850473880768, -0.15328393876552582, 0.1861533522605896, 0.01656579226255417, -0.007789510302245617, -0.022423390299081802, -0.03219335153698921, 0.051864590495824814, 0.05138246342539787, -0.20733851194381714, -0.05436188727617264, -0.2569967806339264, -0.1023646742105484, 0.10980049520730972, -0.25932565331459045, -0.20197661221027374, -0.03519650548696518, 0.0004890217096544802, 0.18173043429851532, 0.09147242456674576, -0.013515469618141651, -0.08166061341762543, 0.04256908595561981, 0.1863361895084381, 0.22898149490356445, -0.048708148300647736, -0.06225880980491638, 0.009169098921120167, 0.20769689977169037, -0.2003895342350006, -0.08508212864398956, 0.026641881093382835, 0.060224976390600204, -0.26869118213653564, -0.08571641892194748, 0.17316247522830963, -0.12858809530735016, 0.22122937440872192, 0.18544712662696838, -0.021076256409287453, -0.034573767334222794, -0.13875895738601685, -0.018992623314261436, 0.036536622792482376, -0.13771386444568634, -0.04160705581307411, -0.19356679916381836, 0.11395302414894104, -0.019752100110054016, 0.24782893061637878, -0.015416426584124565, -0.13370735943317413, -0.008630502037703991, 0.03799240291118622, 0.2083646059036255, 0.054651856422424316, -0.23077628016471863, 0.15435762703418732, -0.01982242986559868, -0.08859838545322418, 0.20052853226661682, 0.15751925110816956, -0.12311295419931412, 0.13925102353096008, 0.18326319754123688, 0.01258324459195137, 0.24192573130130768, -0.12796281278133392, -0.06421003490686417, 0.25432753562927246, 0.12635429203510284, 0.15279024839401245, -0.04908863455057144, -0.07777489721775055, -0.09178584814071655, -0.2233157902956009, 0.10182741284370422, 0.1178300678730011, 0.028928153216838837, 0.03728571534156799, 0.10411683470010757, -0.09062518179416656, 0.1698462814092636, -0.1266273856163025, -0.1305508017539978, -0.04761103168129921, 0.10760520398616791, -0.014600309543311596, 0.046411965042352676, -0.12742029130458832, 0.07955553382635117, 0.013482118956744671, 0.013022290542721748, 0.13040223717689514, 0.0770999863743782, 0.0032496610656380653, 0.027087807655334473, 0.040237005800008774, 0.04763886332511902, 0.1576363444328308, -0.16605909168720245, 0.07848844677209854, -0.23775003850460052, -0.008610287681221962, 0.1986779272556305, -0.33894097805023193, -0.05283672362565994, 0.13950181007385254, -0.16551293432712555, -0.1960943341255188, 0.12400361895561218, 0.42848119139671326, -0.12171179056167603, -0.16741423308849335, -0.18518950045108795, -0.19563108682632446, 0.230538472533226, 0.33856111764907837, -0.08090031147003174, -0.372701495885849, -0.20957313477993011, 0.12688152492046356, 0.09441112726926804, 0.09698563069105148, 0.13872723281383514, -0.1769002377986908, -0.4354824721813202, -0.06567858159542084, 0.20278400182724, -0.49408888816833496, -0.11722107231616974, 0.09855353087186813, -0.3623335361480713, 0.1375952810049057, 0.0869874507188797, -0.32809847593307495, -0.008204478770494461, -0.04123488441109657, -0.04845493659377098, 0.12692086398601532, -0.05069439858198166, 0.3720417618751526, -0.033092159777879715, -0.24324731528759003, 0.0142727792263031, 0.01697300560772419, 0.10754891484975815, -0.11351463198661804, 0.006804712116718292, 0.10330662876367569, -0.12381621450185776, -0.052094463258981705, 0.1800178587436676, -0.18329444527626038, 0.045532505959272385, -0.007132095750421286, 0.07801894098520279, -0.13484850525856018, 0.1364007443189621, -0.0696563795208931, -0.17357929050922394, -0.11811050772666931, 0.12139371782541275, -0.10266167670488358, 0.08375288546085358, 0.20771586894989014, -0.05646277964115143, -0.08689012378454208, -0.18941988050937653, -0.022020608186721802, -0.007835280150175095, 0.1579357087612152, 0.06051015853881836, -0.17479409277439117, -0.020232966169714928, 0.04936828464269638, 0.10429543256759644, -0.18652291595935822, -0.04446025937795639, 0.17520520091056824, -0.246780127286911, -0.10022184997797012, 0.06918125599622726, -0.06987614184617996, 0.02640504203736782, 0.05901298671960831, 0.006399102509021759, -0.1251332312822342, -0.0868048369884491, 0.036776695400476456, 0.13132667541503906, -0.18782761693000793, -0.1446889489889145, -0.14924092590808868, -0.12893737852573395, 0.18793362379074097, 0.11241459101438522, -0.07762784510850906, -0.06339193135499954, -0.018036073073744774, 0.056405629962682724, 0.18544571101665497, -0.04767758399248123, -0.018529323861002922, 0.1612507700920105, -0.051586370915174484, 0.0962875708937645, -0.08484088629484177, 0.21532315015792847, 0.07865216583013535, 0.16080255806446075, -0.17474307119846344, -0.0070825847797095776, -0.12665361166000366, 0.06472387164831161, 0.0958324521780014, 0.013727840967476368, -0.14786289632320404, -0.011204207316040993, -0.11457061022520065, 0.16519856452941895, -0.13478565216064453, -0.06164126098155975, -0.26625511050224304, 0.14226101338863373, 0.16848938167095184, -0.12683671712875366, 0.1741185486316681, 0.07581936568021774, 0.04282551631331444, 0.06312316656112671, 0.03272904083132744, -0.07193085551261902, 0.11257573217153549, -0.1450006365776062, 0.08255056291818619, 0.017459135502576828, -0.14172419905662537, 0.18712171912193298, 0.08335356414318085, -0.14546751976013184, -0.1798890382051468, -0.12375281751155853, -0.07674795389175415, 0.08624444901943207, 0.12609687447547913, 0.08218277245759964, -0.2303360402584076, -0.22240746021270752, 0.19217903912067413, 0.02102993242442608, -0.13667592406272888, 0.02191758342087269, -0.06540051102638245, -0.06632039695978165, -0.15992896258831024, 0.2662707567214966, 0.04851064458489418, 0.083114854991436, 0.10357905179262161, 0.04366452246904373, -0.25666412711143494, 0.1944882720708847, 0.13092903792858124, 0.16933561861515045, -0.2747059464454651, -0.010348105803132057, 0.06019536033272743, -0.04376279190182686, 0.06841429322957993, 0.19732652604579926, -0.24669359624385834, -0.05023471266031265, 0.21197250485420227, -0.019967807456851006, 0.1775268167257309, 0.18057039380073547, 0.05004109814763069, -0.11587664484977722, 0.18294475972652435, -0.20654262602329254, -0.14172343909740448, -0.13642388582229614, -0.04020749405026436, 0.09603267163038254, -0.060649752616882324, 0.1505032330751419, 0.10475082695484161, -0.1038377583026886, -0.057966794818639755, -0.03453884273767471, 0.05123865604400635, 0.0655999481678009, -0.08187089115381241, -0.0677938237786293, 0.057548049837350845, -0.012881208211183548, -0.09930229932069778, 0.0183197520673275, 0.14177557826042175, -0.038966819643974304, -0.047688473016023636, -0.15330466628074646, -0.10058131814002991, 0.17310015857219696, -0.1527421921491623, 0.07567177712917328, -0.15011298656463623, -0.02706652693450451, 0.00973671954125166, 0.20077930390834808, 0.05524706840515137, 0.14093296229839325, 0.005996376741677523, 0.08066409081220627, -0.12085703015327454, -0.04939718917012215, -0.00844570528715849, 0.14015978574752808, -0.1312410682439804, 0.05502849444746971, -0.07361844182014465, 0.005328560248017311, 0.2074619084596634, -0.15644164383411407, -0.15339557826519012, 0.20636685192584991, 0.07934337854385376, -0.03333183377981186, 0.12195049226284027, 0.031162135303020477, -0.02346809208393097, -0.11548696458339691, 0.0904795229434967, 0.05304275080561638, -0.1621141880750656, -0.16597069799900055, -0.01650428958237171, 0.039846546947956085, -0.08912625163793564, 0.1362873762845993, 0.04187963157892227, 0.0063820164650678635, 0.001434153993614018, -0.06423691660165787, 0.04942133650183678, 0.1387115865945816, -0.06300105899572372, 0.0005873307236470282, 0.10680702328681946, 0.000497835164424032, 0.08950819820165634, -0.17102259397506714, 0.1512371450662613, 0.2869030237197876, -0.1792740374803543, -0.24783045053482056, 0.07625323534011841, -0.21270348131656647, 0.3102346360683441, 0.04523325711488724, 0.21133556962013245, -0.17657054960727692, 0.08672095835208893, -0.1279463917016983, 0.06201378256082535, 0.13864260911941528, 0.15256454050540924, -0.10892479866743088, 0.20642268657684326, -0.06842833012342453, -0.08530940860509872, 0.16877637803554535, 0.09538937360048294, -0.11541974544525146, -0.02750192955136299, -0.11655660718679428, -0.03399110585451126, -0.21339121460914612, 0.08535187691450119, -0.04465384781360626, -0.024934526532888412, -0.06743808835744858, 0.2126821130514145, 0.019250763580203056, 0.057775914669036865, -0.13080547749996185, 0.1050616055727005, 0.14447882771492004, 0.019925156608223915, -0.12640435993671417, -0.11037690937519073, 0.19831663370132446, 0.07985121756792068, -0.06552813202142715, 0.061593178659677505, -0.06054893136024475, 0.03845329210162163, 0.027045968919992447, 0.22799241542816162, 0.1317405104637146, 0.026532938703894615, 0.21090537309646606, -0.05307229235768318, 0.37689661979675293, 0.06080334261059761, 0.1685124784708023, -0.1255737543106079, -0.053127121180295944, -0.10887685418128967, -0.0725250318646431, 0.09461112320423126, 0.12565836310386658, -0.04888765141367912, 0.018622443079948425, -0.13965322077274323, 0.20523448288440704, -0.1380992978811264, 0.03288991376757622, 0.09394282102584839, -0.1692686825990677, 0.08529578894376755, 0.20179271697998047, -0.08490651100873947, 0.01957923173904419, -0.09240371733903885, -0.04507063701748848, -0.010644898749887943, -0.15102314949035645, 0.004523325711488724, 0.009789451025426388, -0.11606020480394363, -0.1749599277973175, -0.005965080577880144, 0.09764441102743149, 0.14209029078483582, 0.02028423175215721, -0.046417027711868286, -0.1445380300283432, 0.026241669431328773, 0.15473651885986328, -0.09072460979223251, -0.0797496810555458, -0.025084538385272026, 0.013288740999996662, -0.17427238821983337, -0.16158485412597656, 0.20622090995311737, -0.12395963072776794, -0.13232627511024475, 0.06594616174697876, -0.03890388458967209, 0.0885811448097229, 0.09850887954235077, -0.07718266546726227, -0.0996786504983902, -0.029034407809376717, -0.07571657001972198, 0.22213946282863617, 0.1425342857837677, 0.10324827581644058, -0.06752341240644455, 0.05098796635866165, -0.07161008566617966, 0.08195928484201431, -0.06520846486091614, -0.05518199875950813, 0.09036291390657425, -0.14965547621250153, -0.08388596028089523, -0.005774480756372213, -0.14228928089141846, -0.004239304456859827, -0.06461634486913681, 0.07121364772319794, 0.018386894837021828, 0.06282283365726471, -0.03344298154115677, -0.044852010905742645, -0.07372873276472092, 0.20088936388492584, 0.10125380009412766, -0.07534091174602509, -0.19034762680530548, -0.17281481623649597, -0.1092250719666481, 0.11212712526321411, -0.01620933599770069, 0.05270341783761978, 0.15194356441497803, -0.014998912811279297, -0.13843683898448944, 0.09031883627176285, 0.08335943520069122, 0.007690196856856346, -0.19631990790367126, 0.15775533020496368, 0.017658131197094917, -0.008176661096513271, 0.0543275885283947, -0.015270854346454144, -0.22909200191497803, -0.04742138087749481, 0.12293996661901474, 0.06522452086210251, -0.17478260397911072, 0.12287560850381851, -0.05878515914082527, 0.10254783183336258, -0.11592131108045578, 0.1071900874376297, -0.11157555133104324, -0.12528221309185028, 0.06956109404563904, 0.0016330332728102803, 0.11639339476823807, 0.08166772127151489, 0.15564961731433868, 0.014021588489413261, 0.03486727923154831, -0.05887223780155182, -0.1356649547815323, -0.08253749459981918, -0.1473943144083023, -0.04598541185259819, -0.11149056255817413, -0.010353675112128258, -0.10779114812612534, 0.12010964006185532, 0.12747430801391602, 0.07670895755290985, -0.07282521575689316, 0.08747024089097977, 0.05662684142589569, -0.05823320150375366, -0.007711533457040787, -0.03195274621248245, -0.046869296580553055, 0.11309229582548141, -0.11053846031427383, 0.1185937449336052, 0.02085728943347931, -0.017081167548894882, -0.10897427797317505, -0.02141631208360195, 0.16362354159355164, 0.07845767587423325, -0.04936029389500618, -0.0489811971783638, -0.11157260090112686, 0.05826012045145035, 0.23143260180950165, -0.022949548438191414, 0.08303319662809372, -0.07629329711198807, -0.1565704345703125, -0.1223796010017395, 0.08360548317432404, -0.0487789586186409, 0.011063667945563793, -0.00523784477263689, 0.018180107697844505, -0.0937187522649765, -0.08660479635000229, -0.037567950785160065, -0.15303584933280945, -0.17467671632766724, -0.094792440533638, 0.02988692745566368, -0.027969736605882645, -0.09392566233873367, -0.11455045640468597, 0.20127680897712708, -0.11059202253818512, -0.007932222448289394, -0.03565178066492081, -0.005616370588541031, 0.11446557193994522, -0.06883733719587326, -0.1676119565963745, 0.0635814443230629, -0.1462779939174652, -0.022196996957063675, 0.07089073210954666, 0.18468740582466125, -0.21770189702510834, 0.02490820176899433, 0.05527598410844803, -0.09091160446405411, 0.01751248724758625, -0.09393222630023956, 0.18956613540649414, -0.024373065680265427, -0.044089529663324356, -0.18692414462566376, 0.11211411654949188, 0.16789747774600983, 0.09919208288192749, -0.028064671903848648, -0.01701987348496914, -0.08070281893014908, 0.0524657741189003, 0.16485029458999634, 0.04675975814461708, -0.19723205268383026, -0.0795266404747963, -0.051726263016462326, 0.04137435182929039, -0.017285654321312904, -0.05940430611371994, 0.07335708290338516, -0.03360794857144356, -0.020497774705290794, 0.00820967648178339, 0.1077452152967453, -0.0342181995511055, -0.03585631772875786, 0.07779347151517868, 0.14696544408798218, 0.0566728413105011, 0.023031996563076973, 0.11666235327720642, -0.16541317105293274, 0.026723744347691536, 0.17259837687015533, -0.09327472746372223, -0.17647390067577362, -0.12728869915008545, -0.06733204424381256, -0.19841976463794708, -0.03321804478764534, 0.17789140343666077, 0.13543373346328735, 0.033270806074142456, 0.09668558835983276, -0.009570397436618805, -0.04574053734540939, 0.042681384831666946, -0.07185433059930801, -0.08278033882379532, 0.08154907077550888, 0.08413625508546829, -0.18488286435604095, -0.02329125814139843, 0.1404530107975006, 0.10358255356550217, 0.09332393109798431, 0.09218849241733551, 0.24300822615623474, -0.1215239018201828, -0.17156215012073517, -0.16017833352088928, 0.04508984833955765, -0.02038802206516266, -0.05454418435692787, 0.07683418691158295, -0.10757143795490265, -0.16220661997795105, 0.07847234606742859, -0.0320470966398716, -0.05042126774787903, -0.03530484810471535, 0.12506364285945892, 0.11796946078538895, 0.04750615730881691, -0.07868602126836777, 0.17796972393989563, 0.02240847237408161, -0.10173440724611282, -0.13813242316246033, 0.010856535285711288, 0.14933420717716217, -0.11236564815044403, 0.11927318572998047, 0.03186937794089317, 0.08714987337589264, 0.06760144233703613, -0.06205028295516968, 0.1482515037059784, 0.12943191826343536, -0.09622597694396973, 0.026531919836997986, 0.11006653308868408, -0.08563239872455597, 0.1654542088508606, 0.01268078200519085, -0.0816163718700409, -0.057346925139427185, -0.2040581852197647, 0.1879826933145523, 0.04293216019868851, -0.09304344654083252, -0.16480858623981476, -0.11598259210586548, -0.1978105753660202, 0.11632318049669266, -0.20646294951438904, 0.08426099270582199, 0.011096878908574581, -0.011368720792233944, -0.022086523473262787, -0.0690835639834404, 0.10489928722381592, 0.19873832166194916, -0.05190873518586159, 0.13660922646522522, -0.10778079926967621, -0.08965536206960678, 0.13802701234817505, -0.055301107466220856, -0.013470020145177841, -0.04144692048430443, -0.02890082821249962, -0.18147246539592743, 0.0014130115741863847, -0.0968882292509079, 0.08001924306154251, 0.10559573024511337, 0.05996738746762276, 0.10789593309164047, -0.042772844433784485, -0.14364135265350342, -0.1290024220943451, 0.07297219336032867, 0.04307299852371216, 0.12897507846355438, 0.04066164046525955, -0.2368985265493393, 0.09414193779230118, -0.04310227558016777, -0.1364782750606537, 0.07525795698165894, -0.03262455016374588, -0.034841060638427734, 0.21086059510707855, -0.1516500860452652, 0.22221483290195465, -0.14069484174251556, -0.06467088311910629, 0.008318578824400902, 0.3138924241065979, 0.07780516892671585, 0.23345938324928284, -0.06841833144426346, 0.13848882913589478, -0.1625722348690033, 0.10435129702091217, 0.07599913328886032, 0.04135815054178238, 0.1081254854798317, 0.03114459104835987, -0.20129096508026123, 0.013330280780792236, -0.03703637421131134, -0.03785257786512375, 0.010705780237913132, -0.2543896436691284, -0.02561928518116474, 0.0221664160490036, 0.07845064252614975, 0.040336113423109055, -0.05973690375685692, -0.04111073911190033, -0.027991237118840218, -0.2410476803779602, -0.09319040924310684, 0.058067526668310165, 0.03961605206131935, -0.15804225206375122, 0.08146579563617706, -0.012881605885922909, -0.007551823277026415, 0.05392274633049965, -0.11595273017883301, -0.1073392778635025, -0.017277881503105164, -0.08282974362373352, 0.02974121831357479, -0.08845619857311249, -0.010173697024583817, 0.03610625118017197, 0.07652141898870468, 0.007907780818641186, 0.0611286535859108, -0.021163661032915115, -0.06438369303941727, 0.10971105843782425, -0.06447169184684753, -0.0044224984012544155, -0.061927419155836105, 0.031409572809934616, -0.076071597635746, -0.026133250445127487, -0.1907673180103302, -0.09844685345888138, -0.1269342601299286, -0.03908989205956459, 0.13047735393047333, 0.04639039933681488, -0.004184060264378786, 0.05924920737743378, 0.2045450508594513, 0.05744072049856186, -0.0032532422337681055, 0.08964225649833679, 0.07665834575891495, -0.03636700659990311, -0.030963214114308357, -0.08366859704256058, -0.08671392500400543, -0.2857978045940399, 0.01739920675754547, -0.14736410975456238, 0.09297755360603333, 0.006722484715282917, -0.0002601774176582694, -0.04591793939471245, 0.06067940592765808, -0.054811228066682816, 0.0246701892465353, 0.06744591146707535, 0.07022412121295929, 0.058984093368053436, 0.048978015780448914, 0.026884783059358597, 0.08650051057338715, 0.10822240263223648, -0.164987713098526, -0.06339691579341888, 0.08187273889780045, 0.05000373348593712, -0.12465980648994446, -0.10324254631996155, 0.09996963292360306, -0.028775859624147415, 0.11321009695529938, -0.29872065782546997, 0.020467707887291908, -0.13569533824920654, -0.007053243927657604, -0.06252308934926987, -0.1268979161977768, -0.10228487104177475, -0.1094912514090538, 0.09816079586744308, 0.18721799552440643, 0.017879851162433624, 0.07815788686275482, -0.2195175737142563, -0.026360973715782166, 0.004726142156869173, -0.08530493825674057, -0.027117552235722542, -0.06302101165056229, -0.025764431804418564, 0.02624465338885784, 0.1271398961544037, -0.16274945437908173, -0.03504299744963646, -0.1413259506225586, 0.09194908291101456, -0.03621332719922066, 0.1626875251531601, 0.20925189554691315, 0.08622895181179047, 0.05375318601727486, -0.03349236398935318, 0.09911332279443741, -0.04231260344386101, 0.08938955515623093, 0.1365547478199005, 0.18048179149627686, -0.037555329501628876, -0.06550226360559464, 0.03964827209711075, 0.07271967083215714, 0.05522213876247406, 0.05735397711396217, 0.040777456015348434, -0.1018335223197937, -0.6508686542510986, 0.19637015461921692, 0.31676867604255676, -0.4057669937610626, 0.09548221528530121, -0.624802827835083, -0.2767035663127899, -0.4279038608074188, 0.9464077353477478, -0.9236640930175781, -0.7427446842193604, -0.9616879224777222, 0.20757628977298737, -0.7317845821380615, 0.2804238498210907, -0.6409211158752441, -0.28739646077156067, -0.17214737832546234, 0.26872071623802185, 0.4841882586479187, 0.3374632000923157, -0.16366663575172424, -0.06468268483877182, -0.03459277004003525, 0.11839969456195831, -0.10789680480957031, 0.05066816508769989, 0.26076892018318176, -0.14268413186073303, 0.28181394934654236, 0.03104472905397415, -0.11539619415998459, 0.12925520539283752, -0.10951074957847595, -0.044639866799116135, 0.0003179442719556391, -0.26923733949661255, 0.14801381528377533, -0.016794102266430855, -0.15948233008384705, 0.1344294548034668, -0.18084751069545746, 0.13076528906822205, 0.2304215431213379, 0.02338355965912342, 0.005825540982186794, 0.05821975693106651, 0.15196731686592102, -0.31706729531288147, -0.25235220789909363, 0.09148164093494415, 0.42627352476119995, 0.0585680715739727, 0.13279810547828674, -0.14238078892230988, -0.03250155225396156, 0.270620197057724, 0.06908410787582397, -0.26654279232025146, -0.26570186018943787, 0.22961339354515076, -0.05913841351866722, 0.23079712688922882, -0.005551948677748442, 0.295784592628479, 0.10246030986309052, -0.229584202170372, -0.3241424560546875, -0.08109681308269501, -0.02477625571191311, -0.03872773051261902, -0.003970299381762743, -0.17730297148227692, 0.03168363869190216, 0.13195212185382843, 0.2404157817363739, 0.08617942780256271, -0.11069240421056747, -0.0021071198862046003, 0.013953998684883118, 0.28783294558525085, 0.03755491226911545, -0.1660931557416916, -0.15221695601940155, 0.11588714271783829, 0.0476236455142498, -0.04486007243394852, 0.2890321612358093, -0.037955768406391144, -0.11528374254703522, -0.11249411106109619, 0.2081262469291687, -0.07549361139535904, -0.1258920580148697, -0.20031432807445526, -0.25104954838752747, -0.2446843832731247, -0.06554140150547028, -0.31835007667541504, -0.10672447085380554, 0.041258785873651505, -0.16739049553871155, -0.032866064459085464, -0.08651190996170044, 0.08271242678165436, 0.1874443143606186, 0.01177278533577919, -0.08037720620632172, -0.10987797379493713, -0.17322009801864624, -0.007291038054972887, -0.004252587910741568, -0.17066887021064758, -0.27107805013656616, 0.08751824498176575, -0.11620302498340607, -0.009683307260274887, 0.3532734811306, -0.4162192642688751, -0.32498425245285034, 0.3274819552898407, 0.14054477214813232, -0.12230666726827621, 0.1529652178287506, 0.27444055676460266, -0.23887960612773895, -0.09968797862529755, 0.36302149295806885, 0.0920153558254242, 0.1009407788515091, 0.005070025566965342, 0.10839036852121353, 0.1385023593902588, -0.17793864011764526, -0.028734061866998672, 0.10283686220645905, -0.0774349495768547, 0.2200334370136261, -0.2551586329936981, 0.02394019439816475, -0.1846708506345749, 0.13283337652683258, 0.07903766632080078, 0.022578850388526917, 0.013536299578845501, 0.07870525866746902, -0.04870839789509773, -0.02332049235701561, -0.040489036589860916, -0.1925451159477234, 0.06646907329559326, -0.09556911885738373, 0.009986401535570621, 0.05415066331624985, 0.2201443761587143, -0.009885137900710106, -0.16656973958015442, 0.21396423876285553, -0.0897093415260315, 0.23386099934577942, -0.2527240216732025, -0.0459052249789238, -0.0992928147315979, 0.14045076072216034, -0.04199761152267456, -0.059541214257478714, 0.03659510985016823, -0.10641194134950638, 0.20405620336532593, 0.12603336572647095, 0.1679009199142456, 0.3102460503578186, 0.3156554102897644, -0.04913325980305672, 0.06076805293560028, -0.0238521508872509, -0.11671270430088043, -0.15061309933662415, -0.006632140837609768, 0.20569618046283722, 0.12468221038579941, -0.1826494187116623, -0.010598580352962017, -0.031187638640403748, 0.23738904297351837, 0.22438004612922668, -0.1975400298833847, 0.10879859328269958, 0.021855171769857407, 0.07893859595060349, 0.04203546419739723, 0.08631200343370438, 0.3378458321094513, 0.2944950759410858, -0.21433794498443604, -0.23810918629169464, -0.042737435549497604, -0.052211031317710876, 0.1873975247144699, 0.26348498463630676, -0.46923142671585083, 0.12167488783597946, 0.2799171805381775, -0.039863113313913345, -0.05262055620551109, 0.019086187705397606, 0.040847036987543106, -0.08193910866975784, -0.24945425987243652, -0.35780590772628784, -0.1715492606163025, 0.32083913683891296, -0.07849707454442978, 0.14519110321998596, -0.215370774269104, 0.009314225986599922, 0.060554470866918564, 0.08072852343320847, -0.2112257182598114, -0.1943962275981903, 0.41245460510253906, -0.3157326281070709, 0.0879191905260086, 0.17924515902996063, 0.16751529276371002, 0.05387914925813675, -0.09692467004060745, 0.21693964302539825, -0.11860211193561554, -0.0013966388069093227, 0.037720873951911926, -0.010883795097470284, 0.1539248824119568, 0.14054323732852936, 0.04355072230100632, -0.056451670825481415, 0.07572803646326065, 0.14066480100154877, 0.07144305855035782, -0.07467833161354065, -0.0654841884970665, 0.23426426947116852, 0.12216701358556747, 0.04517588019371033, -0.06961263716220856, -0.21805055439472198, 0.20324623584747314, 0.035623699426651, 0.027556192129850388, -0.03184930235147476, -0.2086084634065628, -0.02580341137945652, -0.1959773600101471, 0.21129630506038666, 0.1342165321111679, -0.016006307676434517, 0.2210807502269745, -0.1237465888261795, -0.10249393433332443, -0.08670330047607422, -0.19115205109119415, -0.022261854261159897, -0.14795464277267456, 0.12981444597244263, 0.20325109362602234, -0.2700338065624237, 0.1677664816379547, 0.06847195327281952, -0.2096056342124939, 0.24986903369426727, -0.23532576858997345, -0.2413845807313919, -0.05826224759221077, 0.010090913623571396, -0.0041574533097445965, -0.05171612650156021, -0.11465352028608322, 0.001708771800622344, 0.09242739528417587, 0.11605072021484375, 0.09534600377082825, 0.048431798815727234, 0.05160780996084213, -0.1586686670780182, 0.0353151373565197, -0.19824808835983276, -0.061022158712148666, -0.04630065709352493, -0.019474921748042107, -0.31517085433006287, -0.04081065207719803, 0.11043664067983627, 0.008646119385957718, -0.06245151162147522, 0.22013452649116516, 0.08764956146478653, -0.016357462853193283, 0.1934095025062561, -0.06868987530469894, -0.12623587250709534, 0.14291828870773315, 0.07268218696117401, 0.059339821338653564, 0.09130953997373581, 0.18183407187461853, 0.052882153540849686, 0.0614950992166996, 0.07681881636381149, -0.06339549273252487, -0.128152534365654, 0.055579572916030884, -0.059427451342344284, -0.08717180043458939, 0.04201923683285713, -0.04445309937000275, 0.0060139913111925125, 0.04244663938879967, -0.02938937023282051, 0.038156624883413315, 0.04211380332708359, -0.11349818110466003, -0.004403993021696806, 0.057399217039346695, 0.05930452421307564, 0.17403897643089294, 0.021374501287937164, -0.07968927919864655, 0.044078484177589417, 0.11671281605958939, -0.12294194102287292, 0.09662001579999924, 0.06518986821174622, 0.08029231429100037, -0.009394675493240356, -0.18341615796089172, 0.08304233849048615, -0.13051737844944, 0.242115780711174, -0.04683134704828262, -0.002172819571569562, 0.0035784693900495768, -0.12748338282108307, 0.1666162610054016, 0.0765821635723114, 0.08796492218971252, 0.014512465335428715, -0.2730080783367157, -0.06472741812467575, 0.06803980469703674, -0.0822284072637558, 0.024153536185622215, 0.04923360049724579, 0.1361597627401352, -0.22173696756362915, 0.24137546122074127, -0.21937675774097443, 0.1239345371723175, -0.14750690758228302, 0.04953461140394211, -0.07559600472450256, 0.030174175277352333, -0.1302388459444046, -0.1096150279045105, 0.058121178299188614, 0.3650891184806824, -0.048859547823667526, 0.22677268087863922, -0.03478496894240379, -0.011121281422674656, -0.0387110710144043, -0.39157339930534363, 0.07924425601959229, 0.1226251870393753, 0.02861269749701023, -0.06579267978668213, 0.07191560417413712, -0.13322418928146362, -0.08738185465335846, -0.23099878430366516, 0.22574029862880707, 0.08685515820980072, -0.01889835111796856, 0.07592038065195084, 0.014902492985129356, 0.2435731291770935, -0.00229575764387846, -0.16699394583702087, 0.027127567678689957, -0.124275803565979, -0.18743327260017395, 0.16901981830596924, -0.11682179570198059, 0.10814306139945984, -0.2656480371952057, -0.022393332794308662, 0.1445864737033844, -0.16904225945472717, -0.07656358182430267, -0.0184329804033041, 0.13544487953186035, -0.007994614541530609, -0.058353524655103683, 0.02554752677679062, -0.027751374989748, 0.07130870223045349, 0.010579870082437992, 0.09934520721435547, -0.02881992980837822, 0.022426964715123177, -0.004214796237647533, 0.04215661808848381, 0.18945395946502686, 0.08182572573423386, -0.0028809146024286747, -0.1343431919813156, -0.026703139767050743, -0.009837954305112362, -0.15761904418468475, 0.13234177231788635, 0.12026374787092209, 0.16854877769947052, -0.04132506623864174, 0.22673839330673218, -0.053293295204639435, 0.006888470612466335, 0.1414995938539505, 0.13018085062503815, -0.09405146539211273, -0.1899658590555191, -0.1532033383846283, 0.010874778032302856, -0.04142136126756668, 0.0675952360033989, -0.11632443219423294, 0.1084633618593216, -0.13572318851947784, 0.04208807647228241, -0.04737991839647293, 0.1535770446062088, 0.09791336953639984, -0.18404608964920044, 0.15038514137268066, 0.1133636012673378, -0.11375906318426132, 0.015448220074176788, -0.0010762561578303576, 0.06645961850881577, -0.1390201896429062, -0.20657385885715485, 0.09517718851566315, 0.18200820684432983, -0.02157682552933693, -0.20676074922084808, -0.09905453771352768, -0.06061265617609024, 0.1111217513680458, 0.06134321168065071, 0.11687834560871124, 0.044540442526340485, -0.12482860684394836, -0.18569611012935638, -0.24292846024036407, 0.111280657351017, 0.06538194417953491, -0.04663710668683052, 0.07982510328292847, 0.0625622421503067, -0.09226439893245697, 0.10985350608825684, -0.024098431691527367, -0.10246417671442032, 0.22797076404094696, 0.05537121370434761, 0.10919401794672012, -0.009874274954199791, -0.055834926664829254, 0.1968085616827011, -0.10855409502983093, -0.0012594341533258557, 0.14094598591327667, 0.13908815383911133, -0.4442155361175537, 0.10441824793815613, -0.13099491596221924, 0.14848996698856354, 0.041505344212055206, -0.05629628151655197, 0.00815442856401205, -0.04935673996806145, -0.04694346338510513, 0.31881284713745117, -0.12319748103618622, -0.04178079962730408, 0.06772144138813019, -0.07167162001132965, -0.05149468407034874, 4.9052432586904615e-05, 0.031394679099321365, -0.2724524736404419, -0.037300389260053635, 0.09068792313337326, 0.023970814421772957, -0.20238104462623596, 0.08136560767889023, -0.010448683984577656, -0.07580099999904633, 0.061875514686107635, 0.12766201794147491, -0.09431605786085129, 0.1977395862340927, -0.10479310899972916, 0.027449896559119225, 0.08076809346675873, -0.015482393093407154, 0.4155588746070862, -0.2695000171661377, -0.2099439650774002, 0.0787716656923294, -0.019525907933712006, -0.1428382694721222, 0.0022335827816277742, 0.07152603566646576, 0.1187218427658081, -0.2587317228317261, 0.14243972301483154, 0.20186811685562134, -0.1380884200334549, -0.09395572543144226, -0.0017131350468844175, 0.045013125985860825, -0.09421724826097488, 0.14440563321113586, -0.09492553025484085, -0.06024782359600067, 0.10065007954835892, -0.0522623248398304, -0.11832200735807419, 0.08978129178285599, -0.14113853871822357, 0.04682502523064613, 0.027639899402856827, -0.013545168563723564, 0.19848960638046265, -0.16478249430656433, -0.06987325102090836, 0.11354048550128937, 0.006759749725461006, 0.04573824256658554, -0.10767475515604019, -0.2543991506099701, -0.1277787685394287, 0.13375534117221832, 0.07997431606054306, -0.039228569716215134, -0.19308005273342133, -0.14974744617938995, 0.020967599004507065, -0.01958988979458809, 0.15839171409606934, 0.008630510419607162, -0.10768026858568192, 0.05418375879526138, 0.04682796820998192, 0.018305767327547073, 0.28758448362350464, -0.04473594203591347, -0.17593351006507874, 0.11018027365207672, 0.03519997000694275, -0.031405333429574966, -0.11188708990812302, -0.000611668627243489, 0.09959930181503296, 0.07079814374446869, -0.011608888395130634, 0.12103672325611115, -0.23425528407096863, 0.016127586364746094, -0.04635097458958626, 0.08866416662931442, -0.05827847495675087, 0.016350219026207924, 0.0619623027741909, -0.06789036095142365, 0.0075998492538928986, -0.09780243039131165, 0.005293105263262987, 0.026645280420780182, -0.005147126037627459, -0.038525037467479706, -0.05914721637964249, 0.002786557422950864, 0.17674373090267181, -0.007648358587175608, 0.03665638342499733, 0.01092987135052681, 0.10578741878271103, 0.1776643842458725, 0.16405874490737915, -0.14638683199882507, -0.10610389709472656, -0.04797752946615219, 0.16179826855659485, -0.07319436967372894, 0.18513363599777222, -0.005469292867928743, -0.1931934952735901, 0.05347061902284622, 0.004598026629537344, 0.0005676100263372064, -0.1683666855096817, -0.018350742757320404, -0.14951564371585846, -0.18056620657444, 0.23944540321826935, -0.06975317001342773, -0.13972008228302002, 0.05265114828944206, -0.16168035566806793, 0.08705012500286102, -0.06776095181703568, 0.13141880929470062, -0.09140942990779877, -0.195111945271492, -0.028734857216477394, 0.3446718752384186, -0.07952886819839478, 0.05550174042582512, -0.013942750170826912, 0.006064734421670437, -0.01122266799211502, 0.2138415426015854, -0.062414929270744324, -0.08409305661916733, -0.08730760216712952, 0.05933409929275513, -0.09787255525588989, 0.017380526289343834, 0.012201236560940742, -0.021776115521788597, 0.07075521349906921, -0.027634799480438232, -0.05479903519153595, -0.08382239937782288, -0.06333885341882706, -0.18185682594776154, 0.050187647342681885, -0.05828693136572838, 0.021695999428629875, 0.09991678595542908, -0.054730843752622604, -0.1553909182548523, 0.12896332144737244, -0.18613287806510925, 0.18302814662456512, -0.08161519467830658, -0.0345083512365818, -0.014747477136552334, -0.13150224089622498, -0.11491544544696808, 0.11774055659770966, 0.08111043274402618, 0.05786440521478653, -0.019898274913430214, -0.06994001567363739, 0.031656622886657715, -0.012563233263790607, 0.0491693913936615, 0.04865560680627823, -0.16768835484981537, -0.09550438821315765, 0.004919861443340778, -0.19765447080135345, 0.01945081539452076, -0.0396396666765213, 0.08573318272829056, -0.1207173690199852, 0.06778308749198914, -0.04024992510676384, 0.07103592157363892, -0.03807169944047928, -0.09372610598802567, 0.052318841218948364, 0.14021249115467072, -0.11969561129808426, -0.007519532460719347, -0.06547032296657562, 0.062012929469347, -0.0561789833009243, -0.13078317046165466, 0.06567273288965225, -0.11807314306497574, 0.07770926505327225, 0.1432839184999466, -0.027182985097169876, -0.034195516258478165, 0.011158430948853493, -0.11574750393629074, 0.05968405306339264, 0.013001587241888046, 0.09121966361999512, 0.12253857403993607, -0.04623517021536827, -0.026629986241459846, -0.08535578101873398, -0.008554843254387379, -0.005345110781490803, -0.02577088586986065, -0.1751965582370758, 0.07117511332035065, 0.06526852399110794, -0.05639854073524475, -0.07049258798360825, 0.13593032956123352, 0.19292902946472168, 0.16714438796043396, -0.12917427718639374, 0.12130455672740936, 0.08542231470346451, -0.12728935480117798, -0.08900083601474762, -0.05991554260253906, -0.1324411779642105, 0.0542309395968914, 0.11019675433635712, 0.08487245440483093, 0.014095638878643513, -0.08631056547164917, 0.1891224980354309, -0.15845520794391632, -0.05759212002158165, -0.12653414905071259, -0.054907653480768204, 0.08005302399396896, -0.043630022555589676, 0.02209138683974743, -0.005012811627238989, -0.06481309980154037, -0.13681919872760773, -0.046445198357105255, -0.07013268768787384, 0.11291615664958954, -0.11355867236852646, -0.1226910650730133, -0.13589432835578918, -0.19010643661022186, 0.049881137907505035, 0.22413653135299683, -0.14243638515472412, 0.09510256350040436, 0.004674915224313736, 0.020250117406249046, 0.017492912709712982, -0.21601857244968414, 0.1829328089952469, -0.14506244659423828, -0.0240811537951231, -0.04761413857340813, 0.04963402450084686, -0.15848159790039062, -0.1383494734764099, 0.008760265074670315, -0.04674862325191498, 0.07888583838939667, -0.16989624500274658, 0.12296351045370102, 0.04435594752430916, -0.14534059166908264, -0.13624532520771027, 0.33257949352264404, -0.10270470380783081, 0.07283841818571091, -0.028151430189609528, 0.15657378733158112, 0.10091744363307953, 0.08029831200838089, 0.1099151074886322, 0.09444666653871536, -0.12538757920265198, 0.16647954285144806, 0.11112284660339355, -0.11701568961143494, 0.11214032769203186, 0.09988678991794586, 0.1394507735967636, -0.13322371244430542, 0.2133573293685913, 0.04660904034972191, -0.08482331782579422, 0.013820831663906574, 0.24302665889263153, -0.0594707727432251, -0.002369150286540389, 0.01569153368473053, 0.06061321124434471, -0.06868347525596619, 0.1862342357635498, -0.13030242919921875, 0.0503450371325016, -0.10852382332086563, 0.04549308493733406, 0.11247770488262177, -0.4358220398426056, 0.2491934597492218, 0.19682663679122925, -0.04734000936150551, 0.0046432954259216785, 0.16886748373508453, -0.2545548975467682, -0.020211659371852875, -0.23168723285198212, 0.23429635167121887, -0.17920458316802979, -0.08693470060825348, -0.05374201014637947, -0.003695741994306445, 0.03825300931930542, 0.10667456686496735, 0.033504337072372437, 0.001677625346928835, -0.14598198235034943, 0.04606148973107338, 0.044702064245939255, -0.01070771086961031, 0.1329585611820221, -0.19230608642101288, -0.04413800686597824, 0.11012007296085358, 0.08939855545759201, -0.009802973829209805, -0.0013261125423014164, -0.057050254195928574, -0.08848506212234497, -0.08856230974197388, -0.06744063645601273, 0.0561789870262146, 0.1782897710800171, 0.20484554767608643, 0.02653147093951702, -0.14242181181907654, -0.17846809327602386, 0.004080071579664946, -0.10086484998464584, -0.1745184063911438, -0.032888200134038925, -0.1297401785850525, -0.10836466401815414, -0.1310272365808487, -0.044175099581480026, 0.04492301493883133, -0.14464618265628815, 0.18228985369205475, -0.04370292276144028, -0.04294464737176895, 0.064459428191185, -0.14275722205638885, -0.16568315029144287, 0.15562684834003448, 0.04797322675585747, -0.05415913462638855, 0.062428172677755356, 0.017816931009292603, -0.08417045325040817, -0.23199878633022308, -0.04763219878077507, -0.31331849098205566, 0.20841863751411438, 0.04647492244839668, 0.01278388686478138, -0.1533414125442505, -0.05315479636192322, -0.17978456616401672, 0.04842279851436615, -0.017980244010686874, 0.13259689509868622, -0.04983948916196823, 0.06990012526512146, 0.11048637330532074, 0.05273577570915222, -0.08173096179962158, -0.1334032118320465, 0.013529113493859768, -0.15667584538459778, 0.1513759344816208, -0.09384032338857651, 0.06937672942876816, -0.20444832742214203, 0.005844310391694307, 0.07776206731796265, -0.05950753390789032, 0.05983150377869606, -0.04758385196328163, -0.11126770824193954, -0.007382609881460667, 0.10255160182714462, 0.20138905942440033, 0.061417460441589355, 0.01128244586288929, 0.21070080995559692, -0.06182106211781502, -0.09851924329996109, 0.09063567221164703, -0.08070734888315201, 0.08925841748714447, 0.2064952850341797, 0.06521370261907578, 0.05351068079471588, -0.0033741265069693327, -0.10810443758964539, 0.1665743589401245, -0.07563156634569168, 0.10166396200656891, -0.07615625113248825, 0.07127118855714798, -0.09583614021539688, 0.14208382368087769, -0.074482262134552, 0.006304639391601086, 0.1271684616804123, 0.08202855288982391, -0.10255878418684006, -0.09540113061666489, -0.13495716452598572, 0.13063770532608032, -0.09685559570789337, 0.06290910392999649, 0.11435209214687347, 0.002502799266949296, 0.05385328456759453, -0.07166341692209244, 0.09853221476078033, 0.009332416579127312, 0.01677524484694004, 0.024850914254784584, 0.10592389851808548, -0.02969655953347683, -0.02171827107667923, -0.03481196239590645, -0.037068773061037064, -0.006087017711251974, 0.0876784399151802, 0.11600817739963531, -0.012364758178591728, -0.06969622522592545, -0.17564347386360168, 0.010056665167212486, -0.10266412794589996, 0.057918161153793335, -0.009961256757378578, 0.11589560657739639, -0.01717863604426384, 0.08384109288454056, 0.05256109684705734, -0.09507018327713013, -0.14590632915496826, -0.022934915497899055, -0.002013064455240965, -0.12688283622264862, -0.028911298140883446, 0.026514461264014244, 0.08815733343362808, 0.02094614878296852, 0.05823777988553047, 0.10745841264724731, 0.03678109124302864, 0.07417432963848114, 0.021657057106494904, -0.06335269659757614, -0.02348494343459606, -0.026944687590003014, -0.052628133445978165, 0.057269345968961716, -0.057618360966444016, -0.08094090223312378, -0.13276968896389008, 0.06002921611070633, -0.019578589126467705, -0.0855673998594284, -0.018601447343826294, 0.05894553288817406, -0.11975520849227905, -0.04598813131451607, -0.031093833968043327, 0.03018486313521862, 0.046142712235450745, -0.12461528927087784, 0.02390645630657673, 0.05394323170185089, 0.05415114760398865, 0.11285380274057388, 0.043901026248931885, 0.030315479263663292, 0.03197557479143143, 0.00491427443921566, 0.2292577177286148, -0.019349277019500732, -0.022597014904022217, -0.037920743227005005, -0.0836946964263916, 0.009880530647933483, -0.11207839101552963, 0.03239917382597923, -0.0656626895070076, -0.1739305704832077, -0.02924322709441185, -0.04599428176879883, 0.048225246369838715, -0.06690318882465363, -0.013969090767204762, -0.058949291706085205, 0.2078300267457962, -0.09103875607252121, 0.055424027144908905, 0.13015589118003845, -0.20647059381008148, 0.07451117038726807, 0.1297188252210617, -0.18988856673240662, 0.16664773225784302, 0.08463440835475922, 0.12252192944288254, 0.12240777909755707, 0.051010310649871826, 0.05516233667731285, -0.16563382744789124, -0.053115114569664, -0.0840572640299797, 0.03376081958413124, 0.08870084583759308, 0.10703713446855545, -0.046034347265958786, 0.07339353114366531, -0.02709955908358097, 0.031403798609972, -0.016800126060843468, -0.08576634526252747, -0.18543396890163422, -0.025325937196612358, -0.08240782469511032, -0.011812505312263966, 0.1365325003862381, -0.1463574320077896, 0.24581696093082428, -0.03041372075676918, -0.3260551393032074, 0.12440383434295654, -0.12751896679401398, -0.13967867195606232, 0.1722506880760193, -0.051986075937747955, 0.3026686906814575, -0.09384660422801971, 8.878347216523252e-06, 0.06803011149168015, -0.12059319764375687, 0.14225390553474426, 0.05075312778353691, 0.04092278331518173, 0.004826577380299568, -0.024127662181854248, 0.06271927803754807, 0.012944701127707958, -0.04258572682738304, -0.032512366771698, 0.05843823775649071, 0.019078027456998825, 0.07831881940364838, -0.009960485622286797, -0.11441096663475037, 0.03505079820752144, -0.008584605529904366, 0.01701973006129265, -0.30777448415756226, -0.5696612596511841, 0.7546678185462952, 0.2517612874507904, -0.34927627444267273, 0.06743434816598892, -0.21038074791431427, -0.1631312370300293, 0.5644246935844421, -0.7453678846359253, 0.7841929793357849, 0.6821537017822266, 0.03149230405688286, -0.3468242287635803, 0.11349698156118393, -0.6117383241653442, 0.09751167893409729, -0.06624877452850342, 0.11852181702852249, -0.2757350504398346, 0.04070073738694191, 0.05449025705456734, 0.32459378242492676, -0.015768220648169518, 0.1524023860692978, 0.16903634369373322, 0.1670873463153839, 0.15089455246925354, -0.24819089472293854, 0.07823280990123749, -0.020363759249448776, -0.17496272921562195, 0.07921436429023743, -0.03396320715546608, 0.09517664462327957, 0.08499165624380112, 0.05932093784213066, 0.12108965218067169, 0.010655609890818596, -0.2752836346626282, -0.18171489238739014, 0.08859768509864807, 0.09360693395137787, -0.03887523338198662, 0.044133298099040985, 0.28313982486724854, 0.048420727252960205, -0.07997981458902359, -0.13104142248630524, -0.5272218585014343, 0.026305651292204857, -0.13303543627262115, 0.5029906034469604, -0.11499042063951492, -0.09204980731010437, -0.19684791564941406, -0.03681890293955803, -0.008420242927968502, -0.6286410093307495, 0.2363332360982895, 0.2787596881389618, -0.34949585795402527, -0.09408897161483765, 0.3353515565395355, 0.1701284497976303, 0.10426615923643112, 0.14534127712249756, -0.03200569376349449, -0.3409866988658905, 0.12773901224136353, -0.20270559191703796, 0.1782151609659195, 0.1685030162334442, -0.014656800776720047, 0.3106446862220764, 0.22781501710414886, 0.006686809007078409, 0.19399678707122803, 0.12163754552602768, -0.20827871561050415, -0.022388802841305733, -0.07096929848194122, 0.31131982803344727, -0.32439470291137695, 0.10550209134817123, -0.20860153436660767, 0.20284871757030487, -0.06726054847240448, 0.2528044283390045, 0.09090233594179153, -0.16916872560977936, 0.16798719763755798, -0.27285051345825195, -0.10454227030277252, 0.11237797886133194, -0.19419382512569427, -0.09967267513275146, -0.17332540452480316, -0.05266449972987175, -0.07383686304092407, 0.09316374361515045, -0.04745648428797722, 0.21214403212070465, 0.1387275755405426, -0.10153939574956894, -0.21324536204338074, -0.22439654171466827, 0.1578250527381897, 0.09036967158317566, 0.09711537510156631, 0.12041933834552765, 0.18415771424770355, 0.09270095080137253, 0.04224320873618126, -0.13847681879997253, 0.15374374389648438, 0.2367400825023651, -0.05872882530093193, 0.06151120364665985, -0.029146606102585793, -0.25212520360946655, 0.11050631105899811, 0.030800726264715195, -0.15073060989379883, 0.14585892856121063, -0.010387432761490345, 0.014230486005544662, 0.172653928399086, 0.3123995065689087, 0.2025391161441803, -0.22894716262817383, -0.07338530570268631, 0.1623212844133377, -0.10510193556547165, 0.016513541340827942, -0.1028902530670166, 0.05098084732890129, 0.03724713250994682, 0.06222108006477356, 0.1385948807001114, 0.02616099826991558, 0.08158978819847107, 0.08253035694360733, -0.09227348864078522, -0.20470406115055084, 0.2281632274389267, -0.09977629780769348, 0.08717428147792816, 0.02397943288087845, 0.039347101002931595, -0.2029377818107605, 0.020327812060713768, -0.09597224742174149, 0.12549306452274323, 0.11905553191900253, 0.21531563997268677, -0.3139801323413849, 0.08519823104143143, 0.0033645026851445436, 0.07637690752744675, 0.3694537281990051, 0.00026571546914055943, -0.17687709629535675, 0.3890230655670166, -0.1365637630224228, 0.38789719343185425, -0.17761772871017456, -0.07521948218345642, -0.1581522524356842, -0.10220088809728622, 0.27837496995925903, -0.3126063048839569, -0.13522742688655853, -0.006314891390502453, 0.05388541519641876, -0.33236974477767944, 0.22871209681034088, -0.16471703350543976, -0.17397305369377136, -0.0980600118637085, 0.12382224947214127, -0.15269331634044647, 0.09933258593082428, -0.028222480788826942, 0.17410260438919067, 0.03939635679125786, -0.1839679479598999, 0.06134806573390961, 0.12359385192394257, -0.23263774812221527, 0.11301115900278091, 0.3183550238609314, 0.03357665240764618, 0.14736273884773254, -0.0856926366686821, 0.06255873292684555, -0.2782168686389923, 0.22172269225120544, 0.16675978899002075, 0.09741160273551941, -0.16580592095851898, -0.1757122278213501, 0.053860414773225784, 0.19021548330783844, -0.23433101177215576, -0.23852507770061493, 0.009997251443564892, 0.0069657606072723866, -0.22227448225021362, -0.35038334131240845, 0.009293670766055584, 0.1487223207950592, 0.3428514897823334, 0.15992851555347443, -0.23756137490272522, -0.12156525254249573, 0.11931057274341583, -0.07891181111335754, -0.3097471296787262, 0.11290314048528671, 0.09939517825841904, -0.0008341657230630517, 0.1401607245206833, -0.01311170868575573, -0.273770272731781, 0.12801285088062286, -0.24411484599113464, -0.11164918541908264, -0.04812191054224968, -0.24418531358242035, 0.16359058022499084, -0.23463092744350433, 0.03318201005458832, 0.06295206397771835, 0.18223178386688232, -0.17517143487930298, 0.08955126255750656, 0.042157579213380814, -0.10054928064346313, 0.10364577174186707, -0.08621440827846527, 0.21647615730762482, 0.09960566461086273, -0.1612575650215149, -0.1700560301542282, -0.11483824998140335, 0.1775199919939041, -0.22341448068618774, 0.20131562650203705, 0.23281946778297424, 0.07713963091373444, 0.24562028050422668, -0.168418288230896, 0.12402357906103134, 0.0749833732843399, -0.24335530400276184, -0.10311204940080643, -0.10323469340801239, -0.08509780466556549, -0.22265936434268951, -0.14271220564842224, -0.020427070558071136, -0.04650454968214035, -0.214882954955101, 0.07163816690444946, 0.05898294970393181, 0.23097874224185944, 0.23004992306232452, -0.11970407515764236, -0.06876134872436523, -0.06532498449087143, 0.06693587452173233, 0.06599413603544235, -0.01320937555283308, 0.0626852735877037, 0.1084049642086029, -0.052774954587221146, 0.10214284062385559, 0.10182513296604156, 0.010579635389149189, -0.11182985454797745, -0.08529346436262131, -0.0038701703306287527, 0.07515770196914673, 0.11705166101455688, 0.10577894747257233, 0.029805796220898628, -0.009359694086015224, 0.03984750434756279, -0.15175718069076538, -0.010206674225628376, -0.03346121683716774, 0.05639046058058739, 0.065278060734272, 0.10714976489543915, 0.03766414150595665, 0.05622432753443718, 0.061120226979255676, 0.12375745922327042, -0.1737203449010849, -0.08974570035934448, -0.14644770324230194, -0.163296177983284, -0.0312307458370924, -0.009409613907337189, 0.22699864208698273, 0.22825004160404205, 0.011904243379831314, -0.16337409615516663, -0.25509220361709595, 0.008215540088713169, 0.2588368356227875, 0.033429596573114395, -0.0307175200432539, -0.11283267289400101, 0.14169533550739288, -0.01949353888630867, 0.02870786003768444, -0.007282901555299759, -0.029903709888458252, 0.0460171215236187, 0.17216747999191284, -0.052670322358608246, -0.21440266072750092, -0.058405518531799316, 0.054753802716732025, -0.11377027630805969, 0.0608089417219162, 0.019375523552298546, -0.3072969615459442, -0.21201851963996887, -0.13311046361923218, 0.011470742523670197, -0.10324368625879288, -0.0757412537932396, 0.09905807673931122, 0.02286720462143421, 0.20619823038578033, -0.057187940925359726, 0.10469337552785873, -0.12518803775310516, -0.044230613857507706, -0.07828602194786072, -0.09197686612606049, 0.01823372207581997, -0.17305785417556763, 0.08039590716362, 0.29468974471092224, 0.07899545133113861, 0.07260869443416595, 0.032586853951215744, 0.2090548872947693, -0.11736517399549484, -0.144036203622818, -0.2583911716938019, 0.06709828972816467, 0.05231967568397522, 0.12232419103384018, -0.08224168419837952, -0.16130736470222473, -0.02402222715318203, 0.09384416043758392, -0.020787972956895828, -0.024244148284196854, 0.025652004405856133, 0.23125827312469482, -0.1743391901254654, 0.14551515877246857, 0.09608376026153564, 0.11134926229715347, -0.04634058102965355, -0.12198394536972046, -0.14829808473587036, -0.010630386881530285, 0.06307407468557358, -0.23166564106941223, 0.11622970551252365, -0.1235460713505745, 0.14231684803962708, 0.16116203367710114, -0.05139996111392975, 0.09100299328565598, 0.11831668764352798, -0.12439523637294769, -0.22944635152816772, -0.17345361411571503, 0.0594782717525959, 0.20601826906204224, 0.05207446217536926, -0.1968274563550949, -0.07829200476408005, 0.0258464552462101, 0.044916197657585144, 0.05065210908651352, 0.07364849001169205, -0.17055350542068481, 0.005626552738249302, -0.08454341441392899, 0.01824353076517582, -0.2004166841506958, -0.10451669991016388, 0.049583081156015396, 0.18790064752101898, 0.15185333788394928, -0.2134515792131424, -0.10399910807609558, -0.04171687364578247, 0.16429799795150757, -0.0910804346203804, 0.04246799275279045, 0.10088249295949936, 0.27673599123954773, 0.03630490601062775, 0.03668401762843132, 0.0013282975414767861, 0.05096635967493057, -0.17519624531269073, -0.032774753868579865, -0.11818106472492218, 0.0005059009999968112, 0.030377229675650597, 0.05953899770975113, -0.10602417588233948, -0.10742625594139099, -0.04193989560008049, -0.10264091938734055, -0.026952333748340607, -0.15897564589977264, 0.01869453676044941, -0.23376891016960144, 0.005127629265189171, 0.10259444266557693, 0.06484837830066681, 0.22951747477054596, 0.131034255027771, 0.06515972316265106, 0.0599420890212059, 0.057891570031642914, 0.07879512012004852, -0.068895623087883, -0.11285928636789322, 0.236888587474823, 0.12715302407741547, -0.1674441695213318, -0.021552782505750656, 0.09454746544361115, 0.04023807868361473, -0.16511450707912445, -0.10489867627620697, 0.22837525606155396, 0.2506226599216461, -0.01104139443486929, -0.11278948932886124, -0.05009203776717186, 0.03517141938209534, 0.2725798785686493, 0.15468692779541016, -0.11476493626832962, -0.18583647906780243, -0.046828366816043854, 0.0408870130777359, -0.04721939563751221, 0.05758665129542351, 0.0861881896853447, -0.1265292465686798, 0.11562979221343994, 0.16260367631912231, -0.0625603049993515, 0.042023979127407074, 0.12467791140079498, -0.17819206416606903, 0.12970325350761414, 0.0968717709183693, -0.1632426381111145, -0.17638833820819855, 0.09309329837560654, 0.109120674431324, -0.138503298163414, 0.07327493280172348, 0.07361049205064774, 0.14095120131969452, -0.09469971060752869, -0.0317801833152771, 0.10674154758453369, 0.07536923140287399, -0.02887071669101715, 0.016342053189873695, 0.2694278061389923, -0.054116081446409225, 0.08611444383859634, 0.031714897602796555, 0.010575330816209316, 0.10823935270309448, -0.0906081572175026, -0.06972909718751907, -0.1413244605064392, 0.11698608845472336, 0.16068938374519348, -0.0534011647105217, -0.03601323068141937, -0.028828568756580353, 0.09053140878677368, -0.044841621071100235, -0.010366756469011307, -0.1342679262161255, 0.049432914704084396, -0.23962831497192383, -0.2092379629611969, -0.14874975383281708, 0.021524516865611076, 0.1078781932592392, 0.14997027814388275, -0.13968531787395477, -0.054978370666503906, -0.031003087759017944, -0.10561556369066238, -0.10031063109636307, 0.11856444180011749, -0.07750822603702545, -0.04529169574379921, -0.020289432257413864, -0.05808920040726662, -0.0021604346111416817, -0.13806408643722534, 0.03242558613419533, 0.06576626002788544, -0.15065914392471313, 0.016441546380519867, 0.02026236802339554, -0.16835357248783112, -0.05698808282613754, -0.10548274219036102, 0.07844459265470505, -0.07480332255363464, -0.04811982065439224, 0.2687925398349762, 0.16421782970428467, -0.1576026976108551, 0.13452139496803284, -0.1717577874660492, 0.20862485468387604, -0.0583176389336586, -0.17213058471679688, -0.09094927459955215, -0.14182579517364502, 0.06620857864618301, -0.11629025638103485, 0.07396402955055237, 0.020848186686635017, 0.05767383798956871, -0.1874295473098755, -0.11535029858350754, -0.20979350805282593, 0.05194585770368576, -0.2001940906047821, -0.10615839809179306, -0.13692648708820343, 0.0725969523191452, -0.13990437984466553, 0.028719838708639145, -0.13206040859222412, -0.00439608097076416, 0.031008942052721977, -0.011052477173507214, -0.06738565117120743, 0.06964803487062454, -0.1429208219051361, 0.02975090779364109, 0.08153987675905228, -0.10219467431306839, 0.047418322414159775, -0.06706372648477554, -0.12820671498775482, 0.07556191831827164, 0.05113104358315468, -0.026850372552871704, 0.027336394414305687, 0.009020540863275528, -0.09247956424951553, 0.14254629611968994, -0.01937008835375309, -0.027127334848046303, 0.11698079854249954, 0.18221606314182281, -0.012574284337460995, 0.12389262765645981, 0.006173290312290192, -0.2701652944087982, -0.10018737614154816, 0.010572477243840694, -0.021011661738157272, -0.2779158651828766, -0.15067890286445618, 0.046583302319049835, 0.08994586020708084, -0.0016106778057292104, -0.1361679881811142, -0.03396585211157799, -0.04738977551460266, 0.10820189863443375, 0.04709957540035248, 0.22432315349578857, 0.13672152161598206, 0.16643798351287842, 0.04986510053277016, 0.05082282796502113, 0.17488324642181396, 0.033252306282520294, -0.07778245210647583, -0.030184980481863022, -0.12007518112659454, -0.0075126090086996555, 0.31549766659736633, 0.011136909015476704, -0.10084223002195358, -0.10225582867860794, 0.10671732574701309, -0.08700212091207504, -0.11212087422609329, 0.1711888611316681, 0.2200201004743576, -0.11775363981723785, -0.00676084216684103, -0.05063856765627861, -0.010567056946456432, 0.0005920859985053539, 0.05772269144654274, 0.135215163230896, -0.05243774130940437, 0.0938270315527916, -0.019902672618627548, -0.4703187048435211, 0.059435561299324036, -0.039675161242485046, 0.1960000991821289, -0.041549209505319595, -0.20703990757465363, 0.16183248162269592, 0.06614194810390472, -0.09102092683315277, -0.20335432887077332, -0.010893967002630234, 0.1053217202425003, -0.2545218765735626, -0.07243386656045914, -0.09018804877996445, 0.09201909601688385, 0.06007435545325279, 0.16861191391944885, 0.07316289097070694, 0.013161392882466316, -0.061351533979177475, -0.028910869732499123, -0.06802115589380264, 0.08870720118284225, -0.25275859236717224, -0.18831150233745575, -0.02840925194323063, 0.05982096120715141, -0.015748711302876472, 0.1679500788450241, -0.0770038515329361, 0.03957140073180199, 0.16378551721572876, -0.18166013062000275, -0.045219410210847855, -0.07276836037635803, -0.004280734807252884, 0.1462951898574829, -0.0901595875620842, -0.029289593920111656, 0.11471599340438843, -0.05944734811782837, 0.21404269337654114, -0.0030340254306793213, 0.07062602043151855, -0.05911582335829735, 0.15828093886375427, 0.00868893787264824, -0.30456972122192383, 0.16825249791145325, -0.1766289472579956, -0.030479874461889267, 0.03180897980928421, -0.09577781707048416, 0.019456205889582634, -0.12205279618501663, 0.0505477599799633, -0.03300252929329872, -0.0765780657529831, -0.06862348318099976, -0.14035208523273468, 0.05124133452773094, 0.04728860780596733, -0.03192165121436119, -0.1952582448720932, -0.048870038241147995, 0.12621738016605377, 0.03141641616821289, 0.17524196207523346, 0.18375909328460693, 0.050020329654216766, 0.010604017414152622, -0.1629907339811325, 0.14240722358226776, -0.0049590240232646465, 0.16824844479560852, -0.12298329174518585, 0.0936233326792717, -0.15837286412715912, 0.09896919876337051, -0.2280898541212082, 0.1160595715045929, -0.05394783616065979, 0.060128480195999146, 0.1563795953989029, -0.2581746578216553, 0.07348145544528961, -0.04532124847173691, -0.003947746474295855, -0.19468960165977478, 0.10673072934150696, -0.049206119030714035, 0.2185058742761612, -0.1362314224243164, 0.12388844788074493, -0.02858385071158409, 0.024108922109007835, 0.035405393689870834, 0.06798920035362244, -0.06812522560358047, 0.09448148310184479, 0.004026660230010748, 0.1351044625043869, -0.030251268297433853, -0.06538200378417969, 0.027900271117687225, -0.32697591185569763, -0.0389377623796463, -0.09607244282960892, 0.19929960370063782, 0.018891945481300354, 0.017632989212870598, -0.04638594016432762, -0.025446414947509766, 0.059364672750234604, 0.1532122790813446, 0.22045966982841492, -0.05715450644493103, 0.0895058736205101, -0.2892407476902008, 0.17088954150676727, 0.06743258237838745, 0.04906680807471275, -0.10672613233327866, -0.08197245001792908, -0.0009659891366027296, -0.16260014474391937, -0.08957169204950333, -0.3377913534641266, 0.0749289020895958, -0.05769366770982742, 0.012891038320958614, 0.12504184246063232, -0.21682430803775787, 0.05015052482485771, 0.03324834257364273, -0.02495557814836502, 0.04658404365181923, -0.09854918718338013, 0.077884241938591, 0.0700584203004837, -0.042570069432258606, 0.07506808638572693, -0.07897277921438217, -0.12007246911525726, 0.18888665735721588, 0.28061795234680176, 0.00647702207788825, -0.2283637970685959, -0.1268167495727539, -0.08492407947778702, 0.1804773509502411, -0.052706509828567505, 0.06501834094524384, 0.1685115098953247, 0.18294551968574524, 0.025529272854328156, -0.22352178394794464, -0.17407697439193726, 0.03414374589920044, 0.10531085729598999, 0.04265012964606285, 0.02417244389653206, 0.055431973189115524, -0.08035425841808319, 0.10324204713106155, -0.28139761090278625, 0.2136477828025818, 0.015985608100891113, -0.06370309740304947, 0.09399805217981339, 0.0392310731112957, -0.21992330253124237, 0.08009989559650421, -0.15601418912410736, 0.006087212823331356, 0.19834432005882263, -0.07559587061405182, 0.03703303635120392, -0.07476921379566193, 0.09640256315469742, 0.18107226490974426, 0.0036463590804487467, 0.0815403014421463, 0.15875081717967987, -0.10837265849113464, 0.0013310343492776155, 0.035719454288482666, 0.03708527609705925, 0.11448723077774048, -0.1384430229663849, 0.040584124624729156, 0.03446081280708313, 0.06333090364933014, -0.006460073869675398, -0.001539953169412911, -0.20513798296451569, -0.25858354568481445, -0.13821779191493988, 0.07263846695423126, -0.10218172520399094, -0.11745278537273407, 0.014464875683188438, 0.12433421611785889, 0.02608160302042961, -0.1987251490354538, -0.011846628040075302, -0.0233160387724638, 0.3197839558124542, -0.08831661194562912, -0.037626758217811584, -0.005968569312244654, 0.026662014424800873, 0.07800120860338211, 0.15736114978790283, 0.18226729333400726, -0.07626219093799591, -0.02637624554336071, 0.18703435361385345, 0.01581263169646263, 0.09771411865949631, 0.15586735308170319, 0.14536048471927643, -0.17732872068881989, 0.17908330261707306, -0.0020101021509617567, 0.01064364518970251, -0.18629203736782074, -0.1411338448524475, -0.037609655410051346, -0.004261596128344536, -0.04676143452525139, 0.18205080926418304, -0.09935717284679413, -0.14873306453227997, 0.04865529388189316, 0.058950863778591156, 0.09409062564373016, -0.19079943001270294, 0.15858161449432373, 0.21783706545829773, -0.10152707248926163, -0.006449678912758827, 0.046635229140520096, -0.22336909174919128, -0.0790443867444992, 0.028741197660565376, 0.05647756904363632, -0.0069749681279063225, 0.036824438720941544, 0.0019380724988877773, -0.05971730500459671, 0.18376976251602173, -0.21547777950763702, -0.07331007719039917, -0.1180243045091629, 0.14179754257202148, -0.07739845663309097, 0.0063187675550580025, -0.2916942238807678, 0.020087849348783493, 0.15336225926876068, -0.10014787316322327, -0.0002970466739498079, 0.08466359227895737, -0.2622775435447693, 0.10130716860294342, -0.061919283121824265, 0.13761425018310547, 0.10347942262887955, 0.19765515625476837, -0.1593075543642044, 0.19056077301502228, -0.035360079258680344, 0.058628711849451065, -0.08585985749959946, -0.1789557933807373, 0.20183861255645752, 0.0048362016677856445, -0.09400917589664459, 0.15797747671604156, 0.1007019653916359, -0.11187039315700531, 0.08851384371519089, -0.04833199828863144, 0.10548201948404312, -0.09816797822713852, 0.021061880514025688, 0.020686442032456398, -0.007447446696460247, -0.01239008642733097, -0.01144392415881157, 0.03396526724100113, 0.13048985600471497, -0.03733876720070839, 0.19265572726726532, 0.13177688419818878, 0.06218184158205986, 0.1345413327217102, -0.13786812126636505, 0.022430378943681717, 0.09523075819015503, -0.060294490307569504, 0.005172266159206629, -0.07171685993671417, -0.0458085797727108, -0.049395851790905, -0.09955451637506485, -0.18723143637180328, -0.03694026917219162, 0.08232687413692474, 0.2201819270849228, -0.059161026030778885, 0.06836625188589096, -0.07714586704969406, -0.050688330084085464, 0.02020370215177536, 0.03425392881035805, -0.03941856324672699, -0.05247894674539566, 0.03665614128112793, -0.14982090890407562, 0.09512917697429657, -0.013175884261727333, -0.09671979397535324, 0.11276791989803314, 0.061207257211208344, 0.07210236042737961, 0.15052656829357147, 0.08355963975191116, 0.020724153146147728, 0.1250106543302536, -0.2586456835269928, -0.06912031024694443, 0.005794635508209467, -0.05351203307509422, -0.026445351541042328, 0.046394385397434235, -0.1994197964668274, -0.018070150166749954, 0.14735957980155945, 0.06051912531256676, -0.06099238246679306, -0.14427685737609863, 0.1827533096075058, -0.15015769004821777, -0.036374203860759735, -0.07739374041557312, -0.16642051935195923, 0.1370297223329544, 0.033286117017269135, 0.0009325566934421659, -0.049949631094932556, -0.02328214980661869, 0.04055803269147873, -0.06421273946762085, -0.4128316342830658, 0.05890113487839699, 0.07459238171577454, 0.001959978835657239, -0.13057756423950195, 0.039720918983221054, 0.11052337288856506, -0.051395539194345474, -0.149797260761261, -0.22334490716457367, 0.03112870454788208, 0.015812449157238007, 0.03869406133890152, 0.15972189605236053, 0.02575574815273285, -0.002041761763393879, -0.013354212045669556, -0.16027458012104034, 0.08349799364805222, 0.042287781834602356, -0.030050892382860184, -0.18642501533031464, 0.17011012136936188, -0.02037818729877472, -0.07441390305757523, -0.005062425974756479, 0.13328470289707184, 0.06631119549274445, -0.18555134534835815, -0.03501415625214577, 0.008139272220432758, -0.03373666852712631, 0.07485608756542206, -0.09076425433158875, 0.1122615784406662, -0.10788554698228836, -0.04505763575434685, -0.029574863612651825, 0.018616538494825363, 0.06339389830827713, -0.07791715860366821, -0.010977472178637981, -0.08195315301418304, 0.2041652798652649, -0.12448275089263916, 0.07764855027198792, -0.00041904867975972593, 0.05462197586894035, -0.1250610202550888, -0.01875995099544525, 0.18063506484031677, -0.05555395781993866, 0.04216476157307625, -0.04076070338487625, -0.05842697247862816, -0.08457128703594208, -0.08173032104969025, -0.07325682789087296, -0.14628905057907104, 0.10040092468261719, -0.26387161016464233, -0.0909300446510315, 0.04838326945900917, 0.028465641662478447, 0.1750052273273468, -0.07243774831295013, -0.1034298986196518, 0.02146160788834095, -0.021142849698662758, 0.026548825204372406, -0.02266174554824829, 0.11852612346410751, -0.08985348045825958, 0.14288146793842316, 0.08657795190811157, -0.03802444785833359, -0.1261236071586609, 0.07076599448919296, 0.11150292307138443, -0.05015067756175995, -0.01962505653500557, 0.07475853711366653, -0.010348652489483356, -0.029546158388257027, 0.05662640184164047, 0.9417594075202942, 0.16879528760910034, 0.671312689781189, -0.8686180710792542, -0.4810728132724762, 0.1083458662033081, 0.34471970796585083, -0.09507211297750473, 0.45251598954200745, 0.25885581970214844, -0.9425270557403564, 0.5351216197013855, -0.09719288349151611, -0.729472279548645, -0.09228131920099258, -0.11529712378978729, -0.003242983715608716, -0.15479400753974915, 0.5169514417648315, -0.1713852435350418, -0.013813726603984833, 0.10302475094795227, -0.052707359194755554, -0.23719871044158936, -0.20422512292861938, 0.15212008357048035, -0.11517447233200073, -0.04615156352519989, 0.11265669018030167, -0.17872433364391327, -0.023125696927309036, 0.07798798382282257, -0.289015531539917, -0.14362739026546478, -0.2970297932624817, -0.11322469264268875, 0.07779146730899811, 0.04479936882853508, 0.11225619167089462, -0.07566468417644501, -0.2563825845718384, -0.11009243130683899, -0.2914746403694153, 0.07231027632951736, -0.012455432675778866, 0.14267222583293915, 0.37943434715270996, 0.0730152279138565, -0.259001761674881, 0.2169623225927353, -0.4836415946483612, -0.2048688530921936, -0.07034413516521454, -0.08611321449279785, -0.1893681138753891, 0.09733651578426361, 0.24753598868846893, -0.12801815569400787, -0.01511631440371275, -0.2891775071620941, -0.16808904707431793, 0.10415293276309967, 0.1381828784942627, 0.12530335783958435, -0.29728859663009644, -0.014203516766428947, -0.1917528361082077, 0.23889459669589996, 0.3040558695793152, 0.2276061475276947, 0.15841247141361237, 0.07665755599737167, -0.12170492857694626, -0.162050262093544, -0.04638873413205147, -0.24400275945663452, 0.1633741557598114, 0.05020369589328766, -0.010179255157709122, -0.1608888953924179, 0.30485156178474426, -0.13449132442474365, -0.04151798412203789, 0.15455250442028046, -0.010290516540408134, -0.05945440009236336, 0.062016747891902924, -0.16742238402366638, 0.23936079442501068, 0.16977931559085846, 0.24633866548538208, 0.2731005549430847, -0.24121837317943573, -0.08532276749610901, -0.14983490109443665, -0.17882949113845825, -0.05472923442721367, 0.12530265748500824, 0.24819537997245789, 0.1964808702468872, -0.1600184142589569, 0.16601325571537018, 0.12727905809879303, -0.08813462406396866, 0.02906903065741062, 0.15342192351818085, -0.06617964804172516, 0.28458794951438904, -0.04695584997534752, 0.07037270069122314, -0.299947589635849, -0.02038302645087242, -0.06761885434389114, -0.260525643825531, -0.19276189804077148, 0.098720982670784, -0.06299632787704468, -0.21189863979816437, 0.21287187933921814, 0.1764228641986847, -0.20296648144721985, 0.004979444667696953, 0.13863582909107208, 0.16671834886074066, 0.06554491072893143, 0.04862694442272186, 0.12202110141515732, -0.18139788508415222, 0.0632210522890091, 0.03720550611615181, 0.01479302067309618, 0.238130122423172, 0.17837771773338318, -0.2972906827926636, 0.010079368948936462, 0.2635665833950043, -0.09418527781963348, -0.1722710132598877, 0.2330608069896698, 0.19626972079277039, -0.057601045817136765, 0.11658824235200882, 0.07810140401124954, -0.07517662644386292, -0.5489140152931213, 0.1504134237766266, -0.3460264205932617, -0.20026104152202606, 0.266185998916626, 0.3288278579711914, -0.34899261593818665, -0.23605550825595856, -0.029752207919955254, -0.017795247957110405, -0.19539758563041687, -0.3983480930328369, 0.20500978827476501, 0.09793922305107117, 0.21053487062454224, 0.004018075298517942, 0.09148729592561722, 0.12166618555784225, -0.01916217803955078, 0.09617333859205246, -0.16045436263084412, 0.058251217007637024, -0.24037469923496246, 0.21609707176685333, -0.09372002631425858, -0.2008301019668579, 0.1450541764497757, 0.037285588681697845, 0.2415587157011032, -0.017314543947577477, 0.2856895625591278, 0.017294054850935936, -0.4033791422843933, 0.35808253288269043, -0.5040256977081299, -0.19942668080329895, -0.07171294838190079, 0.12159258872270584, -0.051289815455675125, -0.12787820398807526, 0.0028787623159587383, 0.027120700106024742, -0.33755019307136536, -0.21523946523666382, -0.012441140599548817, 0.009458382613956928, 0.2094191163778305, -0.1454213261604309, 0.0018173546995967627, 0.1881895363330841, -0.11939132213592529, -0.03733491152524948, 0.010888352058827877, -0.2136393040418625, 0.0001699453277979046, 0.05097626522183418, -0.2314380556344986, 0.03597471863031387, 0.17993499338626862, 0.1319769024848938, -0.07413477450609207, 0.19656811654567719, -0.18717607855796814, -0.10790441185235977, -0.0708642452955246, 0.35982614755630493, 0.16698628664016724, 0.210674449801445, -0.10994289070367813, 0.10716775059700012, -0.1785183995962143, 0.08872834593057632, 0.16649295389652252, 0.16280752420425415, -0.3034461438655853, -0.29307520389556885, -0.2820657789707184, 0.018114745616912842, 0.03811303526163101, -0.20282261073589325, -0.22573433816432953, 0.3357812166213989, 0.08606317639350891, 0.04571159929037094, 0.008172894828021526, 0.16598093509674072, -0.22550922632217407, -0.029202086851000786, -0.027493387460708618, 0.49430331587791443, -0.061206914484500885, -0.44731464982032776, -0.21260292828083038, -0.39315009117126465, -0.11051205545663834, 0.10997902601957321, 0.25579389929771423, -0.10997284948825836, 0.02652280405163765, 0.09473032504320145, -0.10742142796516418, -0.044326767325401306, 0.013586517423391342, -0.027317102998495102, -0.15943709015846252, -0.026779290288686752, -0.2642337381839752, 0.05931393802165985, 0.04023604467511177, 0.03780800476670265, 0.14021745324134827, -0.04695037379860878, -0.08103641867637634, 0.33266499638557434, -0.128578782081604, -0.23410625755786896, -0.2747233808040619, -0.19721654057502747, 0.14531394839286804, -0.14370258152484894, -0.18043464422225952, 0.12326227128505707, -0.28454187512397766, -0.12154026329517365, 0.038631703704595566, -0.10816436260938644, 0.14101408421993256, 0.08419492840766907, -0.15504834055900574, -0.003065149998292327, 0.06347548216581345, -0.050920743495225906, 0.023688700050115585, 0.002216014079749584, -0.012673215009272099, 0.01159753743559122, -0.13175052404403687, 0.10832006484270096, 0.02746858261525631, 0.032040953636169434, -0.018182829022407532, -0.13162916898727417, -0.050060443580150604, 0.015207353979349136, 0.0857481062412262, -0.13484495878219604, 0.011402077041566372, -0.1821904480457306, 0.2477356493473053, -0.17108331620693207, -0.04555469751358032, 0.47086936235427856, -0.07267630100250244, -0.12278122454881668, 0.08404447138309479, 0.0023473852779716253, 0.09516585618257523, -0.08460262417793274, -0.08056174963712692, 0.15091250836849213, -0.08710695803165436, 0.07394179701805115, 0.04701440408825874, 0.06299179792404175, 0.048730507493019104, 0.2386605590581894, 0.06660781055688858, -0.08808325231075287, -0.28384438157081604, 0.11552760004997253, 0.04411483556032181, 0.15538901090621948, -0.14517761766910553, -0.08397070318460464, -0.07661965489387512, 0.41195377707481384, -0.09690488874912262, -0.0021028881892561913, -0.07309647649526596, -0.1189945787191391, -0.0696926862001419, 0.2437516152858734, 0.1001168042421341, -0.2446134388446808, 0.1841202974319458, 0.020784273743629456, 0.1756516993045807, -0.17542940378189087, 0.0023253457620739937, -0.02878859080374241, 0.019890084862709045, 0.038283612579107285, -0.0503678172826767, -0.2190488576889038, 0.07617892324924469, -0.014574535191059113, 0.013840757310390472, 0.061535950750112534, -0.12255168706178665, -0.0591895617544651, 0.00858504418283701, -0.10629979521036148, 0.18068014085292816, -0.0497807152569294, -0.009595547802746296, -0.1336016207933426, 0.12058546394109726, 0.0859135091304779, -0.024746347218751907, 0.031870417296886444, -0.08045107871294022, 0.17127873003482819, 0.0441475547850132, -0.12357783317565918, -0.1827479898929596, -0.11820871382951736, 0.01556380931288004, 0.1763569563627243, 0.029379457235336304, 0.04922011122107506, 0.22440564632415771, -0.054805364459753036, 0.10871552675962448, -0.13537126779556274, 0.044758379459381104, -0.17119309306144714, -0.12313515692949295, -0.13051889836788177, -0.0014813524903729558, -0.0677749514579773, -0.15072229504585266, -0.021723324432969093, 0.08803687989711761, 0.07934901863336563, 0.16740117967128754, -0.1191355437040329, 0.049566347151994705, -0.061656877398490906, -0.17445454001426697, 0.010576000437140465, -0.01838315837085247, -0.026277607306838036, 0.15723183751106262, -0.0066878111101686954, 0.2112019658088684, 0.07485175877809525, -0.04036654531955719, 0.16242744028568268, 0.023440459743142128, -0.2042303830385208, 0.08839917927980423, -0.08628933876752853, -0.07716304063796997, -0.20449793338775635, -0.08650361001491547, 0.10050347447395325, 0.07514527440071106, 0.16722208261489868, -0.07262581586837769, 0.01138028409332037, -0.12127479910850525, -0.03624477609992027, -0.0916522666811943, -0.08299964666366577, -0.02801370806992054, -0.14160217344760895, -0.14897207915782928, 0.039577219635248184, -0.07217080891132355, -0.048678357154130936, 0.08026883006095886, 0.30897781252861023, 0.08976101130247116, -0.08764291554689407, 0.06435349583625793, -0.05283123254776001, -0.025533802807331085, 0.11203740537166595, 0.05605064705014229, 0.08539416640996933, 0.1002311259508133, 0.12603697180747986, 0.10296976566314697, -0.021741237491369247, 0.053620077669620514, 0.13584166765213013, -0.14096492528915405, 0.04617011174559593, 0.0007450304692611098, 0.005515944212675095, 0.00045116350520402193, -0.03663533926010132, 0.14775796234607697, -0.12069230526685715, 0.05759040266275406, 0.2898051142692566, 0.01235800888389349, -0.06276606768369675, -0.07890100032091141, 0.10788179188966751, 0.09676646441221237, -0.09056311845779419, 0.03991148620843887, -0.005313191097229719, -0.06915711611509323, 0.09516389667987823, 0.08935318887233734, -0.018467731773853302, 0.14509008824825287, 0.2507532835006714, -0.06548786908388138, -0.1362963169813156, -0.1524113118648529, 0.0890878438949585, 0.006787417456507683, -0.1230420246720314, 0.0879133939743042, 0.04710939899086952, -0.0928771048784256, 0.3271472454071045, 0.038436777889728546, -0.21518026292324066, -0.07582990825176239, 0.02797638811171055, -0.03676080331206322, 0.17395706474781036, 0.048173725605010986, -0.2393748015165329, 0.12917038798332214, -0.1199285089969635, 0.1731019914150238, -0.07677734643220901, -0.01592138595879078, 0.1567438840866089, -0.02160765789449215, -0.02123515121638775, -0.057314563542604446, -0.03064955584704876, 0.09765315800905228, -0.04584876075387001, 0.1500428318977356, 0.02651236392557621, 0.09192197769880295, 0.3465864062309265, 0.1555289477109909, -0.1097361296415329, 0.20088301599025726, 0.0575006827712059, 0.10132762044668198, -0.07430627197027206, 0.08449678868055344, 0.10454978048801422, -0.11292467266321182, -0.12843972444534302, 0.18323838710784912, 0.0445074699819088, -0.09387615323066711, 0.01860414259135723, -0.010438221506774426, 0.008302710019052029, -0.20096206665039062, 0.03482575714588165, 0.1757553070783615, 0.06917543709278107, 0.211742103099823, 0.0763285830616951, -0.09473344683647156, 0.22927430272102356, -0.08553900569677353, 0.12006892263889313, -0.15076547861099243, -0.1306782364845276, -0.15710081160068512, 0.21753601729869843, -0.008356737904250622, 0.05700814351439476, 0.19639675319194794, -0.03407609835267067, -0.05556443706154823, -0.2125018835067749, -0.05681535601615906, -0.12305276095867157, -0.08661484718322754, 0.1198849081993103, -0.23393388092517853, 0.10450025647878647, -0.16128312051296234, 0.1405564844608307, -0.07268720120191574, 0.03613709658384323, 0.20369958877563477, -0.39083394408226013, -0.015553525649011135, 0.07805619388818741, 0.03142235800623894, -0.03762528672814369, -0.17796318233013153, 0.026621202006936073, -0.028145434334874153, -0.19942310452461243, -0.04537809267640114, 0.09382197260856628, 0.15751108527183533, -0.08004451543092728, -0.07699278742074966, -0.16227054595947266, 0.10651936382055283, -0.029339976608753204, 0.2302657961845398, -0.32616034150123596, 0.03688827529549599, -0.12349747121334076, 0.1600356549024582, -0.07909423857927322, 0.2578373849391937, -0.2967641353607178, 0.038599468767642975, -0.03680820018053055, 0.19341711699962616, -0.013149701990187168, 0.1582314670085907, -0.24035640060901642, -0.07186635583639145, -0.011706329882144928, -0.38559895753860474, -0.005703584756702185, -0.1308053433895111, 0.16145499050617218, -0.14027023315429688, 0.010565541684627533, 0.12550027668476105, -0.0214039646089077, 0.01302467193454504, -0.014844832941889763, 0.09491582214832306, 0.04690662398934364, -0.048811446875333786, -0.14204108715057373, -0.03141438215970993, 0.018243873491883278, -0.029424652457237244, -0.21406283974647522, -0.05067156255245209, 0.029595326632261276, 0.1612023413181305, 0.05488898977637291, -0.10074211657047272, 0.1815928965806961, 0.04301092028617859, 0.1414373517036438, -0.1355135142803192, 0.16614124178886414, 0.016733363270759583, -0.009916627779603004, -0.10040868073701859, 