{"version": "0.5.2", "metadata": {"date": {"year": 2023, "month": 7, "day": 31, "hour": 22, "minute": 25, "second": 11}, "loudness": -13.718791007995605, "gain": 0.8798229159790768}, "architecture": "WaveNet", "config": {"layers": [{"input_size": 1, "condition_size": 1, "head_size": 8, "channels": 16, "kernel_size": 3, "dilations": [1, 2, 4, 8, 16, 32, 64, 128, 256, 512], "activation": "Tanh", "gated": false, "head_bias": false}, {"input_size": 16, "condition_size": 1, "head_size": 1, "channels": 8, "kernel_size": 3, "dilations": [1, 2, 4, 8, 16, 32, 64, 128, 256, 512], "activation": "Tanh", "gated": false, "head_bias": true}], "head": null, "head_scale": 0.02}, "weights": [-0.000798538327217102, 0.2600573003292084, -0.7900838851928711, -0.732252836227417, -0.48860010504722595, 0.28425803780555725, 0.013167411088943481, 0.7834861278533936, -0.07818606495857239, 0.33138903975486755, -0.34756362438201904, -0.002917643403634429, -0.9180513620376587, -0.6711844205856323, -0.39299488067626953, 0.11335603147745132, 0.055035900324583054, 0.09509653598070145, -0.2215355932712555, 0.04082951694726944, 0.13493894040584564, 0.0752987265586853, -0.14747384190559387, 0.02198769524693489, 0.021084800362586975, -0.10205669701099396, 0.043227456510066986, -0.08963359147310257, -0.20569700002670288, -0.11897724121809006, -0.008864843286573887, 0.23570634424686432, -0.01718100719153881, -0.11900560557842255, -0.09420421719551086, -0.18900083005428314, -0.03045422025024891, 0.2415568232536316, 0.1493077427148819, 0.024031657725572586, -0.07021714746952057, -0.1327541172504425, 0.08661119639873505, -0.023617690429091454, -0.024525217711925507, -0.12286596745252609, -0.021513469517230988, 0.0034160534851253033, -0.01407878939062357, -0.0099098552018404, -0.002531526843085885, 0.12933257222175598, -0.061375804245471954, -0.06625393778085709, 0.14221638441085815, -0.2005527913570404, -0.05765067785978317, -0.06625981628894806, -0.21073301136493683, -0.15523870289325714, 0.11458848416805267, 0.1621471345424652, -0.02269061468541622, -0.02318006381392479, 0.00958023127168417, 0.04529741778969765, -0.027198784053325653, 0.02921058051288128, 0.24473769962787628, 0.21251089870929718, -0.10998870432376862, -0.21348856389522552, -0.0223603043705225, 0.12224943190813065, -0.03605935350060463, 0.049668822437524796, 0.03514697402715683, -0.28162527084350586, -0.060808803886175156, -0.10386012494564056, 0.014329230412840843, 0.19681775569915771, 0.1349676251411438, -0.2385026216506958, -0.0012963615590706468, -0.02670631930232048, 0.13614711165428162, 0.011772931553423405, 0.08714893460273743, -0.2087458223104477, 0.00825075339525938, 0.06291110813617706, 0.2538846433162689, 0.1231115460395813, -0.13493044674396515, -0.247639462351799, 0.002190124476328492, 0.0448743961751461, -0.2402840554714203, -0.13866505026817322, 0.13760368525981903, -0.06377280503511429, -0.14136387407779694, -0.0326949879527092, -0.29627764225006104, -0.07932543754577637, -0.10266164690256119, -0.2668635845184326, -0.08139881491661072, -0.000815537991002202, 0.0705854669213295, 0.13210482895374298, -0.17714080214500427, 0.13471807539463043, 0.025798548012971878, -0.17052984237670898, 0.024863000959157944, 0.02989576756954193, 0.06946535408496857, -0.026199717074632645, 0.030155271291732788, 0.05861745774745941, -0.13129155337810516, 0.0436999648809433, -0.08409223705530167, -0.14015428721904755, -0.05690043792128563, -0.129018172621727, -0.0020068390294909477, -0.10066764056682587, 0.040884118527173996, -0.007520794868469238, -0.06777457892894745, -0.057274580001831055, 0.16227154433727264, 0.0099500622600317, 0.08425486832857132, -0.038223814219236374, 0.04074554517865181, 0.03313858434557915, 0.1856042742729187, 0.10665014386177063, 0.1937260627746582, -0.06211191788315773, -0.14426083862781525, -0.023750893771648407, 0.02337387204170227, -0.020128488540649414, -0.02314199134707451, -0.17086081206798553, -0.16110478341579437, -0.07050185650587082, -0.08746350556612015, 0.05569639801979065, 0.13164778053760529, -0.19475096464157104, 0.07012689858675003, -0.17993462085723877, -0.0018848631298169494, -0.06369840353727341, 0.009651598520576954, -0.05891728028655052, -0.011012771166861057, -0.1517665535211563, -0.1425042450428009, 0.0014915700303390622, -0.035664115101099014, 0.17814889550209045, -0.12638363242149353, 0.019035551697015762, 0.2508012652397156, -0.05758492276072502, 0.15528684854507446, 0.17114213109016418, -0.13168443739414215, 0.06989819556474686, -0.13037654757499695, -0.05874543637037277, 0.10174447298049927, -0.042199183255434036, -0.024779412895441055, -0.058906592428684235, -0.01939043402671814, 0.038598544895648956, 0.06790579110383987, 0.1391289383172989, -0.06478704512119293, -0.051005467772483826, -0.23214930295944214, 0.0844799354672432, 0.13661088049411774, 0.21376022696495056, -0.1097564548254013, 0.00552606163546443, -0.022446362301707268, -0.0817234069108963, -0.054502274841070175, 0.1726941019296646, -0.08346762508153915, 0.02413119375705719, 0.12755587697029114, 0.09355449676513672, -0.08410020917654037, 0.019687453284859657, -0.08625108003616333, 0.08977723121643066, -0.14621226489543915, 0.1461474448442459, -0.009632496163249016, -0.09211888164281845, -0.006027767900377512, -0.07965245842933655, -0.073739193379879, -0.022282103076577187, 0.057787347584962845, 0.1151999682188034, -0.12070067226886749, -0.017004216089844704, 0.21392874419689178, -0.12573778629302979, 0.046775102615356445, 0.23730221390724182, 0.042200718075037, -0.050729140639305115, -0.21639364957809448, 0.08272010833024979, -0.07247056066989899, 0.050575170665979385, -0.05165105313062668, -0.07982703298330307, -0.09455693513154984, 0.12777167558670044, 0.057028044015169144, 0.20752938091754913, 0.0678415521979332, -0.14619606733322144, -0.027186093851923943, -0.09050998091697693, -0.004148866981267929, 0.1367846429347992, 0.0363796204328537, 0.08637024462223053, -0.003908013924956322, -0.03776099532842636, 0.13276828825473785, -0.04357382655143738, 0.09527574479579926, -0.06153182312846184, 0.09789133816957474, -0.03326226398348808, -0.02040242962539196, 0.11300373822450638, 0.10881149023771286, -0.09799518436193466, -0.17110028862953186, -0.03533724322915077, -0.12583865225315094, 0.1381438821554184, -0.06584341078996658, -0.12911076843738556, -0.037179477512836456, 0.12474238872528076, 0.10739022493362427, 0.06380080431699753, 0.0023172730579972267, -0.016249459236860275, -0.08719991147518158, -0.0056884572841227055, 0.1510903537273407, -0.006307853851467371, -0.1175670325756073, -0.11157219111919403, -0.10371149331331253, 0.07118877023458481, -0.037167374044656754, -0.18833644688129425, 0.14790679514408112, -0.12677918374538422, 0.028149375692009926, 0.0894208550453186, 0.0619405135512352, -0.11865680664777756, -0.1320093870162964, 0.07837740331888199, 0.06412091851234436, 0.163486048579216, -0.009984639473259449, 0.0035057656932622194, -0.07247643172740936, 0.028516290709376335, -0.12792082130908966, 0.07056811451911926, 0.07838186621665955, -0.04742489010095596, -0.08092612028121948, -0.05578486993908882, 0.054552190005779266, -0.15511606633663177, 0.09329528361558914, -0.09276647865772247, -0.1144237220287323, -0.012815592810511589, -0.045922618359327316, 0.0669795423746109, -0.0508212111890316, -0.05572328716516495, 0.0037769454065710306, -0.03898230567574501, 0.10443464666604996, -0.021605568006634712, -0.01856137625873089, -0.07061629742383957, 0.04787984490394592, 0.04887858405709267, 0.005645674653351307, 0.09554215520620346, 0.02760225348174572, -0.044187769293785095, 0.059420403093099594, -0.1042012870311737, 0.045121826231479645, 0.009880175814032555, -0.02767339162528515, -0.024728918448090553, 0.12644322216510773, 0.02796398289501667, 0.1309935301542282, 0.01942908950150013, 0.19459183514118195, -0.08777161687612534, -0.09131874144077301, -0.23136122524738312, 0.1834488958120346, 0.08608639985322952, 0.008043481968343258, 0.01614554412662983, 0.116535983979702, 0.22959043085575104, 0.07943633943796158, 0.1402014046907425, 0.0684623196721077, -0.09772585332393646, 0.11808256804943085, 0.18336693942546844, -0.13323628902435303, 0.12974132597446442, 0.17339979112148285, 0.034119948744773865, -0.08807749301195145, -0.06849340349435806, -0.02336709015071392, 0.095880426466465, -0.04995216429233551, 0.1826096922159195, -0.02591862343251705, 0.04338086396455765, 0.13305187225341797, 0.04246778413653374, -0.08282746374607086, -0.1572800725698471, -0.06732431054115295, -0.12263323366641998, -0.3086436986923218, 0.14616398513317108, 0.09965922683477402, -0.05338146537542343, 0.14899666607379913, -0.15947778522968292, 0.08330652862787247, -0.06508415937423706, -0.08092893660068512, 0.016631832346320152, -0.09582523256540298, -0.09016957134008408, 0.05034269765019417, -0.11448067426681519, 0.1515129804611206, -0.03967297077178955, 0.14449834823608398, 0.08801867812871933, 0.3121623694896698, -0.07195212692022324, 0.0878906100988388, -0.055506035685539246, 0.08653528243303299, 0.16352660953998566, -0.07096206396818161, 0.0942322388291359, -0.03086354024708271, -0.12243447452783585, 0.04921688139438629, -0.01471399050205946, -0.2702893614768982, -0.0492229238152504, -0.08975113928318024, -0.08821319043636322, 0.13607186079025269, -0.05445771664381027, 0.0795620009303093, 0.054744869470596313, -0.004262740723788738, 0.0947740375995636, -0.04689884930849075, -0.025151072070002556, 0.14769306778907776, -0.062349654734134674, 0.3048153221607208, 0.019740436226129532, -0.10413017868995667, 0.248700350522995, -0.17330549657344818, -0.07133907824754715, 0.29252341389656067, -0.08288230746984482, -0.1521560400724411, -0.22770830988883972, 0.04254559054970741, 0.015095913782715797, 0.09408982843160629, 0.07365366071462631, -0.0392804779112339, -0.2572992146015167, 0.09713659435510635, 0.11992965638637543, 0.24557825922966003, -0.19935227930545807, -0.0555066354572773, -0.2785532474517822, 0.023259205743670464, 0.09866059571504593, 0.06695344299077988, -0.03351813182234764, 0.0764121487736702, 0.08969084173440933, -0.13943707942962646, -0.00933099165558815, 0.19939497113227844, -0.20093247294425964, 0.02097153663635254, 0.036384861916303635, -0.22856129705905914, -0.19079075753688812, 0.1397433578968048, 0.01113301981240511, -0.18334905803203583, -0.053542349487543106, 0.020500080659985542, 0.08203554153442383, 0.06661312282085419, -0.15117309987545013, 0.16339166462421417, 0.05426476523280144, 0.031146060675382614, 0.0023833229206502438, -0.06826325505971909, 0.23628225922584534, 0.08373025059700012, 0.0950818806886673, 0.00039552291855216026, 0.033071938902139664, -0.11861672252416611, 0.055929191410541534, 0.10344429314136505, -0.12989182770252228, -0.05856284871697426, 0.011711728759109974, 0.01709270104765892, -0.0043510450050234795, -0.06958106905221939, -0.07057423889636993, -0.051389437168836594, 0.06767873466014862, 0.08181662112474442, 0.07143336534500122, 0.09734570235013962, -0.16179051995277405, -0.23217861354351044, -0.0018348345765843987, -0.05959775671362877, 0.18034198880195618, -0.03273646533489227, -0.0639544278383255, -0.021980753168463707, 0.1185627356171608, 0.012257450260221958, 0.2265661656856537, 0.16456331312656403, 0.10509901493787766, 0.118986114859581, 0.029436899349093437, -0.009821045212447643, 0.1296127289533615, 0.14106066524982452, -0.11336100101470947, 0.0261820238083601, -0.06925253570079803, 0.021673599258065224, 0.031855687499046326, 0.09455689042806625, 0.31706079840660095, -0.05309395119547844, 0.044555746018886566, -0.13063105940818787, 0.005975061561912298, 0.1829257607460022, -0.2797524034976959, -0.03707252815365791, 0.11931384354829788, -0.24675504863262177, -0.03222136199474335, 0.01808962970972061, 0.2887124717235565, 0.03214576840400696, -0.11912588775157928, 0.014941438101232052, -0.027846284210681915, -0.029347503557801247, 0.21437270939350128, 0.16094787418842316, -0.0777844712138176, -0.1275261640548706, -0.10791542381048203, 0.10813328623771667, 0.09699469059705734, -0.004838469438254833, -0.13150817155838013, -0.06431519985198975, -0.11499503254890442, 0.06499076634645462, -0.14400674402713776, 0.006758577656000853, 0.098261259496212, -0.31082507967948914, -0.19444997608661652, -0.04579760506749153, -0.20117218792438507, -0.11571049690246582, -0.03274192288517952, -0.24922145903110504, -0.050517067313194275, -0.012818736955523491, 0.23291847109794617, 0.03609021008014679, -0.1338358074426651, 0.10609137266874313, 0.12454833090305328, -0.038719624280929565, 0.0038449291605502367, -0.14860905706882477, 0.05503780022263527, -0.13086724281311035, -0.04185955226421356, 0.23521362245082855, -0.08711624145507812, 0.12426868826150894, 0.07847058773040771, -0.029800593852996826, 0.058965038508176804, 0.17953434586524963, 0.013378768227994442, -0.22266371548175812, -0.16719092428684235, -0.09149929881095886, 0.14113925397396088, -0.06899072229862213, 0.13178369402885437, -0.12668614089488983, -0.11689852178096771, 0.08353909850120544, 0.13425405323505402, 0.17593760788440704, 0.08746235817670822, -0.12942925095558167, -0.17770466208457947, -0.014234657399356365, 0.20644338428974152, 0.03215036541223526, -0.13336367905139923, 0.17375114560127258, 0.2136153280735016, -0.03577522188425064, -0.024065889418125153, -0.03911959379911423, 0.03883046656847, 0.08288480341434479, 0.016893688589334488, 0.029901748523116112, 0.1467047482728958, 0.20135587453842163, 0.1282844990491867, -0.08381883054971695, -0.18395179510116577, -0.12680619955062866, 0.2603457570075989, 0.06243700161576271, 0.05917985364794731, 0.0068845804780721664, 0.09765331447124481, 0.13311883807182312, -0.008223272860050201, -0.08453322947025299, -0.05535995215177536, -0.23984470963478088, 0.17439734935760498, -0.06287430226802826, -0.20301273465156555, 0.11487992852926254, -0.07485903799533844, 0.05783861503005028, -0.05717773735523224, -0.017960907891392708, -0.1903391182422638, 0.12267103791236877, -0.06269880384206772, 0.18794025480747223, 0.08547285199165344, 0.0908064991235733, -0.09156855940818787, 0.16742925345897675, 0.016094932332634926, 0.06403642892837524, 0.09380218386650085, 0.038031622767448425, -0.2731170058250427, 0.0032689652871340513, -0.051002275198698044, 0.028675340116024017, -0.045517079532146454, -0.13243381679058075, -0.14706455171108246, 0.13061469793319702, 0.03715689852833748, -0.09079889953136444, 0.05257387459278107, 0.05277349427342415, -0.17135219275951385, -0.01927425153553486, -0.13915066421031952, 0.01320685911923647, 0.01208836305886507, -0.08180459588766098, -0.03256809338927269, 0.016117967665195465, 0.06700586527585983, -0.12382601201534271, 0.08230239152908325, -0.14367368817329407, 0.1489003300666809, -0.0516539104282856, -0.09441354125738144, 0.10883278399705887, 0.002380381803959608, 0.05919474735856056, -0.07079136371612549, -0.05870528519153595, 0.00267739687114954, 0.0008660823805257678, 0.07659102231264114, -0.0915200486779213, 0.09645813703536987, 0.002001493237912655, 0.02913956716656685, 0.07648629695177078, -0.17469337582588196, -0.057543639093637466, 0.14901238679885864, 0.019230196252465248, 0.17546874284744263, -0.07104389369487762, 0.05622772499918938, -0.20175543427467346, 0.006476392038166523, 0.03352070972323418, -0.002858274383470416, 0.06057552620768547, 0.08445379883050919, -0.08184877038002014, 0.023862004280090332, 0.16136232018470764, -0.09920183569192886, 0.15644937753677368, -0.03356945514678955, -0.07820582389831543, 0.019083296880126, 0.1228390485048294, 0.16201232373714447, -0.04560167342424393, -0.17421214282512665, 0.16964691877365112, -0.08819238096475601, 0.19760532677173615, -0.01556382142007351, -0.17541271448135376, 0.30746039748191833, -0.0643342137336731, 0.1511964052915573, -0.09218903630971909, -0.18634042143821716, 0.3233020007610321, -0.1724749356508255, -0.14544688165187836, 0.3389003574848175, -0.3234853446483612, 0.12213955074548721, -0.37435203790664673, 0.18587778508663177, 0.029257500544190407, 0.21368369460105896, -0.10329113900661469, 0.1720561385154724, -0.30498233437538147, 0.12847957015037537, -0.19594720005989075, 0.11726681888103485, -0.01672651804983616, 0.043334152549505234, -0.2734774053096771, 0.23145262897014618, 0.016064858064055443, 0.4044811427593231, -0.07943569123744965, -0.13045872747898102, 0.16540658473968506, -0.09050024300813675, -0.16309885680675507, 0.3234753906726837, -0.06272720545530319, -0.19356660544872284, 0.3722178339958191, -0.2673790156841278, -0.10408567637205124, 0.39688223600387573, -0.22140011191368103, 0.10064280033111572, -0.37208908796310425, 0.32359883189201355, 0.0214326661080122, -0.14535802602767944, 0.12214697152376175, -0.168745219707489, -0.25727441906929016, -0.04803691431879997, 0.1885000318288803, 0.10495496541261673, 0.12988412380218506, 0.19589897990226746, 0.2423706352710724, -0.015553975477814674, 0.053588107228279114, 0.09602513164281845, -0.05844444781541824, -0.06315530091524124, -0.025614582002162933, 0.06948871910572052, 0.020963946357369423, 0.13695275783538818, -0.05331625044345856, 0.036249931901693344, -0.20440320670604706, -0.16032859683036804, 0.05677467957139015, 0.19588331878185272, -0.10503175109624863, 0.06593333184719086, -0.0838700383901596, -0.15351884067058563, 0.03349116072058678, 0.2618286609649658, -0.060899555683135986, -0.0500672310590744, 0.18095152080059052, -0.07730952650308609, 0.1524420976638794, 0.22024734318256378, 0.15016216039657593, -0.021252499893307686, 0.2873515784740448, -0.02655387669801712, 0.21237191557884216, 0.002624992746859789, -0.0725327581167221, 0.03370073810219765, -0.09979052096605301, -0.023248083889484406, -0.09964144229888916, -0.09064676612615585, -0.053639575839042664, -0.09331844002008438, 0.028417838737368584, 0.06183400750160217, -0.023880505934357643, 0.04424258694052696, 0.000675811490509659, 0.08310078829526901, -0.01985306851565838, -0.008541744202375412, -0.05242404714226723, -0.0029933734331279993, -0.05037814378738403, -0.03668311610817909, 0.40395504236221313, -0.3428351581096649, 0.8290914297103882, -0.7101514339447021, 0.008464568294584751, 0.9536957144737244, 1.0010960102081299, -0.6061385273933411, 0.2338847517967224, 0.03699757531285286, -0.5300355553627014, -0.443888783454895, 0.2341575175523758, -0.76324462890625, 0.36201775074005127, 0.36561086773872375, -0.015050314366817474, 0.17046716809272766, 0.030665697529911995, 0.11644366383552551, 0.24279731512069702, -0.017389528453350067, 0.17294897139072418, -0.14327043294906616, -0.07953334599733353, -0.035103507339954376, -0.0197435449808836, -0.1279105544090271, 0.08364441990852356, -0.008254203014075756, 0.22181202471256256, -0.031226657330989838, -0.09659987688064575, -0.1943291425704956, -0.39562761783599854, 0.22061975300312042, 0.12782901525497437, -0.2483731061220169, -0.2917118966579437, 0.05637805908918381, -0.17536614835262299, 0.26968446373939514, -0.0297512486577034, 0.2629469633102417, 0.004812897183001041, 0.07078265398740768, 0.23387037217617035, 0.3406372368335724, 0.0396183580160141, 0.07932080328464508, 0.030174611136317253, 0.18079037964344025, -0.12482667714357376, -0.1369585543870926, 0.08256470412015915, -0.22633697092533112, 0.03398856893181801, -0.139980286359787, 0.16878391802310944, -0.2159639447927475, 0.16225863993167877, 0.2149733155965805, 0.09725205600261688, 0.007599944248795509, 0.2890532910823822, -0.04130908474326134, 0.034019652754068375, -0.20540480315685272, -0.1742287576198578, 0.05075516179203987, 0.0680583119392395, 0.19428987801074982, -0.3263601064682007, -0.04088812321424484, 0.22140924632549286, 0.026770824566483498, 0.2193027287721634, 0.2483704388141632, -0.2359205186367035, -0.22909054160118103, -0.26872825622558594, -0.3777642846107483, -0.3547917306423187, 0.2580033242702484, 0.22747376561164856, 0.042823176831007004, -0.03582208603620529, -0.13218149542808533, 0.08276914805173874, 0.3866986632347107, -0.19275738298892975, 0.29451829195022583, -0.08027366548776627, 0.17774231731891632, -0.07033851742744446, 0.2005850225687027, -0.23604780435562134, 0.020480306819081306, 0.15078884363174438, 0.04183262214064598, 0.20768240094184875, 0.39924007654190063, 0.30340340733528137, -0.005375691689550877, 0.4083240330219269, -0.07597022503614426, -0.3328697979450226, -0.2733960747718811, 0.01223276648670435, -0.32089167833328247, 0.07067357003688812, 0.13479256629943848, -0.07067278772592545, -0.11171948164701462, 0.04910445213317871, 0.251183420419693, 0.047665130347013474, -0.2640227675437927, -0.11625341325998306, -0.22897151112556458, 0.0994124487042427, -0.07789420336484909, -0.3924635946750641, 0.30437055230140686, 0.04194088652729988, -0.13653501868247986, 0.3545685112476349, 0.07353856414556503, 0.2243194580078125, 0.0814792737364769, 0.2175293117761612, -0.18025943636894226, -0.22256344556808472, 0.0993114709854126, 0.17862319946289062, 0.06196185201406479, 0.05097341164946556, -0.2428463250398636, 0.15504157543182373, -0.19391299784183502, 0.05907871946692467, -0.10139290243387222, -0.05778923258185387, 0.06711363047361374, -0.1271519511938095, -0.03467579185962677, -0.2649703621864319, -0.19102488458156586, 0.10927347838878632, -0.11395500600337982, -0.148909792304039, -0.13770797848701477, -0.14943893253803253, -0.16810621321201324, 0.10323932021856308, 0.15643952786922455, 0.06458020955324173, -0.1292368322610855, 0.12341680377721786, 0.09433247148990631, -0.006489256862550974, 0.1780330389738083, 0.4278199374675751, -0.34311991930007935, -0.33550938963890076, 0.20312945544719696, 0.39768561720848083, -0.134420707821846, 0.1366426795721054, 0.026545992121100426, 0.12461387366056442, -0.10951554775238037, 0.3836080729961395, 0.0176517553627491, -0.19804754853248596, -0.10982055217027664, 0.0331888422369957, 0.1553696244955063, -0.36054742336273193, 0.23362453281879425, -0.02204563096165657, -0.3114480674266815, -0.06052390858530998, -0.16228806972503662, -0.02490457333624363, -0.07979168742895126, -0.18881897628307343, 0.10726729035377502, -0.1295212060213089, 0.24258466064929962, 0.13078896701335907, 0.32530370354652405, 0.06333278864622116, -0.1259402334690094, 0.1760261356830597, 0.0024165650829672813, 0.05955750122666359, -0.0651029497385025, 0.012265097349882126, -0.07571467757225037, -0.10109341889619827, -0.17803409695625305, -0.002925804816186428, -0.2063380926847458, -0.07202574610710144, 0.14805956184864044, -0.16912809014320374, -0.19021694362163544, -0.009330951608717442, 0.18036825954914093, 0.20542550086975098, -0.04139251634478569, -0.07974250614643097, -0.21250568330287933, 0.1406622678041458, 0.33578360080718994, 0.3312627375125885, -0.18914391100406647, -0.05529550835490227, 0.01179527584463358, 0.26125338673591614, -0.14258287847042084, -0.5618873238563538, -0.09073043614625931, -0.11795943230390549, -0.29915672540664673, -0.2440984547138214, 0.20320111513137817, -0.010676806792616844, 0.12161467224359512, 0.13207899034023285, -0.02719010040163994, 0.00043222238309681416, 0.021279947832226753, -0.07058015465736389, 0.13134676218032837, -0.23877979815006256, 0.006196772679686546, -0.06564795225858688, 0.3055034279823303, -0.20418724417686462, 0.2171596735715866, -0.08823764324188232, -0.16987577080726624, 0.125446617603302, 0.039097726345062256, 0.15254516899585724, 0.12762419879436493, -0.08876598626375198, 0.15224438905715942, -0.11981111019849777, -0.1163533478975296, 0.12462592124938965, 0.09122245758771896, -0.24065448343753815, -0.014605400152504444, 0.2817935049533844, 0.11092478036880493, 0.2770904302597046, -0.10376441478729248, -0.13640348613262177, 0.2658238410949707, 0.17791835963726044, 0.1680488884449005, -0.12763279676437378, -0.20441466569900513, -0.04970354586839676, -0.2505611181259155, 0.11679921299219131, 0.14197082817554474, 0.018266480416059494, -0.05085275322198868, 0.13127979636192322, -0.11455221474170685, 0.2000773400068283, -0.20306581258773804, -0.11023064702749252, -0.1027047336101532, 0.16973713040351868, 0.004445782862603664, 0.0917627140879631, -0.26880666613578796, 0.05780518800020218, -0.003474361030384898, 0.007581096142530441, 0.1318630427122116, 0.10214440524578094, -0.005243648774921894, 0.02175518497824669, -0.04255114495754242, -0.11294565349817276, 0.06379526108503342, -0.24599863588809967, 0.168710857629776, -0.12396231293678284, 0.0031493164133280516, 0.06422814726829529, -0.1977507323026657, 0.17337177693843842, -0.10215795785188675, -0.030029669404029846, -0.14625729620456696, 0.20783737301826477, 0.36613887548446655, -0.05074203759431839, 0.041298605501651764, -0.07633796334266663, -0.24521584808826447, 0.13748851418495178, 0.034405965358018875, -0.026015857234597206, -0.273290753364563, -0.1287081092596054, -0.05719004571437836, -0.06985345482826233, -0.1055324599146843, 0.13278383016586304, -0.18432633578777313, -0.1396133005619049, -0.1148182824254036, 0.11804474145174026, -0.084401436150074, 0.02601373754441738, -0.11225298792123795, -0.056499406695365906, 0.6139207482337952, -0.19959798455238342, -0.12164226174354553, -0.017983155325055122, -0.022362375631928444, -0.17661674320697784, 0.11413102596998215, 0.06579648703336716, 0.1510106921195984, 0.02518531121313572, -0.1930542141199112, -0.05813007056713104, -0.06574907898902893, 0.07539701461791992, -0.03626139089465141, -0.03630552440881729, 0.15271919965744019, -0.15915173292160034, -0.0799943059682846, 0.036718111485242844, -0.23552100360393524, 0.12256508320569992, -0.16744063794612885, 0.1900775283575058, -0.17258645594120026, 0.16497942805290222, 0.2556818723678589, -0.1268162578344345, 0.1241101622581482, 0.18419000506401062, -0.19540758430957794, 0.021856706589460373, 0.0948905497789383, 0.05623086541891098, 0.045234400779008865, -0.12275617569684982, -0.08961180597543716, -0.04731545224785805, 0.11065483838319778, 0.12981215119361877, -0.13272379338741302, 0.12204177677631378, -0.04260193184018135, 0.005962399300187826, -0.17583119869232178, 0.025763794779777527, 0.048696041107177734, -0.1495252102613449, 0.3877109885215759, -0.19628505408763885, 0.02793027088046074, -0.017026960849761963, 0.0431123748421669, -0.09286921471357346, -0.09198333323001862, -0.06793919205665588, -0.11317619681358337, 0.17299138009548187, -0.17759078741073608, -0.16322213411331177, -0.10017433762550354, 0.03734176978468895, 0.1734779328107834, 0.11197138577699661, -0.14492306113243103, 0.008220711722970009, 0.08765843510627747, 0.07901349663734436, 0.1404150128364563, 0.06969000399112701, -0.0018371747573837638, 0.17250879108905792, -0.03820709139108658, 0.08732352405786514, -0.025599351152777672, 0.09658850729465485, 0.11590559780597687, 0.17996995151042938, -0.1647910624742508, -0.12762922048568726, -0.11309487372636795, -0.09560814499855042, 0.1073094978928566, 0.042725060135126114, -0.12293443083763123, -0.09055041521787643, -0.11492738127708435, 0.08934997767210007, -0.10865946114063263, -0.06331779062747955, -0.13956980407238007, 0.08119416981935501, 0.08027861267328262, 0.0017982946010306478, 0.10303568094968796, 0.2186303585767746, 0.240212544798851, 0.08875103294849396, 0.04331318661570549, -0.02990030311048031, 0.06908763200044632, -0.022982260212302208, 0.10247626155614853, 0.09249819815158844, -0.122239850461483, 0.14376002550125122, 0.1490364372730255, 0.056228019297122955, -0.09382282942533493, -0.018497854471206665, -0.14931710064411163, 0.07713838666677475, 0.10575845837593079, 0.013368827290832996, -0.08689123392105103, -0.17270855605602264, 0.07670558989048004, 0.12079434841871262, -0.2662736177444458, -0.1359424740076065, -0.12925654649734497, -0.042532779276371, 0.09525506943464279, 0.05378058925271034, 0.07533297687768936, 0.04119504615664482, 0.14929166436195374, 0.18644572794437408, -0.042213257402181625, 0.09392762184143066, 0.05759353190660477, 0.03650781139731407, -0.09798389673233032, 0.17226247489452362, 0.1701207011938095, -0.14630365371704102, -0.03490549325942993, 0.05854067578911781, -0.09889855980873108, 0.09784497320652008, 0.11447252333164215, 0.040420468896627426, 0.09932876378297806, -0.06064664572477341, 0.21198759973049164, -0.14412270486354828, 0.060064662247896194, -0.1396903246641159, -0.05018676444888115, -0.1585570126771927, 0.003808819456025958, 0.1498715728521347, 0.1036168709397316, 0.06908553093671799, 0.05502040311694145, -0.14247986674308777, -0.026968959718942642, 0.10459710657596588, 0.03731442987918854, 0.1660851687192917, -0.1545027643442154, 0.043889984488487244, 0.10049854218959808, -0.0699775218963623, -0.02339184656739235, -0.027970699593424797, 0.17832593619823456, -0.07161738723516464, 0.002836520317941904, -0.2358497977256775, -0.3888768255710602, 0.06523262709379196, -0.06838951259851456, 0.06780514121055603, -0.04615112021565437, -0.13041014969348907, 0.011558069847524166, 0.09349024295806885, 0.2582065165042877, 0.15101927518844604, 0.11636506766080856, -0.14064161479473114, -0.12243513017892838, -0.19149236381053925, 0.09030438959598541, 0.11059311032295227, -0.04231102764606476, -0.16539216041564941, -0.05529484897851944, 0.056122664362192154, 0.2853759527206421, -0.1946290284395218, -0.5850567817687988, 0.10750062763690948, 0.027447348460555077, 0.00962060783058405, -0.07849642634391785, 0.07229550927877426, -0.10597028583288193, -0.1605413854122162, 0.11944691836833954, -0.008472864516079426, 0.09132823348045349, 0.030790308490395546, -0.1252870261669159, -0.28880980610847473, -0.2193399965763092, -0.011781186796724796, 0.32671669125556946, -0.2896116077899933, -0.03496411070227623, 0.12626275420188904, 0.028621718287467957, 0.40476399660110474, 0.061883412301540375, -0.16654057800769806, -0.027894897386431694, 0.28396931290626526, 0.5704342722892761, -0.2264125645160675, -0.2330593466758728, -0.003788824426010251, -0.341227650642395, 0.11542811989784241, 0.24583452939987183, -0.06445655971765518, -0.131708025932312, -0.08362648636102676, -0.012723621912300587, 0.07615349441766739, 0.3150178790092468, 0.09531321376562119, -0.1815190464258194, -0.07726236432790756, -0.036552343517541885, 0.3184613287448883, 0.2932465374469757, 0.06396031379699707, -0.11365293711423874, 0.16084171831607819, 0.7881730794906616, 0.0028699501417577267, -0.22661685943603516, -0.24029365181922913, 0.251339852809906, -0.30248546600341797, 0.0792326107621193, -0.08622775226831436, 0.1127995103597641, 0.07776430249214172, -0.1982516646385193, -0.02197200246155262, 0.006996553856879473, 0.05407555773854256, -0.00020576435781549662, 0.26225873827934265, -0.1561148464679718, -0.03481220826506615, -0.0553998202085495, 0.10273962467908859, 0.1907578706741333, -0.03467949479818344, 0.054396506398916245, -0.10954660922288895, 0.20955654978752136, -0.044806547462940216, 0.15205053985118866, -0.004579604137688875, 0.13252484798431396, 0.08649569749832153, 0.0001642681600060314, -0.0495280995965004, -0.04993411898612976, -0.032689157873392105, -0.000825268856715411, 0.02518281154334545, 0.005957530811429024, -0.17444030940532684, 0.09384872764348984, -0.0640481635928154, 0.07087423652410507, 0.09444114565849304, 0.05389546602964401, 0.014189179055392742, -0.05679309740662575, -0.06572132557630539, 0.02454415336251259, 0.23479026556015015, -0.24033881723880768, 0.2093033492565155, -0.03306663781404495, 0.1536119282245636, -0.19598332047462463, -0.08174464106559753, -0.02594435214996338, -0.06749638170003891, -0.060403138399124146, -0.11909014731645584, -0.001628993428312242, -0.12513314187526703, -0.0216212198138237, 0.03927648067474365, 0.03559856116771698, -0.08567900210618973, -0.0784856379032135, -0.08946216106414795, 0.05849243327975273, 0.10743119567632675, -0.032061804085969925, -0.07306018471717834, -0.26741719245910645, -0.07704295963048935, -0.17404316365718842, -0.09622809290885925, 0.05561601370573044, -0.10610106587409973, 0.02984752133488655, -0.023379351943731308, -0.06851478666067123, 0.15114179253578186, 0.12034215033054352, -0.0007225352455861866, 0.014292096719145775, 0.021549642086029053, -0.09532652050256729, 0.21147629618644714, 0.11907673627138138, 0.08617018163204193, -0.12169954925775528, 0.0481407567858696, -0.13834062218666077, 0.017602264881134033, -0.02744164690375328, -0.060074757784605026, -0.01899629272520542, -0.07439088076353073, 0.1644456386566162, -0.21342064440250397, -0.14228971302509308, 0.006515019107609987, -0.03490506485104561, 0.040788087993860245, 0.12414130568504333, 0.16249507665634155, -0.03250901773571968, 0.0037845850456506014, -0.017448976635932922, 0.08420263230800629, 0.16824418306350708, -0.07105011492967606, -0.10227711498737335, -0.26539722084999084, -0.09440351277589798, 0.20173878967761993, 0.07692521065473557, 0.18763518333435059, 0.08430752158164978, 0.05387231707572937, -0.033077631145715714, 0.18627676367759705, 0.06606800109148026, 0.06933177262544632, -0.2136809527873993, 0.20942296087741852, -0.06121204420924187, 0.12807774543762207, -0.0632241740822792, -0.02367265522480011, -0.21354666352272034, -0.09696263074874878, 0.015566393733024597, -0.0009615871240384877, -0.20425516366958618, 0.11073067784309387, -0.06266899406909943, 0.18688473105430603, -0.11259707808494568, 0.08630561828613281, -0.11081069707870483, -0.0655551627278328, -0.02261538989841938, 0.045667026191949844, 0.09736188501119614, 0.005643776617944241, 0.4949396550655365, 0.11437007039785385, 0.03202364593744278, -0.126481294631958, -0.14341722428798676, 0.037215705960989, -0.07559576630592346, 0.005587894935160875, -0.04769100248813629, 0.02058076485991478, -0.10466153174638748, 0.1324881613254547, 0.15300269424915314, 0.17122173309326172, -0.20497596263885498, 0.07335314899682999, -0.08586669713258743, 0.03323236480355263, 0.060082126408815384, -0.009121166542172432, -0.049597784876823425, -0.0365658663213253, -0.040306299924850464, 0.01131949108093977, 0.02852877415716648, -0.19918197393417358, -0.32256999611854553, -0.052133459597826004, 0.13600224256515503, 0.07286695390939713, 0.11823584884405136, 0.018415095284581184, -0.08464600890874863, -0.03663536533713341, 0.22621960937976837, 0.00335821439512074, 0.2143101543188095, -0.08614735305309296, -0.14089466631412506, -0.22229216992855072, 0.11060778796672821, -0.09868954122066498, 0.11531169712543488, 0.007500569336116314, 0.07890559732913971, -0.1269599348306656, 0.09958578646183014, 0.22213685512542725, -0.35801687836647034, 0.05652442201972008, -0.06599964201450348, 0.16767118871212006, -0.015846144407987595, 0.09187375754117966, -0.07890722155570984, 0.051722798496484756, -0.062451623380184174, -0.12689149379730225, -0.049514252692461014, -0.03848710283637047, 0.13167421519756317, -0.10138969123363495, -0.0783746987581253, 0.0034780774731189013, -0.08932777494192123, -0.037133075296878815, -0.0521814189851284, 0.11986193060874939, -0.17515504360198975, -0.04918650910258293, -0.05613603815436363, -0.026020297780632973, -0.10196074843406677, -0.14802871644496918, 0.08970216661691666, 0.1643264889717102, -0.024616664275527, -0.08880458772182465, 0.03423381224274635, 0.2034624218940735, 0.010666233487427235, 0.22148467600345612, 0.1270231455564499, -0.04315133020281792, -0.06959359347820282, 0.1645161211490631, -0.03550116345286369, -0.06498552113771439, -0.06161868944764137, 0.06097610294818878, -0.17774173617362976, -0.1190822571516037, 0.06701962649822235, 0.1301116794347763, -0.044381849467754364, -0.05515825003385544, 0.1503465473651886, -0.08368206769227982, 0.04526088759303093, -0.12142658233642578, 0.09182284772396088, 0.03350477293133736, 0.030888943001627922, 0.020363949239253998, -0.0023726404178887606, -0.053433921188116074, 0.030640561133623123, 0.049142010509967804, 0.18385425209999084, -0.05855477228760719, -0.015990441665053368, -0.2860347032546997, -0.1952802687883377, 0.037438586354255676, 0.13675102591514587, 0.3198149502277374, -0.1475074142217636, 0.06193559616804123, 0.05872869864106178, 0.11968009918928146, -0.11016912758350372, -0.05997684597969055, 0.049023911356925964, 0.4133433699607849, -0.30409833788871765, 0.11635403335094452, -0.2008362114429474, 0.13622638583183289, -0.001212004222907126, 0.19433778524398804, -0.1332072615623474, 0.22152084112167358, -0.25215059518814087, 0.012144787237048149, -0.30528968572616577, 0.21596240997314453, -0.14565488696098328, 0.02664772793650627, -0.08702030032873154, 0.027636997401714325, -0.15688663721084595, 0.22325803339481354, -0.024727003648877144, -0.029164206236600876, 0.37731513381004333, 0.1192489042878151, 0.2759891748428345, -0.052442148327827454, 0.06127285212278366, 0.2599354386329651, 0.05141981691122055, 0.026982735842466354, -0.219880148768425, 0.1282213032245636, -0.03382566571235657, -0.09861880540847778, 0.1021098792552948, -0.0724644884467125, 0.1579660028219223, 0.10040301084518433, 0.029829474166035652, 0.11903691291809082, 0.02338307723402977, -0.034227803349494934, 0.03946545347571373, 0.0019534097518771887, 0.05141371488571167, 0.1808367371559143, -0.04126593470573425, -0.12003760784864426, -0.11125112324953079, 0.006505900528281927, 0.07520736008882523, -0.07307058572769165, -0.11464245617389679, -0.03584514930844307, -0.14726778864860535, -0.06151549890637398, 0.08392884582281113, -0.040748365223407745, 0.0744243711233139, 0.11421144008636475, -0.05201645568013191, 0.05054856091737747, -0.10829561203718185, 0.18597766757011414, 0.14351721107959747, 0.023132024332880974, 0.06717666983604431, -0.17242591083049774, -0.029125094413757324, 0.11070021986961365, -0.251290887594223, 0.06614506989717484, -0.021014535799622536, -0.05464493855834007, -0.0994880348443985, 0.18212777376174927, -0.08041467517614365, 0.04476510360836983, 0.013856514357030392, 0.10956627130508423, 0.030772751197218895, 0.027413850650191307, -0.055496394634246826, -0.03918468579649925, -0.028775939717888832, 0.04004441946744919, 0.15083755552768707, -0.04324093833565712, -0.08517381548881531, 0.17204314470291138, -0.10276167839765549, 0.16568401455879211, -0.01876131258904934, -0.07011117041110992, -0.020313043147325516, 0.24536541104316711, 0.31016212701797485, -0.0864393338561058, -0.19961029291152954, 0.01482369564473629, 0.03469889238476753, 0.1913195103406906, 0.18620486557483673, 0.04751822352409363, -0.174099400639534, -0.09670903533697128, -0.13666237890720367, 0.1699586808681488, 0.16192777454853058, -0.041951145976781845, 0.040128450840711594, -0.0668821781873703, -0.006983209401369095, 0.11810189485549927, 0.05762150138616562, 0.08503064513206482, -0.16916359961032867, -0.1391907036304474, 0.26195085048675537, 0.05354304984211922, 0.030214399099349976, 0.061432354152202606, 0.005346272140741348, -0.16452650725841522, -0.04463978856801987, -0.02141166292130947, 0.038627445697784424, -0.04018508270382881, -0.05464836210012436, 0.03747449442744255, -0.06114313751459122, -0.1576964110136032, -0.1212916299700737, 0.28376540541648865, -0.006364663131535053, -0.19221089780330658, 0.08418899774551392, -0.06235736235976219, -0.026263955980539322, -0.07995041459798813, -0.06808891147375107, -0.13412216305732727, 0.17208510637283325, 0.007712326943874359, 0.36532458662986755, -0.34290701150894165, -0.02301124855875969, -0.06411069631576538, 0.18528865277767181, 0.1264307200908661, 0.15338675677776337, -0.07407674938440323, -0.06230080500245094, -0.06258725374937057, -0.011758451350033283, -0.04122627153992653, 0.03691641986370087, -0.2012869268655777, 0.1090833991765976, -0.14830328524112701, 0.18680886924266815, 0.10625886917114258, 0.20064271986484528, -0.02573724463582039, -0.03197284787893295, -0.021738549694418907, -0.4501272439956665, 0.03576352819800377, -0.14958813786506653, 0.04586105793714523, -0.03957366198301315, -0.308376282453537, -0.06749212741851807, -0.21133030951023102, 0.24034011363983154, -0.11766966432332993, -0.0020328261889517307, -0.08639142662286758, 0.1258642077445984, -0.013299326412379742, 0.06100756302475929, 0.09218394756317139, 0.020332476124167442, 0.05893288552761078, 0.11893568933010101, 0.06874973326921463, -0.021174855530261993, 0.04214530065655708, 0.00033662127680145204, -0.0056121135130524635, 0.07550914585590363, -0.02933037094771862, 0.05537204071879387, -0.17798686027526855, 0.006719929166138172, 0.10222399234771729, 0.1480558067560196, -0.2768884003162384, 0.022347407415509224, -0.23955322802066803, -0.13626502454280853, -0.1171671524643898, -0.019433485344052315, -0.09086939692497253, -0.11379484087228775, 0.07239003479480743, 0.2244817167520523, 0.012076330371201038, 0.16587021946907043, -0.1392395943403244, -0.012592265382409096, -0.013767215423285961, 0.11558853834867477, -0.019062362611293793, -0.2350582331418991, 0.1630844622850418, 0.06749595701694489, 0.1820249706506729, -0.1463499665260315, 0.10317634046077728, -0.056599270552396774, -0.018918296322226524, 0.012450648471713066, 0.08371368050575256, 0.15400688350200653, 0.11292081326246262, 0.0468774251639843, -0.04935978353023529, 0.12532895803451538, -0.05522878095507622, 0.018466059118509293, 0.10083582997322083, 0.17909683287143707, -0.03781165927648544, 0.01772083155810833, 0.12276683747768402, 0.15181337296962738, 0.046968936920166016, -0.00798418652266264, 0.050704993307590485, -0.05116074159741402, -0.48849716782569885, 0.27516648173332214, 0.11147447675466537, -0.4810592234134674, 0.2828576862812042, -1.0542395114898682, -0.42722636461257935, -0.2849524915218353, 0.7285870909690857, -0.8489624261856079, -0.42107123136520386, -1.2603044509887695, 0.174669548869133, -0.9784238934516907, 0.43229615688323975, -0.786375880241394, -0.02805045060813427, 0.10112302005290985, -0.0829128548502922, 0.33623772859573364, -0.05125699192285538, 0.1151939406991005, -0.3522782623767853, -0.02542548067867756, 0.050415441393852234, -0.08392972499132156, 0.01750986836850643, 0.1003769263625145, -0.05826065316796303, 0.22571684420108795, 0.062432512640953064, -0.015534227713942528, 0.11171355098485947, -0.12413165718317032, 0.09245175868272781, -0.06745104491710663, -0.24421605467796326, 0.25994637608528137, -0.03272208198904991, -0.19158440828323364, 0.12942244112491608, -0.0695032849907875, 0.1415296494960785, 0.3672342300415039, 0.03385030850768089, 0.11901511996984482, 0.01637451909482479, 0.18342390656471252, -0.036153458058834076, -0.16056519746780396, -0.06033448129892349, 0.21431203186511993, 0.0458221435546875, 0.2532040774822235, -0.03616148233413696, 0.07986124604940414, -0.04154547303915024, 0.0025336891412734985, -0.17266839742660522, -0.2625562846660614, -0.06674071401357651, 0.12086319923400879, 0.12530764937400818, -0.01845955103635788, -0.007157367654144764, 0.18872900307178497, 0.07532692700624466, -0.16194264590740204, -0.12652160227298737, -0.27634426951408386, -0.09661991894245148, -0.024218233302235603, 0.08351197093725204, -0.00039593171095475554, 0.17554740607738495, 0.24730564653873444, 0.30302751064300537, -0.24827837944030762, -0.22393301129341125, -0.13423319160938263, 0.3195090889930725, -0.03413507714867592, -0.059230223298072815, -0.07451047003269196, 0.059797175228595734, 0.04516245797276497, -0.11749317497015, 0.2440948635339737, 0.1686837077140808, 0.037057291716337204, -0.07443983107805252, 0.29574108123779297, -0.13551576435565948, -0.04370494931936264, -0.19694884121418, -0.1318061798810959, -0.3966919779777527, -0.33904117345809937, -0.18217432498931885, -0.19330115616321564, 0.21169815957546234, -0.379447340965271, 0.24988798797130585, -0.23641559481620789, -0.03246058523654938, 0.3433772325515747, -0.041647203266620636, -0.18647414445877075, 0.03129376098513603, -0.1893182098865509, 0.28636816143989563, 0.2795870304107666, 0.32256993651390076, -0.140707328915596, 0.31513819098472595, -0.41614049673080444, 0.010228144936263561, 0.2838456928730011, 0.04122374206781387, -0.30677521228790283, 0.3153797388076782, 0.18286330997943878, -0.3291846513748169, 0.35212045907974243, 0.34754976630210876, 0.08821472525596619, -0.24163658916950226, 0.3919619023799896, 0.2956215441226959, -0.11567454040050507, -0.1157417893409729, 0.1200171709060669, -0.03455932065844536, 0.07273081690073013, -0.04708250239491463, 0.031877849251031876, 0.05977949500083923, 0.2779960632324219, -0.33745452761650085, 0.05380522832274437, -0.2438962310552597, 0.25229573249816895, 0.18180575966835022, 0.13188867270946503, -0.008959103375673294, 0.11902178078889847, -0.04624753072857857, -0.296176552772522, -0.13522090017795563, -0.1500285416841507, 0.23499129712581635, -0.2630639672279358, -0.09098206460475922, 0.13387705385684967, 0.13345414400100708, -0.05119574815034866, 0.08992885053157806, 0.06742839515209198, -0.06702987104654312, 0.38247907161712646, -0.1419447362422943, -0.04735853523015976, -0.13424351811408997, 0.10322269052267075, 0.08078699558973312, -0.2777339220046997, 0.04160824045538902, 0.01639244705438614, -0.05561915412545204, -0.04422948881983757, 0.10977160930633545, 0.19822585582733154, 0.11213299632072449, -0.008114920929074287, 0.07401686161756516, -0.11730051785707474, -0.057414740324020386, -0.21099577844142914, -0.003647546051070094, -0.09095895290374756, 0.08340444415807724, -0.08177099376916885, 0.04777040332555771, -0.1464667022228241, 0.1700533777475357, 0.3470078706741333, -0.20353466272354126, 0.21466055512428284, 0.23204825818538666, 0.06638072431087494, -0.08196299523115158, 0.1712077409029007, 0.12052816897630692, 0.15202072262763977, -0.18784192204475403, -0.06910356134176254, -0.2704503834247589, -0.08992938697338104, 0.07366420328617096, 0.15286853909492493, 0.014894261956214905, 0.1684356927871704, 0.167174831032753, -0.10107681155204773, 0.057292453944683075, 0.004437131341546774, -0.007175377570092678, -0.08572348952293396, -0.0133733581751585, -0.23814909160137177, -0.4378272593021393, 0.1603832244873047, -0.15280838310718536, 0.09428519010543823, -0.20235635340213776, 0.13132737576961517, -0.1129097267985344, -0.056966088712215424, -0.2640051245689392, -0.3129667639732361, 0.0002526979078538716, -0.01166567113250494, 0.17021490633487701, -0.04776487126946449, 0.2882148027420044, 0.24890193343162537, -0.16483354568481445, 0.22712256014347076, -0.3266191780567169, 0.1766204833984375, -0.048307452350854874, 0.007408223580569029, 0.056634772568941116, 0.24503283202648163, 0.07587775588035583, 0.06347063928842545, 0.041495587676763535, 0.23950254917144775, 0.08983764052391052, -0.07858527451753616, 0.10304886102676392, 0.33890652656555176, -0.06760247051715851, 0.05363086238503456, -0.233134925365448, 0.07064297050237656, 0.06859052181243896, 0.024636726826429367, -0.10711124539375305, 0.11440581828355789, -0.06642515957355499, -0.05133170634508133, -0.1724942922592163, 0.17682477831840515, 0.2425697147846222, 0.1120455339550972, 0.2954932749271393, -0.10402189195156097, -0.10581561177968979, 0.08852221816778183, -0.36894842982292175, 0.19954995810985565, -0.2695867717266083, 0.18402314186096191, 0.4452044665813446, -0.20887871086597443, 0.13435019552707672, 0.126677006483078, -0.22288502752780914, 0.2983224391937256, -0.30075734853744507, -0.22487305104732513, -0.08910614252090454, 0.043041735887527466, 0.06621723622083664, -0.056530047208070755, -0.12192198634147644, -0.03733919933438301, 0.16714522242546082, 0.15560151636600494, 0.12216953188180923, -0.051190637052059174, 0.03118106536567211, -0.1642482429742813, 0.07918231189250946, -0.2517859935760498, -0.08663437515497208, -0.055647846311330795, 0.12059740722179413, 0.051254697144031525, 0.044228121638298035, 0.11267860978841782, -0.12618832290172577, -0.0846276506781578, 0.23824793100357056, -0.19533716142177582, -0.01647309586405754, -0.12463616579771042, 0.0471205860376358, -0.12423130869865417, 0.2590005695819855, 0.04886205121874809, -0.017681565135717392, -0.10265219211578369, 0.27129533886909485, 0.007814544253051281, -0.04619036242365837, 0.0031185068655759096, -0.032042618840932846, -0.11678902804851532, -0.003818657249212265, -0.1559726595878601, -0.015962522476911545, 0.07120593637228012, -0.07703965902328491, -0.08929529786109924, 0.1312997192144394, 0.012690521776676178, -0.04738525301218033, 0.011571329087018967, -0.1691136211156845, -0.03596537932753563, -0.01952720619738102, 0.08134111762046814, -0.01556383352726698, -0.16440637409687042, 0.07493866980075836, 0.10668276995420456, -0.07883281260728836, -0.1727169007062912, 0.2769222855567932, -0.22943806648254395, -0.21811836957931519, 0.18168118596076965, -0.1368085741996765, 0.0023717714939266443, -0.11625523120164871, -0.027952225878834724, 0.06319033354520798, -0.08312109112739563, 0.009472623467445374, -0.14838701486587524, 0.1545935571193695, 0.18517892062664032, 0.214742511510849, -0.04849914088845253, -0.2785264849662781, -0.157614067196846, 0.17828847467899323, -0.16974492371082306, 0.044767145067453384, 0.012391544878482819, 0.34964510798454285, 0.018849652260541916, 0.12483362853527069, -0.20489367842674255, 0.09304399788379669, -0.15118756890296936, -0.006559506058692932, -0.10719587653875351, 0.09959957003593445, -0.04207313433289528, -0.14148761332035065, 0.02970736287534237, 0.12280050665140152, -0.007073341868817806, 0.1493798941373825, -0.01376803033053875, 0.009227326139807701, -0.13470682501792908, -0.060588203370571136, -0.11249499022960663, -0.09639978408813477, 0.22162652015686035, -0.04740476608276367, -0.02875138819217682, -0.08770086616277695, -0.09681776165962219, -0.050118930637836456, 0.12444958835840225, 0.07219627499580383, 0.07903660088777542, -0.16073337197303772, -0.04636211693286896, 0.02919357270002365, 0.035067368298769, -0.0047806003130972385, 0.10984939336776733, -0.08640541136264801, -0.18893525004386902, 0.148672416806221, 0.1268812119960785, 0.12638811767101288, -0.21901164948940277, -0.17070084810256958, -0.04953431338071823, -0.023255042731761932, -0.20276100933551788, 0.0773521438241005, 0.03934403508901596, 0.15213030576705933, 0.11510312557220459, 0.10846490412950516, 0.08843966573476791, -0.03065246157348156, -0.10833945125341415, 0.19892525672912598, 0.0794868916273117, 0.1338888257741928, -0.011944280937314034, -0.036309245973825455, -0.07777803391218185, 0.038069888949394226, -0.1362515687942505, -0.04822564870119095, 0.04854124039411545, -0.06864810734987259, -0.061938587576150894, 0.09533510357141495, 0.045796964317560196, 0.10590235888957977, 0.18927986919879913, 0.18699927628040314, 0.04828731343150139, 0.02710152603685856, 0.06060533598065376, 0.14547091722488403, -0.07483603060245514, -0.029242435470223427, -0.20687803626060486, -0.11131681501865387, 0.007989070378243923, -0.20179075002670288, -0.018384316936135292, 0.1973198503255844, -0.07050550729036331, 0.054063621908426285, -0.06431512534618378, 0.037209101021289825, 0.26860785484313965, 0.009594800882041454, 0.1507233828306198, -0.048289667814970016, -0.11437693983316422, 0.08949875831604004, -0.06942977756261826, -0.10528770834207535, 0.002185586839914322, -0.09421046078205109, 0.2016412317752838, 0.1644173115491867, -0.06304016709327698, -0.22451302409172058, -0.11505816131830215, 0.07357433438301086, 0.15743623673915863, 0.07219763100147247, 0.013353615999221802, -0.04194442555308342, -0.1567443311214447, -0.10046782344579697, -0.08949518948793411, 0.08475909382104874, 0.033914774656295776, -0.052107345312833786, 0.06928057968616486, 0.010730993002653122, -0.046403758227825165, -0.010310135781764984, 0.07703915983438492, 0.1073002740740776, 0.1739344596862793, -0.008017964661121368, 0.059864744544029236, 0.10370630025863647, -0.0010157212382182479, 0.1004301905632019, -0.23366141319274902, 0.034430064260959625, 0.043744660913944244, 0.20785978436470032, -0.0858255997300148, -0.1108904480934143, -0.1507032960653305, 0.07149050384759903, 0.21648871898651123, 0.04233211278915405, -0.11280781030654907, 0.08787225931882858, 0.04561008885502815, 0.23400263488292694, -0.1407375931739807, -0.1908523440361023, 0.012600589543581009, 0.0920662134885788, 0.026010951027274132, 0.2021586000919342, -0.07091529667377472, -0.2747938632965088, -0.13507874310016632, 0.22424814105033875, 0.03662938252091408, -0.13529250025749207, -0.1212044432759285, -0.12061789631843567, -0.1902509182691574, 0.2225257307291031, 0.19439730048179626, 0.1592670977115631, -0.108287014067173, -0.18216940760612488, -0.08272047340869904, 0.2263626605272293, 0.12487448751926422, 0.0920984074473381, -0.20645548403263092, 0.061365753412246704, 0.07675784081220627, -0.08198118954896927, -0.17817705869674683, -0.1648828685283661, 0.30150163173675537, -0.1804656684398651, -0.2496139258146286, 0.2603286802768707, 0.22632426023483276, -0.08970428258180618, -0.2320873737335205, 0.028623659163713455, -0.029785899445414543, 0.03516024351119995, 0.2025449573993683, -0.01754303276538849, -0.06973227113485336, -0.10180467367172241, -0.008560285903513432, 0.08782180398702621, -0.0474107526242733, -0.22698886692523956, -0.01706823520362377, 0.08844374865293503, -0.07670708000659943, -0.0003738166706170887, -0.028689179569482803, 0.1954987794160843, 0.06274477392435074, -0.0025232424959540367, 0.0867682620882988, -0.07574097812175751, -0.19482143223285675, -0.06794960796833038, 0.19246363639831543, 0.1632569283246994, -0.011316879652440548, -0.22529512643814087, -0.17693252861499786, 0.029359878972172737, 0.1174478679895401, 0.16431792080402374, 0.022102614864706993, -0.1616649478673935, -0.06769201159477234, 0.12362353503704071, 0.1955333799123764, -0.004646198358386755, -0.024436384439468384, 0.002308448776602745, 0.09761682897806168, 0.03573911637067795, -0.05146734043955803, 0.10992717742919922, -0.006108670029789209, -0.12295734137296677, 0.028934093192219734, -0.07232781499624252, 0.158003032207489, -0.024016769602894783, -0.12281016260385513, -0.12487722188234329, -0.07923492044210434, -0.11108461767435074, 0.017471669241786003, 0.1613193154335022, -0.21294771134853363, -0.0946347638964653, -0.02476552128791809, 0.21165740489959717, 0.033598754554986954, -0.10101216286420822, -0.07549919933080673, 0.12473034858703613, -0.13054798543453217, 0.11212069541215897, -0.009363088756799698, -0.07052439451217651, 0.009453090839087963, 0.017861751839518547, 0.21626152098178864, 0.048851341009140015, -0.2076922506093979, -0.20281562209129333, -0.03309578821063042, 0.21390385925769806, 0.0022230360191315413, 0.1355571448802948, -0.200162872672081, -0.26920169591903687, 0.046075981110334396, 0.03231567144393921, 0.06844143569469452, -0.06478351354598999, -0.12384854257106781, 0.008688347414135933, -0.09729818254709244, 0.02148439735174179, -0.10089658945798874, -0.08774389326572418, 0.1531601995229721, -0.2269715666770935, -0.028194988146424294, 0.14659951627254486, 0.2640804648399353, -0.2026408165693283, -0.1831485480070114, -0.031650543212890625, 0.1847463995218277, 0.020872319117188454, 0.17145374417304993, 0.07627778500318527, 0.00189958733972162, -0.027306053787469864, 0.31810638308525085, 0.11845307052135468, -0.09549342095851898, -0.08046187460422516, 0.010632747784256935, 0.008422919549047947, 0.0919395163655281, -0.05336286500096321, 0.025549674406647682, -0.0017711507389321923, 0.10019058734178543, -0.014554747380316257, -0.03995003551244736, -0.07774628698825836, -0.22633640468120575, 0.10135272145271301, 0.04388083517551422, 0.08772841840982437, 0.048025429248809814, -0.21521201729774475, -0.21637171506881714, 0.05345163121819496, -0.05521635338664055, 0.24810217320919037, -0.1055387333035469, -0.1172010600566864, -0.09653207659721375, 0.058986399322748184, 0.0010878527536988258, -0.08032676577568054, 0.09066346287727356, 0.21850737929344177, 0.029400749132037163, -0.033110037446022034, -0.055271606892347336, 0.15816675126552582, 0.009915902279317379, -0.11611068248748779, -0.23449565470218658, 0.0018270423170179129, 0.06475911289453506, -0.01454075425863266, -0.20506858825683594, 0.03418254479765892, 0.16303765773773193, -0.08575460314750671, 0.14180056750774384, -0.07498469203710556, -0.2676074802875519, -0.13180695474147797, -0.04155633598566055, 0.26908543705940247, -0.04034947231411934, -0.10858955979347229, -0.09129613637924194, 0.10838629305362701, 0.006850715726613998, 0.4527176320552826, -0.06258226931095123, 0.11481267958879471, -0.06464076787233353, 0.033049967139959335, 0.10802552849054337, -0.0897461399435997, 0.022590188309550285, 0.06267131865024567, -0.09438225626945496, 0.07157527655363083, 0.001989543903619051, 0.1885216385126114, 0.049058716744184494, 0.04146062210202217, 0.011158548295497894, -0.09114189445972443, 0.04500370845198631, 0.0891425833106041, -0.058579426258802414, -0.21136097609996796, 0.009240125305950642, -0.136366605758667, 0.09288005530834198, -0.17792776226997375, 0.21444763243198395, 0.06790109723806381, -0.12876684963703156, -0.07441771775484085, 0.2018074095249176, -0.09465737640857697, 0.12921856343746185, 0.022105978801846504, 0.031173983588814735, -0.19565026462078094, -0.05428348854184151, 0.05106623098254204, 0.19881319999694824, 0.09605684876441956, -0.20116937160491943, 0.416207492351532, -0.052759621292352676, 0.05812622979283333, -0.26905110478401184, -0.11982139945030212, -0.04648471996188164, 0.16360144317150116, -0.08162763714790344, 0.13083519041538239, -0.24660013616085052, -0.2539936900138855, -0.06287813931703568, -0.04666147381067276, 0.14213621616363525, -0.1424141526222229, -0.21846871078014374, -0.15149319171905518, -0.2199157476425171, 0.21821798384189606, 0.23402032256126404, -0.012280905619263649, -0.157516211271286, -0.08689858019351959, -0.032175205647945404, 0.10746786743402481, 0.03168897330760956, 0.20369099080562592, -0.15741252899169922, 0.12606658041477203, 0.09685443341732025, -0.04087908938527107, -0.19312496483325958, -0.22975769639015198, 0.21783781051635742, -0.1703242063522339, -0.03961561620235443, 0.07940486073493958, 0.2809869945049286, 0.022634001448750496, -0.11861960589885712, -0.09403306245803833, -0.027010148391127586, 0.06636141985654831, 0.006042880937457085, -0.009647791273891926, 0.09053464978933334, 0.011413730680942535, 0.11239469796419144, 0.2559378147125244, -0.033569999039173126, -0.1136716976761818, -0.08854368329048157, 0.1586327850818634, -0.21483339369297028, 0.05286218225955963, 0.057771600782871246, 0.30543240904808044, -0.0806826800107956, 0.16530613601207733, 0.11748899519443512, -0.12999802827835083, 0.0941392257809639, 0.1956557333469391, 0.09467735141515732, 0.08107147365808487, 0.16182740032672882, 0.030326148495078087, -0.11099620908498764, -0.028601981699466705, -0.007295025046914816, 0.07978523522615433, -0.0404624380171299, 0.004811179358512163, -0.0010476837633177638, -0.05818622186779976, 0.09167074412107468, -0.011180924251675606, 0.0602240264415741, 0.009235234931111336, 0.1134999692440033, -0.1998922973871231, -0.06792513281106949, -0.03706318140029907, 0.1818360686302185, -0.09422263503074646, -0.023069705814123154, -0.2695094048976898, 0.07963799685239792, 0.09425848722457886, -0.12391828000545502, 0.0024444113951176405, -0.08967141062021255, -0.11578550934791565, 0.061787765473127365, 0.14127206802368164, -0.09677338600158691, -0.0039291707798838615, -0.2060922533273697, 0.013147926889359951, 0.058630965650081635, -0.04735485091805458, -0.07135508954524994, 0.02034776285290718, -0.08044129610061646, 0.033479537814855576, -0.004338338505476713, -0.03808770701289177, 0.1377677023410797, 0.20127961039543152, 0.22382289171218872, -0.06679562479257584, -0.15346160531044006, -0.18490588665008545, 0.070381298661232, -0.05918754264712334, -0.07779094576835632, -0.05127126723527908, -0.14854882657527924, -0.16403518617153168, -0.13203400373458862, -0.06730914860963821, 0.16699820756912231, -0.06310717016458511, 0.03686973452568054, 0.09667086601257324, 0.014367915689945221, -0.12678010761737823, -0.17293822765350342, -0.1614922136068344, 0.11281046271324158, -0.1309698224067688, -0.19209396839141846, 0.11277531087398529, 0.09372512996196747, -0.22756801545619965, -0.20156438648700714, -0.06245771795511246, -0.0063558705151081085, 0.2338034212589264, 0.11111187189817429, 0.05125405639410019, -0.21782131493091583, 0.056190282106399536, -0.02049150876700878, -0.07800593227148056, -0.10592268407344818, -0.061942145228385925, 0.11377330124378204, 0.13461752235889435, 0.16636648774147034, -0.012859992682933807, -0.10983452200889587, -0.2523624002933502, 0.14280474185943604, -0.15544641017913818, 0.11882488429546356, -0.19266504049301147, 0.029268348589539528, -0.08793316781520844, 0.006570236757397652, 0.05051274597644806, -0.14969569444656372, -0.03265073522925377, -0.1568775475025177, -0.034074410796165466, 0.05935364216566086, 0.10973448306322098, 0.16706454753875732, -0.00758191617205739, 0.05181930214166641, -0.014953084290027618, 0.13948239386081696, 0.0010488658444955945, 0.07536035776138306, 0.005900971591472626, 0.14678481221199036, 0.194067120552063, -0.013308340683579445, 0.09284097701311111, 0.1431233286857605, -0.2154238373041153, 0.10866823047399521, 0.14847160875797272, 0.02952188439667225, -0.10383059829473495, 0.03880682587623596, 0.04118003696203232, 0.13943830132484436, -0.1367834061384201, -0.06639403104782104, 0.11924978345632553, 0.021726809442043304, 0.06718309223651886, -0.1423347145318985, -0.11504003405570984, 0.04400838539004326, -0.020855708047747612, 0.033033307641744614, 0.1318601667881012, -0.004124833736568689, 0.09389357268810272, -0.03832506015896797, 0.08030405640602112, -0.1031871885061264, -0.07262274622917175, -0.03650365397334099, 0.10055060684680939, -0.046636104583740234, 0.09756935387849808, 0.004813124891370535, -0.034668680280447006, -0.05851059406995773, -0.03253701701760292, 0.1003635823726654, 0.07862492650747299, -0.055253997445106506, -0.1447005718946457, -0.1280878186225891, 0.12314877659082413, 0.06328240782022476, -0.15753313899040222, 0.15214772522449493, 0.05752595514059067, 0.09510738402605057, 0.06563235819339752, -0.06485646218061447, 0.006426171865314245, -0.03227778524160385, 0.01938297040760517, -0.12887445092201233, -0.03654738515615463, 0.054950542747974396, 0.060805793851614, 0.20421482622623444, 0.23915182054042816, 0.1187078207731247, 0.1802617460489273, 0.01992212049663067, 0.00193127803504467, 0.019746635109186172, 0.05156424641609192, -0.11438693106174469, -0.0624026283621788, 0.09174198657274246, 0.029873892664909363, 0.12680190801620483, -0.13216479122638702, 0.07465843111276627, -0.3840429484844208, -0.16399873793125153, -0.059632204473018646, 0.09872216731309891, -0.188557431101799, -0.0615801066160202, -0.0460253544151783, 0.05560428276658058, 0.03248657286167145, -0.0748533383011818, -0.04808066785335541, 0.10106536746025085, -0.08420343697071075, 0.19364231824874878, 0.038039326667785645, 0.12014256417751312, -0.02807488664984703, -0.055853769183158875, 0.11441904306411743, -0.02215738594532013, -0.07286706566810608, -0.15887822210788727, -0.03220386058092117, 0.019333716481924057, 0.1010817214846611, -0.059807948768138885, 0.02895456738770008, 0.016870874911546707, -0.04421105980873108, -0.07725841552019119, 0.3884747326374054, -0.03481890261173248, 0.06043516471982002, 0.03748418018221855, -0.07800593227148056, -0.1785423308610916, 0.17134740948677063, 0.09016261249780655, -0.018493521958589554, 0.3385528326034546, -0.12944166362285614, -0.10219410061836243, 0.021386483684182167, 0.2879984676837921, -0.14206889271736145, 0.2768285870552063, -0.0934283658862114, 0.007893549278378487, -0.5610934495925903, -0.04583531990647316, -0.06675171107053757, 0.0701364204287529, 0.11661337316036224, 0.1295095831155777, 0.03591781109571457, 0.05153149366378784, -0.10687161982059479, 0.021322255954146385, 0.03867465630173683, 0.06805656850337982, -0.1780562400817871, 0.03604406118392944, -0.21156422793865204, -0.10347190499305725, 0.09099330753087997, -0.00042742746882140636, 0.021011026576161385, 0.03357303887605667, 0.043107617646455765, 0.1280072033405304, -0.13312509655952454, -0.2312501072883606, 0.3681149482727051, -0.18402907252311707, 0.06439290195703506, 0.20076152682304382, -0.08245052397251129, -0.02812407724559307, 0.23051103949546814, -0.08694116771221161, 0.04804038256406784, 0.023121841251850128, 0.05722863972187042, -0.07627742737531662, 0.021610863506793976, -0.02694179117679596, -0.06785833090543747, -0.05504976585507393, 0.028541650623083115, 0.008282330818474293, 0.12218795716762543, 0.015203041024506092, -0.11457991600036621, 0.061767660081386566, -0.017925484105944633, 0.09409990161657333, -0.435808390378952, -0.6404711604118347, 0.7027059197425842, 0.24448685348033905, -0.6841260194778442, 0.3018900156021118, -0.3978005647659302, -0.02605142630636692, 0.6627704501152039, -1.077518343925476, 0.9817638397216797, 0.7586575746536255, -0.06370103359222412, -0.5188271999359131, 0.2073180228471756, -0.6048235297203064, 0.09574176371097565, -0.04456314817070961, 0.12948040664196014, -0.1913035660982132, 0.18114349246025085, 0.19257698953151703, 0.2675916850566864, -0.015334858559072018, 0.1980784833431244, 0.0015178141184151173, 0.1721578985452652, 0.2460128217935562, -0.27128660678863525, 0.05623563379049301, -0.03178104758262634, -0.19637778401374817, 0.14066940546035767, 0.0213050227612257, 0.08242985606193542, 0.277927041053772, 0.25304070115089417, 0.23244835436344147, -0.04347516596317291, -0.047761961817741394, -0.25717708468437195, 0.17915266752243042, 0.04268518462777138, -0.2325209230184555, 0.2349216639995575, 0.2906266152858734, 0.059945929795503616, -0.12129735201597214, 0.014482219703495502, -0.45766904950141907, -0.007537530735135078, -0.32354840636253357, 0.5187607407569885, -0.11822842061519623, 0.09989073127508163, -0.3206411898136139, -0.13512371480464935, 0.09385323524475098, -0.21132585406303406, 0.1694246381521225, 0.1734699159860611, -0.31651657819747925, 0.10242938250303268, 0.2257230132818222, 0.3302572965621948, 0.2438264638185501, 0.1848057061433792, 0.07740567624568939, -0.4287542402744293, 0.4840274751186371, -0.2099553942680359, 0.30198267102241516, 0.353526771068573, -0.14986397325992584, 0.1871235966682434, 0.3041019141674042, 0.10525845736265182, 0.19533167779445648, -0.02696598507463932, -0.33245334029197693, 0.006782660726457834, -0.2433660924434662, 0.20573538541793823, -0.0944124236702919, 0.37852758169174194, -0.10575734823942184, 0.18912747502326965, -0.04387810081243515, 0.007760143373161554, 0.13163793087005615, -0.08784137666225433, 0.10626324266195297, -0.15991848707199097, -0.14411422610282898, 0.15600544214248657, -0.09988291561603546, -0.03937824070453644, -0.23813913762569427, -0.047401297837495804, -0.20838281512260437, 0.01914101466536522, -0.15221676230430603, 0.2994675636291504, -0.12517713010311127, -0.24715834856033325, -0.09171199798583984, -0.1290324181318283, 0.11261488497257233, 0.046904515475034714, 0.03754672780632973, 0.3426809310913086, 0.20370608568191528, -0.012825976125895977, 0.26129308342933655, -0.01746293716132641, 0.20672351121902466, 0.29605764150619507, -0.044877100735902786, 0.030900033190846443, 0.11991211771965027, -0.1676567792892456, 0.24760772287845612, 0.21177901327610016, -0.29552462697029114, 0.14075273275375366, 0.13131479918956757, -0.20832720398902893, 0.06128637492656708, 0.1455187201499939, 0.07588837295770645, -0.258425235748291, -0.15047697722911835, 0.2944607436656952, -0.14022178947925568, 0.32742932438850403, -0.18169084191322327, -0.07022321969270706, 0.116606704890728, -0.0639585480093956, 0.30720266699790955, 0.003572966204956174, 0.05026772990822792, 0.06760071218013763, -0.04470411315560341, -0.15996965765953064, 0.2617494761943817, 0.054850898683071136, 0.2967953383922577, 0.36559009552001953, 0.010142721235752106, -0.19488538801670074, 0.10156130790710449, -0.24936379492282867, 0.18118594586849213, -0.0824299082159996, 0.1987980604171753, -0.14575789868831635, -0.008627095259726048, 0.14591670036315918, 0.01369354035705328, 0.1946331113576889, -0.04916904866695404, -0.13782356679439545, 0.06423638015985489, -0.2805538773536682, 0.14575742185115814, -0.3028457760810852, -0.2435205727815628, 0.0761076807975769, -0.21390743553638458, 0.19467519223690033, -0.12007805705070496, -0.13577789068222046, -0.10063181072473526, 0.1353519707918167, -0.18480542302131653, 0.24626591801643372, -0.3984833359718323, -0.19428257644176483, -0.16383066773414612, 0.4804016947746277, -0.1950870156288147, 0.3130291998386383, -0.13536308705806732, 0.07155885547399521, 0.2626531422138214, -0.26817259192466736, 0.11139538139104843, 0.09490028768777847, -0.2646773159503937, 0.08288148790597916, 0.1905665099620819, -0.0059537142515182495, 0.1495755910873413, -0.049080558121204376, 0.03852361440658569, -0.0229394119232893, 0.06837643682956696, 0.3033970892429352, -0.014379745349287987, -0.1792513132095337, -0.14460362493991852, -0.19786882400512695, 0.25285041332244873, -0.3090152144432068, -0.24541746079921722, -0.10652632266283035, 0.07858186215162277, -0.17422933876514435, -0.3392009437084198, -0.2200777530670166, -0.2555898129940033, 0.21246060729026794, -0.02253374271094799, -0.029472704976797104, -0.39149683713912964, 0.2610667943954468, -0.07566627115011215, -0.3012221157550812, 0.16852551698684692, -0.1702170968055725, -0.10003277659416199, 0.21230842173099518, -0.07469607889652252, -0.0382903516292572, 0.07145871222019196, -0.1426820158958435, -0.04594489932060242, 0.34401580691337585, -0.06397498399019241, 0.3839353024959564, -0.1236659437417984, 0.15186205506324768, 0.18804796040058136, 0.1375557780265808, -0.12812887132167816, 0.019083553925156593, 0.09469810873270035, -0.15171436965465546, -0.10629349201917648, 0.08626743406057358, 0.4311307966709137, 0.09412740170955658, 0.07785279303789139, 0.22254502773284912, 0.21501049399375916, 0.2160695642232895, -0.08244943618774414, 0.31376588344573975, 0.2204950749874115, 0.24047908186912537, 0.23811472952365875, -0.1017594188451767, 0.1681211292743683, -0.020679766312241554, -0.38018521666526794, -0.25798124074935913, 0.015113185159862041, 0.0862697884440422, -0.07651416212320328, 0.039628151804208755, -0.10023202747106552, 0.1252499371767044, -0.2795073390007019, -0.06625086069107056, 0.15010911226272583, 0.2161683589220047, 0.2873377501964569, -0.1398533284664154, -0.01223075669258833, -0.1783921718597412, 0.02516830898821354, 0.00923556461930275, 0.04078857973217964, 0.05532834306359291, 0.09562329947948456, -0.06167495250701904, 0.11234474182128906, 0.07537266612052917, 0.020981036126613617, -0.14979641139507294, -0.11672855168581009, 0.04652068763971329, 0.05849260091781616, 0.05559556931257248, 0.06486213952302933, 0.052460093051195145, -0.023306069895625114, -0.06728622317314148, -0.1562023013830185, 0.1266094595193863, 0.08761809021234512, 0.01634804531931877, -0.021914780139923096, 0.13560765981674194, 0.011538336984813213, 0.16810734570026398, -0.09717337042093277, 0.22467872500419617, 0.11055599898099899, 0.16314363479614258, -0.10895439237356186, -0.041691072285175323, 0.04479655623435974, 0.0020978073589503765, 0.23873917758464813, 0.19601476192474365, -0.048451781272888184, -0.13269823789596558, -0.21928857266902924, 0.03605203703045845, 0.21091756224632263, 0.17809699475765228, -0.15579363703727722, -0.15760384500026703, -0.11692092567682266, 0.09218903630971909, -0.008968398906290531, 0.10023544728755951, -0.047712333500385284, 0.23313623666763306, -0.06682222336530685, -0.20205576717853546, -0.01153144147247076, -0.17021234333515167, 0.031551241874694824, 0.049567535519599915, 0.16347472369670868, -0.053999803960323334, -0.12462243437767029, 0.01583184488117695, -0.2487371563911438, 0.04471197351813316, -0.11957810819149017, -0.15069414675235748, 0.21265865862369537, 0.1365199089050293, 0.16966092586517334, -0.15483491122722626, 0.07195670157670975, -0.11692839115858078, 0.016423508524894714, 0.10506603866815567, -0.31332486867904663, -0.08165685832500458, -0.046757131814956665, 0.17686942219734192, -0.008934862911701202, -9.843213047133759e-05, 0.020004358142614365, 0.16751767694950104, 0.12869209051132202, -0.2283473014831543, -0.24161694943904877, -0.21576862037181854, 0.08165858685970306, 0.042172037065029144, 0.09483393281698227, -0.10777755081653595, -0.2229936420917511, -0.15942193567752838, 0.1497940719127655, 0.06226020306348801, 0.09982229024171829, 0.13076470792293549, 0.050086136907339096, -0.12149551510810852, -0.16868188977241516, -0.06833466142416, 0.18844644725322723, 0.027799343690276146, -0.19012749195098877, 0.016088545322418213, -0.15924236178398132, -0.034648239612579346, -0.16834554076194763, 0.07453830540180206, 0.01598588190972805, 0.15372544527053833, 0.19195681810379028, 0.06390608847141266, 0.31649819016456604, 0.08627118170261383, -0.025174295529723167, -0.2615133821964264, -0.17917777597904205, 0.1819845288991928, 0.2138337641954422, 0.0449264757335186, -0.30478665232658386, -0.22601650655269623, 0.043188948184251785, 0.08833238482475281, -0.09765340387821198, 0.04788581654429436, 0.08927322179079056, 0.18425878882408142, 0.054396312683820724, -0.07879188656806946, -0.13540507853031158, 0.006375098135322332, 0.1838988959789276, 0.10907888412475586, 0.11464155465364456, -0.2398931235074997, -0.1309359222650528, -0.06066727638244629, 0.16885748505592346, 0.05407678335905075, 0.06998983025550842, -0.07581514120101929, -0.013722047209739685, -0.06748724728822708, 0.162272647023201, 0.08632513880729675, 0.18061557412147522, -0.14964257180690765, -0.17280131578445435, -0.12330403923988342, 0.06641166657209396, -0.11677317321300507, 0.026211708784103394, 0.047333844006061554, 0.0008300713379867375, 0.022698406130075455, -0.18661552667617798, 0.03234431520104408, -0.21097080409526825, -0.1312386691570282, -0.26603126525878906, 0.009397076442837715, 0.16938872635364532, -0.11694279313087463, 0.18980807065963745, 0.13983184099197388, 0.07112415879964828, 0.04859141632914543, -0.022101905196905136, -0.11983498185873032, 0.11637622117996216, 0.05190484598278999, 0.00541246123611927, 0.06912065297365189, -0.02693866938352585, 0.04317166656255722, 0.10386772453784943, -0.12110259383916855, -0.2672823667526245, -0.1909952163696289, 0.01941302791237831, 0.16617365181446075, -0.014300215058028698, -0.08341536670923233, -0.07084988802671432, 0.08482059091329575, 0.29302406311035156, 0.16030600666999817, -0.1271759420633316, -0.230802521109581, -0.2215024083852768, -0.008323143236339092, 0.12665250897407532, -0.030337903648614883, 0.24939760565757751, -0.07518856227397919, -0.053731050342321396, 0.06708191335201263, 0.23046264052391052, -0.01957818493247032, 0.18375538289546967, 0.12824653089046478, 0.14381051063537598, 0.11547161638736725, -0.12879139184951782, -0.09696867316961288, 0.19379545748233795, 0.16220515966415405, -0.3368339538574219, 0.13874991238117218, 0.13152754306793213, -0.017262235283851624, -0.08668438345193863, 0.04768579825758934, 0.20676946640014648, 0.09802393615245819, -0.05983741581439972, -0.29288148880004883, 0.29050615429878235, 0.12042571604251862, 0.1939244419336319, -0.19908276200294495, -0.08003852516412735, 0.07327859103679657, -0.029144950211048126, -0.021195532754063606, -0.1502637416124344, 0.14682796597480774, 0.21562440693378448, -0.03414502367377281, -0.06689494103193283, -0.064379021525383, -0.09054625779390335, 0.010006568394601345, 0.038606077432632446, -0.05968582630157471, 0.13007551431655884, -0.21586152911186218, -0.15111427009105682, -0.07286898046731949, 0.08305272459983826, 0.03558559715747833, 0.16653135418891907, -0.024933094158768654, -0.09848707169294357, -0.04637359082698822, 0.10017510503530502, -0.2022436410188675, 0.07229063659906387, 0.05463370308279991, -0.16448558866977692, -0.05432210862636566, -0.1266150325536728, -0.17005228996276855, -0.1553919017314911, 0.043682340532541275, -0.22183017432689667, -0.08278416097164154, 0.1714644730091095, -0.18338578939437866, -0.1612904816865921, 0.05655580013990402, 0.11968584358692169, 0.15807408094406128, -0.1920740306377411, -0.1615007370710373, 0.17150606215000153, 0.09592265635728836, -0.008324540220201015, -0.029677754268050194, -0.11359743773937225, 0.16011102497577667, -0.07525287568569183, -0.19742059707641602, -0.2223377227783203, -0.12171212583780289, 0.05248096212744713, 0.04152129590511322, 0.10717156529426575, -0.12773656845092773, -0.20858068764209747, -0.12422233074903488, -0.025502216070890427, -0.042364925146102905, 0.1317814290523529, -0.26692354679107666, -0.10500174015760422, 0.02211415022611618, 0.11632677167654037, 0.06545855849981308, 0.04554137960076332, -0.26849475502967834, -0.029266342520713806, -0.04708666726946831, 0.2246890664100647, -0.11900128424167633, -0.1117105558514595, -0.07581043243408203, 0.06012322008609772, 0.0330946259200573, -0.21825642883777618, -0.12137246131896973, 0.10024835169315338, -0.14251841604709625, -0.1898660957813263, 0.09518786519765854, 0.2068009227514267, 0.21520613133907318, 0.10813253372907639, -0.26331815123558044, -0.1775423139333725, -0.08130694925785065, 0.21871468424797058, -0.033247675746679306, 0.09738072752952576, 0.008714284747838974, -0.13149842619895935, -0.11291887611150742, -0.2662449777126312, -0.12061239778995514, 0.03672724589705467, 0.10415449738502502, -0.19676002860069275, -0.19453169405460358, -0.07919434458017349, -0.23744593560695648, -0.1675126552581787, 0.029474757611751556, 0.23830091953277588, -0.02247711829841137, -0.1860206574201584, -0.21807606518268585, 0.08678033202886581, 0.1618470698595047, 0.12899693846702576, 0.047705698758363724, -0.13082371652126312, -0.10755854845046997, -0.06640101969242096, 0.17348584532737732, 0.07008130103349686, -0.10492387413978577, -0.17292870581150055, 0.2010601907968521, -0.03275632858276367, -0.18719889223575592, -0.24365009367465973, -0.005741075146943331, 0.031154494732618332, -0.23774348199367523, 0.03184342384338379, -0.003187919734045863, 0.14944171905517578, -0.028165899217128754, -0.36009085178375244, -0.22539383172988892, -0.1727592796087265, 0.08693671226501465, 0.20187470316886902, 0.044128306210041046, -0.05708203837275505, -0.3228697180747986, -0.20989501476287842, -0.08652649074792862, -0.05016280710697174, 0.143632173538208, 0.48241087794303894, -0.06207837909460068, 0.2511534094810486, -0.15517306327819824, -0.25470808148384094, -0.16029785573482513, -0.20499247312545776, 0.015022177249193192, -0.20446914434432983, -0.2457687109708786, -0.29659825563430786, -0.037044133991003036, 0.027446359395980835, 0.15592257678508759, 0.021403031423687935, -0.22065506875514984, -0.014074137434363365, -0.008495263755321503, 0.3774232566356659, 0.002027994953095913, -0.0025164447724819183, -0.5252184867858887, -0.14577077329158783, -0.12287325412034988, 0.29055824875831604, -0.018238404765725136, -0.0534018836915493, 0.17732968926429749, 0.07622780650854111, -0.1809084266424179, -0.3443114161491394, -0.13712309300899506, -0.19005754590034485, -0.0684233233332634, -0.3696042001247406, -0.14466220140457153, 0.09106556326150894, -0.0014180900761857629, 0.19455201923847198, -0.021180124953389168, 0.10628952831029892, -0.04689396917819977, 0.19461917877197266, 0.08103804290294647, -0.34902113676071167, 0.06546905636787415, -0.028936700895428658, 0.16738174855709076, 0.05732350796461105, -0.12880079448223114, -0.05568918585777283, 0.06102507561445236, 0.019084570929408073, -0.23494519293308258, -0.012961097061634064, -0.05768153816461563, -0.13375629484653473, -0.008820940740406513, 0.056917767971754074, -0.0852077305316925, -0.18569743633270264, -0.01869780384004116, -0.05025449022650719, 0.035763420164585114, 0.12928390502929688, 0.1768220067024231, -0.12063345313072205, 0.0691562294960022, -0.30301398038864136, 0.0854964330792427, 0.14522412419319153, 0.025443047285079956, -0.2797057330608368, 0.13419273495674133, -0.02684946171939373, -0.207502081990242, -0.1366114467382431, 0.10762009024620056, 0.028353560715913773, 0.023090170696377754, 0.22920438647270203, -0.1413550227880478, 0.14340995252132416, -0.11930842697620392, -0.023135052993893623, 0.04978922754526138, 0.196755051612854, -0.0660337284207344, -0.030403945595026016, -0.22695094347000122, 0.0994437038898468, 0.2513662576675415, -0.13526450097560883, 0.05988964065909386, 0.023513972759246826, 0.05591616407036781, -0.07254765182733536, 0.06289496272802353, -0.0178451556712389, 0.1620921492576599, 0.08459135890007019, -0.03528248146176338, -0.08282800763845444, -0.06825556606054306, -0.12236684560775757, 0.21169325709342957, 0.16823320090770721, 0.10156286507844925, 0.03420150279998779, 0.0005924194701947272, -0.04092548042535782, 0.16852761805057526, -0.1029381975531578, 0.06599130481481552, -0.14498239755630493, -0.1359696239233017, -0.03613360971212387, 0.14330080151557922, 0.008749308995902538, -0.11086823791265488, -0.25155478715896606, 0.1288008987903595, -0.04803362116217613, -0.10580930858850479, -0.12026499211788177, 0.03527023643255234, 0.07224428653717041, 0.12037389725446701, 0.15277259051799774, -0.13144756853580475, 0.35708457231521606, -0.016888942569494247, 0.015343153849244118, -0.08345139771699905, -0.1688764989376068, 0.14004631340503693, 0.12551181018352509, -0.04787914827466011, -0.06731708347797394, -0.24250392615795135, 0.11723868548870087, 0.3409155607223511, 0.11246044188737869, 0.06644733250141144, -0.02425338327884674, -0.08190707862377167, -0.015412092208862305, -0.012494193390011787, -0.11483179777860641, 0.07935969531536102, 0.32838451862335205, 0.17520977556705475, 0.11934279650449753, -0.1859922558069229, -0.16459287703037262, 0.056327030062675476, 0.18464712798595428, 0.11010022461414337, 0.04426504299044609, -0.048867981880903244, -0.11549099534749985, 0.05336962267756462, 0.1414976567029953, 0.08396432548761368, 0.2072053998708725, 0.02917461283504963, -0.11841177940368652, 0.06438658386468887, 0.02445005439221859, 0.05010880529880524, -0.023524269461631775, 0.2521055042743683, 0.11501475423574448, 0.0011719119502231479, -0.08045845478773117, -0.06530710309743881, 0.26473602652549744, 0.005575696937739849, -0.1833890974521637, 0.08586540073156357, 0.17653456330299377, -0.0863628089427948, 0.1215471625328064, -0.0286082960665226, 0.07475665956735611, 0.024187671020627022, -0.005997368134558201, 0.0898362323641777, -0.1962880939245224, 0.19361338019371033, -0.11475605517625809, 0.13906212151050568, 0.05477611720561981, -0.05949604883790016, -0.16952484846115112, 0.1329825520515442, -0.03539350628852844, -0.4215452969074249, -0.059813786298036575, 0.054976046085357666, -0.07537408173084259, -0.03282885625958443, 0.10184627026319504, -0.049955107271671295, 0.08225949108600616, -0.02513005957007408, -0.10075536370277405, 0.12806643545627594, -0.1794336587190628, 0.11077523976564407, 0.025748811662197113, 0.21032322943210602, -0.3003406226634979, 0.25348347425460815, 0.0258016437292099, -0.07823309302330017, -0.0991058424115181, 0.008183940313756466, 0.08818632364273071, -0.21032948791980743, 0.2501284182071686, -0.03331456705927849, 0.15065757930278778, 0.002075989032164216, -0.03217003494501114, -0.11116071045398712, 0.17278243601322174, -0.11530599743127823, 0.014297627843916416, -1.7067544831661507e-05, -0.06989438086748123, -0.017085637897253036, 0.020426049828529358, 0.09105782210826874, -0.11109736561775208, 0.11319532245397568, 0.2845252454280853, -0.1701391339302063, -0.17322617769241333, -0.3503637909889221, -0.24946129322052002, -0.03160279616713524, 0.1996728926897049, -0.10930563509464264, 0.08551620692014694, 0.1872607171535492, -0.19286900758743286, -0.11657541245222092, 0.17223404347896576, -0.1387622356414795, 0.03194722905755043, 0.007851163856685162, 0.07272563874721527, -0.10124090313911438, 0.2843222916126251, -0.2113511860370636, -0.10867980867624283, -0.00882643461227417, 0.03267500549554825, 0.020958689972758293, 0.39401775598526, -0.2219797819852829, -0.11901914328336716, -0.058808326721191406, 0.17036527395248413, 0.06257528066635132, 0.035191021859645844, 0.0051282113417983055, 0.16620390117168427, 0.13544699549674988, 0.049226053059101105, 0.012369482778012753, -0.09959599375724792, 0.0706796795129776, 0.007603059988468885, 0.10042807459831238, 0.016459381207823753, 0.21873940527439117, 0.05220859497785568, 0.029799025505781174, -0.15621621906757355, -0.026081617921590805, 0.06819263845682144, 0.06317583471536636, 0.12428335100412369, 0.10608628392219543, 0.0971306636929512, -0.033092182129621506, -0.11210867762565613, -0.013823476620018482, -0.1472948044538498, 0.16992317140102386, 0.29401612281799316, 0.17314770817756653, 0.050137054175138474, -0.21117883920669556, 0.03800363838672638, 0.28164413571357727, 0.13963541388511658, 0.11362189054489136, -0.12411267310380936, -0.15586020052433014, -0.021506933495402336, 0.23567737638950348, 0.05816004052758217, -0.12755678594112396, -0.0810258612036705, -0.0018946575000882149, -0.1009516641497612, 0.28589221835136414, 0.21642474830150604, 0.030303072184324265, -0.11802414804697037, 0.16203559935092926, 0.07502315938472748, -0.0776161327958107, -0.17630518972873688, -0.11061685532331467, 0.24711142480373383, -0.13568980991840363, -0.11198920011520386, 0.18824981153011322, 0.2558627128601074, 0.2044985294342041, 0.010771055705845356, -0.07683391124010086, -0.021690698340535164, 0.16785992681980133, -0.058370526880025864, 0.03847196325659752, -0.1122126579284668, 0.22855828702449799, -0.01924760267138481, -0.10985755175352097, -0.12302476912736893, -0.050317659974098206, 0.17074920237064362, 0.03334387019276619, -0.04284041374921799, -0.1582556664943695, 0.35362088680267334, -0.03878118097782135, -0.0440853089094162, 0.08736756443977356, -0.06822996586561203, -0.0022632174659520388, -0.051051199436187744, -0.035203155130147934, -0.06887955218553543, -0.05464230105280876, 0.1459922343492508, -0.04142354056239128, -0.11931882053613663, 0.01383008249104023, 0.10791666805744171, 0.3624182641506195, 0.017351394519209862, -0.37936389446258545, 0.10753179341554642, -0.13141390681266785, -0.11932390183210373, -0.14535586535930634, -0.15393997728824615, -0.11256095767021179, -0.014084971509873867, 0.19676488637924194, -0.20098912715911865, -0.26277706027030945, 0.06602354347705841, -0.1856369823217392, 0.04550859332084656, 0.11929028481245041, -0.016885343939065933, -0.07105856388807297, 0.1109364926815033, 0.05381043627858162, -0.18794724345207214, 0.025170685723423958, 0.11063315719366074, -0.383872389793396, 0.0042569441720843315, -0.18144607543945312, 0.2007613182067871, -0.1129327267408371, -0.02684713341295719, -0.30420082807540894, 0.0697004497051239, -0.014488513581454754, -0.23707735538482666, 0.33187177777290344, 0.0470731221139431, -0.013563374988734722, -0.0413704514503479, -0.03392697498202324, -0.11037490516901016, 0.14093442261219025, -0.11293733865022659, -0.08548786491155624, -0.1322193741798401, 0.07583756744861603, 0.0037605806719511747, 0.022060375660657883, 0.05320272967219353, -0.4492664039134979, 0.31212833523750305, -0.013898915611207485, 0.09662032872438431, -0.058303896337747574, -0.07956242561340332, -0.14049509167671204, 0.0835568904876709, -0.015503212809562683, -0.3046586215496063, -0.14614327251911163, 0.10202295333147049, -0.057432133704423904, -0.42850664258003235, -0.08758174628019333, -0.1785307228565216, -0.07493383437395096, -0.0007139002555049956, 0.07130500674247742, -0.14449343085289001, 0.18023234605789185, -0.05444766953587532, 0.13083820044994354, 0.12073558568954468, -0.19361573457717896, -0.36186569929122925, 0.07274428755044937, 0.14136548340320587, 0.0967441126704216, -0.053947146981954575, 0.08249934017658234, 0.17055359482765198, -0.04600196331739426, 0.16541682183742523, 0.7288342714309692, 0.2859983742237091, 0.6524304747581482, -0.9272847771644592, -0.4419364333152771, 0.3344932794570923, 0.015086767263710499, 0.09162210673093796, 0.23553632199764252, 0.12224958837032318, -0.8439924716949463, 0.21910858154296875, 0.0011839141370728612, -0.8467162251472473, 0.32120639085769653, -0.28846704959869385, -0.2043544501066208, -0.09154117852449417, 0.23333339393138885, -0.39154353737831116, -0.002949371002614498, 0.3456737995147705, -0.06226404756307602, -0.2152981162071228, -0.12462326139211655, 0.024575931951403618, -0.31791162490844727, 0.03366792947053909, 0.10156534612178802, -0.1311914026737213, 0.2687050402164459, -0.11836252361536026, -0.15664422512054443, -0.20243710279464722, -0.14089617133140564, -0.3076072335243225, -0.09024451673030853, -0.2618567645549774, 0.33871087431907654, -0.27576732635498047, -0.18321527540683746, 0.039085693657398224, -0.4108363091945648, 0.08847073465585709, 0.07206527888774872, 0.24883371591567993, 0.20489193499088287, 0.13387346267700195, -0.4059385657310486, 0.2069053053855896, -0.46324536204338074, -0.22791238129138947, -0.14363016188144684, -0.2499222755432129, 0.15067143738269806, -0.20959480106830597, 0.29786455631256104, -0.03842638432979584, -0.16548246145248413, -0.2588789761066437, 0.03465164080262184, 0.1355024129152298, -0.0963859036564827, 0.17648833990097046, -0.3531915545463562, 0.03418083116412163, -0.16494107246398926, 0.16225601732730865, 0.12888486683368683, 0.12689971923828125, 0.28201255202293396, 0.05162283405661583, -0.24188946187496185, -0.09432151168584824, 0.03157207742333412, -0.41587716341018677, 0.3836902976036072, 0.1634097397327423, -0.0648055151104927, -0.10942133516073227, 0.20563989877700806, -0.040680740028619766, -0.18562734127044678, 0.20938576757907867, -0.024690907448530197, -0.25252577662467957, 0.1213516816496849, -0.1549118012189865, 0.3053198456764221, 0.2446187287569046, 0.2268858253955841, 0.30309587717056274, -0.29238569736480713, -0.05571942403912544, -0.17561955749988556, -0.19686804711818695, -0.3688124418258667, 0.21472778916358948, -0.011655997484922409, -0.09294549375772476, -0.019482074305415154, 0.2836339771747589, 0.09775169938802719, -0.11592686921358109, 0.1686774045228958, 0.06119582802057266, -0.1799888163805008, -0.07446448504924774, -0.05712305009365082, 0.056202344596385956, -0.3271203637123108, -0.10546590387821198, -0.1746547520160675, -0.13370810449123383, -0.18149515986442566, -0.1211332157254219, 0.043472569435834885, -0.35702890157699585, 0.23483125865459442, -0.030241042375564575, -0.3675411641597748, 0.04428085684776306, -0.15569427609443665, -0.13183702528476715, 0.08223745971918106, 0.06453656405210495, -0.041813790798187256, -0.020279645919799805, -0.23155561089515686, 0.30155590176582336, -0.4389503300189972, -0.18352776765823364, 0.013576594181358814, -0.11134262382984161, -0.015566989779472351, 0.06082430109381676, 0.17102007567882538, 0.0528198666870594, -0.06681660562753677, 0.17511199414730072, -0.08432390540838242, 0.13713327050209045, 0.27481523156166077, -0.14908070862293243, -0.04826158285140991, -0.13933293521404266, -0.0600871667265892, -0.14606624841690063, 0.20103532075881958, -0.16259537637233734, -0.06393802911043167, -0.24921639263629913, -0.1371401995420456, -0.04270632192492485, -0.18042932450771332, -0.23976923525333405, 0.16516557335853577, 0.27771928906440735, -0.06229643151164055, 0.24004492163658142, -0.04415564611554146, 0.3319162130355835, 0.20099471509456635, -0.09045470505952835, -0.06670314073562622, 0.2713826298713684, -0.36928442120552063, 0.15604089200496674, -0.19353342056274414, -0.14765043556690216, 0.12468277662992477, -0.224946066737175, 0.2826966345310211, -0.3177303969860077, 0.1812826693058014, 0.06271179765462875, -0.23945404589176178, 0.2549830675125122, -0.5910245180130005, -0.012056505307555199, -0.37299200892448425, -0.143207386136055, 0.2540549635887146, -0.27049264311790466, 0.28145310282707214, 0.026807306334376335, -0.21378777921199799, 0.12624455988407135, 0.007974318228662014, 0.20978161692619324, 0.18724891543388367, -0.15384821593761444, 0.18704356253147125, 0.16080300509929657, -0.07781779766082764, 0.15590441226959229, -0.011643453501164913, 0.03138543292880058, -0.1212538629770279, 0.10885313153266907, 0.13339145481586456, 0.0026864369865506887, 0.3273322284221649, 0.361960232257843, -0.3027888834476471, 0.13837870955467224, -0.05439325049519539, -0.2888152003288269, 0.12761931121349335, 0.3561039865016937, 0.2247978299856186, 0.15921247005462646, -0.2679179608821869, 0.3054767847061157, -0.2637810707092285, -0.13458700478076935, 0.5240551829338074, 0.1995631903409958, -0.3197886347770691, 0.03013426624238491, -0.4180332124233246, 0.04965954273939133, -0.040771275758743286, -0.17418111860752106, -0.23705030977725983, -0.07209473103284836, -0.07176213711500168, 0.27941641211509705, 0.09914188086986542, -0.15827688574790955, 0.08865755796432495, -0.22709870338439941, -0.2538532316684723, 0.24960561096668243, 0.015470069833099842, -0.38234639167785645, -0.17565138638019562, 0.19799982011318207, -0.02950923889875412, 0.4514535069465637, 0.13892194628715515, -0.10679188370704651, -0.021385852247476578, 0.14878951013088226, -0.11014081537723541, -0.2728046476840973, 0.11642856895923615, -0.12081249803304672, -0.2323935180902481, 0.05556512624025345, -0.24636542797088623, 0.046423498541116714, 0.0959964320063591, 0.024783626198768616, -0.1486365646123886, 0.1293518990278244, -0.16774970293045044, 0.04089133441448212, -0.4108574092388153, -0.7695998549461365, -0.1889510601758957, -0.18931463360786438, 0.4376026391983032, -0.2635456323623657, -0.15312591195106506, 0.06810615956783295, -0.446041464805603, -0.22802843153476715, 0.07629691064357758, -0.002832109574228525, -0.1200539842247963, 0.06020290404558182, -0.14132218062877655, -0.036524783819913864, 0.032597362995147705, -0.06273146718740463, 0.021139755845069885, -0.010428155772387981, -0.12798893451690674, 0.061709389090538025, -0.244696244597435, 0.21177035570144653, 0.02294614352285862, 0.01929054968059063, -0.0036492247600108385, -0.320122629404068, -0.03780832141637802, -0.012798194773495197, 0.0357000008225441, -0.08311689645051956, -0.008196146227419376, -0.09128116816282272, 0.23464393615722656, -0.011624196544289589, 0.11643651872873306, 0.17727813124656677, -0.12096832692623138, 0.036695774644613266, 0.029111145064234734, 0.2007800191640854, -0.04869451746344566, 0.11834761500358582, -0.17252317070960999, 0.17123518884181976, -0.028622284531593323, 0.03296023607254028, 0.00254018884152174, 0.0505996011197567, 0.15000025928020477, 0.17806802690029144, 0.14095976948738098, -0.18507443368434906, -0.056268978863954544, -0.04423510655760765, 0.13583914935588837, 0.18750081956386566, -0.21520262956619263, -0.028285382315516472, 0.010861312970519066, 0.20236894488334656, -0.17082591354846954, 0.052819814532995224, -0.03300317004323006, -0.4720378816127777, 0.11296748369932175, 0.06354240328073502, -0.032461393624544144, -0.01427095104008913, 0.09457695484161377, 0.0974571704864502, 0.09435359388589859, 0.021944960579276085, 0.13871422410011292, -0.02008763700723648, 0.0960967019200325, 0.0024402306880801916, -0.05736485496163368, -0.09887386113405228, 0.3093023896217346, 0.005915720481425524, -0.05586855486035347, -0.24225081503391266, -0.30118438601493835, -0.10113395750522614, -0.1454726606607437, -0.03427109867334366, -0.001764969783835113, 0.16286790370941162, 0.06283706426620483, 0.10172422975301743, -0.1939118206501007, -0.1635817438364029, -0.13088831305503845, -0.018612699583172798, -0.14016836881637573, 0.08469907194375992, -0.04147333651781082, -0.28050926327705383, -0.06481774151325226, -0.07436574995517731, -0.09525737911462784, 0.11421691626310349, -0.10057613998651505, 0.11213070899248123, 0.01267430279403925, 0.35678642988204956, -0.01066664420068264, -0.04080900922417641, -0.28829702734947205, -0.2004833221435547, 0.2180638462305069, 0.021304508671164513, -0.04973210394382477, -0.06492568552494049, 0.11601537466049194, 0.05685309320688248, -0.016358593478798866, -0.26229867339134216, -0.1554172933101654, -0.06621291488409042, 0.031826019287109375, -0.3221992552280426, -0.1784537136554718, -0.08782205730676651, -0.16596843302249908, 0.013919620774686337, 0.1248641088604927, 0.26490166783332825, -0.04025757312774658, 0.07326759397983551, -0.18643441796302795, 0.015997761860489845, -0.026604177430272102, 0.032121479511260986, 0.2751934230327606, -0.01787790097296238, 0.03653263300657272, -0.08826547116041183, -0.0790972113609314, 0.025920337066054344, 0.14338278770446777, 0.06553411483764648, 0.09591911733150482, -0.10634933412075043, -0.0837908461689949, -0.15706810355186462, 0.1926267147064209, -0.09647857397794724, 0.17334510385990143, -0.2484535574913025, -0.02073575370013714, -0.04197540879249573, 0.031248420476913452, 0.03157259523868561, 0.4216982424259186, 0.3321959972381592, 0.09392934292554855, -0.08048300445079803, 0.32274147868156433, 0.1512591689825058, -0.20672881603240967, 0.05976337566971779, -0.025824066251516342, -0.11818629503250122, 0.08470945805311203, 0.06719032675027847, 0.1014561727643013, -0.0234631709754467, 0.01154017262160778, 0.009798547253012657, -0.06605365872383118, 0.07764896005392075, -0.13725054264068604, 0.06150796636939049, 0.14074665307998657, 0.16329577565193176, -0.15645791590213776, -0.17959870398044586, 0.03367026150226593, 0.17729640007019043, -0.026003634557127953, -0.054407138377428055, 0.07348454743623734, -0.0038249846547842026, 0.20976927876472473, 0.05487748235464096, 0.14765770733356476, -0.049589853733778, 0.07571578025817871, 0.057784635573625565, 0.2159077376127243, -0.15403753519058228, 0.04280043765902519, 0.06141628697514534, 0.203440859913826, -0.11370298266410828, 0.18458376824855804, -0.22425885498523712, 0.09926918894052505, -0.36696937680244446, 0.1848423182964325, -0.0604894682765007, 0.14993570744991302, 0.2682076394557953, -0.047253530472517014, -0.1150021180510521, 0.07148905098438263, 0.12833935022354126, -0.10124743729829788, 0.227031409740448, -0.051335982978343964, -0.11705408245325089, -0.01238154899328947, -0.10577527433633804, 0.1565103381872177, -0.031221739947795868, 0.056624192744493484, 0.1009504646062851, 0.03957054018974304, 0.06855763494968414, -0.19527451694011688, 0.027440788224339485, 0.0842176079750061, 0.18969886004924774, 0.17687740921974182, -0.01904269866645336, 0.1596594750881195, 0.06592568010091782, 0.1715233474969864, -0.09863170236349106, 0.6811373233795166, 0.10865584015846252, 0.18532486259937286, -0.05298683047294617, 0.05007236450910568, -0.06416245549917221, 0.0474114827811718, -0.04308129474520683, 0.23519746959209442, 0.03392086923122406, -0.06958615779876709, 0.04024133458733559, 0.12543310225009918, 0.08392686396837234, 0.08678079396486282, -0.05001560598611832, 0.1570005714893341, -0.07137812674045563, 0.08778677880764008, 0.1261710673570633, 0.040165845304727554, 0.07517411559820175, -0.1391136348247528, 0.16737529635429382, -0.21047420799732208, -0.06988702714443207, -0.2608630359172821, -0.19839996099472046, 0.06402192264795303, 0.1377212554216385, 0.04166942089796066, -0.044184908270835876, 0.14819352328777313, -0.008894833736121655, 0.04620791971683502, -0.08544911444187164, 0.04351901262998581, 0.23750047385692596, -0.2225780189037323, 0.2126757949590683, -0.1634272187948227, -0.1195819154381752, -0.1649460643529892, 0.11222358793020248, -0.02893928810954094, -0.1352338343858719, -0.06520267575979233, -0.07611502707004547, 0.06226765364408493, -0.04140188917517662, -0.07754170149564743, -0.11729075759649277, -0.017819711938500404, -0.25826483964920044, -0.19563710689544678, 0.017232617363333702, 0.11571250855922699, -0.12620463967323303, -0.06370275467634201, -0.20024047791957855, 0.017293451353907585, -0.06900998950004578, -0.04364342987537384, -0.18381430208683014, 0.13630133867263794, 0.03601337969303131, 0.2411826103925705, -0.13889631628990173, -0.08699189126491547, -0.1883849799633026, 0.00987626425921917, -0.22383026778697968, 0.16385316848754883, -0.23362600803375244, 0.020131641998887062, -0.07518193125724792, -0.3374091684818268, -0.002700835932046175, -0.26740849018096924, -0.022251004353165627, -0.04529818147420883, 0.21389439702033997, -0.07893109321594238, -0.09642039984464645, 0.14197318255901337, 0.006119281053543091, -0.15301312506198883, 0.17053095996379852, -0.03125375509262085, 0.003732240293174982, -0.21432407200336456, -0.016832303255796432, -0.20239228010177612, -0.08917094022035599, 0.06269659847021103, -0.17297016084194183, -0.3408532440662384, 0.016633376479148865, 0.14379775524139404, 0.18875576555728912, -0.09353466331958771, -0.07007399201393127, 0.10851022601127625, 0.08512132614850998, -0.04374353587627411, -0.006642811466008425, 0.11434198915958405, -0.2316909283399582, -0.0002204488409915939, -0.05430973693728447, -0.1354152411222458, -0.08381365984678268, 0.16103319823741913, 0.08815650641918182, 0.1910993605852127, -0.05618910491466522, -0.26511260867118835, 0.005383380688726902, 0.00014250916137825698, 