{"version": "0.5.1", "metadata": {"date": {"year": 2023, "month": 6, "day": 7, "hour": 3, "minute": 21, "second": 20}, "loudness": -16.516433715820312, "gain": 0.8278490048241104, "name": null, "modeled_by": null, "gear_type": null, "gear_make": null, "gear_model": null, "tone_type": null}, "architecture": "WaveNet", "config": {"layers": [{"input_size": 1, "condition_size": 1, "head_size": 8, "channels": 16, "kernel_size": 3, "dilations": [1, 2, 4, 8, 16, 32, 64, 128, 256, 512], "activation": "Tanh", "gated": false, "head_bias": false}, {"input_size": 16, "condition_size": 1, "head_size": 1, "channels": 8, "kernel_size": 3, "dilations": [1, 2, 4, 8, 16, 32, 64, 128, 256, 512], "activation": "Tanh", "gated": false, "head_bias": true}], "head": null, "head_scale": 0.02}, "weights": [0.03029063157737255, 0.6366181373596191, -0.8234410285949707, -0.779608964920044, -0.4380412697792053, 0.023219283670186996, 0.00321071851067245, 0.8857027292251587, -0.2008875608444214, 0.19577908515930176, -0.37186306715011597, -0.2275036722421646, -0.9083936214447021, -0.6780590415000916, -0.6318966150283813, 0.349235862493515, -0.237075075507164, 0.09396017342805862, 0.029839126393198967, -0.34907767176628113, 0.08517342805862427, 0.31612151861190796, 0.24398723244667053, 0.06904666870832443, -0.22269710898399353, 0.2920684516429901, 0.08930620551109314, -0.33643290400505066, 0.19183598458766937, -0.06637386232614517, -0.24651691317558289, 0.008375078439712524, 0.059202976524829865, 0.1562221497297287, 0.23064899444580078, -0.032103389501571655, 0.0088584553450346, -0.1522483229637146, 0.10435488820075989, 0.269307404756546, 0.3214138150215149, -0.07785815745592117, -0.13521882891654968, -0.408920019865036, -0.08177100121974945, 0.09986977279186249, 0.3690398335456848, 0.051916517317295074, -0.2527543902397156, 0.2902037501335144, 0.0706096813082695, -0.04501524940133095, 0.3294213116168976, -0.021655471995472908, -0.10425808280706406, 0.19285692274570465, -0.011766619980335236, -0.3106267750263214, 0.18922261893749237, -0.10598824173212051, -0.1272074282169342, -0.3086639642715454, -0.1436050981283188, 0.1598581224679947, 0.1601150780916214, -0.05554252490401268, -0.08016479760408401, 0.14349573850631714, 0.05592051148414612, 0.00039223689236678183, -0.2133665382862091, -0.011018884368240833, 0.19762688875198364, 0.013326926156878471, 0.16397355496883392, 0.2699132561683655, -0.07574169337749481, -0.08737366646528244, 0.14590343832969666, -0.08151768893003464, -0.22691936790943146, 0.008815295994281769, 0.049496639519929886, -0.20149466395378113, -0.028980901464819908, 0.07841049134731293, -0.06567643582820892, -0.20770901441574097, -0.06527775526046753, -0.07044386863708496, 0.14443974196910858, 0.16816346347332, 0.0637790784239769, -0.06264743953943253, -0.24919137358665466, -0.05962124839425087, 0.19313472509384155, -0.10002484172582626, -0.10632429271936417, 0.030647875741124153, 0.03352129086852074, 0.13979463279247284, 0.07901382446289062, -0.14099203050136566, -0.09673923254013062, 0.13794592022895813, -0.21621182560920715, -0.07623241096735, 0.1271442323923111, 0.15468306839466095, -0.04456140100955963, -0.007283361628651619, -0.2745733857154846, 0.2213565558195114, 0.043512605130672455, -0.27264368534088135, 0.09923107922077179, 0.043295927345752716, 0.1620527058839798, -0.10232993215322495, 0.019913822412490845, 0.1531669795513153, -0.21073532104492188, 0.028368530794978142, 0.015209591947495937, -0.20809561014175415, -0.060626983642578125, -0.19105595350265503, 0.025889890268445015, -0.14222735166549683, 0.10526032745838165, -0.001635621883906424, -0.09278672188520432, -0.14944614470005035, 0.24116607010364532, 0.02100357413291931, 0.19571995735168457, -0.09651369601488113, 0.045591145753860474, -0.06014816090464592, 0.24511615931987762, 0.09874007850885391, 0.29008328914642334, -0.12870287895202637, -0.1460416316986084, 0.10507109016180038, -0.020248237997293472, -0.029986580833792686, 0.06830587238073349, -0.2478603720664978, -0.17319904267787933, 0.02501928061246872, -0.16350868344306946, 0.04390772059559822, 0.23076261579990387, -0.27334049344062805, 0.06029297783970833, -0.3455435037612915, 0.053736086934804916, -0.11217305064201355, -0.17918775975704193, -0.267612487077713, 0.004953713156282902, -0.36587265133857727, -0.37677305936813354, -0.013143490068614483, 0.1830461025238037, 0.41263118386268616, -0.11323429644107819, 0.2363882213830948, 0.4866273105144501, -0.03993859514594078, 0.3687591552734375, 0.3961772918701172, -0.1271420270204544, -0.06808175891637802, -0.2393040508031845, -0.036063291132450104, 0.07535189390182495, -0.16078707575798035, -0.11377917975187302, -0.2809695303440094, -0.2574256658554077, 0.0238083116710186, 0.2820351719856262, 0.3588399589061737, -0.07524526119232178, -0.2570715546607971, -0.443026065826416, 0.09518669545650482, 0.35550206899642944, 0.44013693928718567, -0.1065024733543396, 0.21231752634048462, 0.22089014947414398, -0.07878930866718292, 0.16494683921337128, 0.40872734785079956, -0.06642766296863556, 0.2401656210422516, 0.36109960079193115, 0.1082533523440361, 0.13677053153514862, 0.25779232382774353, -0.07622915506362915, -0.10085000097751617, -0.34281495213508606, 0.22301241755485535, 0.24960094690322876, -0.12599772214889526, -0.0986897423863411, 0.17763002216815948, -0.14967313408851624, -0.19287705421447754, -0.19552241265773773, 0.1881648600101471, 0.04866291582584381, -0.2721724510192871, 0.29223063588142395, 0.04784533008933067, -0.21765443682670593, 0.2984890639781952, 0.20223979651927948, 0.10292423516511917, -0.3230364918708801, -0.07436741888523102, -0.2186189591884613, 0.12063806504011154, 0.030954556539654732, 0.17525526881217957, -0.16927257180213928, -0.04174702987074852, -0.2309522032737732, 0.24580079317092896, 0.20159664750099182, 0.11533059924840927, -0.07289434969425201, -0.23178315162658691, -0.2700749337673187, 0.1933468133211136, 0.19122415781021118, -0.11078765988349915, 0.1119212806224823, 0.1518753319978714, -0.11850980669260025, 0.031854405999183655, 0.2676103115081787, -0.31714972853660583, 0.17188306152820587, 0.13680648803710938, -0.284503310918808, 0.1839519590139389, 0.27351564168930054, 0.27960261702537537, -0.16634239256381989, -0.11070802062749863, -0.1845111846923828, 0.1273001730442047, -0.15952585637569427, -0.12270524352788925, 0.026696087792515755, 0.11000381410121918, 0.09573770314455032, -0.006386514753103256, 0.023298924788832664, -0.026042750105261803, -0.1555689126253128, 0.011746928095817566, 0.14541423320770264, -0.06718183308839798, -0.0837109386920929, -0.044357649981975555, -0.04572558030486107, 0.0033762266393750906, -0.010241497308015823, -0.006855468265712261, 0.30732807517051697, -0.11220098286867142, 0.10165752470493317, 0.07024119049310684, 0.056265413761138916, -0.1675633043050766, -0.07970982789993286, 0.08749937266111374, 0.12082094699144363, 0.1134481281042099, -0.021118948236107826, -0.05977461114525795, -0.037008676677942276, 0.04797884076833725, -0.16328595578670502, 0.044815316796302795, 0.06480784714221954, -0.1209590956568718, -0.06363242864608765, -0.06573531776666641, -0.014704857021570206, -0.13496774435043335, 0.08301050961017609, -0.15993043780326843, -0.0893573984503746, -0.04015149548649788, -0.028871241956949234, -0.03616613894701004, -0.13676580786705017, 0.06977823376655579, -0.08752986788749695, -0.08515804260969162, 0.25407832860946655, -0.08802706003189087, 0.01762080378830433, -0.2203182578086853, 0.11816342175006866, 0.08656486123800278, -0.1465935856103897, 0.1627529114484787, 0.07489456981420517, -0.18403522670269012, 0.13781996071338654, -0.12505778670310974, 0.14636005461215973, -0.08170390129089355, -0.11393917351961136, -0.19703610241413116, 0.07761909812688828, -0.00841444544494152, 0.28251928091049194, -0.05066045746207237, 0.2610034644603729, -0.22258520126342773, -0.00746630085632205, -0.28157564997673035, 0.3118349313735962, -0.002552257850766182, 0.054495662450790405, -0.1223021075129509, 0.19531013071537018, 0.31009766459465027, -0.06149917095899582, 0.1878080666065216, 0.10266411304473877, -0.24819038808345795, 0.1856473982334137, 0.2208031564950943, -0.284384161233902, 0.1982455551624298, 0.21696476638317108, -0.11806035786867142, -0.015428907237946987, -0.2255299985408783, 0.0660952627658844, -0.07833623141050339, 0.39873531460762024, -0.07705944776535034, -0.07821730524301529, 0.5995753407478333, -0.13376198709011078, 0.018446583300828934, -0.6321854591369629, 0.11802580952644348, -0.045583806931972504, -0.6766220331192017, -0.02906237356364727, 0.16759705543518066, -0.4454755485057831, 0.2282937616109848, 0.17485827207565308, 0.14476992189884186, -0.2860892117023468, -0.1765144169330597, -0.11611904203891754, 0.30086061358451843, 0.036055032163858414, 0.4677826464176178, -0.22342002391815186, -0.13178689777851105, -0.39344456791877747, 0.2262059450149536, 0.1740768402814865, 0.60126131772995, 0.03083290532231331, -0.10326988250017166, -0.4614082872867584, 0.22350722551345825, 0.10759469866752625, -0.35887980461120605, 0.17765207588672638, 0.1612228900194168, -0.5811601281166077, 0.15522776544094086, 0.06851211190223694, -0.5624939799308777, 0.0072893560864031315, -0.02661341428756714, -0.6542667746543884, 0.17974258959293365, 0.15219923853874207, 0.5917539596557617, -0.16784371435642242, 0.05701737478375435, 0.05106199160218239, 0.008563142269849777, 0.009810028597712517, 0.13545404374599457, 0.13225394487380981, 0.10056440532207489, 0.12847241759300232, 0.026518026366829872, -0.2647024095058441, 0.07566678524017334, -0.15863677859306335, -0.2346949428319931, 0.12174274772405624, -0.0657237246632576, -0.29931411147117615, -0.09489110857248306, -0.07592863589525223, -0.006021887995302677, -0.05928979441523552, 0.07021943479776382, -0.11919928342103958, -0.0788118913769722, 0.09022634476423264, 0.2820799648761749, 0.09284117817878723, -0.17345623672008514, -0.17779305577278137, -0.10480351001024246, 0.00851245503872633, 0.23010599613189697, -0.10525684058666229, -0.01917509362101555, -0.06820683181285858, 0.03979164734482765, -0.12384529411792755, -0.22395095229148865, 0.022065086290240288, -0.19367285072803497, -0.14095990359783173, -0.1360456347465515, -0.21759633719921112, -0.3492811620235443, -0.03322102129459381, 0.02439478226006031, -0.342140793800354, 0.08275014162063599, -0.06481210142374039, 0.1762632578611374, 0.04692118614912033, -0.12111704796552658, 0.05037664249539375, 0.05305781215429306, 0.086106076836586, -0.03750831261277199, -0.07249516993761063, 0.17436566948890686, 0.1198316216468811, 0.09357898682355881, -0.05753491446375847, 0.07049510627985, -0.12840867042541504, -0.0120003717020154, 0.1368618607521057, -0.030698059126734734, 0.11011695861816406, 0.08317685127258301, 0.3505502939224243, 0.24003750085830688, 0.2422211617231369, -0.06663590669631958, 0.008296571671962738, 0.02966701239347458, 0.08491187542676926, 0.017180420458316803, 0.15414434671401978, -0.15332762897014618, -0.1617303490638733, -0.03706170246005058, -0.06503645330667496, 0.11729725450277328, 0.010587950237095356, -0.0432366207242012, -0.06058521568775177, 0.17714951932430267, 0.00596200255677104, 0.1625950187444687, 0.19924740493297577, 0.10029523074626923, 0.055919792503118515, 0.06439350545406342, -0.00947155337780714, 0.0764494463801384, 0.18561816215515137, -0.10438360273838043, 0.06324788928031921, -0.13806894421577454, -0.23829612135887146, 0.122491754591465, -0.14084169268608093, 0.11520980298519135, 0.17511452734470367, -0.020057976245880127, 0.07985974848270416, -0.22560881078243256, 0.23667559027671814, -0.06757348030805588, -0.26899072527885437, 0.17459261417388916, -0.025547819212079048, -0.24932506680488586, 0.08601584285497665, 0.03217507153749466, 0.17388297617435455, -0.19822338223457336, 0.157619908452034, -0.030680395662784576, 0.16061879694461823, 0.003976662643253803, 0.395754873752594, -0.13053753972053528, 0.09267155826091766, -0.30175474286079407, 0.2200384885072708, -0.13068509101867676, 0.19480638206005096, -0.21650831401348114, 0.15587739646434784, -0.3283461630344391, 0.13733646273612976, -0.035427652299404144, -0.151635080575943, 0.2796304225921631, -0.10219395160675049, -0.427826851606369, 0.001989848678931594, 0.009042961522936821, -0.347564160823822, 0.020629500970244408, -0.036789096891880035, -0.2841717302799225, 0.05249656364321709, -0.06671706587076187, 0.20793822407722473, -0.31265154480934143, 0.08869817107915878, 0.008544071577489376, 0.09056035429239273, -0.04576388746500015, -0.2722213864326477, 0.19707167148590088, -0.07498051226139069, 0.08365374058485031, 0.08990437537431717, -0.03222474455833435, 0.25144240260124207, -0.06424811482429504, 0.016017135232686996, 0.17549167573451996, 0.027190474793314934, 0.01568732224404812, -0.2735588252544403, 0.003598927753046155, -0.16741672158241272, 0.08626323938369751, -0.2190750539302826, 0.07414279133081436, -0.2542712390422821, 0.027729148045182228, 0.12083203345537186, 0.24637769162654877, 0.021507835015654564, 0.04725426435470581, -0.2379329800605774, -0.017062662169337273, 0.03637970611453056, 0.3240464925765991, -0.11855026334524155, -0.11079778522253036, 0.26155218482017517, 0.07377935200929642, 0.02103254571557045, 0.10201281309127808, -0.1817501336336136, 0.0918847918510437, 0.20791037380695343, -0.12717603147029877, 0.08323018997907639, 0.2749692499637604, 0.05376700684428215, 0.13170476257801056, -0.16861873865127563, 0.03882903233170509, -0.26035600900650024, 0.22858285903930664, 0.3157566785812378, -0.23201246559619904, -0.10695967823266983, 0.3141683042049408, 0.4217319190502167, 0.11205020546913147, -0.3070155084133148, 0.23343847692012787, -0.12390150874853134, -0.05103221535682678, 0.2243712693452835, -0.07873193174600601, -0.10512412339448929, -0.12319537997245789, 0.051478467881679535, 0.22617068886756897, -0.07288692146539688, -0.25696900486946106, -0.05295319855213165, -0.3552504777908325, 0.07022835314273834, 0.310161828994751, 0.36700645089149475, 0.019523290917277336, -0.051121678203344345, -0.2505488991737366, -0.07044478505849838, 0.30337998270988464, 0.32004424929618835, -0.1538030505180359, -0.22460736334323883, 0.1759144812822342, 0.09759093821048737, -0.21009451150894165, 0.15470805764198303, -0.027015989646315575, -0.09405075758695602, 0.323415070772171, 0.027126288041472435, -0.17121227085590363, 0.34982988238334656, -0.053552694618701935, -0.24038024246692657, -0.48338887095451355, -0.08268804848194122, 0.23346222937107086, -0.08635596185922623, 0.002841961570084095, -0.0753207802772522, 0.006826399825513363, -0.12414605170488358, -0.053913455456495285, -0.07431413233280182, 0.1581907421350479, 0.08037589490413666, -0.02955959551036358, 0.11138508468866348, 0.13481000065803528, 0.12402369827032089, -0.06739234179258347, 0.06219208985567093, -0.011834592558443546, 0.08579892665147781, 0.13154153525829315, 0.05311676487326622, 0.19555431604385376, 0.17247185111045837, -0.04196207970380783, 0.06640353798866272, -0.30858588218688965, 0.0016073740553110838, 0.14779917895793915, 0.12445002049207687, 0.10699990391731262, -0.07905928045511246, -0.053348541259765625, -0.13515037298202515, 0.011946167796850204, 0.15070313215255737, 0.016064923256635666, 0.04335862398147583, 0.25758206844329834, -0.012012442573904991, 0.03407136723399162, 0.2944623529911041, -0.03333937004208565, 0.16259655356407166, 0.09603216499090195, -0.010262785479426384, 0.02445727027952671, 0.25589364767074585, 0.13744719326496124, 0.02689235843718052, -0.23338063061237335, -0.05206175521016121, -0.2173738181591034, 0.10713224112987518, -0.12104595452547073, -0.07642078399658203, 0.3401131331920624, 0.03513404726982117, 0.02049681916832924, -0.10667651146650314, -0.07970862835645676, 0.19631865620613098, -0.18703745305538177, -0.03520200401544571, 0.2156558781862259, -0.3239898383617401, 0.012146804481744766, -0.20151609182357788, 0.09661753475666046, -0.008407451212406158, 0.11520616710186005, -0.12795820832252502, 0.06990102678537369, -0.17501859366893768, 0.14065410196781158, -0.07096660137176514, 0.05562366545200348, -0.01620505563914776, -0.062276702374219894, -0.14666147530078888, 0.22294820845127106, 0.12444677948951721, 0.2804783880710602, -0.07874982059001923, -0.04326251521706581, 0.1848779171705246, -0.2547818720340729, -0.05948881804943085, 0.18905343115329742, -0.07216620445251465, -0.08724550902843475, 0.2475794106721878, -0.2781592309474945, 0.003451934549957514, 0.2851337790489197, -0.23366400599479675, -0.08865143358707428, -0.3878648281097412, 0.24679867923259735, 0.1597687304019928, -0.2583124339580536, 0.12735553085803986, 0.013913788832724094, -0.35518816113471985, -0.014629114419221878, 0.008325325325131416, 0.19913513958454132, 0.09088686108589172, 0.013398285023868084, 0.33954304456710815, -0.050313688814640045, -0.13593365252017975, 0.1811981201171875, -0.10402774065732956, 0.1233559399843216, -0.03787648305296898, 0.15388153493404388, 0.08469702303409576, 0.3123369812965393, 0.06641742587089539, 0.21678873896598816, -0.30090951919555664, -0.12230229377746582, -0.135623037815094, 0.2803800106048584, -0.15056468546390533, 0.25036320090293884, -0.15861447155475616, -0.0974336713552475, -0.15298356115818024, 0.3456803262233734, -0.10612169653177261, -0.17969892919063568, 0.278665155172348, -0.1080598309636116, -0.02635611593723297, 0.31527435779571533, 0.11361264437437057, -0.2035917043685913, 0.382302463054657, -0.06347649544477463, 0.025291895493865013, 0.0997684970498085, -0.11213786900043488, 0.295449435710907, -0.15932245552539825, 0.07773794233798981, -0.10804808139801025, -0.020479781553149223, -0.07245092839002609, 0.021125297993421555, 0.023830292746424675, 0.035124700516462326, -0.03879624977707863, -0.01890493370592594, 0.2716701328754425, 0.009267845191061497, 0.0001263009908143431, -0.02235317975282669, -0.03962073475122452, -0.20112022757530212, -0.013412273488938808, 0.059369754046201706, 0.6561298370361328, -0.583404004573822, 0.8475939631462097, -0.7344623804092407, -0.172177255153656, 0.9462975859642029, 0.9368057250976562, -0.6242421865463257, 0.40762054920196533, 0.002786936704069376, -0.5685372352600098, -0.30492812395095825, 0.4592926502227783, -0.9069166779518127, 0.38816067576408386, 0.3985702097415924, -0.18614421784877777, 0.1771121770143509, -0.0812411978840828, 0.0899459719657898, 0.37957918643951416, -0.05754934996366501, -0.025585373863577843, 0.286699503660202, 0.0028367582708597183, 0.0971687063574791, -0.05679891258478165, -0.02815886214375496, -0.12048713117837906, -0.041532985866069794, 0.2589334547519684, 0.06734926998615265, -0.07965349406003952, -0.09093571454286575, -0.34551525115966797, 0.05839604139328003, 0.20857302844524384, -0.08722894638776779, -0.19825828075408936, 0.341688334941864, 0.010756398551166058, -0.005736017134040594, -0.15980835258960724, 0.10414730757474899, -0.0462263785302639, -0.1132490262389183, 0.21388830244541168, 0.27311331033706665, -0.127986878156662, 0.05674111470580101, -0.07890500128269196, 0.16802413761615753, -0.14675769209861755, -0.1370464414358139, 0.09904339164495468, -0.19633899629116058, -0.04675323888659477, 0.00633141677826643, 0.3179895579814911, -0.30073827505111694, -0.0030622503254562616, 0.27668213844299316, 0.049474820494651794, -0.06384601444005966, 0.2860386073589325, -0.09380315989255905, 0.02267276495695114, -0.07434865087270737, 0.016375243663787842, 0.07531390339136124, -0.0912797674536705, -0.2288314253091812, -0.24214322865009308, 0.06519460678100586, -0.3541613221168518, 0.10123423486948013, 0.1134948804974556, 0.1988678127527237, -0.00717174680903554, 0.17036022245883942, -0.10737872123718262, -0.16747798025608063, -0.245347261428833, 0.28274282813072205, 0.12679153680801392, 0.07645078003406525, 0.08862971514463425, -0.3603244423866272, -0.02811921387910843, 0.1103893518447876, -0.2789601683616638, 0.22759908437728882, 0.17269282042980194, 0.2118375152349472, -0.1799738109111786, 0.15639019012451172, -0.4415878355503082, 0.014233198948204517, -0.014919835142791271, -0.03911096230149269, 0.48698413372039795, 0.16186606884002686, 0.038219284266233444, 0.5547358989715576, 0.16554348170757294, 0.21060927212238312, -0.21641840040683746, 0.016090355813503265, -0.2402193397283554, -0.04615693539381027, -0.15894633531570435, 0.0541234016418457, 0.38441598415374756, -0.006323631387203932, 0.30747202038764954, 0.3088003695011139, -0.4867047965526581, -0.14745672047138214, 0.22142654657363892, -0.4798344075679779, 0.09517304599285126, -0.27016058564186096, -0.2828185558319092, 0.15516714751720428, 0.5267637372016907, -0.23545418679714203, 0.1980379968881607, -0.12363320589065552, 0.3006311357021332, -0.05080847814679146, 0.3399962782859802, -0.3554341495037079, -0.27119317650794983, 0.29149600863456726, 0.2862180471420288, 0.1574731469154358, 0.2928228974342346, -0.18223895132541656, 0.2411154806613922, -0.3214186429977417, 0.07880295813083649, -0.28263968229293823, 0.028616847470402718, -0.006054352503269911, -0.36356645822525024, 0.1660563349723816, -0.36748361587524414, -0.19585634768009186, 0.20805968344211578, -0.2607974112033844, -0.23022931814193726, -0.09157068282365799, -0.38193371891975403, -0.1344570368528366, 0.30797848105430603, 0.2302602380514145, -0.17354729771614075, 0.06044602766633034, -0.07380715757608414, 0.07371281832456589, -0.2732948660850525, 0.19707313179969788, 0.27141496539115906, -0.30035826563835144, -0.194488063454628, -0.07685211300849915, 0.15482273697853088, -0.26579925417900085, -0.025183726102113724, 0.28817084431648254, 0.2856041193008423, 0.13278333842754364, 0.12554828822612762, 0.2693340480327606, -0.40329092741012573, -0.05484353005886078, -0.030400803312659264, 0.3085147440433502, -0.3513818681240082, 0.2181359976530075, 0.0473584309220314, -0.3009977638721466, -0.05740056559443474, -0.08578754216432571, -0.04142991080880165, -0.16649478673934937, -0.1536230891942978, 0.06529205292463303, -0.17275051772594452, 0.2030048966407776, 0.001040986622683704, 0.31007301807403564, -0.05705263465642929, 0.020806705579161644, 0.2886621654033661, 0.04006050154566765, -0.06469542533159256, -0.11813139915466309, 0.2494458258152008, -0.005787665024399757, -0.092677041888237, -0.07503988593816757, 0.6041215658187866, -0.31564539670944214, -0.2722104489803314, 0.2115878313779831, -0.4452283978462219, -0.5145823359489441, -0.03351479768753052, -0.029627759009599686, 0.09825695306062698, -0.05410756543278694, -0.032091591507196426, -0.10870131850242615, 0.11978407204151154, -0.1790952831506729, 0.21679025888442993, -0.042622312903404236, 0.08628955483436584, -0.06975145637989044, 0.18023093044757843, -0.16508285701274872, -0.11636047810316086, -0.011286095716059208, -0.04423470422625542, -0.18360720574855804, -0.1094660758972168, 0.08205977827310562, -0.260536253452301, 0.1357400119304657, 0.3750259578227997, 0.11970272660255432, -0.06035434454679489, -0.23500292003154755, 0.4486537277698517, -0.11148705333471298, -0.1636650413274765, -0.003840056248009205, -0.3186931610107422, -0.1389322429895401, -0.48024529218673706, 0.3546454906463623, -0.15714436769485474, -0.1900155395269394, 0.19976983964443207, -0.11716555804014206, 0.09148375689983368, 0.428427129983902, -0.3725612759590149, 0.02433183416724205, 0.1776505559682846, -0.1117110624909401, -0.17688921093940735, 0.33624106645584106, -0.2680929899215698, -0.12591582536697388, 0.4456906020641327, -0.03859281539916992, 0.3422309160232544, -0.08479180186986923, -0.4100383520126343, 0.30266401171684265, 0.38278552889823914, 0.34249183535575867, -0.04549289122223854, -0.3103870153427124, 0.2805813252925873, -0.40851178765296936, 0.26346638798713684, 0.0650070533156395, 0.17940542101860046, -0.2966265380382538, 0.12413199990987778, -0.2738270163536072, 0.3869076371192932, -0.15005065500736237, -0.2719881534576416, 0.005401004105806351, 0.19043616950511932, -0.011217515915632248, 0.10941800475120544, -0.17945727705955505, 0.09331919997930527, 0.08811620622873306, 0.025321513414382935, 0.06116405129432678, 0.12049174308776855, -0.17643867433071136, 0.1866648942232132, -0.0224877018481493, 0.13139700889587402, -0.19399361312389374, -0.06414004415273666, -0.06749942153692245, 0.454215943813324, 0.5870203375816345, 0.3571457862854004, -0.3106183707714081, -0.1992269903421402, -0.21075870096683502, -0.1516686975955963, 0.09801076352596283, 0.05488693341612816, 0.13476234674453735, 0.10067889839410782, 0.19452734291553497, -0.1789061725139618, 0.07765049487352371, 0.12715207040309906, -0.12596745789051056, -0.5560694336891174, -0.23993448913097382, 0.14259400963783264, 0.4408503472805023, -0.04528656229376793, -0.3086399435997009, -0.28830739855766296, -0.21204283833503723, -0.02255106344819069, 0.4366234540939331, 0.11336264759302139, 0.40898415446281433, -0.737131655216217, 0.2882826328277588, 0.1408248394727707, 0.17757585644721985, 0.08736058324575424, 0.2963975667953491, 0.3307190239429474, 0.11071446537971497, 0.3072035610675812, 0.5147143006324768, 0.2178678661584854, -0.04887017980217934, -0.9828019142150879, -0.4287698268890381, -0.12049856036901474, 0.024120628833770752, 0.07475084811449051, -0.17283503711223602, -0.11155036091804504, 0.05193391069769859, -0.13308194279670715, -0.02753671072423458, 0.1737043410539627, -0.23136763274669647, -0.034086231142282486, -0.17645306885242462, -0.043082427233457565, -0.2255321592092514, 0.09395534545183182, -0.04162755236029625, -0.03100353665649891, -0.07916756719350815, 0.3365107476711273, -0.13917459547519684, 0.10760845988988876, 0.2865354120731354, 0.08640902489423752, 0.01898883283138275, -0.2325381487607956, -0.07297643274068832, 0.03263918682932854, 0.07264011353254318, 0.03368077054619789, -0.21187743544578552, -0.11970200389623642, -0.10034289956092834, 0.03494075685739517, -0.19817151129245758, 0.18769127130508423, 0.011104264296591282, 0.16672876477241516, 0.04720200225710869, 0.1769050806760788, -0.04820985719561577, 0.12431000173091888, 0.017854157835245132, -0.19386699795722961, -0.13569463789463043, 0.025951560586690903, 0.08081664144992828, 0.23849834501743317, -0.08989256620407104, 0.006427302956581116, -0.04305345192551613, 0.049236029386520386, 0.11564203351736069, 0.10373751819133759, -0.16047649085521698, 0.06962542235851288, 0.13917919993400574, -0.023524247109889984, 0.06075491011142731, -0.07543348520994186, -0.1765429824590683, 0.14010615646839142, -0.0351015068590641, -0.00319075514562428, -0.036797452718019485, 0.17139336466789246, 0.297735333442688, 0.13080918788909912, -0.24207349121570587, -0.051675599068403244, -0.1313134729862213, -0.14382372796535492, 0.2544354498386383, 0.03333475440740585, -0.053241364657878876, -0.18929734826087952, -0.1572241336107254, 0.02363019436597824, -0.10350612550973892, -0.06445743143558502, -0.09939910471439362, -0.047212082892656326, 0.0696076974272728, 0.04385390877723694, 0.25562331080436707, 0.09265350550413132, 0.09623662382364273, -0.017986951395869255, 0.08262886106967926, 0.04262160137295723, 0.09164286404848099, -0.04216392710804939, 0.13675802946090698, -0.04514467716217041, -0.17592096328735352, 0.02766578458249569, 0.17286407947540283, -0.05109810829162598, 0.053330253809690475, 0.13436362147331238, -0.15559951961040497, 0.2166273146867752, -0.08947011828422546, 0.4136165380477905, -0.03888993337750435, -0.17643338441848755, 0.010814780369400978, 0.006251430604606867, -0.13691362738609314, 0.08019425719976425, 0.03861573338508606, -0.1493561714887619, 0.12211152911186218, 0.23394601047039032, 0.07737674564123154, -0.11260861903429031, 0.23388703167438507, 0.2088155597448349, -0.4741100072860718, -0.2145644873380661, 0.09305644035339355, 0.4312041401863098, 0.04529280588030815, -0.041074104607105255, 0.004123239777982235, -0.35906538367271423, 0.0016378100262954831, 0.42533761262893677, 0.2258051633834839, -0.004730186890810728, 0.20861703157424927, -0.5318884253501892, 0.11228302121162415, 0.11539310216903687, 0.05855725705623627, -0.03434373810887337, 0.4919152557849884, -0.20171406865119934, -0.13023410737514496, 0.3347781002521515, 0.11217127740383148, 0.038821637630462646, -0.40446752309799194, -0.3277129828929901, 0.03792273998260498, -0.1751989722251892, 0.0175826046615839, 0.09139031171798706, 0.28124138712882996, 0.2845677137374878, -0.07398825883865356, -0.0259337667375803, 0.0663536936044693, -0.35046467185020447, -0.11779647320508957, 0.0679507702589035, 0.03268402814865112, 0.0846213847398758, 0.015679381787776947, -0.3261813819408417, -0.11915592849254608, 0.1429639756679535, 0.11535429209470749, 0.11212284862995148, -0.16661939024925232, -0.05555311217904091, -0.11314726620912552, 0.03145105764269829, 0.4421463906764984, 0.17080725729465485, 0.07583513855934143, -0.2924095392227173, -0.16697579622268677, -0.1717682182788849, 0.26147955656051636, 0.2448999136686325, 0.010501132346689701, -0.3212237060070038, -0.354531854391098, -0.03922220692038536, 0.5298206806182861, -0.21228986978530884, -0.18865925073623657, -0.004600814543664455, -0.0769120454788208, -0.05668259412050247, 0.16941331326961517, 0.03391314297914505, -0.01033701840788126, -0.23181113600730896, -0.012627623975276947, -0.04130002483725548, 0.247773677110672, 0.011533699929714203, -0.009112142026424408, -0.05123929679393768, -0.14626218378543854, 0.1003437265753746, 0.06793101876974106, 0.0319625549018383, -0.06941325962543488, -0.04656315967440605, 0.024280840530991554, 0.07837051153182983, 0.14747633039951324, 0.054804448038339615, 0.13378922641277313, 0.09105809032917023, -0.016422294080257416, 0.008339961059391499, 0.13897056877613068, 0.05496304854750633, -0.4036131501197815, -0.18279558420181274, -0.05592792108654976, -0.18524329364299774, 0.1518809050321579, 0.2553262710571289, 0.19679324328899384, -0.11827663332223892, 0.09207046031951904, -0.022968366742134094, 0.03629001975059509, 0.2784201502799988, 0.16606517136096954, 0.04133706912398338, 0.17447488009929657, 0.12838387489318848, 0.17263710498809814, 0.16665692627429962, 0.08074495196342468, -0.019196413457393646, 0.02005358226597309, -0.048790737986564636, 0.07481522113084793, 0.08652954548597336, 0.22668640315532684, -0.179892435669899, -0.11134827882051468, -0.06681503355503082, -0.04600425437092781, 0.08489572256803513, 0.22899679839611053, 0.04074860364198685, -0.039928995072841644, 0.22992241382598877, -0.40811583399772644, -0.0349905863404274, -0.0743301510810852, 0.38284215331077576, 0.0846424400806427, 0.012977645732462406, -0.09570706635713577, -0.1902676373720169, 0.027732642367482185, -0.0006644749082624912, 0.3479336202144623, 0.206027090549469, -0.11416079849004745, 0.1468072235584259, 0.025137407705187798, 0.12033116817474365, 0.020790066570043564, 0.1287173479795456, -0.13885052502155304, -0.04965288192033768, -0.1358308047056198, 0.03653983026742935, -0.10402944684028625, -0.17904897034168243, -0.04075202718377113, 0.01515908446162939, -0.11847471445798874, 0.16747990250587463, -0.2234133929014206, -0.4911392629146576, 0.40357765555381775, 0.13198554515838623, -0.07321395725011826, 0.4201543629169464, -0.031204435974359512, -0.1920735090970993, 0.3088058531284332, -0.17599688470363617, -0.07247444242238998, 0.1741279661655426, -0.011566262692213058, 0.023289581760764122, -0.025309346616268158, -0.0850815400481224, 0.03309548646211624, 0.055011726915836334, -0.08852086216211319, -0.1935385912656784, -0.029767990112304688, -0.07398293912410736, 0.14589537680149078, 0.12786804139614105, 0.07015501707792282, 0.1631990224123001, 0.05359821021556854, -0.07063712924718857, -0.1085132285952568, -0.05035156011581421, 0.03293372318148613, -0.4573507010936737, -0.25616252422332764, -0.0125704575330019, 0.01841043308377266, 0.2252563089132309, 0.14106173813343048, -0.03376789018511772, -0.007586251478642225, -0.000904439075384289, -0.11642222851514816, 0.15437111258506775, 0.29826119542121887, 0.21589599549770355, -0.002846783958375454, -0.005969514604657888, -0.14386962354183197, 0.027568431571125984, 0.3662548363208771, 0.13359303772449493, -0.013455098494887352, -0.09556182473897934, -0.0009621636709198356, -0.1025780737400055, 0.10882658511400223, -0.008246490731835365, -0.1304628551006317, 0.11817611753940582, 0.07218485325574875, 0.11362577974796295, 0.06975974887609482, 0.09095463156700134, 0.041444726288318634, 0.2840020954608917, 0.3154078722000122, 0.18056049942970276, -0.2988538444042206, -0.042469561100006104, -0.27744194865226746, 0.2474624663591385, 0.05989793688058853, 0.16279608011245728, 0.07388217747211456, -0.2923501431941986, -0.2599625885486603, 0.03121158666908741, 0.04422225058078766, -0.08927206695079803, -0.4325324296951294, 0.4103507101535797, 0.16629621386528015, 0.6287667751312256, 0.030291952192783356, -0.06877502053976059, -0.03987568989396095, -0.1327958106994629, 0.14050638675689697, -0.16447663307189941, -0.07609906792640686, 0.061834171414375305, -0.09045647829771042, -0.11462236195802689, -0.1717105507850647, 0.09263301640748978, 0.05135508254170418, -0.11738033592700958, 0.11974215507507324, -0.19897043704986572, 0.38981547951698303, 0.15884198248386383, -0.33699339628219604, -0.19058966636657715, -0.17346031963825226, -0.046246714890003204, -0.08703457564115524, -0.22701019048690796, -0.10397914797067642, -0.026790739968419075, 0.0660453587770462, -0.16064199805259705, -0.11992055922746658, -0.007370008155703545, -0.02077503688633442, -0.07783421874046326, 0.018425358459353447, 0.1103896051645279, 0.23465268313884735, -0.2056313306093216, -0.06401503831148148, 0.1102094054222107, 0.007086337544023991, 0.19616056978702545, 0.05354179069399834, 0.12623362243175507, -0.005438423249870539, 0.123870350420475, 0.11698843538761139, -0.22346828877925873, -0.11905056983232498, -0.14213603734970093, -0.016196124255657196, -0.03536880388855934, -0.06995797902345657, 0.07350398600101471, -0.11237849295139313, -0.039562348276376724, 0.08908985555171967, 0.22701890766620636, -0.06597086042165756, -0.033380404114723206, 0.0068239509128034115, -0.1246475949883461, -0.0014778662007302046, 0.3772399425506592, -0.03857804462313652, -0.09173643589019775, -0.12760129570960999, -0.09566403180360794, -0.07940507680177689, -0.014426068402826786, -0.21023808419704437, -0.09169401973485947, 0.09028850495815277, -0.09689262509346008, -0.213966965675354, 0.29609519243240356, -0.034258902072906494, 0.056582678109407425, -0.20283600687980652, 0.08714370429515839, 0.25123247504234314, 0.10020588338375092, -0.12903350591659546, -0.18851198256015778, -0.08825857937335968, -0.10749561339616776, 0.12240691483020782, 0.21448256075382233, -0.37894150614738464, -0.203806072473526, -0.08073662221431732, -0.2186269760131836, -0.1532304733991623, -0.1202615424990654, 0.25418829917907715, 0.14742222428321838, 0.09791000187397003, 0.07375597953796387, 0.031111082062125206, 0.12609538435935974, 0.19099834561347961, 0.16801314055919647, -0.00016260087431874126, -0.2588607370853424, -0.037005264312028885, 0.2757841646671295, -0.1548413336277008, -0.16715024411678314, -0.1852557510137558, -0.16439346969127655, -0.19686342775821686, 0.003866111394017935, 0.08495565503835678, 0.44867566227912903, -0.22060248255729675, -0.10713038593530655, 0.15852203965187073, -0.032325588166713715, -0.002279518637806177, 0.24952834844589233, 0.11914050579071045, -0.17491164803504944, 0.06918224692344666, 0.06745804101228714, 0.053278930485248566, -0.14121486246585846, -0.05892316251993179, 0.218100443482399, 0.1245632916688919, -0.3449006974697113, 0.17196302115917206, 0.08584482967853546, -0.1753646433353424, -0.31489190459251404, 0.21260109543800354, 0.12436072528362274, -0.0852799192070961, 0.0631081610918045, 0.003220676677301526, -0.19666597247123718, 0.05133743956685066, -0.036097295582294464, 0.28916624188423157, 0.2610061764717102, -0.29637008905410767, -0.3236817717552185, -0.529980480670929, 0.4966832995414734, 0.3611825406551361, 0.043259818106889725, 0.00740185659378767, -0.03125784546136856, 0.056416451930999756, -0.11295484751462936, -0.1679379791021347, 0.12400585412979126, 0.05239645019173622, -0.3700457215309143, 0.07017432898283005, -0.033980775624513626, -0.15944738686084747, 0.10879913717508316, -0.07843174785375595, -0.38690170645713806, -0.26044735312461853, 0.4394991993904114, -0.051100924611091614, 0.1438811868429184, -0.10603971779346466, -0.033263515681028366, 0.3057495653629303, -0.24868014454841614, 0.06405583024024963, -0.03513273224234581, 0.12304748594760895, -0.21778987348079681, -0.011516797356307507, -0.1927061825990677, 0.2430296391248703, 0.34141966700553894, 0.038602061569690704, -0.05565110221505165, -0.04457208141684532, -0.25374895334243774, 0.12414634227752686, 0.05584300681948662, 0.056688208132982254, 0.28408414125442505, 0.07885991036891937, -0.09048232436180115, -0.2601444721221924, 0.029852643609046936, 0.38281911611557007, 0.10966756939888, -0.34889379143714905, -0.356253445148468, -0.11947566270828247, -0.18350224196910858, 0.17258711159229279, -0.12406338006258011, 0.17949235439300537, 0.019665677100419998, 0.08720391243696213, 0.05080892890691757, 0.1157752275466919, 0.18877273797988892, 0.2877102792263031, -0.06108926236629486, -0.019693637266755104, -0.32656094431877136, 0.47061559557914734, -0.001109560951590538, -0.29577451944351196, 0.00917978584766388, -0.2766619920730591, -0.08119366317987442, -0.14978517591953278, -0.017859388142824173, 0.011329952627420425, -0.07912055402994156, 0.1271146833896637, 0.0682528018951416, 0.029620740562677383, -0.0907544195652008, -0.11616451293230057, 0.05246518924832344, 0.1909257471561432, 0.3016456961631775, 0.09073007851839066, -0.06663072109222412, -0.3916652798652649, -0.0760536789894104, -0.034674447029829025, 0.0011973429936915636, 0.14573806524276733, -0.07975436002016068, 0.04184301197528839, 0.11560728400945663, -0.0552704818546772, 0.007261226419359446, -0.19077882170677185, -0.3194168508052826, -0.039455536752939224, 0.04632032662630081, 0.18409982323646545, 0.14164869487285614, 0.08663611114025116, -0.006107795052230358, -0.08426652103662491, -0.02949945256114006, 0.08315039426088333, 0.013324075378477573, 0.2786416709423065, -0.060109566897153854, -0.002212860621511936, -0.13134819269180298, 0.09092730283737183, 0.1535741686820984, 0.12134718149900436, -0.3862861394882202, -0.30473625659942627, -0.10551243275403976, 0.026486188173294067, 0.0713384822010994, -0.22473089396953583, -0.08265932649374008, -0.12526589632034302, -0.23076404631137848, 0.14114615321159363, 0.09345830231904984, 0.18715879321098328, -0.15577293932437897, -0.0888500064611435, -0.253884881734848, 0.021566588431596756, 0.1665174961090088, -0.038229528814554214, -0.2282935082912445, 0.023263946175575256, 0.22555036842823029, -0.014612728729844093, 0.10091423988342285, 0.05859775468707085, -0.07074131816625595, 0.0844976082444191, 0.16854147613048553, 0.34275031089782715, -0.2491268366575241, -0.34410348534584045, -0.24406218528747559, 0.13503581285476685, 0.020256921648979187, 0.14471274614334106, 0.08165832608938217, -0.2734277844429016, -0.0056138914078474045, -0.1697981208562851, 0.16890966892242432, 0.038156382739543915, -0.030495790764689445, 0.11947038769721985, -0.16282907128334045, -0.0235100407153368, 0.26916611194610596, 0.4824024438858032, 0.0069641475565731525, 0.07920484244823456, -0.1633433997631073, -0.17056240141391754, 0.06647257506847382, 0.06361466646194458, -0.1846848577260971, 0.18305151164531708, -0.22664280235767365, -0.1275259256362915, 0.04737543687224388, 0.2997768521308899, 0.1170385479927063, -0.03306587412953377, -0.14074043929576874, 0.18900476396083832, -0.15082159638404846, -0.05085046961903572, 0.14205442368984222, -0.12907911837100983, -0.008525917306542397, -0.016802076250314713, 0.25387653708457947, -0.040404051542282104, -0.04748867079615593, -0.15645116567611694, -0.10527152568101883, -0.06097198277711868, 0.007198662031441927, 0.06141071766614914, -0.012875888496637344, -0.01955120451748371, -0.027687741443514824, 0.13745413720607758, -0.32279640436172485, 0.11710742115974426, -0.08635064959526062, -0.24358424544334412, -0.16362710297107697, -0.0886535793542862, 0.12030172348022461, -0.11954962462186813, -0.030204137787222862, 0.09916933625936508, -0.05012127757072449, 0.06551636010408401, -0.004715126007795334, -0.002228852827101946, -0.16929827630519867, 0.08066072314977646, -0.01532225962728262, -0.1856398731470108, 0.18977302312850952, -0.016048159450292587, -0.09465517848730087, 0.08250033855438232, -0.03874318674206734, -0.15504643321037292, 0.18869881331920624, 0.08180224895477295, 0.17146623134613037, 0.015529311262071133, 0.36946120858192444, 0.12281332165002823, 0.06408282369375229, 0.23103797435760498, -0.13507728278636932, 0.06159687042236328, 0.2746545076370239, 0.09845186769962311, 0.06756044179201126, -0.1487226039171219, 0.22032620012760162, 0.06472096592187881, -0.11744464188814163, -0.040579501539468765, -0.010011378675699234, 0.08245759457349777, -0.5430356860160828, 0.15263056755065918, 0.6354146599769592, -0.4959876239299774, 0.6571832895278931, -0.6190490126609802, -0.7176771759986877, -0.4749351143836975, 1.0382206439971924, -1.3750126361846924, -0.7095508575439453, -1.0408737659454346, 0.501948356628418, -0.6027187705039978, -0.03386722132563591, -1.0495128631591797, -0.18628369271755219, -0.22870756685733795, 0.03624534234404564, 0.4400739371776581, 0.5393729209899902, 0.06407608091831207, -0.35426682233810425, -0.2633848488330841, 0.05957475304603577, -0.2525610625743866, -0.13712987303733826, -0.1639905571937561, 0.24239496886730194, 0.11479407548904419, -0.15499426424503326, 0.12279468774795532, 0.23042477667331696, -0.11648164689540863, 0.052786022424697876, -0.028335697948932648, -0.37725594639778137, 0.09109748899936676, -0.09962652623653412, -0.3171933591365814, 0.09437888860702515, -0.06376384198665619, 0.20196181535720825, 0.2559300661087036, 0.15644395351409912, 0.05763328820466995, 0.058175019919872284, 0.20575375854969025, -0.053623709827661514, -0.1523197740316391, 0.018859848380088806, 0.20352742075920105, -0.1352609097957611, 0.036248158663511276, 0.1856372207403183, 0.11094315350055695, 0.08638350665569305, 0.08365456759929657, -0.31131675839424133, -0.19321784377098083, -0.052942365407943726, 0.13136446475982666, 0.0787435844540596, 0.0076341088861227036, 0.048414114862680435, 0.21692879498004913, -0.2281135618686676, -0.41902029514312744, -0.1802283376455307, 0.001746010733768344, -0.018376408144831657, -0.2108166217803955, -0.22151826322078705, 0.16878271102905273, 0.20685961842536926, 0.3763268291950226, 0.01971794292330742, -0.35928434133529663, 0.1038137748837471, 0.1359345018863678, 0.6916419863700867, 0.12173767387866974, -0.24409985542297363, -0.03235512599349022, 0.38408198952674866, -0.13748301565647125, -0.16677621006965637, 0.5004878044128418, 0.0851522758603096, -0.0579223595559597, -0.1405801773071289, 0.18359404802322388, -0.07206077128648758, -0.006470674183219671, -0.014215066097676754, -0.03718087822198868, -0.13766267895698547, 0.008178731426596642, -0.2986023724079132, -0.14873939752578735, 0.02614051103591919, -0.27141013741493225, 0.2027728259563446, 0.1815500259399414, -0.23716799914836884, 0.34698614478111267, 0.15238575637340546, 0.028565678745508194, -0.42649728059768677, -0.03296320140361786, 0.2690373361110687, 0.10982482135295868, 0.24218618869781494, -0.16753491759300232, 0.24626131355762482, -0.13400933146476746, 0.19608722627162933, 0.26951098442077637, -0.33998802304267883, 0.07836759835481644, 0.17283189296722412, -0.13451114296913147, -0.17312413454055786, 0.08176076412200928, 0.13526514172554016, -0.015422407537698746, -0.19237208366394043, 0.03149048238992691, -0.026484664529561996, -0.11174315959215164, -0.1481138914823532, 0.15813608467578888, 0.0893445760011673, -0.05270431935787201, -0.10944631695747375, 0.0060526663437485695, -0.061496932059526443, 0.26820284128189087, -0.2837078869342804, -0.06351957470178604, -0.046924468129873276, -0.07757632434368134, 0.05999262258410454, 0.10846070200204849, 0.046491362154483795, 0.15998198091983795, -0.08672073483467102, -0.14718295633792877, -0.12009508162736893, -0.1326514333486557, 0.20358805358409882, -0.05232631042599678, -0.11655063182115555, 0.17820784449577332, -0.05952879786491394, -0.01780877634882927, -0.31982704997062683, 0.17257751524448395, -0.07542195171117783, 0.2164265662431717, 0.07221928983926773, 0.13364674150943756, -0.20836548507213593, 0.17424741387367249, 0.18570677936077118, -0.1947651505470276, 0.07706530392169952, -0.02142542228102684, -0.3022680878639221, -0.02214760147035122, 0.22499144077301025, 0.19982491433620453, 0.18747687339782715, -0.12457024306058884, 0.09428844600915909, -0.07813438028097153, -0.14758069813251495, -0.13949912786483765, -0.007313678972423077, 0.02560654655098915, 0.014580159448087215, -0.005718613043427467, 0.04277290031313896, -0.11262772977352142, 0.17403477430343628, 0.21930870413780212, -0.24157936871051788, 0.06893940269947052, 0.10443948954343796, 0.08377772569656372, -0.05657560005784035, 0.11414335668087006, 0.07581935822963715, 0.18709707260131836, -0.19990640878677368, -0.17389248311519623, -0.13902771472930908, -0.05383891239762306, 0.045440129935741425, 0.1447557955980301, -0.2429758459329605, 0.19477792084217072, 0.1599678248167038, -0.16301923990249634, -0.07002529501914978, -0.11365509778261185, 0.23970621824264526, -0.06898762285709381, 0.025175468996167183, -0.1915619671344757, -0.08070951700210571, 0.4855153262615204, 0.014186191372573376, -0.2008274346590042, -0.034463051706552505, -0.2065809965133667, -0.008088331669569016, -0.09240343421697617, -0.24206028878688812, -0.17892475426197052, 0.31195294857025146, -0.17620453238487244, -0.12634795904159546, -0.029360268265008926, -0.002133212750777602, -0.13400863111019135, -0.13714240491390228, 0.3059096038341522, -0.36858969926834106, 0.19778263568878174, 0.03023511916399002, -0.03146255761384964, 0.27776381373405457, 0.3317491412162781, 0.09169633686542511, -0.07324802875518799, 0.15799249708652496, 0.01797635480761528, -0.09748208522796631, 0.0007317571435123682, -0.06046334654092789, 0.3065171241760254, -0.013382204808294773, -0.1307491660118103, -0.4182426631450653, -0.25221455097198486, 0.4252198338508606, -0.09129449725151062, -0.23336750268936157, 0.28309643268585205, 0.05235866829752922, 0.2735307216644287, -0.30694061517715454, 0.18841955065727234, 0.34041523933410645, 0.25152334570884705, 0.16810068488121033, -0.42625030875205994, -0.04006097838282585, 0.037721894681453705, -0.30963319540023804, 0.23223264515399933, -0.04330363869667053, -0.434828519821167, 0.3624418079853058, -0.1495503932237625, 0.13257446885108948, 0.0320463702082634, -0.15147589147090912, 0.3199068605899811, -0.2541012167930603, 0.033800866454839706, -0.04573456197977066, -0.16508446633815765, 0.142447367310524, -0.02298668399453163, -0.2991827428340912, 0.1381172388792038, 0.13652320206165314, 0.26799070835113525, 0.23621822893619537, 0.01912522315979004, 0.07546261698007584, -0.07103186100721359, 0.034257881343364716, -0.2892020046710968, -0.16214826703071594, -0.15535257756710052, -0.13268226385116577, -0.11632989346981049, -0.14477498829364777, 0.06150651350617409, 0.06110008805990219, -0.09054695069789886, -0.0202101469039917, -0.020666446536779404, 0.03099401667714119, -0.01142388116568327, -0.243829146027565, -0.3946385979652405, -0.31499090790748596, -0.0014322232455015182, -0.23293450474739075, 0.3272853195667267, 0.07764248549938202, 0.08492925018072128, -0.12889377772808075, 0.025946738198399544, 0.08351054787635803, 0.23510052263736725, 0.14670251309871674, -0.1093149334192276, 0.010552626103162766, 0.19145406782627106, 0.1968022584915161, -0.013073998503386974, -0.006275006104260683, -0.11986448615789413, -0.1873447299003601, -0.08361875265836716, -0.09212897717952728, -0.12913240492343903, -0.10377807915210724, -0.15400330722332, -0.09694166481494904, -0.05612099915742874, 0.1273668259382248, -0.18828658759593964, 0.07356956601142883, -0.09652874618768692, 0.06036123260855675, -0.0798591896891594, -0.11106961965560913, 0.1222878023982048, -0.11823373287916183, -0.09065041691064835, -0.13245293498039246, 0.25361624360084534, -0.1955811083316803, -0.08777599781751633, 0.01868106797337532, -0.07435246556997299, 0.18352483212947845, 0.09311176091432571, 0.044345926493406296, 0.039368461817502975, -0.02736436016857624, 0.15480373799800873, 0.2622712552547455, -0.06980405002832413, 0.11664485931396484, -0.021194398403167725, 0.014848579652607441, -0.04911665990948677, -0.10379214584827423, -0.05360351502895355, 0.15889200568199158, -0.19127938151359558, -0.04169091209769249, -0.062255337834358215, 0.19140611588954926, -0.1655982881784439, -0.13891136646270752, 0.03031754679977894, 0.1508024036884308, 0.11092998832464218, 0.27428990602493286, 0.06324680894613266, -0.0004699419077951461, -0.036242302507162094, -0.07749824970960617, -0.0017384628299623728, -0.020496930927038193, 0.07284732908010483, -0.16772298514842987, 0.04911934211850166, -0.07070820778608322, -0.1730043888092041, 0.3527820110321045, -0.03859331086277962, 0.29586079716682434, -0.14629167318344116, -0.11635211855173111, -0.2625750005245209, 0.1498778760433197, 0.19221767783164978, -0.1759701520204544, 0.14479558169841766, -0.15854902565479279, -0.23022444546222687, 0.24825094640254974, 0.024936828762292862, 0.014209559187293053, -0.1813165247440338, -0.04947597533464432, 0.08237010985612869, 0.011824236251413822, -0.10720742493867874, 0.008657125756144524, 0.011285685002803802, 0.028358880430459976, 0.11092665791511536, 0.15078769624233246, 0.2738912105560303, 0.1158875972032547, -0.15979032218456268, 0.13288667798042297, 0.13817232847213745, 0.1917068213224411, -0.045732736587524414, -0.021387163549661636, -0.06811347603797913, 0.13087284564971924, 0.010478832758963108, -0.007039479445666075, 0.010499711148440838, -0.15370336174964905, -0.11136340349912643, 0.043427951633930206, -0.015546072274446487, 0.18246614933013916, 0.008585330098867416, -0.06322788447141647, 0.07942695170640945, -0.07238202542066574, -0.08084990084171295, 0.228840634226799, -0.4017409384250641, -0.16465599834918976, -0.3059996962547302, -0.1864689737558365, 0.073824942111969, -0.10639283806085587, 0.011874550953507423, -0.0038497301284223795, 0.008011773228645325, 0.0349465049803257, -0.08856958150863647, 0.13708986341953278, 0.05404334142804146, -0.21869653463363647, -0.005604044534265995, 0.04989379644393921, -0.12475468963384628, 0.01614423282444477, -0.0959036722779274, -0.29465755820274353, -0.032172270119190216, -0.044656530022621155, 0.1800011694431305, 0.14274077117443085, 0.15122613310813904, -0.04401134327054024, -0.0283532552421093, 0.12405078858137131, 0.2499578297138214, 0.05043197050690651, -0.1488274484872818, -0.09417460858821869, -0.14838041365146637, -0.009294791147112846, -0.04656588286161423, 0.07353900372982025, -0.05316321924328804, -0.11534256488084793, 0.06692145019769669, -0.040178775787353516, -0.04617573693394661, 0.10858574509620667, -0.0993761271238327, -0.12060894817113876, 0.18486016988754272, -0.17307192087173462, -0.05040730535984039, 0.010404221713542938, -0.4802694320678711, 0.06836172938346863, 0.03440602868795395, -0.0981178805232048, 0.17126908898353577, 0.07438316196203232, -0.367942750453949, 0.15797589719295502, -0.15613040328025818, 0.17629456520080566, 0.026050744578242302, -0.12536239624023438, 0.08981852233409882, 0.014058699831366539, 0.1264132410287857, 0.24486513435840607, -0.06703729182481766, -0.07801074534654617, 0.13847467303276062, 0.12935073673725128, 0.052006155252456665, 0.11372900009155273, -0.11946588009595871, -0.29480430483818054, -0.2547259032726288, 0.09152652323246002, 0.058581478893756866, -0.192088320851326, -0.024790586903691292, -0.14786601066589355, -0.007630948442965746, 0.09135455638170242, 0.20052258670330048, 0.06534768640995026, -0.014271104708313942, -0.18012572824954987, 0.04387076571583748, 0.1615464985370636, 0.1154046282172203, 0.0574764721095562, -0.19676554203033447, -0.1932295262813568, 0.08127528429031372, 0.10201463848352432, -0.18054617941379547, -0.009487194940447807, 0.21322646737098694, -0.17249508202075958, 0.375781387090683, 0.008010520599782467, 0.1745440810918808, -0.08438657969236374, -0.18064866960048676, 0.18100416660308838, 0.11620046943426132, -0.18041153252124786, 0.4552944004535675, 0.015075640752911568, 0.14225801825523376, -0.03428199142217636, -0.15254567563533783, -0.19673770666122437, 0.0011599415447562933, 0.03614453226327896, 0.3009527921676636, -0.09039600193500519, 0.08641945570707321, 0.28539058566093445, -0.23760056495666504, -0.16130883991718292, 0.03901253268122673, -0.20361098647117615, 0.06089220196008682, -0.10562290996313095, -0.1611546128988266, -0.0879921019077301, 0.06655590981245041, 0.0046584755182266235, -0.293181836605072, -0.1637374460697174, -0.2485063523054123, 0.11428093910217285, 0.024034999310970306, 0.15782932937145233, -0.01692531257867813, -0.06552045047283173, -0.10569286346435547, 0.24577277898788452, 0.31238511204719543, 0.19377008080482483, -0.06439817696809769, -0.1301852911710739, 0.05813059210777283, -0.006206728518009186, -0.035970985889434814, -0.03778206557035446, -0.406070351600647, 0.007578624412417412, 0.32477331161499023, 0.0967860072851181, 0.0710870623588562, -0.08879988640546799, -0.5375593304634094, 0.1921972930431366, 0.18835091590881348, -0.2778339087963104, -0.03210868313908577, 0.29326534271240234, -0.2630521059036255, -0.10078184306621552, -0.01614517718553543, 0.2723267674446106, -0.019613802433013916, -0.028954021632671356, -0.37009650468826294, -0.10455599427223206, -0.25479957461357117, 0.3743743598461151, -0.15007750689983368, 0.004019106272608042, -0.21521474421024323, 0.093570776283741, -0.11229083687067032, 0.22900907695293427, -0.11418218910694122, -0.004882602021098137, 0.054281506687402725, 0.14776340126991272, -0.3482986390590668, 0.13264259696006775, -0.17526458203792572, 0.11928245425224304, -0.09620408713817596, -0.03086136467754841, 0.014582905918359756, 0.30716022849082947, -0.044046737253665924, 0.07373340427875519, -0.2889450788497925, 0.09725449979305267, 0.1959252655506134, -0.23310162127017975, 0.04864777624607086, -0.11521364748477936, 0.15279273688793182, -0.010314510203897953, 0.021496348083019257, -0.16510869562625885, 0.5841068625450134, 0.028390489518642426, 0.05764809623360634, -0.2525995075702667, 0.13254806399345398, -0.0010048144031316042, 0.2561505138874054, 0.06790559738874435, -0.0005576619878411293, -0.03720087558031082, -0.20702314376831055, -0.03745056316256523, 0.02665567956864834, 0.2039017230272293, 0.09162431955337524, -0.09755724668502808, -0.09735441952943802, 0.09770926833152771, -0.024182254448533058, 0.09081578999757767, 0.015519951470196247, 0.10991578549146652, -0.11026445031166077, 0.32976987957954407, 0.07538419216871262, 0.031225254759192467, -0.159014493227005, -0.10686205327510834, -0.2295309454202652, 0.24865983426570892, -0.012938552536070347, 0.1999378651380539, -0.3288883566856384, -0.07467363774776459, -0.18175126612186432, 0.07170955091714859, -0.1722700595855713, 0.14974379539489746, 0.004762814845889807, 0.07634590566158295, -0.029079532250761986, -0.26057377457618713, 0.029740411788225174, 0.008310960605740547, -0.37272951006889343, -0.06393241137266159, -0.1808580607175827, -0.1418222039937973, 0.28572359681129456, -0.3504985570907593, 0.01779000833630562, 0.166486456990242, 0.37075427174568176, 0.2310149073600769, -0.0769309550523758, -0.17896144092082977, 0.316013365983963, -0.11497815698385239, 0.2250242978334427, -0.13108716905117035, 0.20988740026950836, -0.38238826394081116, 0.023062732070684433, 0.1854172646999359, 0.2578241229057312, -0.2775464951992035, -0.07931012660264969, -0.301725834608078, 0.369136244058609, 0.3604311943054199, 0.08206164836883545, -0.3161682188510895, -0.0879276767373085, 0.3072607219219208, -0.07816039770841599, -0.07190807163715363, 0.22139352560043335, -0.06923449039459229, 0.22113725543022156, -0.07673133164644241, 0.2277793139219284, -0.12727312743663788, 0.386185884475708, -0.3437090814113617, -0.17046667635440826, -0.3818931579589844, 0.3767935335636139, 0.004451105836778879, -0.0724669024348259, 0.2533191740512848, 0.09111861884593964, 0.789825439453125, -0.04515878111124039, -0.4356665313243866, 0.09182161092758179, 0.4528624415397644, -0.31162360310554504, -0.24377064406871796, -0.2997529208660126, -0.14736966788768768, -0.06301219761371613, 0.17867353558540344, 0.16258391737937927, -0.06392668932676315, 0.0016178053338080645, 0.1998579353094101, -0.14894020557403564, -0.1003335639834404, -0.19414371252059937, 0.05371291935443878, -0.16015774011611938, -0.07908975332975388, 0.041107628494501114, 0.166295126080513, -0.10784517973661423, -0.1432390660047531, -0.1204814687371254, -0.0020916920620948076, 0.11340589821338654, -0.15803726017475128, -0.14482629299163818, -0.06941388547420502, 0.14336465299129486, 0.13172923028469086, 0.27827709913253784, -0.05001361295580864, 0.02218599058687687, -0.11965519934892654, 0.015958517789840698, -0.014281473122537136, -0.047131653875112534, 0.08913762122392654, -0.3176334798336029, -0.10909948498010635, -0.03422965481877327, -0.0020409056451171637, -0.1463836431503296, -0.0979684442281723, 0.07024212181568146, -0.11866637319326401, 0.6191719770431519, -0.16959071159362793, 0.12281429767608643, -0.10799234360456467, -0.07593374699354172, -0.1376897394657135, -0.036487553268671036, -0.09715970605611801, 0.2138528972864151, 0.02964754030108452, 0.4265469014644623, 0.16773708164691925, -0.04405730962753296, 0.11896262317895889, 0.041482843458652496, 0.16806361079216003, 0.11510879546403885, 0.4793820083141327, -0.165313720703125, -0.12506888806819916, -0.0934557169675827, 0.031060993671417236, -0.03449090197682381, -0.03543510660529137, -0.13485950231552124, -0.2592145800590515, -0.02933325618505478, 0.2792210876941681, 0.0330158956348896, 0.02618390880525112, -0.003839027602225542, 0.03717459738254547, -0.06344696879386902, 0.11155248433351517, 0.02281106263399124, 0.15267682075500488, -0.15157364308834076, 0.10201127082109451, 0.06224098801612854, 0.19389520585536957, 0.10017679631710052, 0.19718515872955322, -0.0908425971865654, -0.09354806691408157, 0.28043827414512634, -0.21749736368656158, -0.02480548433959484, 0.07617232948541641, -0.09676932543516159, 0.09821625053882599, -0.06611160188913345, -0.04722839221358299, 0.2742261290550232, 0.2745743691921234, -0.09632798284292221, 0.26036521792411804, -0.029161106795072556, -0.2378670573234558, 0.020926583558321, -0.006004378665238619, -0.10015826672315598, 0.15461304783821106, -0.19487513601779938, -0.04407808929681778, -0.018852682784199715, -0.05721908062696457, -0.1779634654521942, -0.05417206510901451, -0.12580595910549164, -0.015399307012557983, -0.05360380932688713, -0.16820789873600006, -0.38756296038627625, -0.1580345332622528, 0.29481416940689087, 0.1336999535560608, -0.07035423070192337, -0.32544592022895813, -0.05974120274186134, -0.20223428308963776, -0.12089269608259201, 0.0970696285367012, -0.13324494659900665, -0.15904591977596283, -0.21515202522277832, -0.05304928496479988, 0.004344935994595289, 0.04617946967482567, 0.00428917957469821, -0.026732761412858963, -0.08092191815376282, -0.015354778617620468, -0.15978187322616577, -0.16296792030334473, 0.16946396231651306, -0.3366646468639374, -0.037329766899347305, 0.18871468305587769, -0.004869883414357901, -0.09886500984430313, -0.025791997089982033, -0.001241613063029945, 0.24699847400188446, 0.05255927890539169, 0.2157915085554123, 0.02990168146789074, -0.2776820659637451, 0.00874311476945877, -0.13830959796905518, -0.03128862753510475, -0.005632785614579916, 0.1483980119228363, 0.2552117705345154, -0.008610617369413376, 0.2545265257358551, 0.09180474281311035, -0.12519629299640656, -0.09680566191673279, 0.09137804806232452, -0.12210790812969208, 0.44728103280067444, -0.05696305260062218, -0.004229086451232433, -0.13803939521312714, 0.007546541281044483, 0.08420805633068085, -0.22318576276302338, 0.06257311999797821, -0.2135290950536728, 0.02287457510828972, 0.05848558247089386, 0.22209392488002777, 0.18531788885593414, -0.009943363256752491, 0.039249569177627563, -0.035229261964559555, 0.288236528635025, -0.02247232384979725, 0.028833536431193352, -0.1820375919342041, 0.17149490118026733, 0.04372749850153923, -0.04951844364404678, 0.01736261136829853, -0.23099100589752197, -0.16621890664100647, 0.3631823658943176, 0.024554159492254257, -0.13839104771614075, -0.018582165241241455, 0.12011689692735672, -0.12640231847763062, 0.1670173704624176, -0.053462594747543335, -0.08472290635108948, 0.20328035950660706, 0.03977739065885544, -0.1531655490398407, -0.22940859198570251, -0.01557343639433384, 0.19828909635543823, -0.0761001855134964, 0.13579793274402618, 0.024334287270903587, -0.18853209912776947, -0.07069971412420273, -0.02801593393087387, 0.08327079564332962, 0.06641484797000885, 0.07753594219684601, -0.06771545112133026, 0.01499099936336279, -0.026303987950086594, 0.08601225912570953, 0.051912110298871994, 0.009874707087874413, -0.07832194119691849, -0.02947865054011345, 0.160359725356102, 0.1307470202445984, 0.011413331143558025, -0.13615284860134125, -0.15754668414592743, 0.15302489697933197, 0.15953834354877472, 0.04730859771370888, 0.06411807239055634, -0.08258338272571564, 0.2114361971616745, 0.1164429634809494, -0.13030391931533813, -0.020521419122815132, -0.12993411719799042, -0.03148433566093445, 0.18788324296474457, 0.0429728701710701, 0.05141805112361908, 0.04259400814771652, 0.13000424206256866, 0.043083153665065765, 0.09783867001533508, -0.10594511777162552, -0.14406466484069824, 0.0938870757818222, -0.042565133422613144, 0.0646526962518692, -0.3423982262611389, -0.298534095287323, -0.16145654022693634, -0.20984257757663727, -0.7063273787498474, -0.22892320156097412, 0.02973068878054619, 0.1231718584895134, -0.06256604939699173, -0.08158039301633835, -0.11300809681415558, -0.13991175591945648, 0.02451539970934391, 0.08440494537353516, 0.13604219257831573, 0.002877588849514723, -0.20117053389549255, 0.05119553580880165, 0.01856650784611702, 0.02480037696659565, 0.12304238975048065, -0.01324683427810669, -0.06331034004688263, 0.0035535264760255814, -0.24236412346363068, 0.07549475133419037, -0.16589175164699554, 0.03880494460463524, -0.1161695271730423, -0.090535007417202, 0.013548818416893482, -0.24680402874946594, -0.04095751419663429, -0.10472983866930008, -0.3612438142299652, -0.015188709832727909, 0.5368339419364929, -0.11454124003648758, -0.06125372275710106, 0.03974496200680733, -0.2750130891799927, 0.16744856536388397, -0.024615289643406868, 0.12460317462682724, 0.2090996503829956, -0.22454465925693512, 0.05980772525072098, 0.17454418540000916, -0.13870307803153992, 0.09027346223592758, -0.001490134629420936, -0.036738839000463486, 0.09172988682985306, 0.005223690066486597, 0.1801387071609497, 0.07890751957893372, -0.1683797836303711, 0.09802816063165665, -0.13664917647838593, 0.15550345182418823, 0.15481626987457275, 0.02925880439579487, 0.03437061235308647, -0.1701686531305313, 0.03305067494511604, -0.022906210273504257, 0.023885389789938927, -0.015122376382350922, -0.13284294307231903, -0.17315399646759033, -0.10878487676382065, 0.13898396492004395, -0.04545770213007927, 0.08649653196334839, -0.0035782093182206154, -0.2529725730419159, 0.10220903903245926, -0.02278459444642067, -0.17006024718284607, 0.1183406412601471, 0.04489494115114212, -0.06876089423894882, 0.4050481617450714, -0.10385145992040634, 0.008302082307636738, -0.1469002664089203, 0.1405617743730545, 0.4208262860774994, 0.03336993604898453, 0.11507678776979446, -0.032114122062921524, -0.014922532252967358, -0.19905804097652435, -0.08409315347671509, -0.021332349628210068, 0.03539958596229553, 0.20742377638816833, 0.09672543406486511, -0.11929401755332947, -0.13932645320892334, 0.15140144526958466, 0.12190069258213043, -0.019731666892766953, -0.2138073593378067, -0.5952274203300476, 0.8889956474304199, 0.48218899965286255, -0.50697261095047, 0.20996057987213135, -0.26984935998916626, -0.03169652447104454, 0.5349414348602295, -0.8323309421539307, 0.9846267700195312, 0.6324255466461182, 0.12501020729541779, -0.40351399779319763, 0.26566529273986816, -0.6654801964759827, 0.029384490102529526, -0.28532350063323975, -0.31282901763916016, -0.391253799200058, 0.5476667284965515, -0.28190502524375916, 0.14470896124839783, -0.08348790556192398, 0.28859278559684753, 0.435820072889328, 0.3643336892127991, 0.28192993998527527, -0.4911705553531647, -0.2941190302371979, -0.2795807719230652, 0.19950167834758759, 0.26498186588287354, 0.005993293132632971, 0.08348572254180908, 0.21161581575870514, 0.051925212144851685, 0.4028318226337433, 0.3296029269695282, -0.19529783725738525, -0.2261461317539215, -0.15211252868175507, -0.059572670608758926, -0.18269819021224976, 0.15925362706184387, 0.3548555076122284, 0.20089378952980042, -0.1746801733970642, -0.09929104894399643, -0.18538734316825867, 0.06951941549777985, -0.1933472454547882, 0.18541666865348816, -0.19177019596099854, 0.10832636803388596, -0.10260194540023804, -0.1596432626247406, -0.0038870377466082573, -0.07510093599557877, 0.378638356924057, 0.17064857482910156, -0.23334220051765442, 0.019314827397465706, 0.03903498873114586, 0.35267767310142517, -0.09915873408317566, -0.02188192680478096, -0.00040372833609580994, 0.01602260023355484, 0.07019303739070892, -0.47227320075035095, 0.12222451716661453, 0.23893094062805176, -0.015530574135482311, -0.050456080585718155, 0.2883298099040985, -0.035521503537893295, -0.1807161122560501, 0.10974498838186264, 0.05582171306014061, -0.02920558489859104, -0.3312312364578247, 0.11368807405233383, -0.009393530897796154, 0.21030141413211823, -0.1279967874288559, 0.053348660469055176, 0.0098289018496871, 0.14407193660736084, 0.02594040147960186, -0.2646138072013855, 0.06644225865602493, -0.2582482099533081, -0.07150627672672272, 0.2121843844652176, 0.02028661035001278, -0.03426488861441612, 0.06913918256759644, 0.2934468984603882, 0.06216514855623245, -0.2822667360305786, 0.14468905329704285, 0.4936125576496124, 0.4183303415775299, -0.48384442925453186, -0.29492732882499695, 0.5305091738700867, 0.11478178203105927, 0.09014833718538284, 0.2626297175884247, 0.25941962003707886, -0.1766785830259323, 0.18800240755081177, 0.016620973125100136, -0.2794158458709717, -0.11331338435411453, 0.3863791227340698, -0.1640869677066803, -0.031164776533842087, -0.09487958997488022, -0.05435173213481903, 0.21957337856292725, 0.2805898189544678, -0.10168473422527313, -0.010319202207028866, -0.10378868132829666, 0.06732024997472763, 0.17938925325870514, 0.3650394082069397, 0.24621309340000153, -0.2688787877559662, -0.13106493651866913, 0.16245202720165253, -0.20357157289981842, 0.0671478658914566, -0.23656803369522095, 0.1343560516834259, 0.19090375304222107, -0.00016033185238484293, 0.0437467098236084, -0.028337813913822174, 0.031763870269060135, 0.0198093019425869, -0.02663796953856945, -0.24802473187446594, 0.3360842764377594, -0.12755824625492096, 0.16195979714393616, 0.12579557299613953, 0.14910003542900085, -0.2591637670993805, 0.2120589315891266, -0.2422827035188675, -0.12177514284849167, -0.02455785870552063, 0.29818251729011536, -0.19371330738067627, -0.0314529687166214, 0.002711751265451312, 0.00999304186552763, 0.5328672528266907, -0.246657133102417, -0.24828214943408966, 0.12324515730142593, 0.07089188694953918, 0.19416801631450653, -0.28839436173439026, -0.31258562207221985, 0.05914697051048279, 0.08123087137937546, -0.12366121262311935, -0.12307305634021759, -0.02271677553653717, -0.1690298318862915, 0.3006758689880371, -0.04323570802807808, 0.1776185780763626, -0.23107019066810608, -0.21405629813671112, -0.20549936592578888, 0.362221896648407, -0.3306761085987091, -0.08467189967632294, -0.07138898223638535, 0.2893272638320923, 0.18530334532260895, -0.2634958326816559, 0.2197953313589096, -0.038306642323732376, -0.34859970211982727, 0.05054972320795059, 0.39808645844459534, 0.19276858866214752, -0.018781738355755806, -0.1618780791759491, 0.0139975156635046, 0.08452486991882324, 0.14236164093017578, 0.38052889704704285, 0.11142964661121368, -0.07750843465328217, -0.12399181723594666, 0.034840136766433716, 0.29659444093704224, -0.32611557841300964, -0.4149744510650635, -0.0036377906799316406, 0.22861583530902863, -0.3191637396812439, -0.12751393020153046, -0.17448696494102478, -0.11795195192098618, 0.27280962467193604, -0.07445432990789413, -0.3081170618534088, -0.2199006974697113, 0.044866133481264114, 0.050842706114053726, -0.18387089669704437, 0.07830565422773361, -0.05196283385157585, 0.06120612472295761, -0.035891491919755936, 0.05531812831759453, -0.24822403490543365, 0.10974837839603424, -0.16784797608852386, -0.028032392263412476, 0.09280700981616974, -0.2557055354118347, 0.14324218034744263, 0.004101884551346302, 0.08575789630413055, 0.0673966109752655, 0.1587091088294983, -0.12112268060445786, -0.006170340348035097, 0.15514586865901947, 0.025563392788171768, 0.08460843563079834, 0.02627658098936081, 0.21567298471927643, 0.007099681068211794, -0.014005163684487343, -0.22288167476654053, 0.09816019982099533, 0.027622321620583534, -0.12200088798999786, 0.25901976227760315, 0.057485181838274, 0.353272020816803, 0.18202060461044312, -0.08562573790550232, 0.09943315386772156, 0.0790889635682106, -0.3293170630931854, -0.21697379648685455, 0.04559111222624779, 0.03588343411684036, -0.3282839357852936, -0.03926684334874153, -0.3518960773944855, 0.1838894486427307, -0.26434004306793213, -0.1792164146900177, 0.27346736192703247, 0.23353879153728485, 0.3059300184249878, -0.3076028823852539, 0.0037314596120268106, -0.25901538133621216, 0.06353805959224701, -0.015384635888040066, 0.04909633845090866, 0.10363815724849701, 0.17235536873340607, -0.04254091903567314, 0.29649457335472107, 0.1354723870754242, -0.003707625437527895, -0.15072990953922272, -0.18081164360046387, 0.0076142302714288235, 0.1840881109237671, 0.09052932262420654, 0.10360158979892731, 0.11532984673976898, -0.11108498275279999, -0.06493937969207764, -0.1251576691865921, 0.11404325813055038, 0.045277416706085205, 0.04004726931452751, -0.009392442181706429, 0.19412864744663239, 0.07152984291315079, -0.1497696042060852, -0.21955548226833344, -0.0002819190558511764, 0.2530875504016876, -0.002428770763799548, -0.24492260813713074, -0.37707164883613586, -0.016922809183597565, -0.09870573878288269, 0.30074912309646606, 0.12504048645496368, -0.02933356538414955, -0.16314075887203217, -0.3220265209674835, -0.01732379011809826, 0.1726352870464325, -0.0621720626950264, 0.007269374560564756, -0.05290674790740013, -0.21872441470623016, -0.02641991712152958, 0.11203821003437042, -0.0293105635792017, 0.024507246911525726, 0.003326551290228963, -0.16426675021648407, -0.24695493280887604, 0.02619984559714794, 0.02535616233944893, 0.14600391685962677, -0.19319646060466766, 0.1592705398797989, 0.0683572068810463, -0.2802793085575104, 0.05492442846298218, -0.1415586918592453, -0.02645895630121231, 0.0671229138970375, 0.03783755749464035, -0.08495985716581345, 0.04046279191970825, 0.23350945115089417, -0.3467041552066803, -0.053329162299633026, -0.08688265830278397, 0.08060216903686523, -0.07563874125480652, -0.07833230495452881, 0.21946147084236145, -0.053125813603401184, 0.04225381091237068, -0.08678843826055527, -0.02691475674510002, -0.12787802517414093, -0.001982650486752391, 0.12713932991027832, -0.22134333848953247, -0.1638675183057785, -0.08555244654417038, 0.18049579858779907, 0.04430432990193367, 0.20351102948188782, -0.03481833636760712, -0.17641624808311462, -0.20611125230789185, -0.3073763847351074, -0.2547248601913452, 0.1655513048171997, 0.12933315336704254, -0.09486005455255508, -0.20169124007225037, 0.11823256313800812, 0.05728636309504509, 0.24060112237930298, -0.03308089077472687, -0.31614822149276733, -0.20792600512504578, 0.021880395710468292, 0.1443268358707428, -0.31216344237327576, 0.09535247087478638, 0.05888402462005615, -0.2251945585012436, -0.07868362218141556, 0.0038410210981965065, -0.03258796036243439, 0.005296698305755854, -0.009442734532058239, -0.09221292287111282, -0.10916216671466827, -0.055433616042137146, 0.16868799924850464, -0.05730661004781723, -0.23664231598377228, -0.023196810856461525, 0.021648820489645004, -0.1450553983449936, -0.1831407994031906, 0.07245941460132599, 0.12065108865499496, 0.23803219199180603, -0.011383446864783764, -0.3216225504875183, -0.2208995223045349, -0.2633444666862488, 0.2571866810321808, 0.0816350132226944, 0.131798654794693, -0.1723233461380005, -0.1333208829164505, -0.05059713125228882, 0.17695161700248718, 0.0542294904589653, 0.1957765519618988, 0.017975514754652977, -0.0699566900730133, -0.0658251941204071, 0.225886270403862, 0.060493480414152145, 0.14687411487102509, -0.32560887932777405, -0.19155628979206085, -0.1867549866437912, 0.09211651235818863, 0.04065648093819618, 0.10471750050783157, -0.2456299066543579, 0.052285630255937576, 0.05986381694674492, -0.2676209509372711, 0.20581865310668945, -0.057725246995687485, -0.004807419143617153, -0.0548856258392334, 0.019362719729542732, -0.16180109977722168, 0.025897307321429253, 0.15910260379314423, -0.03337128460407257, -0.00515497662127018, -0.09886675328016281, 0.014652859419584274, 0.18475253880023956, 0.11980152130126953, -0.1564822942018509, 0.08084358274936676, 0.13360802829265594, 0.09823310375213623, -0.024535108357667923, 6.904153997311369e-05, -0.07199383527040482, -0.06263579428195953, -0.27064335346221924, 0.1276550441980362, 0.15240684151649475, -0.02809688076376915, -0.004153782036155462, 0.006791741121560335, -0.030191846191883087, 0.16344498097896576, 0.10777170956134796, 0.08312463760375977, -0.10489930212497711, -0.2056875079870224, -0.0309507604688406, 0.20199601352214813, 0.0586809478700161, 0.2793780267238617, -0.1432144194841385, 0.05850880593061447, 0.07137084007263184, 0.19426822662353516, -0.00738578662276268, 0.21708346903324127, -0.18418395519256592, 0.11464131623506546, 0.16564539074897766, -0.2224736362695694, 0.009663005359470844, 0.19409172236919403, -0.07875440269708633, -0.043497923761606216, 0.06840255856513977, -0.19886921346187592, -0.28911444544792175, -0.7999861836433411, 0.016035383567214012, 0.268856942653656, 0.4562664330005646, -0.1885080337524414, -0.046892885118722916, -0.027043906971812248, 0.03713013231754303, -0.11459610611200333, -0.018412820994853973, 0.05568324401974678, 0.028984133154153824, -0.27283912897109985, -0.0925663560628891, -0.09907200932502747, 0.6658921837806702, 0.08461078256368637, 0.06883959472179413, -0.050074271857738495, 0.21506910026073456, 0.04775633290410042, 0.014256652444601059, 0.06197371706366539, -0.4064888060092926, 0.3270170986652374, -0.014177189208567142, -0.31090062856674194, -0.11749086529016495, -0.0645226538181305, -0.17171308398246765, -0.3863220810890198, 0.14654091000556946, -0.37389811873435974, 0.029545212164521217, -0.17056433856487274, 0.013537432998418808, -0.2148560881614685, 0.0636383444070816, -0.022155042737722397, -0.16568443179130554, 0.001124032074585557, -0.046332329511642456, 0.4841761291027069, 0.1779472529888153, -0.02783307060599327, -0.3561764359474182, 0.37292513251304626, -0.12859152257442474, -0.06299567967653275, 0.15248097479343414, 0.16633948683738708, 0.02259374037384987, -0.3059872090816498, 0.18046894669532776, 0.2623341679573059, 0.01294868253171444, -0.17724762856960297, -0.07987771928310394, -0.23449140787124634, 0.024280833080410957, -0.32664400339126587, -0.6068745851516724, -0.14315246045589447, -0.15837189555168152, -0.03750214725732803, -0.028335388749837875, 0.14903602004051208, 0.09698200225830078, -0.12313421070575714, -0.02752421796321869, 0.14818526804447174, -0.129760280251503, 0.12761561572551727, -0.5361294746398926, -0.1280108094215393, 0.0019180034287273884, 0.06103255972266197, -0.0743778645992279, -0.08250930905342102, -0.3459548354148865, -0.047045204788446426, -0.05486966297030449, 0.14922276139259338, 0.08525083214044571, 0.04503609985113144, -0.21387030184268951, 0.11200039088726044, 0.01580044999718666, -0.2590595781803131, 0.05603882670402527, -0.16150908172130585, -0.6568646430969238, 0.08086897432804108, 0.5597564578056335, 0.4568316638469696, 0.08590251207351685, 0.06013750284910202, -0.21328364312648773, -0.1424265205860138, -0.23471742868423462, -0.10706231743097305, 0.10139328241348267, 0.21505138278007507, -0.13847468793392181, -0.1437154859304428, -0.07971170544624329, 0.06969919800758362, -0.20316141843795776, 0.09061269462108612, 0.1508055478334427, -0.23060622811317444, -0.23513484001159668, 0.19028067588806152, -0.12391745299100876, -0.13022875785827637, -0.2028018832206726, -0.015426517464220524, -0.09555884450674057, -0.06767503172159195, 0.06605265289545059, 0.3216608464717865, 0.1414707750082016, -0.11682416498661041, -0.036931201815605164, 0.19183753430843353, 0.11945581436157227, 0.08199398219585419, -0.1716136634349823, -0.11191567033529282, -0.18794302642345428, 0.11788567155599594, 0.258732408285141, 0.03869754448533058, -0.16951154172420502, -0.04314285144209862, 0.08194573223590851, -0.30381888151168823, -0.09765017032623291, 0.141745924949646, 0.07468529045581818, 0.0656488910317421, 0.13593906164169312, -0.4949382245540619, -0.19524934887886047, -0.7733325958251953, 0.20433099567890167, 0.20731471478939056, 0.09956230968236923, -0.14128835499286652, -0.009536382742226124, -0.17554353177547455, 0.007690798491239548, -0.2558123469352722, 0.1499759405851364, 0.07574930787086487, -0.22336401045322418, -0.3088138997554779, -0.15153120458126068, -0.2490791529417038, 0.01570160500705242, -0.04166450724005699, -0.11610583961009979, -0.535272479057312, -0.06516967713832855, -0.3096494972705841, -0.17806266248226166, -0.008786245249211788, 0.029251882806420326, 0.491220086812973, 0.3939306139945984, -0.18719598650932312, -0.09106902778148651, 0.11569234728813171, 0.0704059898853302, -0.1985035389661789, -0.07483859360218048, -0.19542573392391205, -0.07768525928258896, 0.3200893700122833, 0.19453969597816467, -0.08623236417770386, -0.05483890324831009, 0.20723089575767517, -0.16489557921886444, -0.2111539989709854, -0.06534464657306671, -0.017420625314116478, -0.22340014576911926, -0.018705934286117554, -0.1587873101234436, 0.1533430814743042, 0.12967079877853394, 0.3860006630420685, -0.3076455593109131, -0.14728128910064697, -0.0035715787671506405, 0.2771618366241455, -0.20301996171474457, -0.023669524118304253, 0.02126949653029442, 0.10059277713298798, -0.10942786186933517, -0.11503704637289047, -0.010778479278087616, -0.15313157439231873, -0.07834281772375107, -0.045452579855918884, -0.0652395561337471, -0.02529214322566986, 0.0713450014591217, 0.09070631116628647, -0.0269631315022707, 0.11045069247484207, -0.1375129669904709, -0.25422146916389465, -0.039327651262283325, -0.01279444620013237, -0.10557659715414047, 0.34850144386291504, 0.04863721504807472, -0.20680317282676697, -0.061923615634441376, 0.1681402027606964, -0.2095278650522232, 0.34440675377845764, 0.045386094599962234, -0.22461187839508057, -0.024955423548817635, 0.06442595273256302, -0.10010256618261337, -0.28282439708709717, 0.1972046196460724, 0.08972567319869995, -0.21119926869869232, 0.07175374776124954, 0.04178362712264061, 0.0035145736765116453, 0.07680085301399231, -0.10336870700120926, -0.09475310891866684, 0.19959484040737152, 0.2875474691390991, 0.2891278862953186, -0.17733925580978394, -0.11739344149827957, 0.13655002415180206, 0.16295139491558075, -0.049647167325019836, -0.032725896686315536, -0.04447406902909279, 0.12153560668230057, -0.07097360491752625, 0.17594003677368164, -0.08758224546909332, 0.041660767048597336, 0.03071167692542076, 0.0795011818408966, -0.08446318656206131, 0.0020547944586724043, 0.15347611904144287, -0.15346196293830872, -0.08694292604923248, 0.12337278574705124, 0.005559931043535471, 0.24479292333126068, 0.4135032296180725, -0.16490013897418976, 0.012027502991259098, 0.09698078781366348, -0.1960044801235199, 0.20243851840496063, -0.06559383124113083, -0.09770316630601883, -0.04050365835428238, 0.09158667176961899, 0.13188152015209198, -0.016635684296488762, -0.1898569017648697, -0.0470634326338768, 0.14746560156345367, -0.1602710783481598, -0.009037399664521217, -0.12818340957164764, -0.09031667560338974, -0.07950064539909363, 0.1679222583770752, 0.2474767565727234, -0.11748150736093521, -0.5880383849143982, 0.04704675450921059, 0.10071573406457901, 0.019890381023287773, 0.10071178525686264, -0.01296314038336277, -0.21956020593643188, 0.13233910501003265, 0.07079014182090759, -0.019454965367913246, -0.09408228099346161, -0.15009130537509918, -0.3695908486843109, -0.039771340787410736, 0.10474392771720886, 0.24096661806106567, 0.12472440302371979, 0.12649744749069214, 0.05340854078531265, -0.06976383924484253, -0.13871806859970093, 0.08101984113454819, 0.08872074633836746, 0.09169015288352966, -0.19042159616947174, 0.11073701083660126, -0.14781352877616882, 0.07571250945329666, 0.09870510548353195, 0.16413092613220215, -0.2994825541973114, -0.01822749897837639, -0.17743225395679474, -0.008866184391081333, -0.08334087580442429, 0.17702312767505646, -0.19656191766262054, 0.1067533791065216, 0.16036342084407806, -0.16134148836135864, -0.021295715123414993, 0.16382712125778198, -0.10119293630123138, -0.12762518227100372, -0.03699435293674469, -0.05785582214593887, -0.014963923022150993, -0.08690228313207626, 0.05268889665603638, 0.2662377655506134, 0.3493466377258301, 0.06378968805074692, -0.21653980016708374, 0.10038812458515167, 0.02354285679757595, -0.017082825303077698, -0.22300992906093597, -0.1113932803273201, 0.23247821629047394, -0.15034624934196472, -0.23470135033130646, 0.45692533254623413, -0.11088685691356659, -0.2419329732656479, 0.17700068652629852, 0.061554890125989914, 0.035450901836156845, -0.17875270545482635, -0.10816918313503265, 0.004690827801823616, 0.17573855817317963, -0.13125240802764893, -0.3076038360595703, 0.25704172253608704, -0.29529502987861633, 0.08533614128828049, 0.2865396738052368, 0.23348622024059296, -0.10934445261955261, -0.034088678658008575, -0.08008704334497452, -0.17368541657924652, 0.26979976892471313, 0.21494457125663757, 0.17774343490600586, -0.2756994068622589, 0.3556506335735321, -0.0009725541458465159, -0.11999987810850143, 0.14926475286483765, -0.46468284726142883, -0.0015539855230599642, 0.1317416876554489, -0.0425240732729435, 0.10956402122974396, -0.06071947142481804, -0.0008972182986326516, -0.13382835686206818, 0.23128783702850342, 0.05249177664518356, -0.08678539842367172, 0.23629441857337952, -0.05432814732193947, -0.24377267062664032, -0.17463311553001404, -0.028714198619127274, 0.025884494185447693, 0.16134947538375854, -0.2812028229236603, -0.425527423620224, -0.026889618486166, -0.06858344376087189, 0.17026576399803162, -0.04684597998857498, 0.03517774119973183, -0.18487590551376343, -0.07870744913816452, 0.0977444276213646, 0.18760812282562256, -0.30070582032203674, -0.1425098180770874, -0.33834993839263916, -0.2484973818063736, 0.06560011953115463, 0.15766558051109314, -0.025813467800617218, -0.022410355508327484, -0.291656494140625, -0.316668838262558, -0.17964354157447815, 0.25066760182380676, 0.16012586653232574, 0.045524753630161285, -0.2647201120853424, 0.2915462553501129, 0.024728866294026375, -0.15855929255485535, 0.08143536746501923, 0.15900614857673645, 0.18242168426513672, 0.1259194165468216, 0.26793426275253296, -0.06229812279343605, 0.06783591210842133, 0.07693944126367569, 0.15859389305114746, -0.06558316200971603, 0.00189747114200145, -0.0038156784139573574, -0.20109617710113525, -0.06603597849607468, 0.22565858066082, 0.10306137800216675, 0.08010242134332657, -0.10737111419439316, 0.21526816487312317, -0.13927675783634186, -0.032722730189561844, 0.11828073114156723, 0.19982343912124634, 0.10163172334432602, -0.09908853471279144, 0.11451728641986847, 0.262651264667511, -0.009885285049676895, 0.09939764440059662, -0.10052226483821869, 0.0174958948045969, -0.22356021404266357, 0.03701624274253845, 0.058288950473070145, -0.054607540369033813, -0.07743298262357712, 0.04477754235267639, -0.17373540997505188, 0.31532472372055054, 0.13394372165203094, 0.005364572163671255, -0.08388916403055191, -0.04827003926038742, -0.14415083825588226, -0.011311112903058529, -0.13852514326572418, -0.179911270737648, 0.1933721899986267, -0.1417459100484848, -0.26003384590148926, 0.3516012728214264, -0.16474632918834686, -0.0382428877055645, 0.40365830063819885, -0.04183772951364517, 0.11247067153453827, 0.27787643671035767, -0.1801091581583023, -0.11684545874595642, -0.06174025684595108, -0.1106586754322052, -0.049935709685087204, 0.2491147816181183, -0.08054531365633011, -0.017640534788370132, -0.019806325435638428, -0.22412462532520294, -0.2797360122203827, 0.010742083191871643, 0.18084825575351715, -0.004004362970590591, -0.18606305122375488, 0.07313589006662369, -0.12014572322368622, 0.15210425853729248, 0.10061338543891907, 0.13704413175582886, -0.026276305317878723, -0.2256905436515808, -0.10834842175245285, 0.09471505880355835, -0.032206516712903976, 0.07848474383354187, -0.10455192625522614, -0.13065673410892487, -0.20089444518089294, 0.19281335175037384, 0.14269189536571503, -0.05747844651341438, -0.23674993216991425, -0.24892571568489075, -0.0761043056845665, 0.07620392739772797, -0.16352073848247528, 0.04977210611104965, 0.0895749107003212, -0.28545498847961426, 0.0853617712855339, -0.17906160652637482, -0.10113414376974106, 0.04717814549803734, 0.10642004758119583, 0.2418074607849121, 0.1679609715938568, -0.037505295127630234, -0.2932272255420685, -0.0573229156434536, 0.11624036729335785, -0.13000346720218658, 0.006455998867750168, -0.13183243572711945, 0.21227654814720154, 0.008133833296597004, 0.08310951292514801, 0.12556682527065277, -0.002543158596381545, -0.008863572031259537, -0.17007075250148773, -0.3319121301174164, 0.06629910320043564, 0.12964998185634613, 0.08932682871818542, -0.037188511341810226, -0.036667272448539734, 0.09364882856607437, -0.13624298572540283, 0.289516806602478, -0.0072382912039756775, -0.011609229259192944, -0.07130008935928345, -0.11972726881504059, 0.06141115725040436, -0.002380823250859976, 0.2753836214542389, -0.18273720145225525, 0.203815296292305, -0.2782369554042816, -0.07731953263282776, -0.19364716112613678, 0.10909078270196915, -0.03177322447299957, -0.12383916974067688, 0.1345844715833664, 0.1019001305103302, 0.2680899202823639, 0.039804715663194656, 0.1753445416688919, 0.20354428887367249, -0.20786982774734497, 0.18123063445091248, 0.08020078390836716, -0.07776419073343277, 0.09586729854345322, -0.1350160390138626, 0.34477391839027405, 0.08864971995353699, -0.1241123154759407, -0.3664105534553528, 0.08520794659852982, 0.13561229407787323, 0.046665407717227936, -0.0542837530374527, 0.10041240602731705, 0.14189453423023224, -0.0017071032198145986, 0.11112893372774124, 0.8293248414993286, 0.08298453688621521, 0.6343302726745605, -0.9457873106002808, -0.2348242700099945, 0.6748714447021484, 0.3045414686203003, -0.03471312299370766, 0.13694854080677032, 0.31506872177124023, -0.5670844912528992, 0.39476531744003296, 0.10201457142829895, -0.8450465798377991, 0.011051720008254051, -0.48124557733535767, -0.20380376279354095, -0.44241732358932495, -0.04791130870580673, -0.37301263213157654, 0.07351823151111603, 0.29099059104919434, -0.15060746669769287, -0.042444828897714615, -0.31558340787887573, 0.06954021751880646, -0.0666835606098175, 0.08524203300476074, -0.07014112919569016, 0.08022785931825638, -0.12411916255950928, -0.10708741098642349, -0.10086914896965027, -0.07966098934412003, 0.17421965301036835, -0.24012266099452972, -0.22918035089969635, 0.028191452845931053, 0.22339379787445068, -0.06276273727416992, -0.09476805478334427, -0.3677457869052887, -0.23483949899673462, 0.03319902718067169, -0.08782535046339035, 0.11989464610815048, 0.43807846307754517, 0.25085747241973877, -0.25039657950401306, 0.35035648941993713, -0.322550505399704, -0.34462279081344604, -0.10809795558452606, -0.4460550844669342, -0.14389050006866455, 0.2213037759065628, 0.32716497778892517, -0.2161249965429306, -0.22086697816848755, -0.6519096493721008, -0.14829908311367035, 0.20618830621242523, -0.10362180322408676, 0.13558684289455414, 0.12692898511886597, 0.18972168862819672, -0.022446686401963234, -0.07866156101226807, -0.13174837827682495, 0.29215574264526367, 0.11991678923368454, 0.07887737452983856, 0.029867609962821007, -0.3126700520515442, 0.004625454545021057, -0.247578963637352, 0.3432772159576416, -0.018047643825411797, 0.05539664626121521, -0.26294252276420593, 0.3028331696987152, -0.038089998066425323, 0.30786851048469543, 0.3991803526878357, 0.006740715820342302, 0.23289568722248077, 0.055200107395648956, -0.10564155131578445, 0.22737838327884674, 0.27364909648895264, 0.21614471077919006, 0.42701125144958496, -0.06204337999224663, -0.39369863271713257, -0.2439170479774475, -0.14845840632915497, -0.14041487872600555, -0.03184647485613823, 0.23922400176525116, 0.4544728696346283, -0.2690056264400482, 0.24520429968833923, 0.1677531599998474, -0.005506116896867752, 0.030947396531701088, 0.1381727159023285, -0.1468924582004547, 0.38677647709846497, 0.03057413548231125, -0.09373289346694946, -0.2459329217672348, 0.12800639867782593, -0.31841400265693665, -0.33125144243240356, -0.3565327525138855, -0.11099434643983841, -0.13845570385456085, -0.05392894148826599, 0.2635434865951538, 0.34636417031288147, -0.35119518637657166, -0.1458193063735962, 0.04696635156869888, 0.12070920318365097, -0.2228020876646042, 0.07893884927034378, 0.023748107254505157, -0.5676700472831726, -0.05062585324048996, 0.21066789329051971, -0.21511638164520264, -0.03788410499691963, 0.20284508168697357, 0.0932210385799408, 0.006323556415736675, 0.22303469479084015, 0.4252415597438812, 0.09560977667570114, -0.05172696337103844, -0.04414631798863411, -0.014231089502573013, -0.028013134375214577, 0.06826051324605942, 0.14512531459331512, -0.31483760476112366, 0.2689129412174225, -0.47983795404434204, -0.21869586408138275, -0.13536912202835083, -0.09702875465154648, -0.29061633348464966, -0.540605366230011, 0.1507699191570282, -0.35069939494132996, -0.016370078548789024, -0.6451069712638855, -0.12761151790618896, 0.37422916293144226, 0.1699010133743286, 0.11062511056661606, -0.004749154206365347, 0.13467568159103394, 0.18397559225559235, 0.09194827824831009, -0.12883108854293823, 0.243031308054924, -0.20936839282512665, 0.29417404532432556, -0.24935193359851837, 0.12540842592716217, 0.16648811101913452, 0.19102796912193298, 0.40460795164108276, -0.3298109471797943, 0.24921885132789612, -0.2640116214752197, -0.393860787153244, 0.23241180181503296, -0.43095582723617554, -0.22282905876636505, -0.16597555577754974, 0.1424645036458969, -0.03197982907295227, -0.13405461609363556, 0.32808125019073486, 0.009529138915240765, -0.21253719925880432, -0.29005032777786255, -0.451710045337677, 0.20704831182956696, 0.2722891569137573, -0.014057965017855167, 0.11881399154663086, 0.0868057906627655, -0.27455785870552063, -0.09107962250709534, -0.018702713772654533, -0.0542130321264267, 0.09512496739625931, 0.0782608613371849, -0.21781134605407715, 0.18348431587219238, 0.20312781631946564, 0.4856815040111542, -0.20584720373153687, 0.10759227722883224, -0.3778879940509796, -0.104851633310318, -0.34810125827789307, 0.1399955451488495, -0.0051537174731493, -0.07353881001472473, -0.09523152559995651, 0.12833012640476227, -0.48328080773353577, -0.056187715381383896, 0.19368602335453033, 0.18123145401477814, -0.286772221326828, -0.3825357258319855, -0.7339469790458679, 0.3837655484676361, 0.12092151492834091, -0.29508543014526367, -0.050527021288871765, 0.4067256450653076, -0.10263105481863022, 0.04940595477819443, 0.08454635739326477, 0.054793693125247955, -0.19296057522296906, 0.1436973512172699, 0.14301763474941254, -0.08428386598825455, 0.09400773793458939, -0.8499388694763184, -0.4663153290748596, 0.09233090281486511, 0.13330741226673126, -0.19351699948310852, 0.267980694770813, 0.018913179636001587, 0.07908117026090622, 0.3155330419540405, -0.23076710104942322, -0.19394461810588837, 0.10385897010564804, 0.07211564481258392, -0.150590717792511, 0.13117480278015137, -0.15134862065315247, 0.029658593237400055, 0.08419086784124374, -0.052382614463567734, 0.20053525269031525, 0.09429993480443954, 0.08896481245756149, 0.18690131604671478, -0.6372330784797668, -0.4032441973686218, -0.06832174956798553, -0.11319637298583984, 0.009326031431555748, -0.21785354614257812, -0.0723109096288681, 0.08705352991819382, -0.023334631696343422, 0.05965434014797211, 0.062473952770233154, 0.12880942225456238, 0.03615991026163101, 0.012256711721420288, -0.20707102119922638, 0.1986561417579651, 0.1560795158147812, -0.034059543162584305, -0.003300862619653344, 0.04080633074045181, 0.11259060353040695, 0.16639409959316254, -0.39163723587989807, 0.2209213376045227, 0.023435521870851517, 0.06650858372449875, -0.06358164548873901, -0.2185216248035431, 0.22882869839668274, -0.3222936689853668, -0.04257361218333244, -0.08185230195522308, -0.6391218304634094, 0.10887794196605682, 0.18540482223033905, -0.029296433553099632, 0.19602763652801514, 0.3525780439376831, -0.1574891209602356, -0.23492096364498138, 0.00146363431122154, 0.07597558200359344, -0.1194288358092308, 0.08273662626743317, -0.11706869304180145, 0.11801109462976456, -0.21946731209754944, 0.3450164496898651, 0.02876175194978714, 0.008960441686213017, -0.18770933151245117, 0.2225419580936432, 0.17751674354076385, -0.07535825669765472, 0.07713288068771362, 0.03973842412233353, -0.0897386372089386, 0.058965519070625305, -0.06198262795805931, 0.07218535989522934, 0.11269038170576096, 0.050650227814912796, -0.6559578776359558, -0.028428437188267708, -0.014248129911720753, -0.20705728232860565, 0.0472957119345665, 0.08711018413305283, -0.28384068608283997, -0.05427050217986107, 0.03276367112994194, -0.13945040106773376, 0.008506939746439457, 0.10834038257598877, 0.20993749797344208, -0.06703981757164001, -0.010702576488256454, -0.21328440308570862, 0.05774126574397087, 0.1393970549106598, 0.36496567726135254, -0.007218499202281237, -0.05313969403505325, 0.03700697049498558, -0.18977142870426178, -0.15561087429523468, 0.11107773333787918, -0.1839533895254135, 0.14180585741996765, -0.054633788764476776, 0.1185852512717247, -0.008270985446870327, -0.17071117460727692, -0.03627757728099823, 0.013996846973896027, -0.0633319765329361, -0.06041344627737999, 0.15883296728134155, 0.186106875538826, -0.0984661653637886, 0.03462905064225197, -0.08533600717782974, -0.11295198649168015, 0.06516488641500473, 0.21372976899147034, 0.03868163004517555, 0.15147924423217773, -0.024855485185980797, -0.03182436525821686, -0.19709940254688263, 0.19243067502975464, -0.128526970744133, 0.013859564438462257, -0.05695449933409691, 0.015378831885755062, -0.14616407454013824, 0.13825911283493042, -0.02164416015148163, -0.2146877944469452, 0.0766967311501503, 0.07695223391056061, -0.10330025851726532, -0.06467357277870178, 0.0035741657484322786, -0.09223155677318573, 0.0289385337382555, -0.17304961383342743, -0.28591370582580566, 0.34696489572525024, -0.004286185372620821, 0.24762052297592163, -0.06339262425899506, -0.06640175729990005, -0.004613995086401701, -0.1482776552438736, 0.09035840630531311, 0.09923587739467621, -0.11439326405525208, -0.21209141612052917, -0.2523626387119293, 0.02863764949142933, 0.051128193736076355, 0.0540790893137455, 0.16413220763206482, -0.01690826751291752, 0.17287345230579376, 0.12824079394340515, -0.13492058217525482, -0.15849348902702332, -0.1709613800048828, 0.16904781758785248, 0.03250107914209366, -0.2571699321269989, 0.11621125042438507, -0.16193312406539917, 0.21661882102489471, 0.1971704363822937, 0.22786493599414825, -0.06599877029657364, 0.039663851261138916, 0.1478976309299469, 0.20664678514003754, -0.0688653290271759, 0.06123122572898865, 0.03602487966418266, 0.04833722114562988, 0.18319445848464966, -0.06209047883749008, -0.03997928649187088, 0.2670418918132782, 0.05182899534702301, -0.0683969259262085, -0.0373670794069767, 0.16347374022006989, -0.06153210997581482, -0.13025937974452972, 0.02750653773546219, -0.05059279873967171, 0.1560942828655243, -0.08622998744249344, 0.059599459171295166, 0.23723532259464264, -0.2068076729774475, 0.14660678803920746, -0.20768997073173523, 0.14593708515167236, -0.01954543963074684, 0.02520108036696911, 0.2379511296749115, 0.09553109109401703, 0.007416169159114361, 0.4962671995162964, 0.12512336671352386, 0.06129686161875725, 0.17168954014778137, 0.09985607117414474, -0.04388239234685898, -0.15169791877269745, 0.08150999248027802, 0.07166352868080139, -0.1116572692990303, -0.1006769984960556, -0.03980233892798424, 0.14840087294578552, 0.06487349420785904, 0.24951331317424774, -0.19318459928035736, -0.027129901573061943, -0.07167471200227737, 0.08641677349805832, -0.017822865396738052, 0.13582932949066162, -0.21628612279891968, -0.0927446186542511, 0.20862127840518951, -0.3320637345314026, 0.0708315372467041, 0.2348773032426834, 0.16772985458374023, -0.016923438757658005, 0.05088436231017113, -0.08402621001005173, -0.06098800152540207, 0.019579993560910225, 0.008943435736000538, 0.03044883720576763, -0.15982961654663086, 0.11327853798866272, 0.13423240184783936, 0.2641511857509613, 0.1071033924818039, -0.07739268988370895, 0.06376476585865021, 0.02417881414294243, -0.0754673182964325, 0.10947608947753906, 0.18088364601135254, 0.04580334946513176, 0.07384094595909119, -0.16021856665611267, -3.7859997974010184e-05, -0.046158090233802795, -0.07103905081748962, 0.07539234310388565, -0.03544936701655388, 0.05194655433297157, 0.2375773787498474, 0.10698862373828888, 0.13310466706752777, 0.03740108758211136, 0.07073917239904404, 0.26348602771759033, -0.004971303045749664, -0.02502462826669216, -0.22748443484306335, 0.007393628358840942, -0.1076831966638565, -0.04801429808139801, -0.10657043009996414, 0.11268866062164307, 0.07396763563156128, -0.01816432923078537, 0.01782544143497944, -0.024622781202197075, -0.20274142920970917, -0.02525007724761963, 0.1628892421722412, 0.006279058754444122, 0.08322279900312424, 0.23921272158622742, -0.07531547546386719, 0.20746669173240662, -0.020100461319088936, -0.09725900739431381, 0.0021225230302661657, 0.046640172600746155, 0.033895403146743774, -0.048205915838479996, -0.0014472381444647908, 0.03346594423055649, 0.14664842188358307, -0.06377148628234863, -0.08104502409696579, 0.07378040254116058, 0.020904093980789185, -0.07240639626979828, -0.030798939988017082, -0.08494798094034195, -0.04266994446516037, -0.03226134926080704, 0.07595925778150558, -0.012351536191999912, 0.09629231691360474, -0.009576206095516682, -0.08786352723836899, -0.21550652384757996, -0.008936181664466858, 0.12566785514354706, 0.19128216803073883, -0.16665570437908173, 0.03160703182220459, -0.01762893795967102, 0.03134302422404289, -0.032229553908109665, 0.15854240953922272, -0.06021752581000328, 0.05340440943837166, -0.06271146982908249, -0.15268047153949738, -0.20071260631084442, -0.15121504664421082, 0.03860541060566902, -0.008649102412164211, -0.00839138962328434, 0.04309344291687012, 0.1547219157218933, 0.018534673377871513, -0.09650610387325287, 0.04801362752914429, 0.12810082733631134, 0.101674884557724, 0.02237165905535221, -0.14168962836265564, -0.14683298766613007, -0.20022691786289215, -0.217214897274971, 0.20149096846580505, -0.07037793844938278, 0.054001081734895706, -0.026315055787563324, 0.098801389336586, 0.15739990770816803, -0.3236255347728729, 0.05819691717624664, 0.15094900131225586, -0.0924723818898201, 0.13378672301769257, 0.21725153923034668, 0.1488618105649948, -0.12175749242305756, -0.03629964962601662, -0.035763081163167953, -0.165307879447937, -0.11016122996807098, 0.31396570801734924, 0.11005145311355591, 0.2026907354593277, -0.17873181402683258, -0.1859961599111557, 0.02212030068039894, 0.17443928122520447, 0.0431642159819603, 0.03308015689253807, 0.012269111350178719, -0.0713736042380333, 0.06944030523300171, 0.27280193567276, 0.002086515072733164, -0.014672401361167431, 0.21976763010025024, -0.14480653405189514, -0.11315616965293884, 